FANN_FLO_2.1
num_layers=3
learning_rate=0.700000
connection_rate=1.000000
network_type=0
learning_momentum=0.000000
training_algorithm=3
train_error_function=1
train_stop_function=1
cascade_output_change_fraction=0.010000
quickprop_decay=-0.000100
quickprop_mu=1.750000
rprop_increase_factor=1.200000
rprop_decrease_factor=0.500000
rprop_delta_min=0.000000
rprop_delta_max=50.000000
rprop_delta_zero=0.100000
cascade_output_stagnation_epochs=12
cascade_candidate_change_fraction=0.010000
cascade_candidate_stagnation_epochs=12
cascade_max_out_epochs=150
cascade_min_out_epochs=50
cascade_max_cand_epochs=150
cascade_min_cand_epochs=50
cascade_num_candidate_groups=2
bit_fail_limit=9.99999977648258209229e-03
cascade_candidate_limit=1.00000000000000000000e+03
cascade_weight_multiplier=4.00000005960464477539e-01
cascade_activation_functions_count=10
cascade_activation_functions=3 5 7 8 10 11 14 15 16 17 
cascade_activation_steepnesses_count=4
cascade_activation_steepnesses=2.50000000000000000000e-01 5.00000000000000000000e-01 7.50000000000000000000e-01 1.00000000000000000000e+00 
layer_sizes=101 101 5 
scale_included=0
neurons (num_inputs, activation_function, activation_steepness)=(0, 0, 0.00000000000000000000e+00) (0, 0, 0.00000000000000000000e+00) (0, 0, 0.00000000000000000000e+00) (0, 0, 0.00000000000000000000e+00) (0, 0, 0.00000000000000000000e+00) (0, 0, 0.00000000000000000000e+00) (0, 0, 0.00000000000000000000e+00) (0, 0, 0.00000000000000000000e+00) (0, 0, 0.00000000000000000000e+00) (0, 0, 0.00000000000000000000e+00) (0, 0, 0.00000000000000000000e+00) (0, 0, 0.00000000000000000000e+00) (0, 0, 0.00000000000000000000e+00) (0, 0, 0.00000000000000000000e+00) (0, 0, 0.00000000000000000000e+00) (0, 0, 0.00000000000000000000e+00) (0, 0, 0.00000000000000000000e+00) (0, 0, 0.00000000000000000000e+00) (0, 0, 0.00000000000000000000e+00) (0, 0, 0.00000000000000000000e+00) (0, 0, 0.00000000000000000000e+00) (0, 0, 0.00000000000000000000e+00) (0, 0, 0.00000000000000000000e+00) (0, 0, 0.00000000000000000000e+00) (0, 0, 0.00000000000000000000e+00) (0, 0, 0.00000000000000000000e+00) (0, 0, 0.00000000000000000000e+00) (0, 0, 0.00000000000000000000e+00) (0, 0, 0.00000000000000000000e+00) (0, 0, 0.00000000000000000000e+00) (0, 0, 0.00000000000000000000e+00) (0, 0, 0.00000000000000000000e+00) (0, 0, 0.00000000000000000000e+00) (0, 0, 0.00000000000000000000e+00) (0, 0, 0.00000000000000000000e+00) (0, 0, 0.00000000000000000000e+00) (0, 0, 0.00000000000000000000e+00) (0, 0, 0.00000000000000000000e+00) (0, 0, 0.00000000000000000000e+00) (0, 0, 0.00000000000000000000e+00) (0, 0, 0.00000000000000000000e+00) (0, 0, 0.00000000000000000000e+00) (0, 0, 0.00000000000000000000e+00) (0, 0, 0.00000000000000000000e+00) (0, 0, 0.00000000000000000000e+00) (0, 0, 0.00000000000000000000e+00) (0, 0, 0.00000000000000000000e+00) (0, 0, 0.00000000000000000000e+00) (0, 0, 0.00000000000000000000e+00) (0, 0, 0.00000000000000000000e+00) (0, 0, 0.00000000000000000000e+00) (0, 0, 0.00000000000000000000e+00) (0, 0, 0.00000000000000000000e+00) (0, 0, 0.00000000000000000000e+00) (0, 0, 0.00000000000000000000e+00) (0, 0, 0.00000000000000000000e+00) (0, 0, 0.00000000000000000000e+00) (0, 0, 0.00000000000000000000e+00) (0, 0, 0.00000000000000000000e+00) (0, 0, 0.00000000000000000000e+00) (0, 0, 0.00000000000000000000e+00) (0, 0, 0.00000000000000000000e+00) (0, 0, 0.00000000000000000000e+00) (0, 0, 0.00000000000000000000e+00) (0, 0, 0.00000000000000000000e+00) (0, 0, 0.00000000000000000000e+00) (0, 0, 0.00000000000000000000e+00) (0, 0, 0.00000000000000000000e+00) (0, 0, 0.00000000000000000000e+00) (0, 0, 0.00000000000000000000e+00) (0, 0, 0.00000000000000000000e+00) (0, 0, 0.00000000000000000000e+00) (0, 0, 0.00000000000000000000e+00) (0, 0, 0.00000000000000000000e+00) (0, 0, 0.00000000000000000000e+00) (0, 0, 0.00000000000000000000e+00) (0, 0, 0.00000000000000000000e+00) (0, 0, 0.00000000000000000000e+00) (0, 0, 0.00000000000000000000e+00) (0, 0, 0.00000000000000000000e+00) (0, 0, 0.00000000000000000000e+00) (0, 0, 0.00000000000000000000e+00) (0, 0, 0.00000000000000000000e+00) (0, 0, 0.00000000000000000000e+00) (0, 0, 0.00000000000000000000e+00) (0, 0, 0.00000000000000000000e+00) (0, 0, 0.00000000000000000000e+00) (0, 0, 0.00000000000000000000e+00) (0, 0, 0.00000000000000000000e+00) (0, 0, 0.00000000000000000000e+00) (0, 0, 0.00000000000000000000e+00) (0, 0, 0.00000000000000000000e+00) (0, 0, 0.00000000000000000000e+00) (0, 0, 0.00000000000000000000e+00) (0, 0, 0.00000000000000000000e+00) (0, 0, 0.00000000000000000000e+00) (0, 0, 0.00000000000000000000e+00) (0, 0, 0.00000000000000000000e+00) (0, 0, 0.00000000000000000000e+00) (0, 0, 0.00000000000000000000e+00) (0, 0, 0.00000000000000000000e+00) (101, 3, 1.00000000000000000000e+00) (101, 3, 1.00000000000000000000e+00) (101, 3, 1.00000000000000000000e+00) (101, 3, 1.00000000000000000000e+00) (101, 3, 1.00000000000000000000e+00) (101, 3, 1.00000000000000000000e+00) (101, 3, 1.00000000000000000000e+00) (101, 3, 1.00000000000000000000e+00) (101, 3, 1.00000000000000000000e+00) (101, 3, 1.00000000000000000000e+00) (101, 3, 1.00000000000000000000e+00) (101, 3, 1.00000000000000000000e+00) (101, 3, 1.00000000000000000000e+00) (101, 3, 1.00000000000000000000e+00) (101, 3, 1.00000000000000000000e+00) (101, 3, 1.00000000000000000000e+00) (101, 3, 1.00000000000000000000e+00) (101, 3, 1.00000000000000000000e+00) (101, 3, 1.00000000000000000000e+00) (101, 3, 1.00000000000000000000e+00) (101, 3, 1.00000000000000000000e+00) (101, 3, 1.00000000000000000000e+00) (101, 3, 1.00000000000000000000e+00) (101, 3, 1.00000000000000000000e+00) (101, 3, 1.00000000000000000000e+00) (101, 3, 1.00000000000000000000e+00) (101, 3, 1.00000000000000000000e+00) (101, 3, 1.00000000000000000000e+00) (101, 3, 1.00000000000000000000e+00) (101, 3, 1.00000000000000000000e+00) (101, 3, 1.00000000000000000000e+00) (101, 3, 1.00000000000000000000e+00) (101, 3, 1.00000000000000000000e+00) (101, 3, 1.00000000000000000000e+00) (101, 3, 1.00000000000000000000e+00) (101, 3, 1.00000000000000000000e+00) (101, 3, 1.00000000000000000000e+00) (101, 3, 1.00000000000000000000e+00) (101, 3, 1.00000000000000000000e+00) (101, 3, 1.00000000000000000000e+00) (101, 3, 1.00000000000000000000e+00) (101, 3, 1.00000000000000000000e+00) (101, 3, 1.00000000000000000000e+00) (101, 3, 1.00000000000000000000e+00) (101, 3, 1.00000000000000000000e+00) (101, 3, 1.00000000000000000000e+00) (101, 3, 1.00000000000000000000e+00) (101, 3, 1.00000000000000000000e+00) (101, 3, 1.00000000000000000000e+00) (101, 3, 1.00000000000000000000e+00) (101, 3, 1.00000000000000000000e+00) (101, 3, 1.00000000000000000000e+00) (101, 3, 1.00000000000000000000e+00) (101, 3, 1.00000000000000000000e+00) (101, 3, 1.00000000000000000000e+00) (101, 3, 1.00000000000000000000e+00) (101, 3, 1.00000000000000000000e+00) (101, 3, 1.00000000000000000000e+00) (101, 3, 1.00000000000000000000e+00) (101, 3, 1.00000000000000000000e+00) (101, 3, 1.00000000000000000000e+00) (101, 3, 1.00000000000000000000e+00) (101, 3, 1.00000000000000000000e+00) (101, 3, 1.00000000000000000000e+00) (101, 3, 1.00000000000000000000e+00) (101, 3, 1.00000000000000000000e+00) (101, 3, 1.00000000000000000000e+00) (101, 3, 1.00000000000000000000e+00) (101, 3, 1.00000000000000000000e+00) (101, 3, 1.00000000000000000000e+00) (101, 3, 1.00000000000000000000e+00) (101, 3, 1.00000000000000000000e+00) (101, 3, 1.00000000000000000000e+00) (101, 3, 1.00000000000000000000e+00) (101, 3, 1.00000000000000000000e+00) (101, 3, 1.00000000000000000000e+00) (101, 3, 1.00000000000000000000e+00) (101, 3, 1.00000000000000000000e+00) (101, 3, 1.00000000000000000000e+00) (101, 3, 1.00000000000000000000e+00) (101, 3, 1.00000000000000000000e+00) (101, 3, 1.00000000000000000000e+00) (101, 3, 1.00000000000000000000e+00) (101, 3, 1.00000000000000000000e+00) (101, 3, 1.00000000000000000000e+00) (101, 3, 1.00000000000000000000e+00) (101, 3, 1.00000000000000000000e+00) (101, 3, 1.00000000000000000000e+00) (101, 3, 1.00000000000000000000e+00) (101, 3, 1.00000000000000000000e+00) (101, 3, 1.00000000000000000000e+00) (101, 3, 1.00000000000000000000e+00) (101, 3, 1.00000000000000000000e+00) (101, 3, 1.00000000000000000000e+00) (101, 3, 1.00000000000000000000e+00) (101, 3, 1.00000000000000000000e+00) (101, 3, 1.00000000000000000000e+00) (101, 3, 1.00000000000000000000e+00) (101, 3, 1.00000000000000000000e+00) (101, 3, 1.00000000000000000000e+00) (0, 3, 1.00000000000000000000e+00) (101, 3, 1.00000000000000000000e+00) (101, 3, 1.00000000000000000000e+00) (101, 3, 1.00000000000000000000e+00) (101, 3, 1.00000000000000000000e+00) (0, 3, 1.00000000000000000000e+00) 
connections (connected_to_neuron, weight)=(0, 1.58974111080169677734e-01) (1, -1.71944171190261840820e-01) (2, -6.08951747417449951172e-02) (3, -1.40957146883010864258e-01) (4, -6.23227953910827636719e-02) (5, 9.76369949057698249817e-04) (6, -3.48893761634826660156e-01) (7, 1.56454086303710937500e-01) (8, 1.53885796666145324707e-01) (9, 5.35658281296491622925e-03) (10, -3.43060761690139770508e-01) (11, 1.30449861288070678711e-01) (12, -3.14240576699376106262e-03) (13, -1.52517884969711303711e-01) (14, 9.38358679413795471191e-02) (15, 8.15953314304351806641e-02) (16, -2.07862313836812973022e-02) (17, 1.30811467766761779785e-01) (18, 2.61616501957178115845e-02) (19, -1.03906638920307159424e-01) (20, -4.89365577697753906250e-01) (21, -2.91558802127838134766e-01) (22, 2.84794140607118606567e-02) (23, -1.24402150511741638184e-01) (24, 8.44748020172119140625e-02) (25, -2.83209308981895446777e-02) (26, -1.41841722652316093445e-02) (27, -7.31707084923982620239e-03) (28, -2.70749568939208984375e-01) (29, -1.25908643007278442383e-01) (30, 7.42521733045578002930e-02) (31, -2.71113336086273193359e-01) (32, 1.44715458154678344727e-01) (33, -2.84216552972793579102e-01) (34, 4.40680198371410369873e-02) (35, 1.54202595353126525879e-01) (36, -3.62033158540725708008e-01) (37, -2.31954649090766906738e-01) (38, 1.11362218856811523438e-01) (39, 8.27521027531474828720e-04) (40, -1.12870112061500549316e-01) (41, 9.71682593226432800293e-02) (42, -3.69877479970455169678e-02) (43, 8.20419006049633026123e-03) (44, -6.61397352814674377441e-02) (45, -1.85269955545663833618e-02) (46, -6.74305915832519531250e-01) (47, 7.19161517918109893799e-03) (48, 1.27993807196617126465e-01) (49, 7.65383616089820861816e-02) (50, -1.26796692609786987305e-01) (51, 2.73115467280149459839e-02) (52, 1.49573013186454772949e-01) (53, -3.10584068298339843750e-01) (54, -3.64406406879425048828e-02) (55, 9.88153647631406784058e-03) (56, -1.65518783032894134521e-02) (57, -2.58539021015167236328e-01) (58, 1.31013602018356323242e-01) (59, -8.86027410160750150681e-04) (60, 1.28729179501533508301e-01) (61, 1.12708590924739837646e-01) (62, -4.79117006063461303711e-01) (63, -2.88310535252094268799e-02) (64, -3.16212236881256103516e-01) (65, -2.46091201901435852051e-01) (66, 1.15622663870453834534e-02) (67, -8.28626826405525207520e-02) (68, -5.29516600072383880615e-02) (69, -6.41785189509391784668e-02) (70, 1.14202409982681274414e-01) (71, -1.47155970335006713867e-01) (72, -1.17668077349662780762e-01) (73, -7.41403549909591674805e-02) (74, 6.33375644683837890625e-02) (75, -1.95032000541687011719e-01) (76, 2.18815673142671585083e-02) (77, 8.49967300891876220703e-02) (78, 1.77623424679040908813e-02) (79, 4.50196675956249237061e-02) (80, 3.46019789576530456543e-02) (81, -5.51205985248088836670e-02) (82, 3.03563550114631652832e-02) (83, -5.43170236051082611084e-02) (84, -1.23406760394573211670e-02) (85, -6.08755536377429962158e-02) (86, -1.21266935020685195923e-02) (87, 4.71707656979560852051e-02) (88, 9.14564635604619979858e-03) (89, 1.05734951794147491455e-01) (90, -7.65175074338912963867e-02) (91, -5.21417297422885894775e-02) (92, 1.10735697671771049500e-02) (93, -8.01114961504936218262e-02) (94, -4.62107826024293899536e-03) (95, 2.20321174710988998413e-02) (96, -2.56167382001876831055e-01) (97, 5.95445279031991958618e-03) (98, -7.86513015627861022949e-02) (99, 3.40160615742206573486e-02) (100, -1.32127165794372558594e-01) (0, -3.34323085844516754150e-02) (1, -6.72890767455101013184e-02) (2, 2.38493323326110839844e-01) (3, -1.14109300076961517334e-01) (4, -9.66832563281059265137e-02) (5, -8.87318998575210571289e-02) (6, -3.83749883621931076050e-03) (7, -5.14143034815788269043e-02) (8, -1.19667328894138336182e-01) (9, -2.06716731190681457520e-03) (10, 5.70022687315940856934e-02) (11, 1.85225442051887512207e-01) (12, 6.84917867183685302734e-02) (13, -2.09227532148361206055e-01) (14, -1.48873984813690185547e-01) (15, 2.59440481662750244141e-01) (16, 4.11862470209598541260e-02) (17, -1.14504508674144744873e-01) (18, -9.05694663524627685547e-02) (19, 3.51556725800037384033e-02) (20, -9.33465659618377685547e-02) (21, -1.61443203687667846680e-01) (22, -3.23038408532738685608e-03) (23, -6.46477788686752319336e-02) (24, -1.08187682926654815674e-02) (25, -1.66094884276390075684e-01) (26, -1.89456894993782043457e-01) (27, 4.14379499852657318115e-02) (28, -1.50535970926284790039e-01) (29, -6.83959499001502990723e-02) (30, 1.14532411098480224609e-01) (31, -1.05966299772262573242e-01) (32, -1.13076148554682731628e-02) (33, -2.44881719350814819336e-01) (34, -1.27630770206451416016e-01) (35, -1.05294413864612579346e-01) (36, -1.71893119812011718750e-01) (37, -1.43585845828056335449e-01) (38, 7.75841251015663146973e-02) (39, -3.45306247472763061523e-02) (40, -5.89548386633396148682e-02) (41, 2.60202568024396896362e-02) (42, 1.61972850561141967773e-01) (43, 1.58639848232269287109e-02) (44, 5.48202507197856903076e-02) (45, 4.23398949205875396729e-02) (46, -1.96206107735633850098e-01) (47, 8.73489230871200561523e-02) (48, 1.07662685215473175049e-01) (49, 6.32505044341087341309e-02) (50, -1.45165488123893737793e-01) (51, -2.15142685920000076294e-02) (52, -1.04010380804538726807e-01) (53, 1.72108799219131469727e-01) (54, -8.26557800173759460449e-02) (55, 4.75854575634002685547e-02) (56, 8.93928259611129760742e-02) (57, 1.26652130857110023499e-02) (58, 3.55789065361022949219e-02) (59, -5.90724423527717590332e-02) (60, -1.94101575762033462524e-02) (61, -1.18291117250919342041e-01) (62, -1.32941110059618949890e-02) (63, 1.10931366682052612305e-01) (64, -1.28742858767509460449e-01) (65, -7.05739781260490417480e-02) (66, 9.03593450784683227539e-02) (67, -9.95889827609062194824e-02) (68, -9.57255903631448745728e-03) (69, -2.72022783756256103516e-02) (70, -1.93953365087509155273e-01) (71, 1.56758144497871398926e-01) (72, -9.76120233535766601562e-02) (73, 4.35025580227375030518e-02) (74, 9.94631126523017883301e-02) (75, -2.33251880854368209839e-02) (76, -1.21691577136516571045e-01) (77, 5.58617822825908660889e-02) (78, -2.88062002509832382202e-02) (79, 1.40057384967803955078e-01) (80, -2.57060267031192779541e-02) (81, 1.48320779204368591309e-01) (82, -1.39427240937948226929e-02) (83, -4.31583970785140991211e-02) (84, 1.20989941060543060303e-01) (85, -2.46340513229370117188e-01) (86, 7.33487531542778015137e-02) (87, 2.92885713279247283936e-02) (88, -1.11221693456172943115e-01) (89, -1.24396212399005889893e-01) (90, -7.63771906495094299316e-02) (91, -7.88293257355690002441e-02) (92, 9.62334498763084411621e-02) (93, 4.97030504047870635986e-02) (94, -1.54165476560592651367e-01) (95, -9.57500487565994262695e-02) (96, 6.72117769718170166016e-02) (97, 1.96002379059791564941e-01) (98, -2.26064756512641906738e-01) (99, -1.70233810786157846451e-03) (100, 7.10641071200370788574e-02) (0, 4.47912365198135375977e-02) (1, -2.10936486721038818359e-01) (2, -8.27191397547721862793e-02) (3, -2.72060297429561614990e-02) (4, 4.24473397433757781982e-02) (5, -1.68955270200967788696e-02) (6, -4.77487891912460327148e-02) (7, 1.09171181917190551758e-01) (8, -4.50797239318490028381e-03) (9, 6.10429085791110992432e-02) (10, -5.31095527112483978271e-02) (11, 1.28603100776672363281e-01) (12, -2.11641304194927215576e-02) (13, -9.12216082215309143066e-02) (14, -1.54308170080184936523e-01) (15, 4.91693206131458282471e-02) (16, -6.55879601836204528809e-02) (17, 2.42419308051466941833e-03) (18, 1.54117196798324584961e-01) (19, -1.62232145667076110840e-01) (20, 2.79885735362768173218e-02) (21, -1.80759355425834655762e-01) (22, -1.88642833381891250610e-02) (23, -2.06478580832481384277e-01) (24, -7.80937494710087776184e-03) (25, 1.04491626843810081482e-02) (26, 1.30293639376759529114e-02) (27, 1.04142047464847564697e-01) (28, -6.25703930854797363281e-02) (29, -1.12519972026348114014e-01) (30, 1.95150114595890045166e-02) (31, -1.27019718289375305176e-01) (32, 5.64902611076831817627e-02) (33, -3.10432855039834976196e-02) (34, 1.50430500507354736328e-02) (35, -8.30133184790611267090e-02) (36, -2.11562618613243103027e-01) (37, -1.86040066182613372803e-02) (38, -5.42935766279697418213e-02) (39, 1.31124109029769897461e-01) (40, -1.45244553685188293457e-01) (41, -1.55708380043506622314e-02) (42, 7.62309283018112182617e-02) (43, -1.24338477849960327148e-01) (44, -1.49920315016061067581e-03) (45, -1.20776100084185600281e-02) (46, -2.16849863529205322266e-01) (47, -4.76139672100543975830e-02) (48, 3.16334366798400878906e-02) (49, -5.79441823065280914307e-02) (50, -9.45330634713172912598e-02) (51, -5.31921908259391784668e-02) (52, 1.14711336791515350342e-01) (53, 4.67262454330921173096e-02) (54, 1.25290062278509140015e-02) (55, 8.68110172450542449951e-03) (56, -1.00948467850685119629e-01) (57, 5.88871585205197334290e-03) (58, 3.37018668651580810547e-02) (59, -1.33441999554634094238e-01) (60, -1.83758549392223358154e-02) (61, 3.38354371488094329834e-02) (62, 7.33213350176811218262e-02) (63, -2.00741142034530639648e-02) (64, -6.80441036820411682129e-02) (65, -8.52064192295074462891e-02) (66, -8.91119837760925292969e-02) (67, -4.18842509388923645020e-02) (68, -2.40235161036252975464e-02) (69, 8.40755365788936614990e-03) (70, 5.00211976468563079834e-02) (71, -3.14119830727577209473e-02) (72, -3.85437794029712677002e-02) (73, -1.31496757268905639648e-01) (74, -2.53527196036884561181e-05) (75, 3.34129408001899719238e-02) (76, 9.34415459632873535156e-02) (77, 1.20689362287521362305e-01) (78, 1.08919650316238403320e-01) (79, -2.94403340667486190796e-02) (80, 1.44888252019882202148e-01) (81, -3.52141074836254119873e-02) (82, -1.08526006340980529785e-01) (83, 1.31752848625183105469e-01) (84, -5.02519123256206512451e-02) (85, -6.13199770450592041016e-02) (86, 6.09557610005140304565e-03) (87, -4.95695807039737701416e-02) (88, -1.31749972701072692871e-01) (89, 3.96656170487403869629e-02) (90, 7.47907161712646484375e-02) (91, 6.82873651385307312012e-02) (92, -4.05660737305879592896e-03) (93, -2.34734751284122467041e-02) (94, -3.26032489538192749023e-02) (95, 3.03012169897556304932e-02) (96, -1.34756743907928466797e-01) (97, 4.66428808867931365967e-02) (98, -3.09875365346670150757e-02) (99, 1.29086039960384368896e-02) (100, -8.64049941301345825195e-02) (0, -1.11782588064670562744e-01) (1, -2.06929072737693786621e-01) (2, -2.50503271818161010742e-02) (3, -1.52227908372879028320e-01) (4, -2.31442421674728393555e-01) (5, -1.54801073949784040451e-03) (6, -4.87460009753704071045e-02) (7, -3.77439968287944793701e-02) (8, -2.28181570768356323242e-01) (9, 5.45334368944168090820e-02) (10, 2.21749627962708473206e-03) (11, -1.05886034667491912842e-01) (12, -6.81353434920310974121e-02) (13, 3.63014526665210723877e-02) (14, -9.98141616582870483398e-02) (15, -1.65746927261352539062e-01) (16, -1.31008222699165344238e-01) (17, 3.49374051438644528389e-04) (18, -1.34282037615776062012e-01) (19, -7.43908658623695373535e-02) (20, -2.69020418636500835419e-03) (21, -4.55398596823215484619e-02) (22, 1.13251078873872756958e-02) (23, -1.92897394299507141113e-01) (24, -2.08719417452812194824e-01) (25, -8.92681553959846496582e-02) (26, -7.40534961223602294922e-02) (27, -2.08711162209510803223e-01) (28, 1.24334814026951789856e-02) (29, -2.41776064038276672363e-01) (30, -3.11704248189926147461e-01) (31, -1.39851957559585571289e-01) (32, -1.76705360412597656250e-01) (33, -1.40820398926734924316e-01) (34, -1.19232997298240661621e-01) (35, -1.94384887814521789551e-01) (36, 6.31301626563072204590e-02) (37, -1.43068820238113403320e-01) (38, -2.81538456678390502930e-01) (39, -1.94253250956535339355e-01) (40, -8.61922744661569595337e-03) (41, -8.96509736776351928711e-02) (42, -1.19300737977027893066e-01) (43, 3.80851998925209045410e-02) (44, -1.86413869261741638184e-01) (45, -2.25522473454475402832e-01) (46, 4.22350242733955383301e-02) (47, -1.93377181887626647949e-01) (48, -1.42410203814506530762e-01) (49, -1.25730022788047790527e-01) (50, -1.97352301329374313354e-02) (51, -1.64124533534049987793e-01) (52, -1.26284003257751464844e-01) (53, -1.33945196866989135742e-01) (54, -9.23519730567932128906e-02) (55, -2.24722735583782196045e-02) (56, -8.98021385073661804199e-02) (57, -2.11371749639511108398e-01) (58, -1.78961500525474548340e-01) (59, -7.59168863296508789062e-02) (60, -9.95843559503555297852e-02) (61, -2.69159495830535888672e-01) (62, -1.33768647909164428711e-01) (63, -8.04829224944114685059e-02) (64, -1.19063936173915863037e-01) (65, -1.38437181711196899414e-01) (66, -1.68166622519493103027e-01) (67, -2.15513154864311218262e-01) (68, -2.08257943391799926758e-01) (69, -2.00240567326545715332e-01) (70, -9.27489027380943298340e-02) (71, -1.49613678455352783203e-01) (72, 2.61511150747537612915e-02) (73, -5.12497201561927795410e-02) (74, -1.84200853109359741211e-01) (75, 3.16978916525840759277e-02) (76, -9.44822654128074645996e-02) (77, -1.59302443265914916992e-01) (78, -2.44343623518943786621e-01) (79, -2.02313274145126342773e-01) (80, -1.04786597192287445068e-01) (81, -1.27711355686187744141e-01) (82, -1.03885293006896972656e-01) (83, -1.20897963643074035645e-01) (84, -2.33996033668518066406e-01) (85, -2.23977416753768920898e-01) (86, -1.08267851173877716064e-01) (87, -7.06269592046737670898e-02) (88, 3.03342808037996292114e-02) (89, 9.60685126483440399170e-03) (90, -1.62486612796783447266e-01) (91, -9.40432995557785034180e-02) (92, -1.94234102964401245117e-01) (93, -2.16866850852966308594e-01) (94, -6.87005296349525451660e-02) (95, 4.40200157463550567627e-02) (96, -1.76005437970161437988e-01) (97, -2.08287477493286132812e-01) (98, -2.30273231863975524902e-01) (99, -7.35474079847335815430e-02) (100, 5.92773184180259704590e-02) (0, -5.68490102887153625488e-02) (1, -2.66910254955291748047e-01) (2, 7.54905981011688709259e-04) (3, -2.34357789158821105957e-01) (4, -1.16745317354798316956e-02) (5, -1.79740078747272491455e-02) (6, 3.74921858310699462891e-02) (7, -4.82155717909336090088e-02) (8, 2.24439129233360290527e-02) (9, -1.06619626283645629883e-01) (10, -7.18311667442321777344e-02) (11, 1.39030545949935913086e-01) (12, 2.24824734032154083252e-02) (13, 6.34623691439628601074e-03) (14, -1.47628173232078552246e-01) (15, 3.02655696868896484375e-02) (16, -1.06658935546875000000e-01) (17, 6.35253116488456726074e-02) (18, 6.91055282950401306152e-02) (19, -9.09917131066322326660e-02) (20, -1.03194966912269592285e-01) (21, -2.00305774807929992676e-01) (22, -1.08162887394428253174e-01) (23, -6.38675242662429809570e-02) (24, -7.60698691010475158691e-02) (25, 4.72261980175971984863e-02) (26, -1.34660780429840087891e-01) (27, -5.95409758388996124268e-02) (28, -2.22857579588890075684e-01) (29, -2.02092960476875305176e-01) (30, -1.55494473874568939209e-02) (31, -1.89558997750282287598e-01) (32, -9.12571102380752563477e-02) (33, 2.74331495165824890137e-02) (34, -1.78911700844764709473e-01) (35, 4.06941995024681091309e-02) (36, -2.07705497741699218750e-01) (37, 4.64289709925651550293e-02) (38, -4.16042692959308624268e-02) (39, 5.31269609928131103516e-02) (40, -1.54090061783790588379e-01) (41, 8.53082910180091857910e-03) (42, 9.65802446007728576660e-02) (43, 1.10045291483402252197e-01) (44, -8.26245695352554321289e-02) (45, -1.27638444304466247559e-01) (46, -2.33085036277770996094e-01) (47, 5.42878732085227966309e-02) (48, -9.32587161660194396973e-02) (49, 6.87221884727478027344e-02) (50, 6.86650117859244346619e-03) (51, -1.34168639779090881348e-01) (52, 4.35750111937522888184e-02) (53, -1.18259020149707794189e-01) (54, -9.69639569520950317383e-02) (55, -1.78680106997489929199e-01) (56, 7.77522772550582885742e-02) (57, 1.79554056376218795776e-02) (58, -5.99059984087944030762e-02) (59, -5.18322922289371490479e-02) (60, -1.43839893862605094910e-02) (61, -3.92731428146362304688e-02) (62, -1.85596510767936706543e-01) (63, 6.00877441465854644775e-02) (64, -1.19873307645320892334e-01) (65, 3.52109558880329132080e-02) (66, -2.17419192194938659668e-01) (67, -2.20692269504070281982e-02) (68, 8.62310528755187988281e-02) (69, 1.51531308889389038086e-01) (70, 1.95511300116777420044e-02) (71, -8.16391929984092712402e-02) (72, -1.19461873546242713928e-02) (73, -7.04052969813346862793e-02) (74, -1.18258431553840637207e-01) (75, 8.32537338137626647949e-02) (76, -2.58897133171558380127e-02) (77, -6.46436437964439392090e-02) (78, 7.20289498567581176758e-02) (79, -1.43741173669695854187e-02) (80, 3.02590578794479370117e-02) (81, -7.46470019221305847168e-02) (82, 3.40336374938488006592e-02) (83, -1.65723264217376708984e-02) (84, -1.24434277415275573730e-01) (85, -5.96164911985397338867e-02) (86, 6.16521686315536499023e-02) (87, -1.11655749380588531494e-01) (88, 3.39686684310436248779e-02) (89, -1.90063249319791793823e-02) (90, -6.53263628482818603516e-02) (91, 3.21706458926200866699e-02) (92, -8.83910581469535827637e-02) (93, -9.24502536654472351074e-02) (94, -1.16082280874252319336e-01) (95, 9.41643025726079940796e-03) (96, -8.64812955260276794434e-02) (97, 7.07827359437942504883e-02) (98, -1.13632686436176300049e-01) (99, -9.49659720063209533691e-02) (100, -2.13312923908233642578e-01) (0, -1.07422277331352233887e-01) (1, -8.89580175280570983887e-02) (2, -3.54713164269924163818e-02) (3, -7.24043995141983032227e-02) (4, -8.67638960480690002441e-02) (5, 1.81139621417969465256e-03) (6, 3.45372147858142852783e-02) (7, -1.42644181847572326660e-01) (8, -3.40882763266563415527e-02) (9, -4.42208647727966308594e-02) (10, -1.45836263895034790039e-01) (11, 1.36742144823074340820e-02) (12, -2.88259200751781463623e-02) (13, -1.47791400551795959473e-01) (14, -1.42904028296470642090e-01) (15, -9.33900326490402221680e-02) (16, -8.94157811999320983887e-02) (17, -1.34770572185516357422e-01) (18, -1.47547414526343345642e-02) (19, -4.14780564606189727783e-02) (20, -4.51101996004581451416e-02) (21, -8.60740616917610168457e-02) (22, -6.42446577548980712891e-02) (23, -1.11097715795040130615e-01) (24, -6.29072710871696472168e-02) (25, 6.08034506440162658691e-02) (26, 2.05204468220472335815e-02) (27, -1.80055908858776092529e-02) (28, -2.88481917232275009155e-02) (29, -2.07669753581285476685e-02) (30, 1.20754145085811614990e-01) (31, -1.24443098902702331543e-01) (32, 1.26857623457908630371e-01) (33, 2.29483991861343383789e-02) (34, 9.04146805405616760254e-02) (35, 4.72258515655994415283e-02) (36, 5.24315983057022094727e-02) (37, -5.03813289105892181396e-02) (38, 1.26197323203086853027e-01) (39, 5.64608648419380187988e-02) (40, -4.42502051591873168945e-02) (41, -6.91418871283531188965e-02) (42, -5.30729256570339202881e-02) (43, -1.33397459983825683594e-01) (44, -1.04676097631454467773e-01) (45, 4.90861088037490844727e-02) (46, -6.67911618947982788086e-02) (47, 1.17589615285396575928e-01) (48, -1.18265161290764808655e-03) (49, 4.43141087889671325684e-02) (50, 6.73815831542015075684e-02) (51, -7.11657926440238952637e-02) (52, -1.44897460937500000000e-01) (53, 4.64824065566062927246e-02) (54, -1.39867424964904785156e-01) (55, -1.29976242780685424805e-01) (56, -3.45099940896034240723e-02) (57, -4.15975898504257202148e-02) (58, 8.66698697209358215332e-02) (59, 1.25274777412414550781e-01) (60, 3.26663143932819366455e-02) (61, -1.35803863406181335449e-01) (62, -1.58883947879076004028e-02) (63, -6.53021410107612609863e-02) (64, 7.89385437965393066406e-02) (65, -7.21987858414649963379e-02) (66, 3.00183240324258804321e-02) (67, -5.97641803324222564697e-02) (68, -1.38326004147529602051e-01) (69, -3.76653694547712802887e-03) (70, 1.02458655834197998047e-01) (71, 4.68929223716259002686e-02) (72, 7.35862106084823608398e-02) (73, 5.03933504223823547363e-02) (74, -2.38454248756170272827e-02) (75, 1.16106927394866943359e-01) (76, 7.83189088106155395508e-02) (77, 5.73876164853572845459e-02) (78, -1.67298503220081329346e-02) (79, -1.00155271589756011963e-01) (80, -3.50853949785232543945e-02) (81, -3.35139185190200805664e-02) (82, 7.76926279067993164062e-02) (83, -3.45670618116855621338e-02) (84, -9.30327028036117553711e-02) (85, 6.66500478982925415039e-02) (86, -9.40576344728469848633e-02) (87, -1.40641525387763977051e-01) (88, 1.97237357497215270996e-02) (89, 6.02127388119697570801e-02) (90, -1.06633514165878295898e-01) (91, -2.71348431706428527832e-02) (92, -1.29781216382980346680e-01) (93, -7.90389552712440490723e-02) (94, -3.97968478500843048096e-02) (95, 5.73483156040310859680e-03) (96, -1.60805597901344299316e-01) (97, -1.31579443812370300293e-01) (98, 1.07751272618770599365e-01) (99, 9.42629110068082809448e-03) (100, -2.77257174253463745117e-01) (0, -5.11717312037944793701e-02) (1, -2.43820503354072570801e-01) (2, -1.31218368187546730042e-02) (3, 8.85750912129878997803e-03) (4, -7.59279504418373107910e-02) (5, -9.11963880062103271484e-02) (6, -2.36188367009162902832e-01) (7, -1.24271884560585021973e-01) (8, -1.25761687755584716797e-01) (9, -4.78427596390247344971e-02) (10, -5.38282692432403564453e-02) (11, 1.16357244551181793213e-01) (12, 3.94423864781856536865e-02) (13, -2.48366102576255798340e-01) (14, -5.31711317598819732666e-02) (15, 1.26114562153816223145e-01) (16, -1.28020465373992919922e-01) (17, -1.41441479325294494629e-01) (18, 5.32362125813961029053e-02) (19, -6.44117072224617004395e-02) (20, -1.51522710919380187988e-01) (21, -2.48087197542190551758e-01) (22, 1.39720618724822998047e-01) (23, -1.66993378661572933197e-03) (24, -8.98749381303787231445e-02) (25, -8.26524272561073303223e-02) (26, -1.52702510356903076172e-01) (27, -4.28060516715049743652e-02) (28, -1.93620994687080383301e-01) (29, -1.55942350625991821289e-01) (30, -7.90212005376815795898e-02) (31, -2.59815156459808349609e-01) (32, 2.54425909370183944702e-02) (33, -1.84621289372444152832e-01) (34, -1.92324757575988769531e-01) (35, -3.54430750012397766113e-02) (36, -8.85509476065635681152e-02) (37, -1.11889310181140899658e-01) (38, -5.50434142351150512695e-02) (39, -9.46778878569602966309e-02) (40, -2.10194647312164306641e-01) (41, 5.28722256422042846680e-02) (42, -6.58903829753398895264e-03) (43, 2.55985930562019348145e-02) (44, 1.60620566457509994507e-02) (45, -2.36707255244255065918e-01) (46, -8.20141211152076721191e-02) (47, 8.72475374490022659302e-03) (48, -2.69436798989772796631e-02) (49, -2.30956021696329116821e-02) (50, -3.89183312654495239258e-02) (51, 3.62505316734313964844e-02) (52, 4.97265793383121490479e-02) (53, -1.51748612523078918457e-01) (54, -1.45170554518699645996e-01) (55, -5.41359856724739074707e-02) (56, -2.33635455369949340820e-01) (57, -4.28247749805450439453e-02) (58, -1.83081433176994323730e-01) (59, 7.38981515169143676758e-02) (60, -3.78777682781219482422e-02) (61, -1.32041543722152709961e-01) (62, -7.63323977589607238770e-02) (63, -5.86894247680902481079e-03) (64, -2.24833682179450988770e-01) (65, -9.81884971261024475098e-02) (66, -1.67880550026893615723e-01) (67, -3.14808040857315063477e-02) (68, -1.68918997049331665039e-01) (69, -1.29651978611946105957e-01) (70, -7.61070623993873596191e-02) (71, -1.81716829538345336914e-01) (72, -2.13913157582283020020e-01) (73, -1.31962820887565612793e-01) (74, 1.38165419921278953552e-02) (75, 9.65020880103111267090e-02) (76, -1.78501456975936889648e-01) (77, -2.67292093485593795776e-02) (78, -6.80329650640487670898e-02) (79, -8.91068056225776672363e-02) (80, -1.86888068914413452148e-01) (81, 1.40947416424751281738e-01) (82, -1.63624599575996398926e-01) (83, 1.52606844902038574219e-01) (84, -1.08198657631874084473e-01) (85, -1.94809958338737487793e-01) (86, -1.50957897305488586426e-01) (87, -6.48588016629219055176e-02) (88, 4.50364425778388977051e-02) (89, -6.89267963171005249023e-02) (90, -2.00441226363182067871e-01) (91, -5.67647665739059448242e-02) (92, -7.42687880992889404297e-02) (93, -1.28349080681800842285e-01) (94, -1.46736189723014831543e-01) (95, -9.27698537707328796387e-02) (96, -2.35091924667358398438e-01) (97, -1.06814950704574584961e-01) (98, -2.21583917737007141113e-01) (99, -7.86672681570053100586e-02) (100, -2.31216959655284881592e-02) (0, -5.96618130803108215332e-02) (1, 8.37175473570823669434e-02) (2, -1.04252055287361145020e-01) (3, 6.03567324578762054443e-02) (4, -8.82447436451911926270e-02) (5, -1.45361542701721191406e-01) (6, -1.05054669082164764404e-01) (7, 1.51028176769614219666e-02) (8, -1.76164716482162475586e-01) (9, -2.87606455385684967041e-02) (10, -8.43150392174720764160e-02) (11, -1.16224698722362518311e-01) (12, 1.41587376594543457031e-01) (13, 9.00007411837577819824e-02) (14, 4.99515682458877563477e-02) (15, -2.38016054034233093262e-01) (16, -3.93483228981494903564e-03) (17, -2.84559756517410278320e-01) (18, 3.51813882589340209961e-02) (19, -1.97861865162849426270e-01) (20, -1.81126132607460021973e-01) (21, -1.99276185594499111176e-03) (22, 2.30116788297891616821e-02) (23, 1.18615536484867334366e-03) (24, -6.36850744485855102539e-02) (25, -3.39652672410011291504e-02) (26, 8.46828967332839965820e-02) (27, 6.46659964695572853088e-03) (28, 2.75432497262954711914e-01) (29, -1.46455153822898864746e-01) (30, -2.83118396997451782227e-01) (31, -2.87357598543167114258e-01) (32, -1.10657989978790283203e-01) (33, 1.51799423620104789734e-02) (34, -3.00165247172117233276e-02) (35, 8.38120281696319580078e-03) (36, 2.30298325419425964355e-01) (37, -1.44359633326530456543e-01) (38, -2.98787821084260940552e-02) (39, 3.97465527057647705078e-02) (40, -4.82607483863830566406e-02) (41, -1.54188200831413269043e-01) (42, -1.19331464171409606934e-01) (43, -3.24063189327716827393e-02) (44, 2.25062798708677291870e-02) (45, -2.77469139546155929565e-02) (46, 3.32569852471351623535e-02) (47, -2.92812526226043701172e-01) (48, -3.02417241036891937256e-02) (49, 1.04507572948932647705e-01) (50, 1.22048668563365936279e-01) (51, -3.27291876077651977539e-01) (52, 6.51231855154037475586e-02) (53, -4.20917309820652008057e-02) (54, -1.25683367252349853516e-01) (55, -2.31873411685228347778e-02) (56, -2.30569869279861450195e-01) (57, 1.73623755574226379395e-01) (58, -1.82608574628829956055e-01) (59, 9.92277339100837707520e-02) (60, -1.46269634366035461426e-01) (61, -7.76903182268142700195e-02) (62, -8.51121321320533752441e-02) (63, 2.60419938713312149048e-02) (64, -3.67413349449634552002e-02) (65, -2.08244398236274719238e-01) (66, -2.81678527593612670898e-01) (67, 5.22271133959293365479e-02) (68, -7.39684328436851501465e-02) (69, -9.89997982978820800781e-02) (70, -7.56740868091583251953e-02) (71, -9.31241083890199661255e-03) (72, -2.23909288644790649414e-01) (73, -9.23228263854980468750e-02) (74, 7.34696388244628906250e-02) (75, 2.25448861718177795410e-01) (76, -2.26446077227592468262e-01) (77, -7.00271949172019958496e-02) (78, -7.15016201138496398926e-02) (79, 5.84563985466957092285e-02) (80, -1.17551840841770172119e-01) (81, -1.75979465246200561523e-01) (82, -1.07139728963375091553e-01) (83, -2.44130864739418029785e-01) (84, -2.21895854920148849487e-02) (85, 1.48646924644708633423e-02) (86, -1.47151887416839599609e-01) (87, -2.01215296983718872070e-01) (88, 2.97930575907230377197e-02) (89, 4.19665686786174774170e-02) (90, -8.88264104723930358887e-02) (91, -1.03319607675075531006e-01) (92, -7.62430950999259948730e-02) (93, -7.87022188305854797363e-02) (94, -6.42663538455963134766e-02) (95, 4.88789342343807220459e-02) (96, 1.08626466244459152222e-02) (97, -2.91271626949310302734e-01) (98, 2.18212023377418518066e-01) (99, 5.32214194536209106445e-02) (100, 2.84357718192040920258e-03) (0, -2.70471293479204177856e-02) (1, -3.07907126843929290771e-02) (2, -8.51904526352882385254e-02) (3, -1.67373389005661010742e-01) (4, 3.14733870327472686768e-02) (5, -7.17548504471778869629e-02) (6, -2.23728138953447341919e-02) (7, -1.07946708798408508301e-01) (8, -1.62361264228820800781e-01) (9, -1.62713155150413513184e-02) (10, -1.33503004908561706543e-01) (11, -2.65607181936502456665e-02) (12, -1.88661277294158935547e-01) (13, -1.55648201704025268555e-01) (14, -1.25820726156234741211e-01) (15, -3.44030000269412994385e-02) (16, -1.80325377732515335083e-02) (17, -3.88712622225284576416e-02) (18, 8.91546681523323059082e-02) (19, 1.97470113635063171387e-02) (20, -2.41143889725208282471e-02) (21, -2.35141783952713012695e-01) (22, 9.17507112026214599609e-02) (23, -8.54477882385253906250e-02) (24, -7.55959004163742065430e-03) (25, -1.84184432029724121094e-01) (26, 2.27717924863100051880e-02) (27, 6.87442719936370849609e-02) (28, -3.05204298347234725952e-02) (29, -1.95724219083786010742e-01) (30, 3.56964617967605590820e-02) (31, -5.16289100050926208496e-02) (32, 1.40520548447966575623e-02) (33, 2.58213393390178680420e-02) (34, -8.07250887155532836914e-02) (35, 9.37922522425651550293e-02) (36, -4.50154803693294525146e-02) (37, -1.97456210851669311523e-01) (38, 3.44310626387596130371e-02) (39, 3.70572730898857116699e-02) (40, 9.61491465568542480469e-03) (41, -4.60116076283156871796e-04) (42, -4.10646833479404449463e-02) (43, -1.48815244436264038086e-01) (44, 1.13510144874453544617e-02) (45, -5.82404881715774536133e-02) (46, -2.39260613918304443359e-01) (47, 5.39660714566707611084e-02) (48, -2.53384038805961608887e-02) (49, -8.82762596011161804199e-02) (50, -1.90810516476631164551e-01) (51, -1.12748242914676666260e-01) (52, 5.43930605053901672363e-02) (53, 1.54803786426782608032e-02) (54, 7.97670856118202209473e-02) (55, -1.08242049813270568848e-01) (56, -9.36664938926696777344e-02) (57, -6.33239224553108215332e-02) (58, -1.19625493884086608887e-01) (59, -1.43961802124977111816e-01) (60, -5.73974102735519409180e-02) (61, -8.12519043684005737305e-02) (62, -1.01777799427509307861e-01) (63, 2.02626604586839675903e-02) (64, -5.24173676967620849609e-02) (65, -8.69918242096900939941e-02) (66, -2.06160739064216613770e-01) (67, -6.34782686829566955566e-02) (68, -1.17695154622197151184e-02) (69, 1.15599157288670539856e-03) (70, 7.88478553295135498047e-02) (71, -2.49625183641910552979e-02) (72, -1.44121900200843811035e-01) (73, 5.44665418565273284912e-02) (74, -5.02350553870201110840e-02) (75, -4.01189960539340972900e-02) (76, -7.34199434518814086914e-02) (77, -1.08057528734207153320e-01) (78, -1.69753748923540115356e-02) (79, 4.21363785862922668457e-02) (80, -2.80207730829715728760e-02) (81, 3.88175360858440399170e-02) (82, 7.60403694584965705872e-03) (83, 3.70465666055679321289e-02) (84, -9.13486629724502563477e-03) (85, -1.70731186866760253906e-01) (86, 6.03100052103400230408e-03) (87, -2.70636491477489471436e-02) (88, -5.16532128676772117615e-03) (89, 5.09685948491096496582e-02) (90, -8.08081962168216705322e-03) (91, -1.22346617281436920166e-01) (92, -1.50962695479393005371e-01) (93, -5.57162947952747344971e-02) (94, -8.23069661855697631836e-02) (95, -4.01796996593475341797e-02) (96, -3.17812897264957427979e-02) (97, 8.57158377766609191895e-02) (98, -1.14374756813049316406e-02) (99, 6.29618540406227111816e-02) (100, 4.86001186072826385498e-02) (0, 3.04392222315073013306e-02) (1, -5.70763200521469116211e-02) (2, 1.71684622764587402344e-01) (3, 5.46437650918960571289e-02) (4, 9.52160432934761047363e-02) (5, -2.57950816303491592407e-02) (6, 8.65604430437088012695e-02) (7, -5.23973666131496429443e-02) (8, -8.12323391437530517578e-02) (9, 2.76154391467571258545e-02) (10, 1.64888292551040649414e-01) (11, -1.51941046118736267090e-01) (12, -1.39310002326965332031e-01) (13, -1.43094912171363830566e-01) (14, -8.14335718750953674316e-02) (15, -1.92838728427886962891e-01) (16, 3.87770868837833404541e-02) (17, 5.14880171976983547211e-04) (18, -1.84604331851005554199e-01) (19, 1.10533758997917175293e-01) (20, 1.08159616589546203613e-01) (21, 3.04948128759860992432e-02) (22, -3.94703187048435211182e-02) (23, -4.20786291360855102539e-02) (24, -1.48012340068817138672e-01) (25, -2.15058755129575729370e-02) (26, 3.70846539735794067383e-02) (27, -5.00371344387531280518e-02) (28, -7.19942748546600341797e-02) (29, -3.56783308088779449463e-02) (30, -1.63941860198974609375e-01) (31, 1.34593352675437927246e-01) (32, -1.31132483482360839844e-01) (33, 1.21603291481733322144e-02) (34, -9.82088595628738403320e-02) (35, -1.17525905370712280273e-01) (36, -4.18273434042930603027e-02) (37, -2.75609586387872695923e-02) (38, -3.61301541328430175781e-01) (39, -1.11452780663967132568e-01) (40, -1.21567197144031524658e-01) (41, -7.62521335855126380920e-03) (42, 8.37145447731018066406e-02) (43, 1.00515775382518768311e-01) (44, -1.30164116621017456055e-01) (45, -1.87644496560096740723e-01) (46, 1.84584751725196838379e-01) (47, 2.14782636612653732300e-02) (48, -4.34194691479206085205e-02) (49, -1.18094138801097869873e-01) (50, 2.14003585278987884521e-02) (51, -1.55714303255081176758e-02) (52, -2.25722432136535644531e-01) (53, -8.38095173239707946777e-02) (54, 2.47645229101181030273e-01) (55, 1.34717434644699096680e-01) (56, -7.64716118574142456055e-02) (57, 3.92756797373294830322e-03) (58, -5.58026209473609924316e-02) (59, -4.53686602413654327393e-02) (60, -1.51911256834864616394e-02) (61, 7.82759413123130798340e-02) (62, 1.89974486827850341797e-01) (63, -6.62503466010093688965e-02) (64, -8.69531277567148208618e-03) (65, -1.24161306302994489670e-03) (66, 6.66923597455024719238e-02) (67, -7.39555880427360534668e-02) (68, -8.33825841546058654785e-02) (69, 7.40535408258438110352e-02) (70, -1.81720808148384094238e-01) (71, -1.03818073868751525879e-01) (72, 2.67287909984588623047e-01) (73, 1.16561256349086761475e-01) (74, -1.63473248481750488281e-01) (75, -1.40119805932044982910e-01) (76, -2.87666823714971542358e-02) (77, -2.76088118553161621094e-01) (78, 4.40891385078430175781e-02) (79, -7.31548517942428588867e-02) (80, -1.85264900326728820801e-01) (81, 2.03901082277297973633e-01) (82, 4.55829873681068420410e-02) (83, 5.47947734594345092773e-02) (84, 9.65482275933027267456e-03) (85, -9.29666608572006225586e-02) (86, -8.04647579789161682129e-02) (87, 9.69575252383947372437e-03) (88, -1.26535192131996154785e-01) (89, -1.15126976743340492249e-02) (90, 1.12487085163593292236e-01) (91, -2.98229064792394638062e-02) (92, 5.04721887409687042236e-02) (93, 1.02707959711551666260e-01) (94, -2.02976435422897338867e-01) (95, 4.73749674856662750244e-02) (96, 8.19604247808456420898e-02) (97, 1.97794139385223388672e-01) (98, -1.47126674652099609375e-01) (99, 1.69307813048362731934e-01) (100, -9.09278355538845062256e-03) (0, 6.24345354735851287842e-02) (1, 1.58611126244068145752e-02) (2, 8.15010815858840942383e-02) (3, -3.80715504288673400879e-02) (4, 5.07581122219562530518e-02) (5, 1.44526168704032897949e-01) (6, 8.92913192510604858398e-02) (7, 1.09413608908653259277e-01) (8, -2.27439105510711669922e-01) (9, -4.62651699781417846680e-02) (10, -1.80535688996315002441e-01) (11, -8.86104404926300048828e-02) (12, 8.81688073277473449707e-02) (13, 6.48823380470275878906e-02) (14, 1.08839466702193021774e-03) (15, 5.35583198070526123047e-02) (16, -4.44838628172874450684e-02) (17, 2.60605588555335998535e-02) (18, 5.36117739975452423096e-02) (19, -1.60390064120292663574e-02) (20, 7.32673928141593933105e-02) (21, -1.65727257728576660156e-01) (22, 8.19484069943428039551e-02) (23, 1.91838257014751434326e-02) (24, 1.27467706799507141113e-01) (25, -6.84780180454254150391e-02) (26, -2.08922207355499267578e-01) (27, 4.40496280789375305176e-02) (28, 2.52169072628021240234e-02) (29, -1.29617899656295776367e-01) (30, 1.47601976990699768066e-01) (31, 1.26572668552398681641e-01) (32, -9.44731608033180236816e-02) (33, -4.45215478539466857910e-02) (34, -9.41298715770244598389e-03) (35, 2.00292542576789855957e-01) (36, 7.71146044135093688965e-02) (37, -9.32438671588897705078e-02) (38, -2.00760588049888610840e-02) (39, -8.04774761199951171875e-02) (40, -7.16896578669548034668e-02) (41, 2.48149801045656204224e-02) (42, 1.25101983547210693359e-01) (43, 6.42015784978866577148e-03) (44, -1.79564997553825378418e-01) (45, 8.54940190911293029785e-02) (46, -8.26066136360168457031e-02) (47, -1.10308742150664329529e-02) (48, 8.90946239233016967773e-02) (49, -4.63347099721431732178e-02) (50, 1.41757771372795104980e-01) (51, -1.01456649601459503174e-01) (52, -2.18779761344194412231e-02) (53, 4.65336106717586517334e-02) (54, 7.51451123505830764771e-03) (55, -2.02255368232727050781e-01) (56, 2.33187209814786911011e-02) (57, -6.90020341426134109497e-03) (58, 1.46182104945182800293e-01) (59, -2.32897363603115081787e-02) (60, -1.17678605020046234131e-01) (61, -4.33790273964405059814e-02) (62, 7.03827664256095886230e-02) (63, 9.46905836462974548340e-02) (64, 4.72364015877246856689e-02) (65, -3.31739373505115509033e-02) (66, -2.33251415193080902100e-02) (67, 6.69275224208831787109e-02) (68, -9.48676764965057373047e-02) (69, -1.54503837227821350098e-01) (70, -1.09005860984325408936e-01) (71, 4.39738109707832336426e-03) (72, -9.37281250953674316406e-02) (73, -1.33494380861520767212e-02) (74, 4.72047030925750732422e-02) (75, -1.04999013245105743408e-01) (76, -4.35357205569744110107e-02) (77, 7.12676197290420532227e-02) (78, 4.56236973404884338379e-02) (79, -6.20318055152893066406e-02) (80, -3.10017336159944534302e-02) (81, 4.08014357089996337891e-02) (82, -1.41280233860015869141e-01) (83, -1.68494507670402526855e-01) (84, -9.90279391407966613770e-02) (85, -4.54875677824020385742e-02) (86, 1.06739945709705352783e-01) (87, -1.61709114909172058105e-01) (88, -7.48405158519744873047e-02) (89, -1.60169675946235656738e-01) (90, 4.47264760732650756836e-02) (91, -9.15815532207489013672e-02) (92, 1.45626693964004516602e-01) (93, -1.86766967177391052246e-01) (94, -6.90541416406631469727e-02) (95, -8.21870192885398864746e-02) (96, 8.42587873339653015137e-02) (97, 1.00366465747356414795e-01) (98, 6.79933801293373107910e-02) (99, -5.55916726589202880859e-02) (100, 4.26518470048904418945e-02) (0, 1.90613716840744018555e-01) (1, -4.60715815424919128418e-02) (2, 1.58605128526687622070e-01) (3, 5.65796457231044769287e-02) (4, 1.93986311554908752441e-01) (5, 1.25614970922470092773e-01) (6, 7.81578943133354187012e-02) (7, 3.21036018431186676025e-02) (8, -3.06929517537355422974e-02) (9, 6.27749264240264892578e-02) (10, -7.44550605304539203644e-04) (11, 1.44706249237060546875e-01) (12, 1.04785831645131111145e-02) (13, 1.36954650282859802246e-01) (14, -3.32025368697941303253e-03) (15, 3.77985648810863494873e-02) (16, -1.01101528853178024292e-02) (17, 5.02821281552314758301e-02) (18, 2.28824336081743240356e-02) (19, 8.08964818716049194336e-02) (20, 1.14501416683197021484e-02) (21, 5.07676303386688232422e-02) (22, 1.91682383418083190918e-01) (23, 5.61807304620742797852e-02) (24, 5.85785731673240661621e-02) (25, 5.92457167804241180420e-02) (26, 3.30839725211262702942e-03) (27, 1.68706819415092468262e-01) (28, 8.03921557962894439697e-03) (29, -2.07552872598171234131e-02) (30, 2.31462463736534118652e-01) (31, 1.15350916981697082520e-01) (32, 1.05975858867168426514e-01) (33, 8.29333513975143432617e-02) (34, -5.59729076921939849854e-02) (35, 1.22687101364135742188e-01) (36, 6.66198283433914184570e-02) (37, 1.71450544148683547974e-02) (38, 1.60654053092002868652e-01) (39, 1.92333102226257324219e-01) (40, 3.63244377076625823975e-02) (41, 9.53686311841011047363e-02) (42, 1.05268858373165130615e-01) (43, 1.79808158427476882935e-02) (44, 5.60332760214805603027e-02) (45, 1.44669279456138610840e-01) (46, -2.80810873955488204956e-02) (47, 1.42774179577827453613e-01) (48, 2.43110228329896926880e-02) (49, 3.01220640540122985840e-02) (50, -6.18233606219291687012e-02) (51, 2.22131341695785522461e-01) (52, 1.76681876182556152344e-01) (53, 1.00159600377082824707e-01) (54, -7.40034282207489013672e-02) (55, 1.10529839992523193359e-01) (56, 7.35852494835853576660e-02) (57, 5.96785992383956909180e-02) (58, -3.60491219907999038696e-03) (59, 8.33950415253639221191e-02) (60, 8.78372639417648315430e-02) (61, 1.19618237018585205078e-01) (62, 1.18683837354183197021e-01) (63, 6.56030401587486267090e-02) (64, 1.09467737376689910889e-01) (65, 1.35275423526763916016e-01) (66, 8.12792629003524780273e-02) (67, 1.71935126185417175293e-01) (68, 1.34720608592033386230e-01) (69, 1.21679119765758514404e-02) (70, 9.73611101508140563965e-02) (71, 1.07718653976917266846e-01) (72, 2.76660942472517490387e-03) (73, -4.82101039960980415344e-03) (74, 1.43540343269705772400e-02) (75, 1.60944178700447082520e-01) (76, 7.58989229798316955566e-02) (77, 1.58767387270927429199e-01) (78, 1.85538589954376220703e-01) (79, -6.69173151254653930664e-02) (80, 8.96662622690200805664e-02) (81, 1.13325409591197967529e-01) (82, 1.96947641670703887939e-02) (83, -4.16878936812281608582e-03) (84, 5.87861984968185424805e-02) (85, -3.96483615040779113770e-02) (86, 1.05593174695968627930e-01) (87, 1.17508046329021453857e-01) (88, -2.99208480864763259888e-02) (89, -1.48344517219811677933e-03) (90, 9.90203581750392913818e-03) (91, 1.08710378408432006836e-01) (92, 1.02266751229763031006e-01) (93, -2.74793449789285659790e-02) (94, 1.72760292887687683105e-01) (95, 1.71999961137771606445e-01) (96, 1.30955129861831665039e-01) (97, 5.69752864539623260498e-02) (98, -9.89379361271858215332e-02) (99, 2.00828433036804199219e-01) (100, -1.33198633790016174316e-01) (0, -1.57092899084091186523e-01) (1, -1.36952385306358337402e-01) (2, 9.01849120855331420898e-02) (3, -8.09704661369323730469e-02) (4, -1.72671362757682800293e-01) (5, -5.74691146612167358398e-02) (6, 2.06396486610174179077e-02) (7, -8.60860049724578857422e-02) (8, -1.43196284770965576172e-01) (9, -1.01781010627746582031e-01) (10, 3.65035533905029296875e-02) (11, -3.34386974573135375977e-02) (12, -1.97473034262657165527e-01) (13, 6.48622140288352966309e-02) (14, 3.23371887207031250000e-02) (15, 7.65642076730728149414e-02) (16, -1.01379007101058959961e-01) (17, -1.14579074084758758545e-01) (18, 4.57440540194511413574e-02) (19, 1.13269187510013580322e-01) (20, 9.94459837675094604492e-02) (21, -8.21107104420661926270e-02) (22, 1.17678314447402954102e-01) (23, -1.87234982848167419434e-01) (24, -1.63629390299320220947e-02) (25, -7.17770904302597045898e-02) (26, -1.29120022058486938477e-01) (27, 1.80345699191093444824e-02) (28, -6.83539286255836486816e-02) (29, -3.57300066389143466949e-03) (30, -2.33062282204627990723e-02) (31, -1.18202656507492065430e-01) (32, -7.89729803800582885742e-02) (33, 5.66510530188679695129e-03) (34, -1.26045882701873779297e-01) (35, -1.24442696571350097656e-01) (36, 1.05916872620582580566e-01) (37, -1.68870717287063598633e-01) (38, -9.49155446141958236694e-03) (39, 1.07835613191127777100e-01) (40, 1.36401541531085968018e-02) (41, -6.50806352496147155762e-02) (42, -1.42906932160258293152e-02) (43, 3.80990579724311828613e-02) (44, -9.06206667423248291016e-02) (45, -1.02630965411663055420e-01) (46, 6.26304671168327331543e-02) (47, 4.12370264530181884766e-02) (48, -2.05792516469955444336e-01) (49, -1.47532552480697631836e-01) (50, -1.45981296896934509277e-01) (51, -7.23553672432899475098e-02) (52, 1.65837872773408889771e-02) (53, -1.80264621973037719727e-01) (54, -1.25450445339083671570e-02) (55, -1.76844641566276550293e-01) (56, -2.17517670243978500366e-02) (57, -1.05096943676471710205e-01) (58, -8.63533020019531250000e-02) (59, -2.10134126245975494385e-02) (60, -6.51053339242935180664e-02) (61, -7.69339725375175476074e-02) (62, -1.08423061668872833252e-01) (63, -1.66053995490074157715e-01) (64, -1.20079144835472106934e-01) (65, -7.27430060505867004395e-02) (66, -8.22882205247879028320e-02) (67, -1.74528174102306365967e-02) (68, -6.53459280729293823242e-02) (69, 2.75418106466531753540e-02) (70, -1.34128063917160034180e-01) (71, -1.93213596940040588379e-01) (72, -1.37575790286064147949e-01) (73, -1.28015339374542236328e-01) (74, -1.89662277698516845703e-01) (75, -5.68386493250727653503e-03) (76, -1.16478251293301582336e-02) (77, 3.54424715042114257812e-02) (78, 3.52629721164703369141e-02) (79, -3.93080338835716247559e-02) (80, -3.18180769681930541992e-02) (81, -1.14841736853122711182e-01) (82, -8.95108580589294433594e-02) (83, -1.12307488918304443359e-01) (84, -1.81442171335220336914e-01) (85, -2.69385054707527160645e-02) (86, 3.86677719652652740479e-02) (87, -1.93006768822669982910e-01) (88, 5.30592240393161773682e-02) (89, 5.05956821143627166748e-03) (90, -1.13930411636829376221e-01) (91, -1.13274842500686645508e-01) (92, 1.10645085573196411133e-01) (93, -1.65786743164062500000e-01) (94, -2.61474615399492904544e-05) (95, 2.20418348908424377441e-02) (96, -9.71481576561927795410e-02) (97, -1.20420485734939575195e-01) (98, -1.88902512192726135254e-01) (99, -1.34784922003746032715e-01) (100, -7.69599229097366333008e-02) (0, 6.51133060455322265625e-02) (1, -3.81841585040092468262e-02) (2, 3.12307681888341903687e-02) (3, 9.57073196768760681152e-02) (4, 1.13182924687862396240e-01) (5, -1.81209325790405273438e-01) (6, -2.03581690788269042969e-01) (7, 8.18491950631141662598e-02) (8, 1.46088019013404846191e-01) (9, 8.06095153093338012695e-02) (10, -5.56739084422588348389e-02) (11, 2.19563916325569152832e-02) (12, -7.42621049284934997559e-02) (13, -6.89910128712654113770e-02) (14, -1.20282597839832305908e-01) (15, 3.08077987283468246460e-02) (16, -1.48568637669086456299e-02) (17, -1.67362522333860397339e-02) (18, -8.31032395362854003906e-02) (19, -2.69442319869995117188e-01) (20, -3.15181732177734375000e-01) (21, 2.84007526934146881104e-02) (22, -9.22693535685539245605e-02) (23, -1.57210052013397216797e-01) (24, 1.05048775672912597656e-01) (25, 8.78800898790359497070e-02) (26, -1.02477550506591796875e-01) (27, -2.63786435127258300781e-01) (28, -6.75377100706100463867e-02) (29, 3.28303128480911254883e-03) (30, 9.46127250790596008301e-02) (31, -3.33446234464645385742e-01) (32, -8.58018025755882263184e-02) (33, -6.14751204848289489746e-02) (34, -1.07666783034801483154e-01) (35, 1.55844271183013916016e-01) (36, -2.25248280912637710571e-02) (37, -4.05915454030036926270e-03) (38, 1.33972465991973876953e-01) (39, 9.92403849959373474121e-02) (40, 2.29595690965652465820e-01) (41, -2.02024877071380615234e-02) (42, 6.72260764986276626587e-03) (43, 7.71345272660255432129e-02) (44, -9.66418087482452392578e-02) (45, -9.02034416794776916504e-02) (46, -1.18653215467929840088e-01) (47, -4.94452416896820068359e-02) (48, 4.31246906518936157227e-02) (49, 1.17676906287670135498e-01) (50, 1.70863986015319824219e-01) (51, -2.62669231742620468140e-02) (52, -1.18763744831085205078e-01) (53, -4.57407720386981964111e-02) (54, -2.48534575104713439941e-01) (55, -5.34476758912205696106e-03) (56, -2.13318020105361938477e-01) (57, 6.16719666868448257446e-03) (58, -1.88874661922454833984e-01) (59, 1.60223208367824554443e-02) (60, -5.58055751025676727295e-02) (61, -6.36452285107225179672e-04) (62, -2.37030997872352600098e-01) (63, 1.48768071085214614868e-02) (64, -1.08087897300720214844e-01) (65, -3.63499402999877929688e-01) (66, -1.17975585162639617920e-01) (67, -1.96798294782638549805e-01) (68, -9.55595225095748901367e-02) (69, -1.35423004627227783203e-01) (70, 1.27320811152458190918e-01) (71, -4.16690349578857421875e-01) (72, 1.27276062965393066406e-01) (73, -2.06908151507377624512e-01) (74, 3.78333106637001037598e-02) (75, 2.23488211631774902344e-02) (76, 7.99710769206285476685e-03) (77, -4.53837066888809204102e-02) (78, -2.04015728086233139038e-02) (79, -2.16559018008410930634e-03) (80, -1.83079481124877929688e-01) (81, -1.34425535798072814941e-01) (82, 7.15909153223037719727e-02) (83, 3.74153070151805877686e-02) (84, -1.92543148994445800781e-01) (85, -3.89176532626152038574e-02) (86, -1.18623496964573860168e-02) (87, -5.93601092696189880371e-02) (88, -1.56069770455360412598e-01) (89, 3.45943984575569629669e-03) (90, -3.41375380754470825195e-01) (91, -3.09941172599792480469e-02) (92, -8.02894234657287597656e-02) (93, 5.43081052601337432861e-02) (94, 6.38101994991302490234e-02) (95, -1.94626823067665100098e-01) (96, -8.23196098208427429199e-02) (97, -2.62157738208770751953e-01) (98, -8.91767516732215881348e-02) (99, 1.18105217814445495605e-01) (100, -1.66870161890983581543e-01) (0, 1.31985232234001159668e-01) (1, -7.36134275794029235840e-02) (2, 7.55195543169975280762e-02) (3, 1.61435320973396301270e-01) (4, 2.47487053275108337402e-02) (5, 8.24639108031988143921e-03) (6, -3.91444675624370574951e-02) (7, 2.84768827259540557861e-02) (8, 1.62385422736406326294e-02) (9, 3.80140431225299835205e-02) (10, -6.29334673285484313965e-02) (11, -6.71858191490173339844e-02) (12, 6.98845013976097106934e-02) (13, 1.99826732277870178223e-02) (14, -7.72730854805558919907e-04) (15, 3.78471128642559051514e-02) (16, -7.04749301075935363770e-02) (17, 4.51309196650981903076e-02) (18, -9.51003953814506530762e-02) (19, 2.27807164192199707031e-02) (20, 7.96182751655578613281e-02) (21, 7.77769014239311218262e-02) (22, -1.23860510066151618958e-02) (23, -5.91520778834819793701e-02) (24, -1.36188954114913940430e-01) (25, 1.21579490602016448975e-01) (26, 2.52037439495325088501e-02) (27, 5.55789284408092498779e-02) (28, -4.43135760724544525146e-02) (29, -1.36595278978347778320e-01) (30, -8.09582974761724472046e-03) (31, -1.15198872983455657959e-01) (32, -7.99195393919944763184e-02) (33, 1.55125958845019340515e-02) (34, 1.01320303976535797119e-01) (35, 2.50970609486103057861e-02) (36, -7.88737908005714416504e-02) (37, -8.16987454891204833984e-02) (38, -1.48879513144493103027e-01) (39, 1.34263932704925537109e-02) (40, 1.05409264564514160156e-01) (41, -3.06423921138048171997e-02) (42, 7.10781961679458618164e-02) (43, 1.89316943287849426270e-02) (44, 2.54195965826511383057e-02) (45, -1.34475484490394592285e-01) (46, -4.53570000827312469482e-02) (47, 1.34887900203466415405e-02) (48, -4.19375151395797729492e-02) (49, 1.88044667243957519531e-01) (50, 6.24642372131347656250e-02) (51, -1.51617214083671569824e-01) (52, -9.67490449547767639160e-02) (53, 5.31686767935752868652e-02) (54, 9.48921740055084228516e-02) (55, 2.73531582206487655640e-02) (56, -1.21980361640453338623e-01) (57, -2.10450794547796249390e-02) (58, -1.01353242993354797363e-01) (59, 1.79636795073747634888e-02) (60, -3.70067320764064788818e-02) (61, -9.30118039250373840332e-02) (62, 1.24343350529670715332e-01) (63, -1.25906035304069519043e-01) (64, -6.39363303780555725098e-02) (65, 6.37019649147987365723e-02) (66, -1.30722209811210632324e-01) (67, -5.73318339884281158447e-02) (68, 1.46315619349479675293e-01) (69, 2.73175481706857681274e-02) (70, -1.48299947381019592285e-01) (71, -1.01761102676391601562e-01) (72, -3.98613288998603820801e-02) (73, 1.17789044976234436035e-01) (74, -5.73750138282775878906e-02) (75, -5.61820529401302337646e-02) (76, 9.70217864960432052612e-03) (77, 1.65495261549949645996e-01) (78, 7.49879330396652221680e-02) (79, 5.72078935801982879639e-02) (80, -1.37327879667282104492e-01) (81, -4.89832535386085510254e-02) (82, 1.57077834010124206543e-01) (83, -4.47222627699375152588e-02) (84, 6.54073385521769523621e-03) (85, -5.43546341359615325928e-02) (86, -6.45852684974670410156e-02) (87, 1.19844362139701843262e-01) (88, 2.88491733372211456299e-02) (89, -1.47800907492637634277e-01) (90, 9.60659533739089965820e-02) (91, -7.21991211175918579102e-02) (92, 7.21413195133209228516e-02) (93, -4.22057993710041046143e-02) (94, 5.10350577533245086670e-02) (95, -1.06775946915149688721e-01) (96, -1.44609525799751281738e-01) (97, 6.63082906976342201233e-03) (98, 7.21909031271934509277e-02) (99, 1.28797531127929687500e-01) (100, 1.57606661319732666016e-01) (0, -1.31434826180338859558e-02) (1, -5.41294276714324951172e-01) (2, -1.96545831859111785889e-02) (3, 1.23329490423202514648e-01) (4, -9.12913903594017028809e-02) (5, -1.00772269070148468018e-01) (6, -4.77986074984073638916e-02) (7, 1.52632087469100952148e-01) (8, -9.06073600053787231445e-02) (9, -4.29083704948425292969e-02) (10, -5.29629409313201904297e-01) (11, 7.62718822807073593140e-03) (12, 8.41680094599723815918e-02) (13, 6.44145458936691284180e-02) (14, 1.43322348594665527344e-01) (15, -3.20396535098552703857e-02) (16, 3.50303426384925842285e-02) (17, -5.59023059904575347900e-02) (18, 7.03127756714820861816e-02) (19, -4.11778360605239868164e-01) (20, -5.25697767734527587891e-01) (21, -2.31749024242162704468e-02) (22, -6.54224827885627746582e-02) (23, 5.58544471859931945801e-02) (24, 3.70830073952674865723e-02) (25, 1.45020056515932083130e-02) (26, -8.02557989954948425293e-02) (27, 1.77177116274833679199e-02) (28, 1.32448777556419372559e-01) (29, -4.71602864563465118408e-02) (30, 9.36969071626663208008e-02) (31, 1.49298414587974548340e-01) (32, 1.16740293800830841064e-01) (33, -5.15924930572509765625e-01) (34, -2.18479074537754058838e-02) (35, -7.80471414327621459961e-02) (36, -8.19517493247985839844e-01) (37, -4.55648489296436309814e-02) (38, 1.10299482941627502441e-01) (39, -8.30646529793739318848e-02) (40, 6.59735426306724548340e-02) (41, 2.13672518730163574219e-02) (42, -6.22882843017578125000e-02) (43, 8.84805768728256225586e-02) (44, 1.08097776770591735840e-01) (45, -1.19244351983070373535e-01) (46, -5.25927431881427764893e-02) (47, -9.67646203935146331787e-03) (48, 7.92768001556396484375e-02) (49, 1.37206226587295532227e-01) (50, 3.81609634496271610260e-03) (51, 2.43646111339330673218e-02) (52, 1.23739905655384063721e-01) (53, -1.11938059329986572266e-01) (54, -5.85374474525451660156e-01) (55, 1.39017403125762939453e-02) (56, 2.11990941315889358521e-02) (57, -4.35550063848495483398e-02) (58, 8.47727879881858825684e-02) (59, -6.11707754433155059814e-02) (60, -3.93029712140560150146e-02) (61, -1.05795664712786674500e-02) (62, -4.91896897554397583008e-01) (63, 1.14267088472843170166e-01) (64, -1.27885282039642333984e-01) (65, -5.24474494159221649170e-02) (66, 5.60538331046700477600e-03) (67, -7.00555071234703063965e-02) (68, 8.86360462754964828491e-03) (69, -4.96118254959583282471e-02) (70, 2.72519085556268692017e-02) (71, 1.36136159300804138184e-01) (72, -4.91625517606735229492e-01) (73, 1.18430390954017639160e-01) (74, -4.42839302122592926025e-02) (75, 3.71635407209396362305e-02) (76, 7.44665935635566711426e-02) (77, 3.60339134931564331055e-02) (78, -8.59634950757026672363e-02) (79, 1.03133648633956909180e-01) (80, -6.79359436035156250000e-02) (81, -3.56323085725307464600e-02) (82, -5.94902373850345611572e-02) (83, 1.02302312850952148438e-01) (84, -3.64167280495166778564e-02) (85, 8.23505595326423645020e-02) (86, 1.27867609262466430664e-01) (87, -1.70576367527246475220e-02) (88, 7.06503838300704956055e-02) (89, -4.98186312615871429443e-02) (90, -9.98548883944749832153e-03) (91, 7.29967951774597167969e-02) (92, 1.18618592619895935059e-01) (93, -2.81228758394718170166e-02) (94, 3.66114005446434020996e-02) (95, 3.19294854998588562012e-02) (96, -5.35933077335357666016e-01) (97, -4.44285199046134948730e-02) (98, -7.10620954632759094238e-02) (99, -2.31256857514381408691e-02) (100, 2.06207856535911560059e-02) (0, -5.95724731683731079102e-02) (1, -1.42795607447624206543e-01) (2, -1.86698243021965026855e-01) (3, -4.97033400461077690125e-03) (4, 6.80281519889831542969e-02) (5, -5.16161173582077026367e-02) (6, -2.07795754075050354004e-01) (7, 1.10563106834888458252e-01) (8, 2.25468035787343978882e-02) (9, -5.16554936766624450684e-02) (10, -2.42591761052608489990e-02) (11, -7.75842890143394470215e-02) (12, 9.01265293359756469727e-02) (13, -5.90958409011363983154e-02) (14, -3.00606004893779754639e-02) (15, -1.07522740960121154785e-01) (16, -8.17295461893081665039e-02) (17, -1.15832611918449401855e-01) (18, 1.35685920715332031250e-01) (19, -1.75391241908073425293e-01) (20, -1.34443625807762145996e-01) (21, -2.16908589005470275879e-01) (22, -9.89954769611358642578e-02) (23, 5.06673343479633331299e-02) (24, 1.92575499415397644043e-01) (25, -8.25847834348678588867e-02) (26, 9.82541069388389587402e-02) (27, -1.45022034645080566406e-01) (28, -1.28363549709320068359e-01) (29, -2.10932165384292602539e-01) (30, -7.83814191818237304688e-02) (31, -6.41217604279518127441e-02) (32, -4.05322089791297912598e-02) (33, -1.93016766570508480072e-03) (34, -1.54164791107177734375e-01) (35, 1.01911984384059906006e-02) (36, -2.23281219601631164551e-01) (37, -6.74663186073303222656e-02) (38, 8.79754945635795593262e-02) (39, 6.09492957592010498047e-02) (40, 1.01001083850860595703e-01) (41, 3.61170060932636260986e-02) (42, 1.61740276962518692017e-02) (43, 2.87728160619735717773e-02) (44, 5.52881462499499320984e-03) (45, -1.42366737127304077148e-02) (46, 1.93156749010086059570e-02) (47, 4.12958972156047821045e-02) (48, -1.02304391562938690186e-01) (49, -5.42674399912357330322e-02) (50, 2.42941104806959629059e-03) (51, -1.09773725271224975586e-01) (52, -8.79875645041465759277e-02) (53, -1.14537283778190612793e-01) (54, -3.94333824515342712402e-02) (55, -1.30602018907666206360e-02) (56, -1.00103661417961120605e-01) (57, -1.39812365174293518066e-01) (58, -2.32652034610509872437e-02) (59, 6.71744048595428466797e-02) (60, 3.89780215919017791748e-02) (61, 5.42592257261276245117e-02) (62, -1.56333014369010925293e-01) (63, 4.25659492611885070801e-02) (64, -1.63479954004287719727e-01) (65, -1.39499768614768981934e-01) (66, -3.30784022808074951172e-02) (67, -1.24386288225650787354e-01) (68, -1.90609216690063476562e-01) (69, -6.57089948654174804688e-02) (70, 4.18345816433429718018e-02) (71, -1.78636178374290466309e-01) (72, -1.16701699793338775635e-01) (73, -2.92504648678004741669e-03) (74, -1.21639616787433624268e-01) (75, 1.53260901570320129395e-02) (76, 1.49336665868759155273e-01) (77, 1.73088878393173217773e-01) (78, -4.90271039307117462158e-02) (79, 3.78630347549915313721e-02) (80, -1.81612104643136262894e-03) (81, -1.21239863336086273193e-01) (82, -3.98013480007648468018e-02) (83, 1.14606820046901702881e-01) (84, 2.39157956093549728394e-02) (85, -5.68049624562263488770e-02) (86, -1.37855768203735351562e-01) (87, 1.47474989295005798340e-01) (88, 7.78008624911308288574e-02) (89, 3.54722552001476287842e-02) (90, 1.19630023837089538574e-02) (91, -1.25069737434387207031e-01) (92, -1.42852053046226501465e-01) (93, -1.66496708989143371582e-01) (94, 2.28471439331769943237e-02) (95, -1.17072775959968566895e-01) (96, -1.21488921344280242920e-01) (97, -2.02296022325754165649e-02) (98, 6.09922856092453002930e-02) (99, -1.15065619349479675293e-01) (100, -3.60941290855407714844e-01) (0, -1.61339759826660156250e-01) (1, 2.37921848893165588379e-01) (2, -2.69974082708358764648e-01) (3, 2.03327178955078125000e-01) (4, 1.06997303664684295654e-02) (5, -1.02147810161113739014e-01) (6, -5.20026450976729393005e-03) (7, 1.09868176281452178955e-01) (8, 4.88481260836124420166e-02) (9, 3.11626847833395004272e-02) (10, 4.79274094104766845703e-02) (11, -8.47002416849136352539e-02) (12, 6.30979984998703002930e-02) (13, 2.97316431999206542969e-01) (14, -1.26069992780685424805e-01) (15, -8.91813784837722778320e-02) (16, 4.54939194023609161377e-02) (17, 8.80388319492340087891e-02) (18, 1.91655635833740234375e-01) (19, -2.86592785269021987915e-02) (20, 1.15948691964149475098e-01) (21, 2.04113319516181945801e-01) (22, 1.97066273540258407593e-03) (23, 1.04470200836658477783e-01) (24, -1.18313066661357879639e-01) (25, 2.27025300264358520508e-01) (26, 2.07999691367149353027e-01) (27, 1.36810392141342163086e-01) (28, 4.20539736747741699219e-01) (29, -2.51390248537063598633e-01) (30, -3.49262237548828125000e-01) (31, -1.37029707431793212891e-01) (32, 1.52873486280441284180e-01) (33, 2.85641215741634368896e-02) (34, -7.24800908938050270081e-03) (35, 1.72782078385353088379e-01) (36, 2.82423645257949829102e-01) (37, -1.78970792330801486969e-03) (38, -2.27655321359634399414e-01) (39, -8.51964019238948822021e-03) (40, 1.06943503022193908691e-01) (41, -2.97095417976379394531e-01) (42, -2.50077277421951293945e-01) (43, 1.41055315732955932617e-01) (44, 1.03696055710315704346e-01) (45, 1.27552032470703125000e-01) (46, 3.17144691944122314453e-01) (47, -2.21929609775543212891e-01) (48, -2.41403639316558837891e-01) (49, 1.03703953325748443604e-01) (50, 4.09784078598022460938e-01) (51, -3.42697262763977050781e-01) (52, 1.42423966899514198303e-02) (53, -1.26568362116813659668e-01) (54, 7.19520896673202514648e-02) (55, -1.64805293083190917969e-01) (56, -2.94530957937240600586e-01) (57, -4.29398799315094947815e-03) (58, -1.49230331182479858398e-01) (59, 1.34155005216598510742e-01) (60, -1.40389993786811828613e-01) (61, -4.65589500963687896729e-02) (62, 1.37671321630477905273e-01) (63, 2.44331415742635726929e-02) (64, 7.30328634381294250488e-02) (65, 3.79738537594676017761e-03) (66, -2.20375806093215942383e-01) (67, -5.03755733370780944824e-02) (68, -1.96984648704528808594e-01) (69, -1.55391559004783630371e-01) (70, -3.31905931234359741211e-02) (71, -1.62828251719474792480e-01) (72, -1.11277975142002105713e-01) (73, 1.13761380314826965332e-01) (74, -3.89444559812545776367e-01) (75, 2.93379485607147216797e-01) (76, -2.28588759899139404297e-01) (77, 1.55704598873853683472e-02) (78, -1.01803191006183624268e-01) (79, 1.58076271414756774902e-01) (80, -1.52546182274818420410e-01) (81, -1.26473695039749145508e-01) (82, 3.29800555482506752014e-03) (83, -7.69682601094245910645e-02) (84, 3.67839187383651733398e-02) (85, 5.37884794175624847412e-02) (86, 1.11840469762682914734e-02) (87, -2.55202353000640869141e-01) (88, 1.71698853373527526855e-01) (89, 1.28748014569282531738e-01) (90, -1.95922404527664184570e-01) (91, -1.96230366826057434082e-01) (92, -1.09912246465682983398e-01) (93, 8.22520777583122253418e-02) (94, 5.67892566323280334473e-02) (95, 1.34168909862637519836e-02) (96, 1.08997285366058349609e-01) (97, -3.18753719329833984375e-01) (98, 3.31986993551254272461e-01) (99, -1.80771127343177795410e-01) (100, 2.73129522800445556641e-01) (0, 1.63618355989456176758e-01) (1, -8.78755301237106323242e-02) (2, 1.21221467852592468262e-01) (3, -1.03266887366771697998e-01) (4, -1.23923175036907196045e-01) (5, -1.73197641968727111816e-01) (6, -1.39907738193869590759e-02) (7, 6.53754174709320068359e-02) (8, -1.01400986313819885254e-01) (9, -1.13751091063022613525e-01) (10, 1.15211680531501770020e-02) (11, 9.99353677034378051758e-02) (12, -3.77596467733383178711e-02) (13, -1.65273278951644897461e-01) (14, -3.80907543003559112549e-02) (15, -1.10734060406684875488e-01) (16, -7.86752700805664062500e-02) (17, 9.39379781484603881836e-02) (18, 3.97342406213283538818e-02) (19, -1.34873911738395690918e-01) (20, 9.34183131903409957886e-03) (21, -2.42214187979698181152e-01) (22, 1.78172010928392410278e-02) (23, -6.88454806804656982422e-02) (24, -9.01109501719474792480e-02) (25, -1.82206422090530395508e-01) (26, -2.37401966005563735962e-02) (27, -1.38145774602890014648e-01) (28, -7.07164928317070007324e-02) (29, -1.01951070129871368408e-01) (30, 6.37137070298194885254e-02) (31, -9.65524762868881225586e-02) (32, 4.96250949800014495850e-02) (33, 5.08331321179866790771e-02) (34, -6.85896277427673339844e-02) (35, 4.25009988248348236084e-02) (36, -1.37319132685661315918e-01) (37, 2.28581298142671585083e-02) (38, 5.35958036780357360840e-02) (39, 9.47357341647148132324e-02) (40, -7.48830512166023254395e-02) (41, -1.00740201771259307861e-01) (42, 3.72390337288379669189e-02) (43, 7.80887156724929809570e-02) (44, 6.46424442529678344727e-02) (45, -1.91001698374748229980e-01) (46, -1.77382484078407287598e-01) (47, -8.14194977283477783203e-02) (48, -7.27427303791046142578e-02) (49, 1.05269305408000946045e-01) (50, -4.76209297776222229004e-02) (51, -4.35632430016994476318e-02) (52, -1.36980786919593811035e-01) (53, 8.85056853294372558594e-02) (54, 1.14331290125846862793e-01) (55, 1.80679801851511001587e-02) (56, -2.22152601927518844604e-02) (57, -9.42244380712509155273e-02) (58, -6.95218378677964210510e-03) (59, 8.27637538313865661621e-02) (60, -5.61099238693714141846e-02) (61, 5.44506423175334930420e-02) (62, -5.58269433677196502686e-02) (63, -1.04339130222797393799e-01) (64, -1.92649941891431808472e-02) (65, -2.62549389153718948364e-02) (66, -1.71111628413200378418e-01) (67, -1.20086602866649627686e-01) (68, -3.79255712032318115234e-02) (69, 2.75428947061300277710e-02) (70, -9.83214122243225574493e-04) (71, -1.30411028861999511719e-01) (72, 9.64552462100982666016e-02) (73, -4.35047270730137825012e-03) (74, 1.04642026126384735107e-01) (75, -2.02183350920677185059e-01) (76, -5.86972683668136596680e-02) (77, -1.00655592978000640869e-01) (78, -5.80136366188526153564e-02) (79, -1.40697702765464782715e-01) (80, -9.17907804250717163086e-02) (81, -1.54902040958404541016e-02) (82, -9.34899225831031799316e-02) (83, -7.83763825893402099609e-02) (84, -1.02045550942420959473e-01) (85, -1.13228196278214454651e-02) (86, 1.16223758086562156677e-02) (87, 1.79651491343975067139e-02) (88, 9.17644351720809936523e-02) (89, -1.48552253842353820801e-01) (90, -3.07776704430580139160e-02) (91, -1.12743735313415527344e-01) (92, -9.51587222516536712646e-03) (93, -1.28642186522483825684e-01) (94, -1.48791626095771789551e-01) (95, -1.08586668968200683594e-01) (96, -1.70074447989463806152e-01) (97, 1.06615172699093818665e-02) (98, -9.76754799485206604004e-02) (99, -1.93545371294021606445e-02) (100, -1.09930902719497680664e-01) (0, -1.60485550761222839355e-01) (1, -3.88490930199623107910e-02) (2, -1.04712359607219696045e-01) (3, -1.32427001371979713440e-02) (4, -5.22005967795848846436e-02) (5, -9.56740081310272216797e-02) (6, -2.53715723752975463867e-01) (7, -1.39127299189567565918e-01) (8, -2.59002357721328735352e-01) (9, -4.79190051555633544922e-02) (10, -1.98997348546981811523e-01) (11, -1.68744429945945739746e-01) (12, -7.28336349129676818848e-02) (13, -1.06078013777732849121e-03) (14, -1.72019630670547485352e-01) (15, -9.49378535151481628418e-02) (16, -1.95272952318191528320e-01) (17, -1.89097523689270019531e-02) (18, -1.89809083938598632812e-01) (19, -2.02217817306518554688e-01) (20, 2.18664691783487796783e-03) (21, -2.26416382938623428345e-02) (22, -1.54551774263381958008e-01) (23, -8.87090042233467102051e-02) (24, -2.75280997157096862793e-02) (25, -1.42199665307998657227e-01) (26, 7.73782283067703247070e-02) (27, -3.75921763479709625244e-02) (28, 2.47587695717811584473e-01) (29, -2.12503552436828613281e-01) (30, -3.61218154430389404297e-01) (31, -3.20282876491546630859e-01) (32, -1.35515585541725158691e-01) (33, -1.85672089457511901855e-01) (34, -2.60079771280288696289e-01) (35, -1.38644114136695861816e-01) (36, -1.06643110513687133789e-01) (37, 1.30944689735770225525e-02) (38, -1.08706884086132049561e-01) (39, -8.47335457801818847656e-02) (40, -5.83909526467323303223e-02) (41, -3.48171889781951904297e-01) (42, -2.58543908596038818359e-01) (43, -3.58493886888027191162e-02) (44, 4.43715415894985198975e-02) (45, -2.20732629299163818359e-01) (46, -6.70341253280639648438e-02) (47, -3.11390876770019531250e-01) (48, -1.48330792784690856934e-01) (49, 1.05957522988319396973e-01) (50, 2.66543507575988769531e-01) (51, -2.17505514621734619141e-01) (52, -1.68459385633468627930e-01) (53, -3.33604037761688232422e-01) (54, -6.08033090829849243164e-02) (55, -4.26053479313850402832e-02) (56, -1.93472191691398620605e-01) (57, -2.20115885138511657715e-01) (58, -2.27536529302597045898e-01) (59, 4.38260398805141448975e-02) (60, -9.53535884618759155273e-02) (61, -2.59179860353469848633e-01) (62, -1.29664242267608642578e-02) (63, 3.81462685763835906982e-02) (64, -4.79095466434955596924e-02) (65, -8.71541425585746765137e-02) (66, -2.73087471723556518555e-01) (67, -2.47365862131118774414e-01) (68, -1.50003358721733093262e-01) (69, -1.43357813358306884766e-01) (70, -1.02577760815620422363e-01) (71, -8.71301069855690002441e-02) (72, -2.35923286527395248413e-02) (73, -2.76562303304672241211e-01) (74, -1.22245386242866516113e-01) (75, -5.75712919235229492188e-02) (76, -1.26383766531944274902e-01) (77, 2.82878670841455459595e-02) (78, -2.36305370926856994629e-01) (79, -2.10210993885993957520e-01) (80, -1.79503753781318664551e-01) (81, -1.63057282567024230957e-01) (82, -8.90272483229637145996e-02) (83, -1.49326428771018981934e-01) (84, -2.92079150676727294922e-01) (85, -1.36578127741813659668e-01) (86, -1.84111282229423522949e-01) (87, -2.61752367019653320312e-01) (88, -2.63272337615489959717e-02) (89, 8.18948075175285339355e-02) (90, -1.58030748367309570312e-01) (91, -2.21043944358825683594e-01) (92, -2.95410603284835815430e-01) (93, -1.71270206570625305176e-01) (94, -1.83955341577529907227e-01) (95, 8.44193324446678161621e-02) (96, -1.32298305630683898926e-01) (97, -3.01816493272781372070e-01) (98, 1.04491993784904479980e-01) (99, -1.01239942014217376709e-02) (100, 1.12987160682678222656e-01) (0, 2.79087126255035400391e-02) (1, -4.85798753798007965088e-02) (2, -4.54574525356292724609e-02) (3, -1.42106801271438598633e-01) (4, 6.19374141097068786621e-02) (5, -2.40575056523084640503e-02) (6, -2.44657397270202636719e-01) (7, -7.30401650071144104004e-02) (8, -1.02692186832427978516e-01) (9, 9.48594883084297180176e-02) (10, -1.97737943381071090698e-03) (11, 3.78260836005210876465e-02) (12, -1.58748582005500793457e-01) (13, -1.04046992957592010498e-01) (14, -8.88049975037574768066e-02) (15, 6.62284949794411659241e-03) (16, -1.83846339583396911621e-01) (17, 6.43882527947425842285e-02) (18, 8.96899029612541198730e-03) (19, 1.09444679692387580872e-02) (20, -1.82587832212448120117e-01) (21, -2.69453022629022598267e-02) (22, -2.75007765740156173706e-02) (23, -1.43658503890037536621e-01) (24, 4.93663698434829711914e-02) (25, -1.17999918758869171143e-01) (26, -2.74102259427309036255e-02) (27, -1.44676163792610168457e-01) (28, 8.17872658371925354004e-02) (29, -1.42836675047874450684e-01) (30, 2.28442065417766571045e-02) (31, -1.19636446237564086914e-01) (32, -7.68716111779212951660e-02) (33, -5.45016974210739135742e-02) (34, -2.74234227836132049561e-02) (35, 4.48751710355281829834e-02) (36, -5.52439615130424499512e-02) (37, -1.37130528688430786133e-01) (38, 9.51134134083986282349e-03) (39, -1.03255152702331542969e-01) (40, -4.23174500465393066406e-02) (41, 7.82276690006256103516e-02) (42, 1.16985894739627838135e-01) (43, -1.13772377371788024902e-01) (44, 7.01307430863380432129e-02) (45, -1.08045347034931182861e-01) (46, -1.58793836832046508789e-01) (47, 2.59734708815813064575e-02) (48, -1.09601408243179321289e-01) (49, -7.24209845066070556641e-03) (50, -9.17865186929702758789e-02) (51, -1.11233163625001907349e-03) (52, 8.25949087738990783691e-02) (53, -8.17884225398302078247e-03) (54, -2.75435280054807662964e-02) (55, 9.72000509500503540039e-03) (56, 6.36907070875167846680e-02) (57, -8.22693929076194763184e-02) (58, 2.89077553898096084595e-02) (59, -1.55536100268363952637e-01) (60, 1.09923668205738067627e-01) (61, -1.09077561646699905396e-02) (62, -2.59448289871215820312e-02) (63, 8.33777189254760742188e-02) (64, -7.15343654155731201172e-02) (65, -2.33922451734542846680e-02) (66, -5.55074028670787811279e-02) (67, 3.84431262500584125519e-03) (68, 6.85615232214331626892e-03) (69, -1.57992631196975708008e-01) (70, -1.11287303268909454346e-01) (71, 1.49415982887148857117e-02) (72, -1.26658439636230468750e-01) (73, 3.15608419477939605713e-02) (74, 7.78376534581184387207e-02) (75, 9.32176560163497924805e-02) (76, 8.54450240731239318848e-02) (77, -2.13955976068973541260e-02) (78, -1.28356829285621643066e-01) (79, 4.58668246865272521973e-02) (80, -4.89520467817783355713e-02) (81, -1.38251721858978271484e-01) (82, -1.27511732280254364014e-02) (83, -9.79862883687019348145e-02) (84, 3.37283127009868621826e-02) (85, -1.24093264341354370117e-01) (86, -1.41326725482940673828e-01) (87, -6.29351139068603515625e-02) (88, -6.74466118216514587402e-02) (89, -5.57503625750541687012e-02) (90, -7.60265998542308807373e-03) (91, -7.49706700444221496582e-02) (92, -1.85899525880813598633e-01) (93, -6.29118382930755615234e-02) (94, 2.22988761961460113525e-02) (95, -6.68117702007293701172e-02) (96, -5.44527247548103332520e-02) (97, -1.34774520993232727051e-01) (98, -4.73736263811588287354e-02) (99, -1.49265766143798828125e-01) (100, -1.77808001637458801270e-01) (0, -4.78211939334869384766e-02) (1, -1.24916732311248779297e-01) (2, -3.84196415543556213379e-02) (3, -8.94299000501632690430e-02) (4, -1.57909393310546875000e-01) (5, 2.12893672287464141846e-02) (6, -2.23100513219833374023e-01) (7, -9.92560200393199920654e-03) (8, -5.36241121590137481689e-02) (9, 5.16290254890918731689e-02) (10, -1.65045440196990966797e-01) (11, 9.69014242291450500488e-02) (12, 6.94089233875274658203e-02) (13, -6.12223260104656219482e-02) (14, -1.31151840090751647949e-01) (15, 8.04206207394599914551e-02) (16, -6.70347660779953002930e-02) (17, 6.63366168737411499023e-02) (18, 5.88500723242759704590e-02) (19, 1.83958350680768489838e-03) (20, -1.02745138108730316162e-01) (21, -2.07500994205474853516e-01) (22, -1.27506498247385025024e-02) (23, -6.07760399580001831055e-02) (24, 9.44718718528747558594e-03) (25, -1.98870360851287841797e-01) (26, 3.15297693014144897461e-02) (27, -1.09349742531776428223e-01) (28, -2.55731284618377685547e-01) (29, -1.96547567844390869141e-01) (30, -8.52454230189323425293e-02) (31, 2.29509063065052032471e-02) (32, -3.11330743134021759033e-02) (33, -2.33265385031700134277e-01) (34, -1.18357598781585693359e-01) (35, -1.18888340890407562256e-01) (36, -1.40545114874839782715e-01) (37, -2.41546835750341415405e-02) (38, 1.18850268423557281494e-01) (39, 7.88130238652229309082e-02) (40, -2.87813991308212280273e-02) (41, -7.80461132526397705078e-02) (42, 1.27146393060684204102e-01) (43, -5.77508322894573211670e-02) (44, -2.05409619957208633423e-02) (45, -1.57964468002319335938e-01) (46, -1.52924299240112304688e-01) (47, 3.15898284316062927246e-02) (48, 3.27983535826206207275e-02) (49, -7.10111260414123535156e-02) (50, -5.85130192339420318604e-02) (51, 2.29455791413784027100e-02) (52, -1.38444572687149047852e-01) (53, -1.49048760533332824707e-01) (54, -1.00927233695983886719e-01) (55, -8.45175534486770629883e-02) (56, 4.34851981699466705322e-02) (57, -1.89942196011543273926e-01) (58, -5.77873364090919494629e-02) (59, 1.30299692973494529724e-02) (60, 1.64374206215143203735e-02) (61, -9.05268043279647827148e-02) (62, -1.17306225001811981201e-01) (63, -1.50494351983070373535e-01) (64, -2.38465920090675354004e-01) (65, 2.40514110773801803589e-02) (66, -2.53816992044448852539e-02) (67, -1.14211045205593109131e-01) (68, -1.17052337154746055603e-02) (69, -4.71787266433238983154e-02) (70, 9.52932536602020263672e-02) (71, -1.07074514031410217285e-01) (72, -1.98986381292343139648e-01) (73, -2.29848027229309082031e-02) (74, 4.41725403070449829102e-02) (75, -1.56885698437690734863e-01) (76, 7.75668025016784667969e-02) (77, 1.86539404094219207764e-02) (78, -4.37367074191570281982e-02) (79, -1.04651771485805511475e-01) (80, -3.18547971546649932861e-02) (81, -5.56334806606173515320e-03) (82, -1.19506180286407470703e-01) (83, -1.03434666991233825684e-01) (84, -1.48129686713218688965e-01) (85, -4.06909100711345672607e-02) (86, -4.28109019994735717773e-02) (87, 3.52603346109390258789e-02) (88, 1.70762967318296432495e-02) (89, -3.63049693405628204346e-02) (90, 2.11985707283020019531e-02) (91, -1.49197727441787719727e-01) (92, 9.44570302963256835938e-02) (93, -1.65067166090011596680e-01) (94, -4.36549866572022438049e-03) (95, -9.69921518117189407349e-03) (96, -2.30263307690620422363e-01) (97, -6.13044016063213348389e-02) (98, -1.91322758793830871582e-01) (99, 3.36106754839420318604e-02) (100, 1.06730900704860687256e-01) (0, 3.11807747930288314819e-02) (1, -1.00932478904724121094e-01) (2, -2.28341575711965560913e-02) (3, -6.42568022012710571289e-02) (4, -1.42904296517372131348e-01) (5, 8.84281992912292480469e-02) (6, -4.39907871186733245850e-02) (7, -1.34386997669935226440e-02) (8, -5.30034750699996948242e-02) (9, -1.79792009294033050537e-02) (10, -1.50136590003967285156e-01) (11, 8.75587835907936096191e-02) (12, -1.56789988279342651367e-01) (13, -1.68696120381355285645e-01) (14, 1.94239635020494461060e-02) (15, 4.83733322471380233765e-03) (16, 1.64700560271739959717e-02) (17, 1.07353110797703266144e-03) (18, 5.65085820853710174561e-02) (19, -1.25374689698219299316e-01) (20, -3.18347364664077758789e-02) (21, -2.36065816134214401245e-02) (22, -1.13839581608772277832e-01) (23, -4.28433753550052642822e-02) (24, 3.21788191795349121094e-02) (25, -1.39034599065780639648e-01) (26, -1.17961995303630828857e-01) (27, -1.45945653319358825684e-01) (28, -5.41665591299533843994e-02) (29, -5.78884072601795196533e-02) (30, -3.63509543240070343018e-02) (31, 2.57600285112857818604e-02) (32, -1.18215307593345642090e-01) (33, -3.70123013854026794434e-02) (34, -7.96886608004570007324e-02) (35, 2.02112644910812377930e-02) (36, -1.19924917817115783691e-01) (37, -6.69567808508872985840e-02) (38, -7.25593641400337219238e-02) (39, 3.21825444698333740234e-02) (40, -1.16770356893539428711e-01) (41, -1.04948244988918304443e-01) (42, -2.46518589556217193604e-02) (43, -4.45833280682563781738e-02) (44, -1.43083095550537109375e-01) (45, -1.51567712426185607910e-01) (46, 7.04158768057823181152e-02) (47, -1.17487818002700805664e-01) (48, -1.65864154696464538574e-01) (49, 3.31941246986389160156e-02) (50, -1.65509149432182312012e-01) (51, -2.22055967897176742554e-02) (52, 7.72690549492835998535e-02) (53, -1.37106776237487792969e-02) (54, 2.86223962903022766113e-02) (55, -8.95629376173019409180e-02) (56, -1.00972689688205718994e-02) (57, -1.27219066023826599121e-01) (58, -4.62360493838787078857e-03) (59, 3.09819746762514114380e-02) (60, -1.50864958763122558594e-01) (61, -1.36186003684997558594e-01) (62, -8.60114321112632751465e-02) (63, -8.09755697846412658691e-02) (64, -1.06626175343990325928e-01) (65, -1.44414618611335754395e-01) (66, -1.33862584829330444336e-01) (67, -3.26271578669548034668e-02) (68, -1.21786266565322875977e-01) (69, -1.75251841545104980469e-01) (70, 1.95022635161876678467e-02) (71, -8.72151404619216918945e-02) (72, -7.71862491965293884277e-02) (73, -3.43852899968624114990e-02) (74, 1.19659528136253356934e-02) (75, -2.45575327426195144653e-02) (76, -7.11309984326362609863e-02) (77, -1.25596420839428901672e-02) (78, 2.24564615637063980103e-02) (79, -1.45582089317031204700e-04) (80, -8.30851793289184570312e-02) (81, -5.72140961885452270508e-02) (82, 5.09064272046089172363e-02) (83, 2.77676172554492950439e-02) (84, -2.29992270469665527344e-02) (85, -6.37729167938232421875e-02) (86, -1.01725518703460693359e-01) (87, -1.50531291961669921875e-01) (88, -6.61818906664848327637e-02) (89, -5.32590113580226898193e-02) (90, -1.24002680182456970215e-01) (91, -1.02871216833591461182e-01) (92, -6.50655850768089294434e-02) (93, -5.66853769123554229736e-02) (94, -1.86062261462211608887e-01) (95, -1.04275852441787719727e-01) (96, -1.71986117959022521973e-01) (97, -7.78204575181007385254e-02) (98, -6.67048841714859008789e-02) (99, -1.12156018614768981934e-01) (100, 1.49519935250282287598e-01) (0, 1.38023525476455688477e-01) (1, -1.07492707669734954834e-01) (2, 1.32777214050292968750e-01) (3, -4.16228957474231719971e-02) (4, -1.51136413216590881348e-01) (5, 1.29604851827025413513e-03) (6, -2.91007101535797119141e-01) (7, -5.22492229938507080078e-02) (8, 1.54333546757698059082e-01) (9, 8.73979832977056503296e-03) (10, -2.06650644540786743164e-01) (11, 1.55120626091957092285e-01) (12, -8.59887823462486267090e-02) (13, -1.64751037955284118652e-01) (14, -7.50929815694689750671e-03) (15, -1.32820606231689453125e-02) (16, -7.30877295136451721191e-02) (17, -8.53223800659179687500e-02) (18, -5.59623818844556808472e-03) (19, -1.03759668767452239990e-01) (20, -2.87549704313278198242e-01) (21, -9.86512079834938049316e-02) (22, 7.49624371528625488281e-02) (23, -5.23366816341876983643e-02) (24, 2.27299630641937255859e-02) (25, -1.24916508793830871582e-01) (26, -5.41894398629665374756e-02) (27, -2.01453447341918945312e-01) (28, -6.72566071152687072754e-02) (29, -1.91636800765991210938e-01) (30, 1.64503782987594604492e-01) (31, -3.71920354664325714111e-02) (32, -7.82397463917732238770e-02) (33, -2.58548557758331298828e-01) (34, -1.42915919423103332520e-01) (35, -6.34263232350349426270e-02) (36, -2.36286103725433349609e-01) (37, -2.13884592056274414062e-01) (38, 1.32601335644721984863e-01) (39, 1.44273102283477783203e-01) (40, -1.90323535352945327759e-02) (41, 2.17077210545539855957e-02) (42, 4.43559959530830383301e-02) (43, -8.20600762963294982910e-02) (44, 7.20758736133575439453e-02) (45, 2.31183208525180816650e-02) (46, -1.97235345840454101562e-01) (47, 2.30594649910926818848e-02) (48, 6.56958892941474914551e-02) (49, 9.78376567363739013672e-02) (50, -1.11458383500576019287e-01) (51, 4.62504662573337554932e-02) (52, 1.01596690714359283447e-01) (53, -1.47524043917655944824e-01) (54, -1.92251026630401611328e-01) (55, -6.51121959090232849121e-02) (56, -8.85479375720024108887e-02) (57, -5.52499070763587951660e-02) (58, 4.68785911798477172852e-02) (59, 5.37119470536708831787e-02) (60, 4.50682155787944793701e-02) (61, -4.92306277155876159668e-02) (62, -6.03676848113536834717e-02) (63, -4.13146764039993286133e-02) (64, -8.12486037611961364746e-02) (65, -2.47692689299583435059e-01) (66, -4.11669760942459106445e-02) (67, -3.29188376665115356445e-01) (68, -6.86857476830482482910e-02) (69, 1.40088766813278198242e-01) (70, -9.63923335075378417969e-02) (71, -2.92162597179412841797e-01) (72, -1.43680602312088012695e-01) (73, -9.34357419610023498535e-02) (74, 1.68723892420530319214e-02) (75, -1.11918486654758453369e-01) (76, 1.75752550363540649414e-01) (77, 1.63052722811698913574e-01) (78, 1.71006396412849426270e-01) (79, -2.50891685485839843750e-01) (80, -7.44905546307563781738e-02) (81, 1.16468682885169982910e-01) (82, -3.64809818565845489502e-02) (83, 2.22692519426345825195e-01) (84, 3.92058715224266052246e-02) (85, -2.47807621955871582031e-01) (86, -9.44607332348823547363e-02) (87, -2.62758089229464530945e-03) (88, -8.25896412134170532227e-02) (89, 1.16549162194132804871e-02) (90, -9.33298096060752868652e-02) (91, -5.70876896381378173828e-02) (92, -1.61602884531021118164e-01) (93, -1.29702597856521606445e-01) (94, -1.38493056874722242355e-03) (95, -9.67332795262336730957e-02) (96, -1.67586743831634521484e-01) (97, -5.35434670746326446533e-02) (98, -7.10923001170158386230e-02) (99, 6.59792646765708923340e-02) (100, -4.85287070274353027344e-01) (0, -2.83625990152359008789e-01) (1, 1.56244793906807899475e-02) (2, -1.81534633040428161621e-01) (3, 1.98666211217641830444e-02) (4, -3.42084877192974090576e-02) (5, -4.96489070355892181396e-02) (6, -4.92360703647136688232e-02) (7, -2.18246951699256896973e-01) (8, -1.19229838252067565918e-01) (9, -1.17643788456916809082e-01) (10, -6.01821811869740486145e-03) (11, -2.92576178908348083496e-02) (12, -2.17269018292427062988e-01) (13, 1.06768822297453880310e-02) (14, 1.40012413263320922852e-01) (15, -1.27577155828475952148e-01) (16, -8.07592496275901794434e-02) (17, 5.34511692821979522705e-02) (18, -1.46235361695289611816e-01) (19, -2.18223929405212402344e-02) (20, -1.32298171520233154297e-01) (21, 1.23717471957206726074e-01) (22, -1.14569745957851409912e-01) (23, 1.50065973401069641113e-01) (24, -7.35864713788032531738e-02) (25, -4.42012473940849304199e-02) (26, 1.36423474177718162537e-02) (27, -1.26312866806983947754e-01) (28, 2.54484623670578002930e-01) (29, -8.42797309160232543945e-02) (30, -3.42913538217544555664e-01) (31, -2.00605928897857666016e-01) (32, -5.40322400629520416260e-02) (33, 2.04476743936538696289e-01) (34, -7.76811167597770690918e-02) (35, -7.90605172514915466309e-02) (36, 1.13235577940940856934e-01) (37, -2.35014989972114562988e-01) (38, -3.32392185926437377930e-01) (39, -1.06036737561225891113e-02) (40, -3.59669793397188186646e-03) (41, -4.40917193889617919922e-01) (42, -3.48802179098129272461e-01) (43, -1.56719967722892761230e-01) (44, -9.96495261788368225098e-02) (45, -1.90718069672584533691e-01) (46, 3.93603704869747161865e-02) (47, -2.11955532431602478027e-01) (48, -2.77460545301437377930e-01) (49, -4.28274534642696380615e-02) (50, 2.20300257205963134766e-01) (51, -1.18199810385704040527e-01) (52, -1.82817444205284118652e-01) (53, -9.10667330026626586914e-03) (54, 2.02164147049188613892e-02) (55, 2.45528370141983032227e-02) (56, -2.31490448117256164551e-01) (57, 5.07569573819637298584e-02) (58, -1.11264027655124664307e-01) (59, 7.36825494095683097839e-03) (60, -4.90650581195950508118e-03) (61, 3.76750305294990539551e-02) (62, 1.25768393278121948242e-01) (63, 1.66802685707807540894e-02) (64, 1.27730801701545715332e-01) (65, -4.40205186605453491211e-02) (66, -2.22253710031509399414e-01) (67, 6.30179494619369506836e-02) (68, -2.04735081642866134644e-02) (69, -2.83184915781021118164e-01) (70, -4.16035801172256469727e-01) (71, -1.64133131504058837891e-01) (72, -1.75178617238998413086e-01) (73, -1.18486911058425903320e-01) (74, -1.00352197885513305664e-01) (75, -1.49463370442390441895e-01) (76, -7.86935091018676757812e-02) (77, -2.09197804331779479980e-01) (78, -1.53921306133270263672e-01) (79, 7.49008730053901672363e-02) (80, -2.96629041433334350586e-01) (81, -2.76272386312484741211e-01) (82, 1.34207889437675476074e-01) (83, -2.54297822713851928711e-01) (84, -7.94429630041122436523e-02) (85, -6.67532682418823242188e-02) (86, 1.89630344510078430176e-01) (87, -2.60383993387222290039e-01) (88, 1.00836470723152160645e-01) (89, 7.56797119975090026855e-02) (90, -1.92162007093429565430e-01) (91, -1.77775710821151733398e-01) (92, -1.73994317650794982910e-01) (93, -1.91760599613189697266e-01) (94, -1.86984270811080932617e-01) (95, -6.81620761752128601074e-02) (96, 3.94217967987060546875e-02) (97, -3.29968959093093872070e-01) (98, 1.24084772542119026184e-02) (99, -1.43825635313987731934e-01) (100, 1.82082787156105041504e-01) (0, -1.11602380871772766113e-01) (1, -1.25124678015708923340e-01) (2, -1.41404747962951660156e-01) (3, 4.98544331640005111694e-03) (4, -2.20007866621017456055e-01) (5, -1.94797635078430175781e-01) (6, -8.89910161495208740234e-02) (7, 2.55850497633218765259e-02) (8, -2.07969143986701965332e-01) (9, -1.62478759884834289551e-01) (10, -9.42874625325202941895e-02) (11, -1.33586362004280090332e-01) (12, -9.09222289919853210449e-02) (13, 6.05384558439254760742e-02) (14, -8.63824784755706787109e-02) (15, -1.14797286689281463623e-01) (16, -4.87434752285480499268e-02) (17, 1.00454653147608041763e-03) (18, -1.96561127901077270508e-01) (19, -1.07402630150318145752e-01) (20, -2.67598442733287811279e-02) (21, 2.95932665467262268066e-02) (22, -1.45229920744895935059e-01) (23, 2.02896054834127426147e-02) (24, -1.48870229721069335938e-01) (25, 1.27969160676002502441e-02) (26, 2.29927506297826766968e-02) (27, -2.88547631353139877319e-02) (28, -1.38009727001190185547e-01) (29, -6.58306432887911796570e-03) (30, -2.47104197740554809570e-01) (31, -1.48562803864479064941e-01) (32, -1.03860840201377868652e-01) (33, -9.53514128923416137695e-02) (34, -7.72650027647614479065e-03) (35, -1.12500213086605072021e-01) (36, -1.05108581483364105225e-02) (37, -1.90727431327104568481e-02) (38, -1.14370197057723999023e-01) (39, 3.43793891370296478271e-02) (40, 1.89173594117164611816e-02) (41, -2.46328786015510559082e-01) (42, -9.98153686523437500000e-02) (43, -1.00276909768581390381e-01) (44, -2.00122430920600891113e-01) (45, -3.47103774547576904297e-02) (46, -3.50103713572025299072e-02) (47, -2.94858627021312713623e-02) (48, -1.99910983443260192871e-01) (49, -3.45683693885803222656e-02) (50, -1.30789026618003845215e-01) (51, -2.64810800552368164062e-01) (52, -4.76382002234458923340e-02) (53, -2.57420927286148071289e-01) (54, -1.98800452053546905518e-02) (55, -7.27547332644462585449e-02) (56, -1.00230306386947631836e-01) (57, 3.25527153909206390381e-02) (58, -1.82883664965629577637e-01) (59, -1.95815563201904296875e-02) (60, -1.91279202699661254883e-01) (61, -2.09902361035346984863e-01) (62, -9.65877398848533630371e-02) (63, -1.14365309476852416992e-01) (64, -1.08302056789398193359e-01) (65, -2.59978592395782470703e-01) (66, -1.47619232535362243652e-01) (67, -1.04431979358196258545e-01) (68, -1.94495752453804016113e-01) (69, -1.22316561639308929443e-01) (70, 3.22238020598888397217e-02) (71, -2.05015331506729125977e-01) (72, -1.29066230729222297668e-02) (73, -5.63652105629444122314e-02) (74, -1.94391012191772460938e-01) (75, -1.67560830712318420410e-01) (76, -6.89942464232444763184e-02) (77, 7.33110914006829261780e-03) (78, 1.07118627056479454041e-02) (79, -2.68073473125696182251e-02) (80, -2.17587709426879882812e-01) (81, -2.58809793740510940552e-02) (82, -1.94873496890068054199e-01) (83, 1.33656188845634460449e-02) (84, -6.84184953570365905762e-02) (85, -1.51147082448005676270e-01) (86, -1.07618644833564758301e-01) (87, -1.57620266079902648926e-01) (88, -2.10858225822448730469e-01) (89, 4.71326000988483428955e-02) (90, -1.46875172853469848633e-01) (91, -2.54689007997512817383e-02) (92, -1.54537037014961242676e-01) (93, -1.40621125698089599609e-01) (94, -1.53075963258743286133e-01) (95, -1.35566040873527526855e-01) (96, 8.19778908044099807739e-03) (97, -1.79579928517341613770e-02) (98, -1.33769750595092773438e-01) (99, -2.19887092709541320801e-01) (100, 2.65300832688808441162e-02) (0, 3.99339897558093070984e-03) (1, -1.25492572784423828125e-01) (2, -6.75183460116386413574e-02) (3, -2.52905711531639099121e-02) (4, -1.84789702296257019043e-01) (5, -3.35584916174411773682e-02) (6, -9.45706441998481750488e-02) (7, -1.78483769297599792480e-01) (8, -1.34539633989334106445e-01) (9, -1.49517059326171875000e-01) (10, -5.80676421523094177246e-02) (11, -2.28819577023386955261e-03) (12, -1.90439715981483459473e-01) (13, -1.19249552488327026367e-01) (14, -8.85047018527984619141e-02) (15, -1.58977046608924865723e-01) (16, -1.95837184786796569824e-01) (17, 4.06024828553199768066e-02) (18, -2.10527479648590087891e-01) (19, 2.47175525873899459839e-03) (20, 4.18872246518731117249e-03) (21, -6.06858134269714355469e-02) (22, -1.87422722578048706055e-01) (23, -1.23596742749214172363e-01) (24, -3.35096172057092189789e-03) (25, -9.94410812854766845703e-02) (26, 1.22715542092919349670e-02) (27, -2.41887241601943969727e-01) (28, -1.52476117014884948730e-01) (29, -1.08486153185367584229e-01) (30, 6.82507175952196121216e-03) (31, -4.04025539755821228027e-02) (32, -6.61949813365936279297e-02) (33, -1.26969873905181884766e-01) (34, -5.27923777699470520020e-02) (35, -1.47843509912490844727e-01) (36, -1.93799480795860290527e-01) (37, -5.87784610688686370850e-02) (38, -1.35489389300346374512e-01) (39, -1.03635385632514953613e-01) (40, 4.50661256909370422363e-02) (41, -5.62769621610641479492e-02) (42, -1.48098275065422058105e-01) (43, -1.59844162408262491226e-03) (44, -1.35098189115524291992e-01) (45, -1.26793593168258666992e-01) (46, -2.14798618108034133911e-02) (47, -1.62898316979408264160e-01) (48, -1.95656895637512207031e-01) (49, -1.01199939846992492676e-01) (50, -1.10367052257061004639e-01) (51, -5.44169954955577850342e-02) (52, -2.09288686513900756836e-01) (53, -1.91899701952934265137e-01) (54, -1.69599756598472595215e-01) (55, 2.43121273815631866455e-02) (56, -1.90328761935234069824e-01) (57, 1.20683631394058465958e-03) (58, -1.74188032746315002441e-01) (59, 6.10948679968714714050e-03) (60, -3.19040752947330474854e-02) (61, -1.08498267829418182373e-01) (62, -1.00722178816795349121e-01) (63, 6.15868670865893363953e-03) (64, -1.67729437351226806641e-01) (65, -5.84078654646873474121e-02) (66, -5.51161505281925201416e-02) (67, 2.02660504728555679321e-02) (68, 5.80495130270719528198e-03) (69, -4.72947284579277038574e-02) (70, -1.95540845394134521484e-01) (71, -9.61033627390861511230e-02) (72, -7.45239257812500000000e-02) (73, -2.20073863863945007324e-01) (74, -1.16015588864684104919e-02) (75, -3.28622199594974517822e-02) (76, 7.36935297027230262756e-03) (77, -7.72286355495452880859e-02) (78, -1.11464373767375946045e-01) (79, -9.75272357463836669922e-02) (80, 1.26540269702672958374e-02) (81, -2.70211286842823028564e-02) (82, -1.82291835546493530273e-01) (83, -1.63446515798568725586e-01) (84, -1.89708724617958068848e-01) (85, -1.01044781506061553955e-01) (86, -1.34048581123352050781e-01) (87, -1.70298963785171508789e-01) (88, -6.86714649200439453125e-02) (89, 8.40029399842023849487e-03) (90, -1.17518529295921325684e-01) (91, -1.65609821677207946777e-01) (92, -1.47819414734840393066e-01) (93, -6.92628845572471618652e-02) (94, 3.60736101865768432617e-02) 