FANN_FIX_2.0
decimal_point=12
num_layers=3
learning_rate=0.700000
connection_rate=1.000000
network_type=0
learning_momentum=0.000000
training_algorithm=3
train_error_function=1
train_stop_function=1
cascade_output_change_fraction=0.010000
quickprop_decay=-0.000100
quickprop_mu=1.750000
rprop_increase_factor=1.200000
rprop_decrease_factor=0.500000
rprop_delta_min=0.000000
rprop_delta_max=50.000000
rprop_delta_zero=0.100000
cascade_output_stagnation_epochs=12
cascade_candidate_change_fraction=0.010000
cascade_candidate_stagnation_epochs=12
cascade_max_out_epochs=150
cascade_min_out_epochs=50
cascade_max_cand_epochs=150
cascade_min_cand_epochs=50
cascade_num_candidate_groups=2
bit_fail_limit=41
cascade_candidate_limit=4096000
cascade_weight_multiplier=1638
cascade_activation_functions_count=10
cascade_activation_functions=3 5 7 8 10 11 14 15 16 17 
cascade_activation_steepnesses_count=4
cascade_activation_steepnesses=1024 2048 3072 4096 
layer_sizes=101 101 5 
neurons (num_inputs, activation_function, activation_steepness)=(0, 0, 0) (0, 0, 0) (0, 0, 0) (0, 0, 0) (0, 0, 0) (0, 0, 0) (0, 0, 0) (0, 0, 0) (0, 0, 0) (0, 0, 0) (0, 0, 0) (0, 0, 0) (0, 0, 0) (0, 0, 0) (0, 0, 0) (0, 0, 0) (0, 0, 0) (0, 0, 0) (0, 0, 0) (0, 0, 0) (0, 0, 0) (0, 0, 0) (0, 0, 0) (0, 0, 0) (0, 0, 0) (0, 0, 0) (0, 0, 0) (0, 0, 0) (0, 0, 0) (0, 0, 0) (0, 0, 0) (0, 0, 0) (0, 0, 0) (0, 0, 0) (0, 0, 0) (0, 0, 0) (0, 0, 0) (0, 0, 0) (0, 0, 0) (0, 0, 0) (0, 0, 0) (0, 0, 0) (0, 0, 0) (0, 0, 0) (0, 0, 0) (0, 0, 0) (0, 0, 0) (0, 0, 0) (0, 0, 0) (0, 0, 0) (0, 0, 0) (0, 0, 0) (0, 0, 0) (0, 0, 0) (0, 0, 0) (0, 0, 0) (0, 0, 0) (0, 0, 0) (0, 0, 0) (0, 0, 0) (0, 0, 0) (0, 0, 0) (0, 0, 0) (0, 0, 0) (0, 0, 0) (0, 0, 0) (0, 0, 0) (0, 0, 0) (0, 0, 0) (0, 0, 0) (0, 0, 0) (0, 0, 0) (0, 0, 0) (0, 0, 0) (0, 0, 0) (0, 0, 0) (0, 0, 0) (0, 0, 0) (0, 0, 0) (0, 0, 0) (0, 0, 0) (0, 0, 0) (0, 0, 0) (0, 0, 0) (0, 0, 0) (0, 0, 0) (0, 0, 0) (0, 0, 0) (0, 0, 0) (0, 0, 0) (0, 0, 0) (0, 0, 0) (0, 0, 0) (0, 0, 0) (0, 0, 0) (0, 0, 0) (0, 0, 0) (0, 0, 0) (0, 0, 0) (0, 0, 0) (0, 0, 0) (101, 3, 4096) (101, 3, 4096) (101, 3, 4096) (101, 3, 4096) (101, 3, 4096) (101, 3, 4096) (101, 3, 4096) (101, 3, 4096) (101, 3, 4096) (101, 3, 4096) (101, 3, 4096) (101, 3, 4096) (101, 3, 4096) (101, 3, 4096) (101, 3, 4096) (101, 3, 4096) (101, 3, 4096) (101, 3, 4096) (101, 3, 4096) (101, 3, 4096) (101, 3, 4096) (101, 3, 4096) (101, 3, 4096) (101, 3, 4096) (101, 3, 4096) (101, 3, 4096) (101, 3, 4096) (101, 3, 4096) (101, 3, 4096) (101, 3, 4096) (101, 3, 4096) (101, 3, 4096) (101, 3, 4096) (101, 3, 4096) (101, 3, 4096) (101, 3, 4096) (101, 3, 4096) (101, 3, 4096) (101, 3, 4096) (101, 3, 4096) (101, 3, 4096) (101, 3, 4096) (101, 3, 4096) (101, 3, 4096) (101, 3, 4096) (101, 3, 4096) (101, 3, 4096) (101, 3, 4096) (101, 3, 4096) (101, 3, 4096) (101, 3, 4096) (101, 3, 4096) (101, 3, 4096) (101, 3, 4096) (101, 3, 4096) (101, 3, 4096) (101, 3, 4096) (101, 3, 4096) (101, 3, 4096) (101, 3, 4096) (101, 3, 4096) (101, 3, 4096) (101, 3, 4096) (101, 3, 4096) (101, 3, 4096) (101, 3, 4096) (101, 3, 4096) (101, 3, 4096) (101, 3, 4096) (101, 3, 4096) (101, 3, 4096) (101, 3, 4096) (101, 3, 4096) (101, 3, 4096) (101, 3, 4096) (101, 3, 4096) (101, 3, 4096) (101, 3, 4096) (101, 3, 4096) (101, 3, 4096) (101, 3, 4096) (101, 3, 4096) (101, 3, 4096) (101, 3, 4096) (101, 3, 4096) (101, 3, 4096) (101, 3, 4096) (101, 3, 4096) (101, 3, 4096) (101, 3, 4096) (101, 3, 4096) (101, 3, 4096) (101, 3, 4096) (101, 3, 4096) (101, 3, 4096) (101, 3, 4096) (101, 3, 4096) (101, 3, 4096) (101, 3, 4096) (101, 3, 4096) (0, 3, 4096) (101, 3, 4096) (101, 3, 4096) (101, 3, 4096) (101, 3, 4096) (0, 3, 4096) 
connections (connected_to_neuron, weight)=(0, 651) (1, -704) (2, -249) (3, -577) (4, -255) (5, 4) (6, -1429) (7, 641) (8, 630) (9, 22) (10, -1405) (11, 534) (12, -13) (13, -625) (14, 384) (15, 334) (16, -85) (17, 536) (18, 107) (19, -426) (20, -2004) (21, -1194) (22, 117) (23, -510) (24, 346) (25, -116) (26, -58) (27, -30) (28, -1109) (29, -516) (30, 304) (31, -1110) (32, 593) (33, -1164) (34, 181) (35, 632) (36, -1483) (37, -950) (38, 456) (39, 3) (40, -462) (41, 398) (42, -152) (43, 34) (44, -271) (45, -76) (46, -2762) (47, 29) (48, 524) (49, 314) (50, -519) (51, 112) (52, 613) (53, -1272) (54, -149) (55, 40) (56, -68) (57, -1059) (58, 537) (59, -4) (60, 527) (61, 462) (62, -1962) (63, -118) (64, -1295) (65, -1008) (66, 47) (67, -339) (68, -217) (69, -263) (70, 468) (71, -603) (72, -482) (73, -304) (74, 259) (75, -799) (76, 90) (77, 348) (78, 73) (79, 184) (80, 142) (81, -226) (82, 124) (83, -222) (84, -51) (85, -249) (86, -50) (87, 193) (88, 37) (89, 433) (90, -313) (91, -214) (92, 45) (93, -328) (94, -19) (95, 90) (96, -1049) (97, 24) (98, -322) (99, 139) (100, -541) (0, -137) (1, -276) (2, 977) (3, -467) (4, -396) (5, -363) (6, -16) (7, -211) (8, -490) (9, -8) (10, 233) (11, 759) (12, 281) (13, -857) (14, -610) (15, 1063) (16, 169) (17, -469) (18, -371) (19, 144) (20, -382) (21, -661) (22, -13) (23, -265) (24, -44) (25, -680) (26, -776) (27, 170) (28, -617) (29, -280) (30, 469) (31, -434) (32, -46) (33, -1003) (34, -523) (35, -431) (36, -704) (37, -588) (38, 318) (39, -141) (40, -241) (41, 107) (42, 663) (43, 65) (44, 225) (45, 173) (46, -804) (47, 358) (48, 441) (49, 259) (50, -595) (51, -88) (52, -426) (53, 705) (54, -339) (55, 195) (56, 366) (57, 52) (58, 146) (59, -242) (60, -80) (61, -485) (62, -54) (63, 454) (64, -527) (65, -289) (66, 370) (67, -408) (68, -39) (69, -111) (70, -794) (71, 642) (72, -400) (73, 178) (74, 407) (75, -96) (76, -498) (77, 229) (78, -118) (79, 574) (80, -105) (81, 608) (82, -57) (83, -177) (84, 496) (85, -1009) (86, 300) (87, 120) (88, -456) (89, -510) (90, -313) (91, -323) (92, 394) (93, 204) (94, -631) (95, -392) (96, 275) (97, 803) (98, -926) (99, -7) (100, 291) (0, 183) (1, -864) (2, -339) (3, -111) (4, 174) (5, -69) (6, -196) (7, 447) (8, -18) (9, 250) (10, -218) (11, 527) (12, -87) (13, -374) (14, -632) (15, 201) (16, -269) (17, 10) (18, 631) (19, -665) (20, 115) (21, -740) (22, -77) (23, -846) (24, -32) (25, 43) (26, 53) (27, 427) (28, -256) (29, -461) (30, 80) (31, -520) (32, 231) (33, -127) (34, 62) (35, -340) (36, -867) (37, -76) (38, -222) (39, 537) (40, -595) (41, -64) (42, 312) (43, -509) (44, -6) (45, -49) (46, -888) (47, -195) (48, 130) (49, -237) (50, -387) (51, -218) (52, 470) (53, 191) (54, 51) (55, 36) (56, -413) (57, 24) (58, 138) (59, -547) (60, -75) (61, 139) (62, 300) (63, -82) (64, -279) (65, -349) (66, -365) (67, -172) (68, -98) (69, 34) (70, 205) (71, -129) (72, -158) (73, -539) (74, 0) (75, 137) (76, 383) (77, 494) (78, 446) (79, -121) (80, 593) (81, -144) (82, -445) (83, 540) (84, -206) (85, -251) (86, 25) (87, -203) (88, -540) (89, 162) (90, 306) (91, 280) (92, -17) (93, -96) (94, -134) (95, 124) (96, -552) (97, 191) (98, -127) (99, 53) (100, -354) (0, -458) (1, -848) (2, -103) (3, -624) (4, -948) (5, -6) (6, -200) (7, -155) (8, -935) (9, 223) (10, 9) (11, -434) (12, -279) (13, 149) (14, -409) (15, -679) (16, -537) (17, 1) (18, -550) (19, -305) (20, -11) (21, -187) (22, 46) (23, -790) (24, -855) (25, -366) (26, -303) (27, -855) (28, 51) (29, -990) (30, -1277) (31, -573) (32, -724) (33, -577) (34, -488) (35, -796) (36, 259) (37, -586) (38, -1153) (39, -796) (40, -35) (41, -367) (42, -489) (43, 156) (44, -764) (45, -924) (46, 173) (47, -792) (48, -583) (49, -515) (50, -81) (51, -672) (52, -517) (53, -549) (54, -378) (55, -92) (56, -368) (57, -866) (58, -733) (59, -311) (60, -408) (61, -1102) (62, -548) (63, -330) (64, -488) (65, -567) (66, -689) (67, -883) (68, -853) (69, -820) (70, -380) (71, -613) (72, 107) (73, -210) (74, -754) (75, 130) (76, -387) (77, -653) (78, -1001) (79, -829) (80, -429) (81, -523) (82, -426) (83, -495) (84, -958) (85, -917) (86, -443) (87, -289) (88, 124) (89, 39) (90, -666) (91, -385) (92, -796) (93, -888) (94, -281) (95, 180) (96, -721) (97, -853) (98, -943) (99, -301) (100, 243) (0, -233) (1, -1093) (2, 3) (3, -960) (4, -48) (5, -74) (6, 154) (7, -197) (8, 92) (9, -437) (10, -294) (11, 569) (12, 92) (13, 26) (14, -605) (15, 124) (16, -437) (17, 260) (18, 283) (19, -373) (20, -423) (21, -820) (22, -443) (23, -262) (24, -312) (25, 193) (26, -552) (27, -244) (28, -913) (29, -828) (30, -64) (31, -776) (32, -374) (33, 112) (34, -733) (35, 167) (36, -851) (37, 190) (38, -170) (39, 218) (40, -631) (41, 35) (42, 396) (43, 451) (44, -338) (45, -523) (46, -955) (47, 222) (48, -382) (49, 281) (50, 28) (51, -550) (52, 178) (53, -484) (54, -397) (55, -732) (56, 318) (57, 74) (58, -245) (59, -212) (60, -59) (61, -161) (62, -760) (63, 246) (64, -491) (65, 144) (66, -891) (67, -90) (68, 353) (69, 621) (70, 80) (71, -334) (72, -49) (73, -288) (74, -484) (75, 341) (76, -106) (77, -265) (78, 295) (79, -59) (80, 124) (81, -306) (82, 139) (83, -68) (84, -510) (85, -244) (86, 253) (87, -457) (88, 139) (89, -78) (90, -268) (91, 132) (92, -362) (93, -379) (94, -475) (95, 39) (96, -354) (97, 290) (98, -465) (99, -389) (100, -874) (0, -440) (1, -364) (2, -145) (3, -297) (4, -355) (5, 7) (6, 141) (7, -584) (8, -140) (9, -181) (10, -597) (11, 56) (12, -118) (13, -605) (14, -585) (15, -383) (16, -366) (17, -552) (18, -60) (19, -170) (20, -185) (21, -353) (22, -263) (23, -455) (24, -258) (25, 249) (26, 84) (27, -74) (28, -118) (29, -85) (30, 495) (31, -510) (32, 520) (33, 94) (34, 370) (35, 193) (36, 215) (37, -206) (38, 517) (39, 231) (40, -181) (41, -283) (42, -217) (43, -546) (44, -429) (45, 201) (46, -274) (47, 482) (48, -5) (49, 182) (50, 276) (51, -291) (52, -593) (53, 190) (54, -573) (55, -532) (56, -141) (57, -170) (58, 355) (59, 513) (60, 134) (61, -556) (62, -65) (63, -267) (64, 323) (65, -296) (66, 123) (67, -245) (68, -567) (69, -15) (70, 420) (71, 192) (72, 301) (73, 206) (74, -98) (75, 476) (76, 321) (77, 235) (78, -69) (79, -410) (80, -144) (81, -137) (82, 318) (83, -142) (84, -381) (85, 273) (86, -385) (87, -576) (88, 81) (89, 247) (90, -437) (91, -111) (92, -532) (93, -324) (94, -163) (95, 23) (96, -659) (97, -539) (98, 441) (99, 39) (100, -1136) (0, -210) (1, -999) (2, -54) (3, 36) (4, -311) (5, -374) (6, -967) (7, -509) (8, -515) (9, -196) (10, -220) (11, 477) (12, 162) (13, -1017) (14, -218) (15, 517) (16, -524) (17, -579) (18, 218) (19, -264) (20, -621) (21, -1016) (22, 572) (23, -7) (24, -368) (25, -339) (26, -625) (27, -175) (28, -793) (29, -639) (30, -324) (31, -1064) (32, 104) (33, -756) (34, -788) (35, -145) (36, -363) (37, -458) (38, -225) (39, -388) (40, -861) (41, 217) (42, -27) (43, 105) (44, 66) (45, -970) (46, -336) (47, 36) (48, -110) (49, -95) (50, -159) (51, 148) (52, 204) (53, -622) (54, -595) (55, -222) (56, -957) (57, -175) (58, -750) (59, 303) (60, -155) (61, -541) (62, -313) (63, -24) (64, -921) (65, -402) (66, -688) (67, -129) (68, -692) (69, -531) (70, -312) (71, -744) (72, -876) (73, -541) (74, 57) (75, 395) (76, -731) (77, -109) (78, -279) (79, -365) (80, -765) (81, 577) (82, -670) (83, 625) (84, -443) (85, -798) (86, -618) (87, -266) (88, 184) (89, -282) (90, -821) (91, -233) (92, -304) (93, -526) (94, -601) (95, -380) (96, -963) (97, -438) (98, -908) (99, -322) (100, -95) (0, -244) (1, 343) (2, -427) (3, 247) (4, -361) (5, -595) (6, -430) (7, 62) (8, -722) (9, -118) (10, -345) (11, -476) (12, 580) (13, 369) (14, 205) (15, -975) (16, -16) (17, -1166) (18, 144) (19, -810) (20, -742) (21, -8) (22, 94) (23, 5) (24, -261) (25, -139) (26, 347) (27, 26) (28, 1128) (29, -600) (30, -1160) (31, -1177) (32, -453) (33, 62) (34, -123) (35, 34) (36, 943) (37, -591) (38, -122) (39, 163) (40, -198) (41, -632) (42, -489) (43, -133) (44, 92) (45, -114) (46, 136) (47, -1199) (48, -124) (49, 428) (50, 500) (51, -1341) (52, 267) (53, -172) (54, -515) (55, -95) (56, -944) (57, 711) (58, -748) (59, 406) (60, -599) (61, -318) (62, -349) (63, 107) (64, -150) (65, -853) (66, -1154) (67, 214) (68, -303) (69, -406) (70, -310) (71, -38) (72, -917) (73, -378) (74, 301) (75, 923) (76, -928) (77, -287) (78, -293) (79, 239) (80, -481) (81, -721) (82, -439) (83, -1000) (84, -91) (85, 61) (86, -603) (87, -824) (88, 122) (89, 172) (90, -364) (91, -423) (92, -312) (93, -322) (94, -263) (95, 200) (96, 44) (97, -1193) (98, 894) (99, 218) (100, 12) (0, -111) (1, -126) (2, -349) (3, -686) (4, 129) (5, -294) (6, -92) (7, -442) (8, -665) (9, -67) (10, -547) (11, -109) (12, -773) (13, -638) (14, -515) (15, -141) (16, -74) (17, -159) (18, 365) (19, 81) (20, -99) (21, -963) (22, 376) (23, -350) (24, -31) (25, -754) (26, 93) (27, 282) (28, -125) (29, -802) (30, 146) (31, -211) (32, 58) (33, 106) (34, -331) (35, 384) (36, -184) (37, -809) (38, 141) (39, 152) (40, 39) (41, -2) (42, -168) (43, -610) (44, 46) (45, -239) (46, -980) (47, 221) (48, -104) (49, -362) (50, -782) (51, -462) (52, 223) (53, 63) (54, 327) (55, -443) (56, -384) (57, -259) (58, -490) (59, -590) (60, -235) (61, -333) (62, -417) (63, 83) (64, -215) (65, -356) (66, -844) (67, -260) (68, -48) (69, 5) (70, 323) (71, -102) (72, -590) (73, 223) (74, -206) (75, -164) (76, -301) (77, -443) (78, -70) (79, 173) (80, -115) (81, 159) (82, 31) (83, 152) (84, -37) (85, -699) (86, 25) (87, -111) (88, -21) (89, 209) (90, -33) (91, -501) (92, -618) (93, -228) (94, -337) (95, -165) (96, -130) (97, 351) (98, -47) (99, 258) (100, 199) (0, 125) (1, -234) (2, 703) (3, 224) (4, 390) (5, -106) (6, 355) (7, -215) (8, -333) (9, 113) (10, 675) (11, -622) (12, -571) (13, -586) (14, -334) (15, -790) (16, 159) (17, 2) (18, -756) (19, 453) (20, 443) (21, 125) (22, -162) (23, -172) (24, -606) (25, -88) (26, 152) (27, -205) (28, -295) (29, -146) (30, -672) (31, 551) (32, -537) (33, 50) (34, -402) (35, -481) (36, -171) (37, -113) (38, -1480) (39, -457) (40, -498) (41, -31) (42, 343) (43, 412) (44, -533) (45, -769) (46, 756) (47, 88) (48, -178) (49, -484) (50, 88) (51, -64) (52, -925) (53, -343) (54, 1014) (55, 552) (56, -313) (57, 16) (58, -229) (59, -186) (60, -62) (61, 321) (62, 778) (63, -271) (64, -36) (65, -5) (66, 273) (67, -303) (68, -342) (69, 303) (70, -744) (71, -425) (72, 1095) (73, 477) (74, -670) (75, -574) (76, -118) (77, -1131) (78, 181) (79, -300) (80, -759) (81, 835) (82, 187) (83, 224) (84, 40) (85, -381) (86, -330) (87, 40) (88, -518) (89, -47) (90, 461) (91, -122) (92, 207) (93, 421) (94, -831) (95, 194) (96, 336) (97, 810) (98, -603) (99, 693) (100, -37) (0, 256) (1, 65) (2, 334) (3, -156) (4, 208) (5, 592) (6, 366) (7, 448) (8, -932) (9, -190) (10, -739) (11, -363) (12, 361) (13, 266) (14, 4) (15, 219) (16, -182) (17, 107) (18, 220) (19, -66) (20, 300) (21, -679) (22, 336) (23, 79) (24, 522) (25, -280) (26, -856) (27, 180) (28, 103) (29, -531) (30, 605) (31, 518) (32, -387) (33, -182) (34, -39) (35, 820) (36, 316) (37, -382) (38, -82) (39, -330) (40, -294) (41, 102) (42, 512) (43, 26) (44, -735) (45, 350) (46, -338) (47, -45) (48, 365) (49, -190) (50, 581) (51, -416) (52, -90) (53, 191) (54, 31) (55, -828) (56, 96) (57, -28) (58, 599) (59, -95) (60, -482) (61, -178) (62, 288) (63, 388) (64, 193) (65, -136) (66, -96) (67, 274) (68, -389) (69, -633) (70, -446) (71, 18) (72, -384) (73, -55) (74, 193) (75, -430) (76, -178) (77, 292) (78, 187) (79, -254) (80, -127) (81, 167) (82, -579) (83, -690) (84, -406) (85, -186) (86, 437) (87, -662) (88, -307) (89, -656) (90, 183) (91, -375) (92, 596) (93, -765) (94, -283) (95, -337) (96, 345) (97, 411) (98, 279) (99, -228) (100, 175) (0, 781) (1, -189) (2, 650) (3, 232) (4, 795) (5, 515) (6, 320) (7, 131) (8, -126) (9, 257) (10, -3) (11, 593) (12, 43) (13, 561) (14, -14) (15, 155) (16, -41) (17, 206) (18, 94) (19, 331) (20, 47) (21, 208) (22, 785) (23, 230) (24, 240) (25, 243) (26, 14) (27, 691) (28, 33) (29, -85) (30, 948) (31, 472) (32, 434) (33, 340) (34, -229) (35, 503) (36, 273) (37, 70) (38, 658) (39, 788) (40, 149) (41, 391) (42, 431) (43, 74) (44, 230) (45, 593) (46, -115) (47, 585) (48, 100) (49, 123) (50, -253) (51, 910) (52, 724) (53, 410) (54, -303) (55, 453) (56, 301) (57, 244) (58, -15) (59, 342) (60, 360) (61, 490) (62, 486) (63, 269) (64, 448) (65, 554) (66, 333) (67, 704) (68, 552) (69, 50) (70, 399) (71, 441) (72, 11) (73, -20) (74, 59) (75, 659) (76, 311) (77, 650) (78, 760) (79, -274) (80, 367) (81, 464) (82, 81) (83, -17) (84, 241) (85, -162) (86, 433) (87, 481) (88, -123) (89, -6) (90, 41) (91, 445) (92, 419) (93, -113) (94, 708) (95, 705) (96, 536) (97, 233) (98, -405) (99, 823) (100, -546) (0, -643) (1, -561) (2, 369) (3, -332) (4, -707) (5, -235) (6, 85) (7, -353) (8, -587) (9, -417) (10, 150) (11, -137) (12, -809) (13, 266) (14, 132) (15, 314) (16, -415) (17, -469) (18, 187) (19, 464) (20, 407) (21, -336) (22, 482) (23, -767) (24, -67) (25, -294) (26, -529) (27, 74) (28, -280) (29, -15) (30, -95) (31, -484) (32, -323) (33, 23) (34, -516) (35, -510) (36, 434) (37, -692) (38, -39) (39, 442) (40, 56) (41, -267) (42, -59) (43, 156) (44, -371) (45, -420) (46, 257) (47, 169) (48, -843) (49, -604) (50, -598) (51, -296) (52, 68) (53, -738) (54, -51) (55, -724) (56, -89) (57, -430) (58, -354) (59, -86) (60, -267) (61, -315) (62, -444) (63, -680) (64, -492) (65, -298) (66, -337) (67, -71) (68, -268) (69, 113) (70, -549) (71, -791) (72, -564) (73, -524) (74, -777) (75, -23) (76, -48) (77, 145) (78, 144) (79, -161) (80, -130) (81, -470) (82, -367) (83, -460) (84, -743) (85, -110) (86, 158) (87, -791) (88, 217) (89, 21) (90, -467) (91, -464) (92, 453) (93, -679) (94, 0) (95, 90) (96, -398) (97, -493) (98, -774) (99, -552) (100, -315) (0, 267) (1, -156) (2, 128) (3, 392) (4, 464) (5, -742) (6, -834) (7, 335) (8, 598) (9, 330) (10, -228) (11, 90) (12, -304) (13, -283) (14, -493) (15, 126) (16, -61) (17, -69) (18, -340) (19, -1104) (20, -1291) (21, 116) (22, -378) (23, -644) (24, 430) (25, 360) (26, -420) (27, -1080) (28, -277) (29, 13) (30, 388) (31, -1366) (32, -351) (33, -252) (34, -441) (35, 638) (36, -92) (37, -17) (38, 549) (39, 406) (40, 940) (41, -83) (42, 28) (43, 316) (44, -396) (45, -369) (46, -486) (47, -203) (48, 177) (49, 482) (50, 700) (51, -108) (52, -486) (53, -187) (54, -1018) (55, -22) (56, -874) (57, 25) (58, -774) (59, 66) (60, -229) (61, -3) (62, -971) (63, 61) (64, -443) (65, -1489) (66, -483) (67, -806) (68, -391) (69, -555) (70, 522) (71, -1707) (72, 521) (73, -847) (74, 155) (75, 92) (76, 33) (77, -186) (78, -84) (79, -9) (80, -750) (81, -551) (82, 293) (83, 153) (84, -789) (85, -159) (86, -49) (87, -243) (88, -639) (89, 14) (90, -1398) (91, -127) (92, -329) (93, 222) (94, 261) (95, -797) (96, -337) (97, -1074) (98, -365) (99, 484) (100, -684) (0, 541) (1, -302) (2, 309) (3, 661) (4, 101) (5, 34) (6, -160) (7, 117) (8, 67) (9, 156) (10, -258) (11, -275) (12, 286) (13, 82) (14, -3) (15, 155) (16, -289) (17, 185) (18, -390) (19, 93) (20, 326) (21, 319) (22, -51) (23, -242) (24, -558) (25, 498) (26, 103) (27, 228) (28, -182) (29, -559) (30, -33) (31, -472) (32, -327) (33, 64) (34, 415) (35, 103) (36, -323) (37, -335) (38, -610) (39, 55) (40, 432) (41, -126) (42, 291) (43, 78) (44, 104) (45, -551) (46, -186) (47, 55) (48, -172) (49, 770) (50, 256) (51, -621) (52, -396) (53, 218) (54, 389) (55, 112) (56, -500) (57, -86) (58, -415) (59, 74) (60, -152) (61, -381) (62, 509) (63, -516) (64, -262) (65, 261) (66, -535) (67, -235) (68, 599) (69, 112) (70, -607) (71, -417) (72, -163) (73, 482) (74, -235) (75, -230) (76, 40) (77, 678) (78, 307) (79, 234) (80, -562) (81, -201) (82, 643) (83, -183) (84, 27) (85, -223) (86, -265) (87, 491) (88, 118) (89, -605) (90, 393) (91, -296) (92, 295) (93, -173) (94, 209) (95, -437) (96, -592) (97, 27) (98, 296) (99, 528) (100, 646) (0, -54) (1, -2217) (2, -81) (3, 505) (4, -374) (5, -413) (6, -196) (7, 625) (8, -371) (9, -176) (10, -2169) (11, 31) (12, 345) (13, 264) (14, 587) (15, -131) (16, 143) (17, -229) (18, 288) (19, -1687) (20, -2153) (21, -95) (22, -268) (23, 229) (24, 152) (25, 59) (26, -329) (27, 73) (28, 543) (29, -193) (30, 384) (31, 612) (32, 478) (33, -2113) (34, -89) (35, -320) (36, -3357) (37, -187) (38, 452) (39, -340) (40, 270) (41, 88) (42, -255) (43, 362) (44, 443) (45, -488) (46, -215) (47, -40) (48, 325) (49, 562) (50, 16) (51, 100) (52, 507) (53, -458) (54, -2398) (55, 57) (56, 87) (57, -178) (58, 347) (59, -251) (60, -161) (61, -43) (62, -2015) (63, 468) (64, -524) (65, -215) (66, 23) (67, -287) (68, 36) (69, -203) (70, 112) (71, 558) (72, -2014) (73, 485) (74, -181) (75, 152) (76, 305) (77, 148) (78, -352) (79, 422) (80, -278) (81, -146) (82, -244) (83, 419) (84, -149) (85, 337) (86, 524) (87, -70) (88, 289) (89, -204) (90, -41) (91, 299) (92, 486) (93, -115) (94, 150) (95, 131) (96, -2195) (97, -182) (98, -291) (99, -95) (100, 84) (0, -244) (1, -585) (2, -765) (3, -20) (4, 279) (5, -211) (6, -851) (7, 453) (8, 92) (9, -212) (10, -99) (11, -318) (12, 369) (13, -242) (14, -123) (15, -440) (16, -335) (17, -474) (18, 556) (19, -718) (20, -551) (21, -888) (22, -405) (23, 208) (24, 789) (25, -338) (26, 402) (27, -594) (28, -526) (29, -864) (30, -321) (31, -263) (32, -166) (33, -8) (34, -631) (35, 42) (36, -915) (37, -276) (38, 360) (39, 250) (40, 414) (41, 148) (42, 66) (43, 118) (44, 23) (45, -58) (46, 79) (47, 169) (48, -419) (49, -222) (50, 10) (51, -450) (52, -360) (53, -469) (54, -162) (55, -53) (56, -410) (57, -573) (58, -95) (59, 275) (60, 160) (61, 222) (62, -640) (63, 174) (64, -670) (65, -571) (66, -135) (67, -509) (68, -781) (69, -269) (70, 171) (71, -732) (72, -478) (73, -12) (74, -498) (75, 63) (76, 612) (77, 709) (78, -201) (79, 155) (80, -7) (81, -497) (82, -163) (83, 469) (84, 98) (85, -233) (86, -565) (87, 604) (88, 319) (89, 145) (90, 49) (91, -512) (92, -585) (93, -682) (94, 94) (95, -480) (96, -498) (97, -83) (98, 250) (99, -471) (100, -1478) (0, -661) (1, 975) (2, -1106) (3, 833) (4, 44) (5, -418) (6, -21) (7, 450) (8, 200) (9, 128) (10, 196) (11, -347) (12, 258) (13, 1218) (14, -516) (15, -365) (16, 186) (17, 361) (18, 785) (19, -117) (20, 475) (21, 836) (22, 8) (23, 428) (24, -485) (25, 930) (26, 852) (27, 560) (28, 1723) (29, -1030) (30, -1431) (31, -561) (32, 626) (33, 117) (34, -30) (35, 708) (36, 1157) (37, -7) (38, -932) (39, -35) (40, 438) (41, -1217) (42, -1024) (43, 578) (44, 425) (45, 522) (46, 1299) (47, -909) (48, -989) (49, 425) (50, 1678) (51, -1404) (52, 58) (53, -518) (54, 295) (55, -675) (56, -1206) (57, -18) (58, -611) (59, 549) (60, -575) (61, -191) (62, 564) (63, 100) (64, 299) (65, 16) (66, -903) (67, -206) (68, -807) (69, -636) (70, -136) (71, -667) (72, -456) (73, 466) (74, -1595) (75, 1202) (76, -936) (77, 64) (78, -417) (79, 647) (80, -625) (81, -518) (82, 14) (83, -315) (84, 151) (85, 220) (86, 46) (87, -1045) (88, 703) (89, 527) (90, -802) (91, -804) (92, -450) (93, 337) (94, 233) (95, 55) (96, 446) (97, -1306) (98, 1360) (99, -740) (100, 1119) (0, 670) (1, -360) (2, 497) (3, -423) (4, -508) (5, -709) (6, -57) (7, 268) (8, -415) (9, -466) (10, 47) (11, 409) (12, -155) (13, -677) (14, -156) (15, -454) (16, -322) (17, 385) (18, 163) (19, -552) (20, 38) (21, -992) (22, 73) (23, -282) (24, -369) (25, -746) (26, -97) (27, -566) (28, -290) (29, -418) (30, 261) (31, -395) (32, 203) (33, 208) (34, -281) (35, 174) (36, -562) (37, 94) (38, 220) (39, 388) (40, -307) (41, -413) (42, 153) (43, 320) (44, 265) (45, -782) (46, -727) (47, -333) (48, -298) (49, 431) (50, -195) (51, -178) (52, -561) (53, 363) (54, 468) (55, 74) (56, -91) (57, -386) (58, -28) (59, 339) (60, -230) (61, 223) (62, -229) (63, -427) (64, -79) (65, -108) (66, -701) (67, -492) (68, -155) (69, 113) (70, -4) (71, -534) (72, 395) (73, -18) (74, 429) (75, -828) (76, -240) (77, -412) (78, -238) (79, -576) (80, -376) (81, -63) (82, -383) (83, -321) (84, -418) (85, -46) (86, 48) (87, 74) (88, 376) (89, -608) (90, -126) (91, -462) (92, -39) (93, -527) (94, -609) (95, -445) (96, -697) (97, 44) (98, -400) (99, -79) (100, -450) (0, -657) (1, -159) (2, -429) (3, -54) (4, -214) (5, -392) (6, -1039) (7, -570) (8, -1061) (9, -196) (10, -815) (11, -691) (12, -298) (13, -4) (14, -705) (15, -389) (16, -800) (17, -77) (18, -777) (19, -828) (20, 9) (21, -93) (22, -633) (23, -363) (24, -113) (25, -582) (26, 317) (27, -154) (28, 1014) (29, -870) (30, -1480) (31, -1312) (32, -555) (33, -761) (34, -1065) (35, -568) (36, -437) (37, 54) (38, -445) (39, -347) (40, -239) (41, -1426) (42, -1059) (43, -147) (44, 182) (45, -904) (46, -275) (47, -1275) (48, -608) (49, 434) (50, 1092) (51, -891) (52, -690) (53, -1366) (54, -249) (55, -175) (56, -792) (57, -902) (58, -932) (59, 180) (60, -391) (61, -1062) (62, -53) (63, 156) (64, -196) (65, -357) (66, -1119) (67, -1013) (68, -614) (69, -587) (70, -420) (71, -357) (72, -97) (73, -1133) (74, -501) (75, -236) (76, -518) (77, 116) (78, -968) (79, -861) (80, -735) (81, -668) (82, -365) (83, -612) (84, -1196) (85, -559) (86, -754) (87, -1072) (88, -108) (89, 335) (90, -647) (91, -905) (92, -1210) (93, -702) (94, -753) (95, 346) (96, -542) (97, -1236) (98, 428) (99, -41) (100, 463) (0, 114) (1, -199) (2, -186) (3, -582) (4, 254) (5, -99) (6, -1002) (7, -299) (8, -421) (9, 389) (10, -8) (11, 155) (12, -650) (13, -426) (14, -364) (15, 27) (16, -753) (17, 264) (18, 37) (19, 45) (20, -748) (21, -110) (22, -113) (23, -588) (24, 202) (25, -483) (26, -112) (27, -593) (28, 335) (29, -585) (30, 94) (31, -490) (32, -315) (33, -223) (34, -112) (35, 184) (36, -226) (37, -562) (38, 39) (39, -423) (40, -173) (41, 320) (42, 479) (43, -466) (44, 287) (45, -443) (46, -650) (47, 106) (48, -449) (49, -30) (50, -376) (51, -5) (52, 338) (53, -34) (54, -113) (55, 40) (56, 261) (57, -337) (58, 118) (59, -637) (60, 450) (61, -45) (62, -106) (63, 342) (64, -293) (65, -96) (66, -227) (67, 16) (68, 28) (69, -647) (70, -456) (71, 61) (72, -519) (73, 129) (74, 319) (75, 382) (76, 350) (77, -88) (78, -526) (79, 188) (80, -201) (81, -566) (82, -52) (83, -401) (84, 138) (85, -508) (86, -579) (87, -258) (88, -276) (89, -228) (90, -31) (91, -307) (92, -761) (93, -258) (94, 91) (95, -274) (96, -223) (97, -552) (98, -194) (99, -611) (100, -728) (0, -196) (1, -512) (2, -157) (3, -366) (4, -647) (5, 87) (6, -914) (7, -41) (8, -220) (9, 211) (10, -676) (11, 397) (12, 284) (13, -251) (14, -537) (15, 329) (16, -275) (17, 272) (18, 241) (19, 8) (20, -421) (21, -850) (22, -52) (23, -249) (24, 39) (25, -815) (26, 129) (27, -448) (28, -1047) (29, -805) (30, -349) (31, 94) (32, -128) (33, -955) (34, -485) (35, -487) (36, -576) (37, -99) (38, 487) (39, 323) (40, -118) (41, -320) (42, 521) (43, -237) (44, -84) (45, -647) (46, -626) (47, 129) (48, 134) (49, -291) (50, -240) (51, 94) (52, -567) (53, -611) (54, -413) (55, -346) (56, 178) (57, -778) (58, -237) (59, 53) (60, 67) (61, -371) (62, -480) (63, -616) (64, -977) (65, 99) (66, -104) (67, -468) (68, -48) (69, -193) (70, 390) (71, -439) (72, -815) (73, -94) (74, 181) (75, -643) (76, 318) (77, 76) (78, -179) (79, -429) (80, -130) (81, -23) (82, -489) (83, -424) (84, -607) (85, -167) (86, -175) (87, 144) (88, 70) (89, -149) (90, 87) (91, -611) (92, 387) (93, -676) (94, -18) (95, -40) (96, -943) (97, -251) (98, -784) (99, 138) (100, 437) (0, 128) (1, -413) (2, -94) (3, -263) (4, -585) (5, 362) (6, -180) (7, -55) (8, -217) (9, -74) (10, -615) (11, 359) (12, -642) (13, -691) (14, 80) (15, 20) (16, 67) (17, 4) (18, 231) (19, -514) (20, -130) (21, -97) (22, -466) (23, -175) (24, 132) (25, -569) (26, -483) (27, -598) (28, -222) (29, -237) (30, -149) (31, 106) (32, -484) (33, -152) (34, -326) (35, 83) (36, -491) (37, -274) (38, -297) (39, 132) (40, -478) (41, -430) (42, -101) (43, -183) (44, -586) (45, -621) (46, 288) (47, -481) (48, -679) (49, 136) (50, -678) (51, -91) (52, 316) (53, -56) (54, 117) (55, -367) (56, -41) (57, -521) (58, -19) (59, 127) (60, -618) (61, -558) (62, -352) (63, -332) (64, -437) (65, -592) (66, -548) (67, -134) (68, -499) (69, -718) (70, 80) (71, -357) (72, -316) (73, -141) (74, 49) (75, -101) (76, -291) (77, -51) (78, 92) (79, -1) (80, -340) (81, -234) (82, 209) (83, 114) (84, -94) (85, -261) (86, -417) (87, -617) (88, -271) (89, -218) (90, -508) (91, -421) (92, -267) (93, -232) (94, -762) (95, -427) (96, -704) (97, -319) (98, -273) (99, -459) (100, 612) (0, 565) (1, -440) (2, 544) (3, -170) (4, -619) (5, 5) (6, -1192) (7, -214) (8, 632) (9, 36) (10, -846) (11, 635) (12, -352) (13, -675) (14, -31) (15, -54) (16, -299) (17, -349) (18, -23) (19, -425) (20, -1178) (21, -404) (22, 307) (23, -214) (24, 93) (25, -512) (26, -222) (27, -825) (28, -275) (29, -785) (30, 674) (31, -152) (32, -320) (33, -1059) (34, -585) (35, -260) (36, -968) (37, -876) (38, 543) (39, 591) (40, -78) (41, 89) (42, 182) (43, -336) (44, 295) (45, 95) (46, -808) (47, 94) (48, 269) (49, 401) (50, -457) (51, 189) (52, 416) (53, -604) (54, -787) (55, -267) (56, -363) (57, -226) (58, 192) (59, 220) (60, 185) (61, -202) (62, -247) (63, -169) (64, -333) (65, -1015) (66, -169) (67, -1348) (68, -281) (69, 574) (70, -395) (71, -1197) (72, -589) (73, -383) (74, 69) (75, -458) (76, 720) (77, 668) (78, 700) (79, -1028) (80, -305) (81, 477) (82, -149) (83, 912) (84, 161) (85, -1015) (86, -387) (87, -11) (88, -338) (89, 48) (90, -382) (91, -234) (92, -662) (93, -531) (94, -6) (95, -396) (96, -686) (97, -219) (98, -291) (99, 270) (100, -1988) (0, -1162) (1, 64) (2, -744) (3, 81) (4, -140) (5, -203) (6, -202) (7, -894) (8, -488) (9, -482) (10, -25) (11, -120) (12, -890) (13, 44) (14, 573) (15, -523) (16, -331) (17, 219) (18, -599) (19, -89) (20, -542) (21, 507) (22, -469) (23, 615) (24, -301) (25, -181) (26, 56) (27, -517) (28, 1042) (29, -345) (30, -1405) (31, -822) (32, -221) (33, 838) (34, -318) (35, -324) (36, 464) (37, -963) (38, -1361) (39, -43) (40, -15) (41, -1806) (42, -1429) (43, -642) (44, -408) (45, -781) (46, 161) (47, -868) (48, -1136) (49, -175) (50, 902) (51, -484) (52, -749) (53, -37) (54, 83) (55, 101) (56, -948) (57, 208) (58, -456) (59, 30) (60, -20) (61, 154) (62, 515) (63, 68) (64, 523) (65, -180) (66, -910) (67, 258) (68, -84) (69, -1160) (70, -1704) (71, -672) (72, -718) (73, -485) (74, -411) (75, -612) (76, -322) (77, -857) (78, -630) (79, 307) (80, -1215) (81, -1132) (82, 550) (83, -1042) (84, -325) (85, -273) (86, 777) (87, -1067) (88, 413) (89, 310) (90, -787) (91, -728) (92, -713) (93, -785) (94, -766) (95, -279) (96, 161) (97, -1352) (98, 51) (99, -589) (100, 746) (0, -457) (1, -513) (2, -579) (3, 20) (4, -901) (5, -798) (6, -365) (7, 105) (8, -852) (9, -666) (10, -386) (11, -547) (12, -372) (13, 248) (14, -354) (15, -470) (16, -200) (17, 4) (18, -805) (19, -440) (20, -110) (21, 121) (22, -595) (23, 83) (24, -610) (25, 52) (26, 94) (27, -118) (28, -565) (29, -27) (30, -1012) (31, -609) (32, -425) (33, -391) (34, -32) (35, -461) (36, -43) (37, -78) (38, -468) (39, 141) (40, 77) (41, -1009) (42, -409) (43, -411) (44, -820) (45, -142) (46, -143) (47, -121) (48, -819) (49, -142) (50, -536) (51, -1085) (52, -195) (53, -1054) (54, -81) (55, -298) (56, -411) (57, 133) (58, -749) (59, -80) (60, -783) (61, -860) (62, -396) (63, -468) (64, -444) (65, -1065) (66, -605) (67, -428) (68, -797) (69, -501) (70, 132) (71, -840) (72, -53) (73, -231) (74, -796) (75, -686) (76, -283) (77, 30) (78, 44) (79, -110) (80, -891) (81, -106) (82, -798) (83, 55) (84, -280) (85, -619) (86, -441) (87, -646) (88, -864) (89, 193) (90, -602) (91, -104) (92, -633) (93, -576) (94, -627) (95, -555) (96, 34) (97, -74) (98, -548) (99, -901) (100, 109) (0, 16) (1, -514) (2, -277) (3, -104) (4, -757) (5, -137) (6, -387) (7, -731) (8, -551) (9, -612) (10, -238) (11, -9) (12, -780) (13, -488) (14, -363) (15, -651) (16, -802) (17, 166) (18, -862) (19, 10) (20, 17) (21, -249) (22, -768) (23, -506) (24, -14) (25, -407) (26, 50) (27, -991) (28, -625) (29, -444) (30, 28) (31, -165) (32, -271) (33, -520) (34, -216) (35, -606) (36, -794) (37, -241) (38, -555) (39, -424) (40, 185) (41, -231) (42, -607) (43, -7) (44, -553) (45, -519) (46, -88) (47, -667) (48, -801) (49, -415) (50, -452) (51, -223) (52, -857) (53, -786) (54, -695) (55, 100) (56, -780) (57, 5) (58, -713) (59, 25) (60, -131) (61, -444) (62, -413) (63, 25) (64, -687) (65, -239) (66, -226) (67, 83) (68, 24) (69, -194) (70, -801) (71, -394) (72, -305) (73, -901) (74, -48) (75, -135) (76, 30) (77, -316) (78, -457) (79, -399) (80, 52) (81, -111) (82, -747) (83, -669) (84, -777) (85, -414) (86, -549) (87, -698) (88, -281) (89, 34) (90, -481) (91, -678) (92, -605) (93, -284) (94, 148) (95, 13) (96, -410) (97, -948) (98, 5) (99, 162) (100, -162) (0, 15) (1, 15) (2, 478) (3, 72) (4, -505) (5, 442) (6, -290) (7, -431) (8, 79) (9, -510) (10, -523) (11, 296) (12, -146) (13, 456) (14, 91) (15, 678) (16, -240) (17, -728) (18, 19) (19, 233) (20, -535) (21, -311) (22, 465) (23, -140) (24, -544) (25, 479) (26, -1692) (27, 344) (28, 147) (29, 337) (30, 293) (31, -132) (32, 658) (33, -670) (34, -298) (35, -79) (36, -102) (37, 162) (38, 343) (39, -175) (40, -65) (41, 136) (42, -488) (43, 384) (44, 511) (45, 607) (46, -535) (47, -442) (48, 314) (49, -612) (50, -373) (51, -321) (52, -184) (53, 69) (54, -480) (55, -305) (56, -111) (57, -59) (58, -351) (59, -323) (60, 157) (61, -290) (62, -886) (63, 103) (64, -98) (65, -495) (66, 542) (67, -142) (68, -496) (69, -415) (70, -144) (71, -494) (72, -33) (73, 118) (74, 274) (75, 494) (76, 598) (77, 598) (78, 98) (79, 178) (80, 93) (81, 160) (82, -127) (83, -223) (84, 182) (85, -403) (86, 396) (87, 621) (88, -125) (89, -241) (90, -280) (91, 694) (92, -243) (93, -484) (94, 437) (95, -179) (96, -378) (97, -335) (98, -319) (99, -72) (100, 106) (0, 537) (1, -72) (2, 373) (3, -3) (4, 94) (5, 228) (6, -297) (7, 594) (8, -706) (9, -631) (10, 170) (11, 332) (12, -753) (13, 260) (14, 67) (15, -861) (16, -1003) (17, 266) (18, -976) (19, 226) (20, 584) (21, -465) (22, -66) (23, 121) (24, -1070) (25, 332) (26, 122) (27, 567) (28, 341) (29, -26) (30, -760) (31, 911) (32, -77) (33, -216) (34, 146) (35, -835) (36, -144) (37, -57) (38, -855) (39, 441) (40, -774) (41, 11) (42, -757) (43, 219) (44, -197) (45, -442) (46, -73) (47, 241) (48, -227) (49, 134) (50, -105) (51, -447) (52, -1058) (53, 633) (54, 655) (55, -326) (56, -1066) (57, -445) (58, -588) (59, -78) (60, -849) (61, 836) (62, 213) (63, -222) (64, 800) (65, 147) (66, -565) (67, -56) (68, -467) (69, 63) (70, -882) (71, -14) (72, 1077) (73, 743) (74, -491) (75, 415) (76, -69) (77, -980) (78, -912) (79, 607) (80, -1244) (81, 155) (82, 37) (83, -207) (84, 632) (85, -547) (86, -247) (87, -978) (88, -234) (89, 253) (90, -900) (91, 367) (92, 603) (93, 369) (94, -62) (95, -287) (96, 330) (97, -612) (98, 8) (99, 450) (100, -219) (0, 549) (1, -148) (2, 108) (3, -817) (4, -343) (5, -354) (6, -46) (7, 433) (8, -353) (9, -283) (10, 54) (11, 456) (12, 196) (13, -865) (14, -206) (15, 109) (16, -200) (17, -56) (18, -49) (19, -239) (20, -383) (21, 3) (22, -384) (23, -889) (24, 334) (25, -85) (26, -625) (27, 506) (28, -764) (29, -454) (30, 1035) (31, 56) (32, 536) (33, -689) (34, -396) (35, -391) (36, -164) (37, -856) (38, 225) (39, 650) (40, -590) (41, 452) (42, 820) (43, 105) (44, 520) (45, -237) (46, -65) (47, 386) (48, 383) (49, 215) (50, -659) (51, 123) (52, 445) (53, -116) (54, -197) (55, -174) (56, 225) (57, 111) (58, 312) (59, -26) (60, 449) (61, -707) (62, -193) (63, 279) (64, -307) (65, 74) (66, 217) (67, 207) (68, 464) (69, 469) (70, -486) (71, -642) (72, -552) (73, 157) (74, 561) (75, -298) (76, 610) (77, -432) (78, -129) (79, -758) (80, -28) (81, 700) (82, -559) (83, 443) (84, -453) (85, -671) (86, 475) (87, 105) (88, 601) (89, -772) (90, -261) (91, -186) (92, 394) (93, 226) (94, -341) (95, -95) (96, -1008) (97, 308) (98, -870) (99, -102) (100, -1451) (0, -397) (1, -708) (2, -302) (3, -660) (4, 218) (5, -1) (6, 169) (7, 184) (8, -744) (9, -133) (10, -225) (11, -308) (12, -739) (13, -673) (14, -540) (15, 184) (16, 19) (17, -244) (18, -603) (19, -426) (20, 157) (21, -574) (22, 5) (23, -713) (24, -698) (25, -255) (26, -557) (27, 136) (28, 12) (29, 152) (30, 392) (31, 19) (32, -455) (33, -865) (34, -794) (35, -479) (36, 157) (37, 102) (38, -312) (39, -265) (40, -897) (41, 381) (42, -433) (43, 129) (44, -213) (45, 31) (46, -241) (47, -29) (48, -579) (49, -696) (50, -299) (51, -772) (52, -737) (53, 443) (54, -97) (55, -637) (56, 357) (57, 16) (58, 340) (59, -339) (60, 37) (61, -767) (62, 99) (63, -72) (64, 221) (65, -232) (66, -916) (67, -149) (68, 225) (69, -243) (70, -78) (71, -227) (72, 303) (73, 142) (74, -340) (75, 148) (76, -29) (77, -315) (78, 523) (79, -408) (80, -455) (81, -223) (82, 27) (83, 171) (84, -633) (85, -142) (86, 259) (87, 353) (88, 249) (89, -228) (90, -327) (91, -381) (92, 649) (93, -84) (94, -343) (95, -496) (96, -385) (97, -315) (98, -707) (99, 611) (100, -833) (0, -266) (1, -287) (2, 93) (3, 68) (4, -353) (5, -356) (6, -303) (7, -321) (8, -545) (9, -167) (10, 120) (11, -257) (12, -672) (13, 347) (14, 7) (15, -352) (16, -593) (17, -754) (18, -541) (19, -482) (20, 288) (21, -685) (22, -114) (23, -621) (24, -459) (25, -612) (26, -459) (27, -652) (28, -399) (29, 288) (30, -289) (31, 310) (32, 251) (33, -447) (34, -356) (35, 215) (36, -722) (37, -613) (38, 199) (39, 473) (40, -321) (41, -633) (42, -117) (43, 27) (44, 14) (45, 198) (46, -15) (47, -238) (48, -443) (49, 441) (50, 180) (51, -371) (52, 339) (53, 338) (54, -420) (55, -446) (56, -525) (57, -425) (58, -550) (59, -611) (60, -385) (61, 134) (62, -691) (63, -67) (64, -417) (65, 160) (66, -582) (67, -561) (68, -171) (69, -17) (70, -488) (71, -318) (72, -616) (73, -85) (74, -293) (75, -175) (76, 96) (77, -14) (78, 320) (79, -327) (80, -383) (81, -204) (82, -245) (83, -427) (84, -667) (85, -730) (86, -40) (87, -193) (88, -405) (89, -763) (90, 399) (91, -238) (92, 376) (93, -606) (94, -109) (95, -445) (96, -448) (97, 76) (98, -96) (99, -308) (100, -603) (0, 223) (1, -230) (2, 422) (3, -2) (4, -65) (5, -271) (6, 393) (7, -422) (8, 313) (9, 407) (10, -239) (11, 597) (12, -16) (13, -239) (14, 24) (15, 506) (16, -552) (17, -309) (18, 11) (19, 469) (20, -196) (21, -74) (22, -423) (23, -480) (24, 141) (25, 276) (26, -267) (27, -588) (28, -147) (29, -464) (30, 293) (31, -326) (32, 160) (33, -615) (34, -70) (35, -65) (36, 516) (37, -297) (38, -255) (39, -129) (40, 207) (41, 428) (42, 752) (43, -434) (44, 238) (45, -286) (46, 182) (47, 119) (48, 357) (49, 520) (50, -125) (51, -607) (52, -484) (53, -82) (54, -506) (55, -657) (56, 29) (57, -263) (58, -404) (59, -362) (60, -390) (61, -597) (62, 253) (63, 68) (64, 266) (65, -214) (66, 82) (67, 20) (68, 441) (69, 72) (70, -670) (71, -5797) (72, -88) (73, -119) (74, -372) (75, -447) (76, -508) (77, -32) (78, 42) (79, 141) (80, 264) (81, 561) (82, -291) (83, -165) (84, -65) (85, -168) (86, -114) (87, 593) (88, 303) (89, -276) (90, 160) (91, 25) (92, 367) (93, -251) (94, 387) (95, 432) (96, 366) (97, 572) (98, -534) (99, 615) (100, -711) (0, 627) (1, -541) (2, 209) (3, -121) (4, -333) (5, -213) (6, -395) (7, 458) (8, 595) (9, 160) (10, 18) (11, 161) (12, -8) (13, -828) (14, -757) (15, 352) (16, -449) (17, 590) (18, -567) (19, 409) (20, 443) (21, -1107) (22, 536) (23, -172) (24, 304) (25, 137) (26, -22) (27, 411) (28, -825) (29, 327) (30, 318) (31, 798) (32, -343) (33, 29) (34, -66) (35, -708) (36, 333) (37, 201) (38, -414) (39, 189) (40, -366) (41, 659) (42, -248) (43, 419) (44, -552) (45, 304) (46, 283) (47, -261) (48, -428) (49, -629) (50, -371) (51, 205) (52, -510) (53, 12) (54, -267) (55, 211) (56, 522) (57, -264) (58, 39) (59, -761) (60, -221) (61, 210) (62, -459) (63, -204) (64, -713) (65, 708) (66, 77) (67, -319) (68, 347) (69, 767) (70, -547) (71, 522) (72, 23) (73, -64) (74, 146) (75, -500) (76, -35) (77, -741) (78, 228) (79, 139) (80, -390) (81, -585) (82, -284) (83, -125) (84, 385) (85, -854) (86, 121) (87, 227) (88, 428) (89, 29) (90, 294) (91, -155) (92, 949) (93, 239) (94, -586) (95, -259) (96, -388) (97, 45) (98, -332) (99, 72) (100, -916) (0, -296) (1, -552) (2, -506) (3, 180) (4, -150) (5, -540) (6, -606) (7, 411) (8, -570) (9, 69) (10, 371) (11, 458) (12, -175) (13, -178) (14, -496) (15, -302) (16, 233) (17, -275) (18, -86) (19, -271) (20, -405) (21, 320) (22, 439) (23, 660) (24, 160) (25, 359) (26, -191) (27, -691) (28, 113) (29, -319) (30, 142) (31, 87) (32, 283) (33, -94) (34, -371) (35, -346) (36, -178) (37, -577) (38, -424) (39, -351) (40, 519) (41, 22) (42, 395) (43, -435) (44, 339) (45, -554) (46, -138) (47, -244) (48, 92) (49, 318) (50, 602) (51, -224) (52, 183) (53, 81) (54, -109) (55, -13) (56, -403) (57, 149) (58, 133) (59, -525) (60, 235) (61, -251) (62, -439) (63, -529) (64, 517) (65, 85) (66, -361) (67, -448) (68, -6) (69, -578) (70, -374) (71, 7) (72, 124) (73, -640) (74, -71) (75, 293) (76, -328) (77, 146) (78, -511) (79, -178) (80, 200) (81, -241) (82, -50) (83, 31) (84, 175) (85, -526) (86, 388) (87, 306) (88, 121) (89, 41) (90, -452) (91, -120) (92, -604) (93, -540) (94, 86) (95, -192) (96, 88) (97, 143) (98, 21) (99, -512) (100, -1106) (0, -459) (1, 174) (2, -418) (3, 466) (4, -199) (5, -230) (6, -362) (7, -216) (8, -245) (9, -6) (10, 109) (11, -13) (12, 378) (13, -146) (14, -286) (15, -394) (16, -104) (17, 66) (18, -519) (19, 75) (20, -415) (21, -2) (22, 16) (23, -120) (24, -544) (25, 267) (26, -542) (27, 203) (28, 583) (29, 262) (30, -414) (31, -399) (32, -247) (33, -175) (34, -395) (35, -428) (36, 77) (37, 251) (38, -269) (39, -624) (40, -398) (41, -3) (42, -796) (43, -35) (44, -324) (45, -21) (46, 466) (47, 36) (48, -68) (49, 126) (50, -15) (51, -702) (52, -707) (53, -360) (54, 269) (55, -386) (56, -165) (57, -70) (58, -742) (59, -486) (60, -141) (61, -696) (62, 342) (63, 100) (64, 559) (65, -626) (66, 38) (67, 118) (68, 128) (69, -47) (70, -509) (71, 61) (72, -90) (73, 226) (74, -268) (75, 89) (76, -559) (77, -15) (78, -279) (79, -52) (80, -506) (81, -171) (82, -86) (83, -43) (84, -598) (85, -61) (86, -528) (87, -777) (88, -243) (89, 186) (90, 43) (91, -584) (92, 249) (93, -355) (94, -495) (95, 30) (96, -187) (97, 6) (98, 55) (99, 125) (100, -399) (0, -441) (1, -99) (2, -141) (3, -468) (4, -263) (5, -54) (6, -105) (7, -198) (8, 352) (9, -351) (10, -78) (11, 189) (12, 173) (13, -240) (14, 211) (15, -217) (16, -194) (17, -517) (18, 354) (19, -389) (20, -700) (21, 386) (22, -427) (23, 252) (24, -322) (25, 256) (26, 288) (27, 244) (28, -182) (29, 53) (30, -421) (31, 91) (32, 220) (33, 63) (34, -317) (35, -497) (36, -406) (37, -140) (38, 70) (39, 248) (40, -289) (41, -79) (42, 93) (43, -94) (44, -116) (45, -652) (46, 555) (47, 71) (48, 133) (49, -181) (50, 270) (51, 294) (52, -316) (53, -178) (54, -605) (55, -533) (56, -36) (57, -507) (58, -101) (59, -583) (60, 307) (61, 134) (62, -180) (63, -263) (64, 149) (65, -825) (66, 157) (67, -594) (68, -273) (69, 37) (70, -547) (71, -355) (72, -553) (73, 64) (74, 359) (75, -115) (76, 67) (77, -340) (78, -237) (79, -14) (80, 335) (81, 303) (82, -376) (83, 363) (84, -694) (85, -195) (86, 101) (87, 334) (88, -480) (89, 56) (90, -368) (91, 33) (92, -193) (93, -249) (94, -241) (95, 190) (96, -467) (97, 274) (98, 347) (99, -453) (100, -95) (0, 178) (1, -554) (2, -445) (3, -801) (4, -208) (5, -339) (6, -425) (7, 177) (8, -369) (9, -82) (10, -198) (11, 393) (12, -129) (13, -569) (14, -671) (15, 156) (16, -339) (17, 124) (18, 117) (19, -411) (20, -259) (21, -980) (22, 31) (23, -767) (24, -294) (25, -685) (26, -651) (27, -306) (28, -46) (29, -385) (30, 91) (31, 20) (32, 161) (33, -344) (34, 188) (35, 432) (36, -51) (37, -727) (38, -123) (39, 226) (40, -567) (41, 279) (42, 324) (43, -540) (44, -527) (45, -325) (46, -534) (47, -375) (48, 105) (49, 341) (50, -34) (51, 265) (52, -31) (53, -208) (54, 1) (55, -134) (56, -125) (57, -519) (58, -311) (59, -245) (60, 28) (61, -252) (62, -143) (63, 76) (64, -221) (65, -130) (66, 282) (67, -652) (68, -528) (69, -116) (70, 388) (71, -366) (72, -319) (73, -340) (74, -276) (75, -308) (76, 351) (77, -20) (78, 539) (79, -170) (80, 441) (81, 189) (82, -179) (83, 580) (84, -638) (85, -408) (86, -296) (87, -78) (88, -557) (89, -358) (90, 354) (91, -338) (92, -398) (93, -756) (94, -595) (95, -345) (96, -88) (97, 429) (98, -768) (99, 213) (100, -384) (0, -648) (1, -665) (2, 280) (3, -587) (4, -714) (5, -296) (6, -598) (7, 159) (8, -552) (9, -287) (10, 189) (11, -562) (12, -604) (13, 154) (14, -708) (15, 217) (16, -943) (17, -212) (18, 224) (19, 41) (20, -5) (21, -585) (22, -536) (23, -332) (24, 216) (25, -823) (26, -748) (27, -393) (28, -578) (29, 229) (30, 270) (31, 459) (32, -269) (33, 129) (34, 36) (35, -172) (36, 15) (37, -803) (38, -302) (39, -154) (40, -634) (41, -179) (42, -387) (43, 54) (44, -770) (45, -1) (46, -273) (47, -187) (48, -121) (49, -633) (50, -233) (51, -485) (52, -161) (53, -441) (54, -660) (55, -56) (56, -43) (57, -159) (58, -212) (59, -402) (60, 20) (61, -307) (62, 270) (63, -198) (64, -331) (65, -526) (66, -388) (67, -444) (68, -239) (69, -284) (70, 155) (71, -572) (72, -528) (73, -297) (74, -538) (75, -593) (76, 318) (77, -57) (78, -382) (79, 4) (80, -36) (81, 372) (82, -504) (83, 133) (84, -583) (85, -143) (86, 258) (87, -636) (88, -325) (89, -372) (90, 52) (91, -437) (92, 222) (93, -443) (94, -334) (95, -356) (96, -496) (97, 417) (98, -663) (99, 334) (100, -217) (0, -412) (1, -377) (2, -1222) (3, -500) (4, 460) (5, 181) (6, -1466) (7, -102) (8, -153) (9, -607) (10, -126) (11, -211) (12, -705) (13, -80) (14, -192) (15, 24) (16, -264) (17, 305) (18, 27) (19, -184) (20, -519) (21, -166) (22, -433) (23, -363) (24, 484) (25, -64) (26, -349) (27, -680) (28, 652) (29, -397) (30, 29) (31, -542) (32, -64) (33, -414) (34, -224) (35, -40) (36, 249) (37, -544) (38, 83) (39, -16) (40, 429) (41, 88) (42, -292) (43, -499) (44, -559) (45, 310) (46, 192) (47, -250) (48, 169) (49, 327) (50, 831) (51, -520) (52, -468) (53, -966) (54, 136) (55, 61) (56, -1003) (57, -665) (58, -243) (59, -74) (60, -681) (61, 346) (62, 162) (63, -419) (64, -187) (65, -821) (66, -1389) (67, 334) (68, 287) (69, -510) (70, 335) (71, -103) (72, -741) (73, -501) (74, -333) (75, -131) (76, -624) (77, 68) (78, 64) (79, 52) (80, 226) (81, -192) (82, -684) (83, 267) (84, -823) (85, 60) (86, -403) (87, -93) (88, -218) (89, -464) (90, -1088) (91, -31) (92, 347) (93, -381) (94, -567) (95, 299) (96, -126) (97, 25) (98, 277) (99, -58) (100, 678) (0, 164) (1, 175) (2, -229) (3, -470) (4, 421) (5, -41) (6, -531) (7, -281) (8, -609) (9, -59) (10, -418) (11, -496) (12, -302) (13, 233) (14, 189) (15, -131) (16, -496) (17, 83) (18, -125) (19, -204) (20, -551) (21, -537) (22, -549) (23, -564) (24, 372) (25, 88) (26, -671) (27, 74) (28, 256) (29, 163) (30, -378) (31, -335) (32, -290) (33, 121) (34, 242) (35, -416) (36, -42) (37, -607) (38, -52) (39, -231) (40, -325) (41, 116) (42, -313) (43, 458) (44, -681) (45, 10) (46, 312) (47, -701) (48, -107) (49, -361) (50, -199) (51, -677) (52, -319) (53, -10) (54, -18) (55, -537) (56, -241) (57, -698) (58, -180) (59, -419) (60, 95) (61, -415) (62, -617) (63, 247) (64, -618) (65, -835) (66, -114) (67, 220) (68, 199) (69, -380) (70, -62) (71, 110) (72, -684) (73, -497) (74, 444) (75, -91) (76, -12) (77, -146) (78, -81) (79, -174) (80, -632) (81, -94) (82, -66) (83, -529) (84, -144) (85, -333) (86, -488) (87, -20) (88, 102) (89, 392) (90, -439) (91, 419) (92, -231) (93, 267) (94, 150) (95, -290) (96, -778) (97, 32) (98, -622) (99, -184) (100, 380) (0, 420) (1, -962) (2, -894) (3, 487) (4, -211) (5, 173) (6, -1454) (7, 96) (8, -592) (9, 195) (10, -52) (11, 324) (12, -325) (13, -262) (14, -939) (15, -659) (16, -64) (17, 92) (18, 336) (19, -320) (20, -336) (21, -243) (22, -340) (23, 186) (24, 341) (25, 206) (26, 237) (27, -841) (28, 257) (29, -141) (30, 309) (31, -857) (32, 154) (33, -575) (34, -13) (35, -218) (36, -672) (37, -476) (38, -283) (39, 354) (40, -645) (41, -84) (42, 146) (43, -232) (44, 519) (45, -460) (46, -550) (47, 220) (48, -584) (49, -135) (50, 376) (51, -490) (52, 216) (53, -794) (54, -914) (55, 105) (56, 95) (57, -736) (58, -688) (59, 201) (60, -117) (61, -132) (62, -1143) (63, -401) (64, -53) (65, -1264) (66, -725) (67, -58) (68, -51) (69, -240) (70, 106) (71, -522) (72, -368) (73, -523) (74, -284) (75, -213) (76, 195) (77, -344) (78, 372) (79, 139) (80, 143) (81, -194) (82, 5) (83, -177) (84, 50) (85, -522) (86, -122) (87, -45) (88, 91) (89, -554) (90, -241) (91, 285) (92, -664) (93, -88) (94, -198) (95, -350) (96, -968) (97, 84) (98, 63) (99, -568) (100, 781) (0, 342) (1, -1482) (2, 338) (3, 164) (4, 84) (5, -71) (6, -899) (7, -6) (8, 127) (9, 155) (10, -1098) (11, 171) (12, -31) (13, -1336) (14, -854) (15, 133) (16, -367) (17, -19) (18, -261) (19, -1084) (20, -390) (21, -829) (22, 414) (23, -595) (24, -516) (25, -20) (26, -202) (27, -749) (28, -522) (29, -1244) (30, 276) (31, -331) (32, -13) (33, -925) (34, -227) (35, -345) (36, -508) (37, -345) (38, -569) (39, -112) (40, -427) (41, 121) (42, 100) (43, -323) (44, 217) (45, -1287) (46, -543) (47, 366) (48, -108) (49, -467) (50, -68) (51, -673) (52, 89) (53, -1123) (54, -129) (55, -827) (56, -65) (57, -804) (58, 143) (59, 18) (60, -213) (61, -409) (62, -865) (63, -669) (64, -490) (65, -170) (66, -508) (67, -1100) (68, -909) (69, 384) (70, -19) (71, -524) (72, -766) (73, -541) (74, 311) (75, -564) (76, -439) (77, -456) (78, -30) (79, -1076) (80, -910) (81, -248) (82, -652) (83, -229) (84, -203) (85, -1338) (86, 116) (87, -130) (88, -363) (89, -209) (90, -330) (91, -335) (92, -86) (93, -1033) (94, -765) (95, 266) (96, -876) (97, -7) (98, -1572) (99, 278) (100, -833) (0, -144) (1, -46) (2, -2577) (3, -29) (4, 266) (5, 424) (6, -2249) (7, -629) (8, -352) (9, -172) (10, -1267) (11, 268) (12, -215) (13, -266) (14, 404) (15, -872) (16, -560) (17, 346) (18, 322) (19, -1380) (20, -1213) (21, -13) (22, 435) (23, 300) (24, 260) (25, -331) (26, 520) (27, -971) (28, -321) (29, -641) (30, -833) (31, -2559) (32, 1) (33, -1195) (34, 32) (35, 449) (36, -1233) (37, 52) (38, -89) (39, -296) (40, 53) (41, -522) (42, 430) (43, 341) (44, 433) (45, 27) (46, 260) (47, -589) (48, -256) (49, 164) (50, -81) (51, -572) (52, -228) (53, -2452) (54, -2313) (55, -124) (56, -1212) (57, -163) (58, -1419) (59, 463) (60, -952) (61, -525) (62, -1656) (63, 210) (64, 211) (65, -2645) (66, 53) (67, -1027) (68, -303) (69, -217) (70, 454) (71, -1622) (72, -1245) (73, -846) (74, -197) (75, -369) (76, -94) (77, -15) (78, -942) (79, -190) (80, -594) (81, -372) (82, -491) (83, 314) (84, -860) (85, 343) (86, -801) (87, -468) (88, 47) (89, 120) (90, -707) (91, 202) (92, -1208) (93, -40) (94, 290) (95, 397) (96, -991) (97, -1258) (98, -170) (99, 85) (100, -1045) (0, -242) (1, -305) (2, -311) (3, 160) (4, -524) (5, 333) (6, -574) (7, 198) (8, 83) (9, 164) (10, -254) (11, -80) (12, 487) (13, 32) (14, 160) (15, -573) (16, 180) (17, -424) (18, 263) (19, -808) (20, 50) (21, 217) (22, -318) (23, -631) (24, 4) (25, 147) (26, -270) (27, -486) (28, -11) (29, -259) (30, 520) (31, -22) (32, -573) (33, -203) (34, -114) (35, 166) (36, -130) (37, 522) (38, 28) (39, 215) (40, 363) (41, -476) (42, -31) (43, -114) (44, 491) (45, -556) (46, 465) (47, 98) (48, 78) (49, -672) (50, 478) (51, 108) (52, -400) (53, -515) (54, -21) (55, 110) (56, -304) (57, 132) (58, 204) (59, -125) (60, 367) (61, -809) (62, -702) (63, 442) (64, -487) (65, -427) (66, -224) (67, -613) (68, -493) (69, 194) (70, 370) (71, -123) (72, -331) (73, -318) (74, -286) (75, 273) (76, -415) (77, 123) (78, -118) (79, -702) (80, -320) (81, -75) (82, -339) (83, -40) (84, -648) (85, -9) (86, 345) (87, -482) (88, -670) (89, 262) (90, -338) (91, -354) (92, -640) (93, -187) (94, 131) (95, 228) (96, 76) (97, 199) (98, 156) (99, -249) (100, 186) (0, -349) (1, -473) (2, -360) (3, 25) (4, -416) (5, 350) (6, -468) (7, 145) (8, -218) (9, -469) (10, 39) (11, -394) (12, 15) (13, -260) (14, 36) (15, -419) (16, 145) (17, -179) (18, 160) (19, -370) (20, -314) (21, 224) (22, 100) (23, 498) (24, 554) (25, 102) (26, 4) (27, 121) (28, -73) (29, 79) (30, -250) (31, -312) (32, 315) (33, -101) (34, -150) (35, 59) (36, 242) (37, 458) (38, 214) (39, 283) (40, -92) (41, 349) (42, -11) (43, 27) (44, -369) (45, -2) (46, -279) (47, -187) (48, -299) (49, -303) (50, -5) (51, 185) (52, -471) (53, -719) (54, 52) (55, 68) (56, -123) (57, 31) (58, -232) (59, 278) (60, -401) (61, -153) (62, -311) (63, 171) (64, -495) (65, -22) (66, 189) (67, -388) (68, 312) (69, 210) (70, -200) (71, 224) (72, -420) (73, -155) (74, 13) (75, -103) (76, -327) (77, 409) (78, -331) (79, -301) (80, -65) (81, -400) (82, 186) (83, -194) (84, 171) (85, -241) (86, -443) (87, 133) (88, -196) (89, 123) (90, 253) (91, 93) (92, -413) (93, -282) (94, -497) (95, 307) (96, -75) (97, 290) (98, -468) (99, -223) (100, -965) (0, -797) (1, -447) (2, -130) (3, 210) (4, -55) (5, -229) (6, -16) (7, -338) (8, -74) (9, -483) (10, 176) (11, -270) (12, -521) (13, -316) (14, 57) (15, -174) (16, -721) (17, -333) (18, -278) (19, 77) (20, -40) (21, -564) (22, -484) (23, 356) (24, 214) (25, 209) (26, 306) (27, -340) (28, -79) (29, -610) (30, 19) (31, 146) (32, -294) (33, -523) (34, 212) (35, 307) (36, 180) (37, -294) (38, -437) (39, -162) (40, 60) (41, 51) (42, 232) (43, 344) (44, 37) (45, 260) (46, -335) (47, -266) (48, 241) (49, -35) (50, 280) (51, 144) (52, -103) (53, -750) (54, -516) (55, 196) (56, -53) (57, -289) (58, -197) (59, -331) (60, 365) (61, -318) (62, 183) (63, 122) (64, 197) (65, -196) (66, -814) (67, 231) (68, 291) (69, -474) (70, -494) (71, -471) (72, -306) (73, -227) (74, -515) (75, -53) (76, -238) (77, -395) (78, 71) (79, -211) (80, -202) (81, -224) (82, 143) (83, 321) (84, -392) (85, -188) (86, -366) (87, 127) (88, -504) (89, -553) (90, -72) (91, -401) (92, -599) (93, 192) (94, -446) (95, -474) (96, -303) (97, -678) (98, 135) (99, -689) (100, 733) (0, 380) (1, -884) (2, 231) (3, 57) (4, 309) (5, 359) (6, -388) (7, 112) (8, -493) (9, -402) (10, -74) (11, 165) (12, 129) (13, -580) (14, 213) (15, -148) (16, -170) (17, 304) (18, 446) (19, -687) (20, -818) (21, -558) (22, 15) (23, -318) (24, -56) (25, -22) (26, -675) (27, -131) (28, -1663) (29, -275) (30, 554) (31, 96) (32, 406) (33, -975) (34, 344) (35, -273) (36, -207) (37, -63) (38, -278) (39, -104) (40, -69) (41, -431) (42, 297) (43, -522) (44, -537) (45, -162) (46, -394) (47, -299) (48, 21) (49, 318) (50, 102) (51, -37) (52, 361) (53, 274) (54, -141) (55, 152) (56, 193) (57, -70) (58, -156) (59, -413) (60, 371) (61, 167) (62, -584) (63, 125) (64, -776) (65, 303) (66, -686) (67, 156) (68, -510) (69, 28) (70, 31) (71, -133) (72, -667) (73, -629) (74, -243) (75, -44) (76, -357) (77, -447) (78, -230) (79, 136) (80, -236) (81, 804) (82, 231) (83, 593) (84, -184) (85, -713) (86, -152) (87, -29) (88, -123) (89, -676) (90, -174) (91, -464) (92, -494) (93, -525) (94, -201) (95, 7) (96, -640) (97, 437) (98, -339) (99, -103) (100, -925) (0, -169) (1, -126) (2, -181) (3, 262) (4, -76) (5, -260) (6, -498) (7, 167) (8, 274) (9, 782) (10, -438) (11, 234) (12, -156) (13, -383) (14, -173) (15, -363) (16, -252) (17, -598) (18, 307) (19, 175) (20, 852) (21, -625) (22, -237) (23, 691) (24, -259) (25, -270) (26, 401) (27, -175) (28, 201) (29, 6) (30, 166) (31, -265) (32, 39) (33, -178) (34, -569) (35, -216) (36, -128) (37, -225) (38, -350) (39, 12) (40, 501) (41, -6) (42, 20) (43, 422) (44, -225) (45, -253) (46, 379) (47, -90) (48, -109) (49, -120) (50, -133) (51, -828) (52, 175) (53, 255) (54, 151) (55, -50) (56, 240) (57, -296) (58, 441) (59, 29) (60, 139) (61, -442) (62, 141) (63, 465) (64, -506) (65, 871) (66, -403) (67, -548) (68, 174) (69, -548) (70, -522) (71, -92) (72, 358) (73, -103) (74, 346) (75, -391) (76, -702) (77, 84) (78, -520) (79, 589) (80, 446) (81, 847) (82, -604) (83, -128) (84, 314) (85, 139) (86, 33) (87, 240) (88, 467) (89, 4) (90, 322) (91, -407) (92, 499) (93, -714) (94, -705) (95, 84) (96, -673) (97, -308) (98, -22) (99, -614) (100, -605) (0, -20) (1, 1543) (2, -4043) (3, 1431) (4, 338) (5, -10) (6, -3630) (7, -84) (8, 300) (9, 437) (10, 832) (11, -159) (12, 383) (13, 1513) (14, 475) (15, 68) (16, -921) (17, 1001) (18, 431) (19, -251) (20, 681) (21, 827) (22, 822) (23, 1129) (24, -132) (25, 762) (26, 189) (27, -866) (28, 2026) (29, 1033) (30, -369) (31, -3237) (32, 714) (33, -1699) (34, 138) (35, 567) (36, 1332) (37, 879) (38, 98) (39, -811) (40, 239) (41, -742) (42, -519) (43, 1153) (44, 1228) (45, 274) (46, 964) (47, 469) (48, -560) (49, 523) (50, 1635) (51, 50) (52, -274) (53, -3445) (54, -620) (55, 1070) (56, -1686) (57, 234) (58, -1327) (59, 1432) (60, -1443) (61, 790) (62, -2529) (63, 594) (64, 537) (65, -3302) (66, -1570) (67, 218) (68, -660) (69, 410) (70, 1206) (71, 158) (72, 635) (73, -840) (74, -134) (75, 119) (76, 280) (77, 877) (78, -114) (79, 502) (80, -70) (81, -434) (82, 81) (83, -515) (84, 475) (85, 552) (86, -94) (87, -1196) (88, 1003) (89, 384) (90, -2634) (91, -664) (92, -106) (93, 0) (94, 306) (95, 168) (96, -1380) (97, 110) (98, 1245) (99, 604) (100, 569) (0, -439) (1, -1360) (2, -183) (3, -766) (4, -396) (5, 79) (6, -770) (7, -177) (8, -494) (9, 67) (10, -190) (11, -31) (12, -308) (13, -642) (14, -353) (15, -145) (16, 41) (17, -85) (18, -467) (19, 138) (20, 8) (21, -996) (22, -5) (23, -450) (24, -447) (25, -381) (26, 153) (27, -39) (28, -117) (29, -575) (30, 429) (31, -330) (32, -504) (33, -668) (34, -673) (35, 185) (36, -1104) (37, 40) (38, -50) (39, -315) (40, -808) (41, 127) (42, 624) (43, -153) (44, -462) (45, 31) (46, -813) (47, 145) (48, 393) (49, 247) (50, -896) (51, -199) (52, -142) (53, -680) (54, -61) (55, -163) (56, -30) (57, -453) (58, 127) (59, -744) (60, -36) (61, -60) (62, -451) (63, -596) (64, -128) (65, -720) (66, -108) (67, 86) (68, 179) (69, 266) (70, -173) (71, 157) (72, -421) (73, -685) (74, 157) (75, 9) (76, 386) (77, 381) (78, -425) (79, -823) (80, -101) (81, -333) (82, -439) (83, 188) (84, -390) (85, -286) (86, -273) (87, 82) (88, 178) (89, -770) (90, -169) (91, 306) (92, 152) (93, -708) (94, -154) (95, -586) (96, -985) (97, 244) (98, -228) (99, -581) (100, -705) (0, -331) (1, 461) (2, -961) (3, 508) (4, -577) (5, -994) (6, -996) (7, -343) (8, -364) (9, -695) (10, -950) (11, -709) (12, 184) (13, 458) (14, -1073) (15, -700) (16, -685) (17, 396) (18, 321) (19, -991) (20, -812) (21, 795) (22, 48) (23, 564) (24, 914) (25, 560) (26, 371) (27, -911) (28, 663) (29, -521) (30, -220) (31, -1094) (32, 321) (33, -541) (34, 870) (35, 248) (36, -772) (37, 532) (38, -451) (39, -473) (40, 575) (41, -768) (42, 63) (43, -17) (44, 747) (45, 251) (46, 767) (47, -382) (48, -425) (49, 786) (50, 431) (51, -910) (52, 806) (53, -1425) (54, -1018) (55, 159) (56, -474) (57, 830) (58, -1074) (59, 321) (60, -312) (61, -923) (62, -1048) (63, -631) (64, 23) (65, -626) (66, -933) (67, -724) (68, -357) (69, -780) (70, 262) (71, -345) (72, -345) (73, -637) (74, -75) (75, 61) (76, -11) (77, 66) (78, -581) (79, -275) (80, -792) (81, -299) (82, -849) (83, -895) (84, -478) (85, -32) (86, -211) (87, -928) (88, -451) (89, -46) (90, -411) (91, -356) (92, -325) (93, -1087) (94, 689) (95, 734) (96, -1088) (97, -895) (98, 643) (99, -740) (100, -1090) (0, -257) (1, 166) (2, -2051) (3, 429) (4, -664) (5, -333) (6, 131) (7, -316) (8, 127) (9, -1336) (10, -16) (11, 150) (12, -252) (13, 414) (14, 876) (15, -75) (16, -781) (17, -100) (18, 800) (19, 154) (20, -27) (21, 1044) (22, -594) (23, 365) (24, -706) (25, -142) (26, 1581) (27, -139) (28, 1204) (29, -880) (30, -1406) (31, -129) (32, 818) (33, 456) (34, 164) (35, 1172) (36, 725) (37, 522) (38, -973) (39, -462) (40, 485) (41, -1519) (42, -636) (43, 278) (44, 833) (45, 399) (46, 829) (47, -1060) (48, -874) (49, 590) (50, 1178) (51, -781) (52, -388) (53, -769) (54, -573) (55, -531) (56, -833) (57, -125) (58, -542) (59, -117) (60, -243) (61, -359) (62, 385) (63, 732) (64, 174) (65, -297) (66, -797) (67, -652) (68, 178) (69, -1003) (70, -791) (71, 447) (72, -458) (73, 38) (74, -1160) (75, 543) (76, -505) (77, 828) (78, -944) (79, 153) (80, -148) (81, -1180) (82, -666) (83, 218) (84, 141) (85, 1332) (86, 533) (87, -22) (88, -701) (89, 197) (90, -339) (91, 445) (92, -1241) (93, 819) (94, -309) (95, -177) (96, 594) (97, -792) (98, 920) (99, 179) (100, 432) (0, 143) (1, -564) (2, -27) (3, 216) (4, -67) (5, -63) (6, -919) (7, -592) (8, 110) (9, 162) (10, -408) (11, 116) (12, -462) (13, -125) (14, -119) (15, -377) (16, -512) (17, -24) (18, 292) (19, -64) (20, -360) (21, -145) (22, -386) (23, -796) (24, -618) (25, -366) (26, 189) (27, -44) (28, -401) (29, -838) (30, 206) (31, -647) (32, -360) (33, 23) (34, -34) (35, -402) (36, -750) (37, -665) (38, 206) (39, -344) (40, -765) (41, -402) (42, 104) (43, -768) (44, -153) (45, -668) (46, 176) (47, -224) (48, -647) (49, 252) (50, 329) (51, -405) (52, -26) (53, 147) (54, -133) (55, -100) (56, -309) (57, -604) (58, -26) (59, -232) (60, 98) (61, 79) (62, 160) (63, 225) (64, -737) (65, 123) (66, -798) (67, -136) (68, -17) (69, -731) (70, -144) (71, 165) (72, 28) (73, -153) (74, -317) (75, -561) (76, -432) (77, -540) (78, -473) (79, 59) (80, -74) (81, -656) (82, -419) (83, -192) (84, -881) (85, -824) (86, 47) (87, -357) (88, -793) (89, 134) (90, -192) (91, -519) (92, 161) (93, 85) (94, -578) (95, -706) (96, -665) (97, -128) (98, -528) (99, 397) (100, -588) (0, 197) (1, -436) (2, -130) (3, -599) (4, 347) (5, -404) (6, 17) (7, -275) (8, -376) (9, 497) (10, 529) (11, 204) (12, -646) (13, -720) (14, -40) (15, -299) (16, -641) (17, -614) (18, -229) (19, 19) (20, -151) (21, -769) (22, 243) (23, -358) (24, -171) (25, -153) (26, -349) (27, -859) (28, -512) (29, 112) (30, 41) (31, -350) (32, 358) (33, -218) (34, -856) (35, -480) (36, -320) (37, -744) (38, -854) (39, 165) (40, -513) (41, 2) (42, 499) (43, -492) (44, -762) (45, -415) (46, -244) (47, -869) (48, -668) (49, -31) (50, -178) (51, 45) (52, -477) (53, -483) (54, 65) (55, -714) (56, -248) (57, -265) (58, -246) (59, -196) (60, -560) (61, -227) (62, -138) (63, -527) (64, -255) (65, -351) (66, -360) (67, -493) (68, -453) (69, 139) (70, -505) (71, 266) (72, -511) (73, 27) (74, -64) (75, -180) (76, 41) (77, -776) (78, 3) (79, -323) (80, -789) (81, 590) (82, 20) (83, 518) (84, -291) (85, -49) (86, -144) (87, 6) (88, -9) (89, -861) (90, 342) (91, -86) (92, 636) (93, 170) (94, -374) (95, -609) (96, 71) (97, -258) (98, -206) (99, -204) (100, -59) (0, -276) (1, 183) (2, -481) (3, 336) (4, -73) (5, -406) (6, -647) (7, -445) (8, -491) (9, -364) (10, -577) (11, -115) (12, 215) (13, 658) (14, 17) (15, -258) (16, -10) (17, -288) (18, 498) (19, -710) (20, -202) (21, 488) (22, 359) (23, 127) (24, -464) (25, -278) (26, 22) (27, -240) (28, 31) (29, -470) (30, -632) (31, -858) (32, -132) (33, -598) (34, -300) (35, 495) (36, -201) (37, -89) (38, -819) (39, -617) (40, -367) (41, -577) (42, -675) (43, 109) (44, 116) (45, -590) (46, -150) (47, -523) (48, -338) (49, -33) (50, 112) (51, -767) (52, 334) (53, -1300) (54, 173) (55, 113) (56, -892) (57, 125) (58, -786) (59, -199) (60, -479) (61, 179) (62, -244) (63, 225) (64, -394) (65, -1157) (66, -665) (67, -454) (68, 206) (69, -609) (70, 218) (71, -637) (72, -261) (73, -114) (74, 47) (75, -354) (76, -549) (77, 367) (78, -729) (79, -385) (80, -438) (81, 15) (82, -546) (83, 136) (84, -884) (85, -303) (86, -536) (87, -232) (88, 326) (89, -380) (90, -635) (91, -29) (92, -270) (93, -342) (94, 291) (95, -65) (96, -655) (97, -888) (98, -317) (99, 102) (100, -969) (0, -547) (1, -117) (2, 78) (3, 109) (4, -239) (5, 141) (6, -16) (7, -657) (8, -395) (9, 263) (10, -234) (11, -530) (12, -694) (13, 196) (14, -528) (15, -146) (16, -313) (17, -573) (18, -103) (19, -744) (20, -626) (21, 256) (22, -79) (23, 192) (24, -339) (25, -468) (26, 160) (27, 118) (28, -374) (29, -609) (30, -930) (31, -506) (32, -471) (33, -689) (34, -303) (35, -297) (36, -391) (37, -785) (38, -428) (39, -435) (40, -427) (41, -287) (42, 181) (43, 197) (44, -55) (45, -81) (46, 120) (47, -784) (48, -505) (49, -549) (50, 420) (51, -641) (52, -8) (53, -560) (54, -760) (55, -183) (56, -626) (57, -257) (58, -277) (59, -288) (60, -506) (61, -656) (62, 27) (63, -80) (64, -658) (65, -18) (66, -26) (67, -694) (68, -515) (69, 5) (70, -415) (71, -536) (72, 64) (73, 109) (74, -838) (75, -31) (76, -228) (77, -59) (78, 142) (79, 101) (80, -203) (81, -28) (82, -301) (83, -150) (84, -674) (85, -238) (86, -151) (87, -900) (88, -75) (89, 190) (90, -320) (91, -486) (92, -36) (93, -846) (94, 137) (95, -449) (96, -239) (97, -468) (98, 9) (99, -202) (100, -1021) (0, -857) (1, -663) (2, -305) (3, -585) (4, -38) (5, -342) (6, -31) (7, -194) (8, -794) (9, -401) (10, -746) (11, -283) (12, 170) (13, -553) (14, -31) (15, -653) (16, -889) (17, -488) (18, 63) (19, -675) (20, -43) (21, -238) (22, -767) (23, 72) (24, 208) (25, -144) (26, -25) (27, -913) (28, -542) (29, -626) (30, 29) (31, -585) (32, -535) (33, 34) (34, -129) (35, 289) (36, -442) (37, -742) (38, -563) (39, -615) (40, -25) (41, -846) (42, -611) (43, -176) (44, -268) (45, 171) (46, -191) (47, -500) (48, -863) (49, 278) (50, -769) (51, -860) (52, -737) (53, -403) (54, -761) (55, -64) (56, -568) (57, 44) (58, -763) (59, 142) (60, -843) (61, -209) (62, -524) (63, -352) (64, 166) (65, -793) (66, -2) (67, -13) (68, 177) (69, -709) (70, -231) (71, 187) (72, -38) (73, -397) (74, 50) (75, 298) (76, 74) (77, -610) (78, -612) (79, -113) (80, -304) (81, 202) (82, -932) (83, -545) (84, -834) (85, -634) (86, -178) (87, -368) (88, -414) (89, -342) (90, -260) (91, -287) (92, -163) (93, -199) (94, -723) (95, 171) (96, -634) (97, -757) (98, 139) (99, -579) (100, -555) (0, -97) (1, 120) (2, -358) (3, -151) (4, -201) (5, -10) (6, 183) (7, -393) (8, -241) (9, 133) (10, 155) (11, 369) (12, -516) (13, 410) (14, 19) (15, -259) (16, -482) (17, -156) (18, -217) (19, 163) (20, -319) (21, -353) (22, -10) (23, -558) (24, -58) (25, -11) (26, 340) (27, -211) (28, -50) (29, -200) (30, -236) (31, -79) (32, 206) (33, -451) (34, -536) (35, -202) (36, -593) (37, -409) (38, -548) (39, -406) (40, 11) (41, -70) (42, -384) (43, -72) (44, -329) (45, 1) (46, 100) (47, -296) (48, 142) (49, 563) (50, -130) (51, -306) (52, 130) (53, -859) (54, -375) (55, -215) (56, -106) (57, -259) (58, -560) (59, -486) (60, 71) (61, -293) (62, -103) (63, 117) (64, -239) (65, -282) (66, 13) (67, -84) (68, -314) (69, -699) (70, -386) (71, -372) (72, -481) (73, -264) (74, -225) (75, -239) (76, 62) (77, -420) (78, 32) (79, -226) (80, -343) (81, -728) (82, -337) (83, -81) (84, 46) (85, -243) (86, -326) (87, -308) (88, -234) (89, 62) (90, -466) (91, -565) (92, -179) (93, 215) (94, -168) (95, -346) (96, -409) (97, -411) (98, 214) (99, 331) (100, -863) (0, -243) (1, 52) (2, -512) (3, -801) (4, 71) (5, 81) (6, -715) (7, -451) (8, -716) (9, 125) (10, -801) (11, 180) (12, 177) (13, -123) (14, -92) (15, -613) (16, -738) (17, -696) (18, 137) (19, 19) (20, -16) (21, -284) (22, -193) (23, -378) (24, 247) (25, -425) (26, 91) (27, -708) (28, 214) (29, 73) (30, 372) (31, -787) (32, -190) (33, -626) (34, 160) (35, 357) (36, -908) (37, -628) (38, -436) (39, 339) (40, -671) (41, -630) (42, -146) (43, 66) (44, 121) (45, -179) (46, -827) (47, 182) (48, 123) (49, 152) (50, 306) (51, 109) (52, 137) (53, -516) (54, -926) (55, -443) (56, -474) (57, -533) (58, -34) (59, -497) (60, 135) (61, -696) (62, -685) (63, -218) (64, -522) (65, -639) (66, -566) (67, -777) (68, -54) (69, 177) (70, -285) (71, -558) (72, -777) (73, -346) (74, -121) (75, -621) (76, -597) (77, -87) (78, -73) (79, -516) (80, -467) (81, 80) (82, -219) (83, -312) (84, -280) (85, -162) (86, -758) (87, 288) (88, 266) (89, -232) (90, -415) (91, -565) (92, 16) (93, -124) (94, -562) (95, -162) (96, -422) (97, -223) (98, -190) (99, -556) (100, -1081) (0, -217) (1, -847) (2, 276) (3, -365) (4, 565) (5, -277) (6, 380) (7, 493) (8, -190) (9, 70) (10, 131) (11, 786) (12, -68) (13, -1015) (14, -93) (15, 481) (16, -584) (17, -507) (18, -237) (19, 159) (20, 530) (21, -141) (22, 12) (23, -195) (24, 245) (25, -536) (26, 110) (27, -514) (28, -675) (29, 514) (30, 642) (31, -176) (32, 597) (33, -50) (34, -495) (35, 607) (36, 338) (37, 403) (38, 499) (39, -322) (40, 280) (41, 808) (42, 274) (43, 332) (44, -131) (45, 9) (46, -388) (47, 377) (48, 158) (49, 32) (50, 204) (51, -13) (52, 446) (53, 64) (54, -313) (55, -525) (56, 12) (57, 259) (58, 133) (59, 73) (60, 294) (61, -124) (62, -252) (63, 67) (64, -87) (65, -402) (66, -314) (67, -506) (68, 345) (69, 307) (70, -288) (71, 263) (72, 592) (73, 458) (74, 89) (75, -9) (76, 238) (77, 468) (78, -240) (79, 94) (80, -27) (81, 411) (82, 566) (83, 794) (84, 13) (85, 292) (86, 292) (87, 60) (88, 31) (89, -187) (90, -309) (91, 116) (92, 472) (93, -460) (94, -347) (95, -378) (96, 48) (97, 720) (98, -332) (99, -219) (100, 145) (0, 176) (1, 216) (2, -280) (3, -202) (4, 35) (5, -275) (6, -383) (7, -242) (8, -347) (9, -486) (10, 470) (11, -234) (12, -532) (13, 1440) (14, -561) (15, 468) (16, 271) (17, -580) (18, 211) (19, 325) (20, 637) (21, -357) (22, -328) (23, 277) (24, -600) (25, 195) (26, 414) (27, -504) (28, -15) (29, 252) (30, -64) (31, -308) (32, -340) (33, 533) (34, -558) (35, -427) (36, -584) (37, -448) (38, -461) (39, -388) (40, -153) (41, 189) (42, 227) (43, 62) (44, 80) (45, -437) (46, 532) (47, -2) (48, -577) (49, -419) (50, 532) (51, 248) (52, -367) (53, -547) (54, 76) (55, 661) (56, 74) (57, -99) (58, 341) (59, 20) (60, -214) (61, -451) (62, 467) (63, 39) (64, 222) (65, -449) (66, 251) (67, -125) (68, -523) (69, 164) (70, 73) (71, -275) (72, 190) (73, -227) (74, -425) (75, -266) (76, 267) (77, 291) (78, 86) (79, 718) (80, -466) (81, -430) (82, -578) (83, 165) (84, -579) (85, -566) (86, 153) (87, -223) (88, -186) (89, 443) (90, -657) (91, 227) (92, 521) (93, 574) (94, -365) (95, 208) (96, 134) (97, -105) (98, 43) (99, -67) (100, -568) (0, 71) (1, -573) (2, -311) (3, 39) (4, 158) (5, 241) (6, -716) (7, -432) (8, -31) (9, -164) (10, -87) (11, 270) (12, 390) (13, -974) (14, -352) (15, 20) (16, -354) (17, 408) (18, -4) (19, 368) (20, -175) (21, -313) (22, 156) (23, 139) (24, 288) (25, -130) (26, 32) (27, 93) (28, -1016) (29, -499) (30, 465) (31, 30) (32, -513) (33, -289) (34, -15) (35, -269) (36, -602) (37, -572) (38, -341) (39, 407) (40, -734) (41, -83) (42, 110) (43, 87) (44, 106) (45, -140) (46, -309) (47, 408) (48, 158) (49, -462) (50, -188) (51, -27) (52, 519) (53, 379) (54, 271) (55, -71) (56, -336) (57, -577) (58, 118) (59, -368) (60, -625) (61, 411) (62, -259) (63, -602) (64, -342) (65, -231) (66, 38) (67, -332) (68, 288) (69, -93) (70, -587) (71, 162) (72, -445) (73, -249) (74, 296) (75, -580) (76, 448) (77, -269) (78, 487) (79, -62) (80, -382) (81, -236) (82, -528) (83, 126) (84, -619) (85, -554) (86, 208) (87, -163) (88, 369) (89, 210) (90, 94) (91, 202) (92, 123) (93, -92) (94, -235) (95, 150) (96, -631) (97, -148) (98, -1366) (99, 496) (100, -1123) (0, 2) (1, -385) (2, -695) (3, -105) (4, -471) (5, 245) (6, -29) (7, -239) (8, -693) (9, -470) (10, -184) (11, -618) (12, -91) (13, -354) (14, -451) (15, -332) (16, -154) (17, -665) (18, 324) (19, 412) (20, 409) (21, -392) (22, 82) (23, 166) (24, -292) (25, 125) (26, -53) (27, 38) (28, 679) (29, -83) (30, -460) (31, -514) (32, -114) (33, 580) (34, 305) (35, -230) (36, 340) (37, 38) (38, -571) (39, -311) (40, 691) (41, -331) (42, -582) (43, -492) (44, 79) (45, -20) (46, 580) (47, -27) (48, -500) (49, -394) (50, 163) (51, 8) (52, -1002) (53, -25) (54, 145) (55, -539) (56, -771) (57, -666) (58, -174) (59, -263) (60, -173) (61, -12) (62, -171) (63, -706) (64, -107) (65, -148) (66, -439) (67, 385) (68, -479) (69, -511) (70, 309) (71, 141) (72, 144) (73, -296) (74, 82) (75, 382) (76, -314) (77, -828) (78, -5) (79, -473) (80, -227) (81, -261) (82, -335) (83, 95) (84, 210) (85, 659) (86, -222) (87, -356) (88, -531) (89, -72) (90, 334) (91, -561) (92, -216) (93, -338) (94, -187) (95, 102) (96, -272) (97, -562) (98, 277) (99, -198) (100, 201) (0, -469) (1, -865) (2, -138) (3, -155) (4, -75) (5, -682) (6, -709) (7, -296) (8, -645) (9, -356) (10, -369) (11, -401) (12, -592) (13, -281) (14, -549) (15, 106) (16, -721) (17, -365) (18, -788) (19, -673) (20, -403) (21, 5) (22, -316) (23, -616) (24, -76) (25, -200) (26, -502) (27, -1026) (28, 322) (29, -72) (30, -349) (31, -453) (32, -475) (33, -659) (34, -731) (35, -828) (36, -185) (37, -954) (38, -309) (39, -151) (40, -323) (41, -1000) (42, -707) (43, -147) (44, -985) (45, -124) (46, -207) (47, -835) (48, -178) (49, -792) (50, -306) (51, -830) (52, -674) (53, -514) (54, -849) (55, -30) (56, -1029) (57, -881) (58, -395) (59, -518) (60, -926) (61, -1092) (62, -645) (63, -506) (64, -678) (65, -271) (66, -1116) (67, -1101) (68, -745) (69, -651) (70, -415) (71, -486) (72, -467) (73, -161) (74, -874) (75, -492) (76, -1027) (77, -398) (78, 64) (79, -1074) (80, -269) (81, 208) (82, -792) (83, -63) (84, -894) (85, -1040) (86, -422) (87, -293) (88, -1022) (89, -357) (90, -494) (91, -494) (92, 89) (93, -63) (94, -849) (95, -479) (96, -96) (97, -136) (98, -732) (99, -548) (100, -366) (0, 783) (1, -931) (2, 1138) (3, 281) (4, 29) (5, -196) (6, 487) (7, 103) (8, -219) (9, -129) (10, 225) (11, 762) (12, -655) (13, -501) (14, -601) (15, 586) (16, 259) (17, 1) (18, -15) (19, 247) (20, 800) (21, -889) (22, 300) (23, -865) (24, -226) (25, -474) (26, -640) (27, 488) (28, -1989) (29, -229) (30, 951) (31, 499) (32, -578) (33, -457) (34, -611) (35, -816) (36, -910) (37, -942) (38, -497) (39, -2) (40, -833) (41, 1007) (42, 913) (43, 545) (44, -708) (45, -362) (46, -1279) (47, 384) (48, 209) (49, -196) (50, -1866) (51, 573) (52, 136) (53, 216) (54, 205) (55, -228) (56, 875) (57, -39) (58, 843) (59, -469) (60, -337) (61, 106) (62, -738) (63, -287) (64, -1025) (65, -57) (66, -578) (67, -315) (68, -284) (69, 156) (70, -103) (71, 378) (72, 46) (73, 285) (74, 411) (75, -969) (76, 139) (77, -588) (78, 89) (79, -90) (80, 583) (81, -111) (82, -536) (83, 450) (84, 603) (85, -854) (86, 504) (87, 827) (88, -36) (89, -116) (90, 138) (91, 179) (92, 708) (93, 301) (94, -443) (95, 460) (96, -654) (97, 1020) (98, -1537) (99, 218) (100, -710) (0, 110) (1, 31) (2, 27) (3, -73) (4, 493) (5, -202) (6, -2993) (7, 119) (8, -378) (9, -404) (10, -76) (11, -679) (12, 93) (13, 378) (14, 362) (15, -677) (16, -585) (17, -461) (18, -682) (19, 119) (20, -199) (21, 1234) (22, -285) (23, -440) (24, -48) (25, 798) (26, -22) (27, -1194) (28, 1131) (29, 817) (30, -861) (31, -3257) (32, 159) (33, -37) (34, 1016) (35, 180) (36, -350) (37, 747) (38, 500) (39, -1112) (40, 1902) (41, -187) (42, -327) (43, -553) (44, -400) (45, 785) (46, 315) (47, -873) (48, 323) (49, 773) (50, 485) (51, 117) (52, 294) (53, -566) (54, -317) (55, 787) (56, -813) (57, 258) (58, -165) (59, 1023) (60, -853) (61, -472) (62, -276) (63, -355) (64, -86) (65, -2918) (66, -84) (67, 358) (68, 534) (69, 138) (70, 421) (71, -271) (72, 393) (73, -799) (74, 328) (75, 147) (76, 175) (77, 99) (78, -32) (79, -854) (80, 20) (81, 319) (82, -116) (83, -144) (84, 839) (85, 612) (86, -1153) (87, -1015) (88, 718) (89, 61) (90, -612) (91, -25) (92, 964) (93, 395) (94, -454) (95, -545) (96, -251) (97, -418) (98, 751) (99, -70) (100, 9) (0, -82) (1, 24) (2, -258) (3, 229) (4, 170) (5, 216) (6, -848) (7, -399) (8, -313) (9, -464) (10, 243) (11, 486) (12, 127) (13, -6) (14, -200) (15, 237) (16, -734) (17, -546) (18, 206) (19, 130) (20, -234) (21, -398) (22, -607) (23, 32) (24, 308) (25, 44) (26, 156) (27, 174) (28, -469) (29, -83) (30, -159) (31, -13) (32, -559) (33, -302) (34, -694) (35, 271) (36, 180) (37, 172) (38, 237) (39, 275) (40, 226) (41, -169) (42, -334) (43, -69) (44, -136) (45, -346) (46, -211) (47, -104) (48, 202) (49, -371) (50, 2) (51, 459) (52, -166) (53, 371) (54, -740) (55, 40) (56, 335) (57, -370) (58, -554) (59, -479) (60, -359) (61, -21) (62, -229) (63, -269) (64, -672) (65, 252) (66, -65) (67, -736) (68, 169) (69, 259) (70, -5) (71, -333) (72, 170) (73, -98) (74, 247) (75, -265) (76, -232) (77, -313) (78, 86) (79, -620) (80, -507) (81, -346) (82, -579) (83, -550) (84, 19) (85, 89) (86, 243) (87, -629) (88, -918) (89, -12) (90, -557) (91, -862) (92, -4) (93, -517) (94, 398) (95, -662) (96, -765) (97, 264) (98, -108) (99, -168) (100, 645) (0, -76) (1, 299) (2, -2656) (3, 366) (4, 857) (5, 689) (6, -6485) (7, 114) (8, 831) (9, 762) (10, -2194) (11, 246) (12, 602) (13, 608) (14, 36) (15, 11) (16, 3) (17, 58) (18, 631) (19, -2578) (20, -2524) (21, 965) (22, 611) (23, 218) (24, 872) (25, -1161) (26, 127) (27, -2787) (28, 922) (29, 682) (30, 292) (31, -7942) (32, 413) (33, -2850) (34, 95) (35, 603) (36, -1690) (37, 15) (38, 780) (39, 681) (40, 914) (41, 245) (42, 520) (43, 654) (44, -22) (45, 757) (46, -232) (47, -245) (48, 593) (49, 615) (50, 1018) (51, 568) (52, 473) (53, -5996) (54, -2893) (55, 177) (56, 446) (57, 443) (58, 664) (59, 803) (60, 197) (61, 713) (62, -3146) (63, 425) (64, 289) (65, -8407) (66, 277) (67, -1574) (68, 715) (69, 448) (70, 974) (71, -1825) (72, -2637) (73, -2317) (74, -111) (75, 1023) (76, 480) (77, 304) (78, 75) (79, -2290) (80, 927) (81, 319) (82, 52) (83, 791) (84, -191) (85, 651) (86, -210) (87, 403) (88, 280) (89, 514) (90, -44) (91, 550) (92, -2671) (93, 41) (94, 734) (95, 247) (96, -1691) (97, 540) (98, 821) (99, -2376) (100, 790) (0, -492) (1, 302) (2, -105) (3, 792) (4, -103) (5, 148) (6, 143) (7, -299) (8, -443) (9, -613) (10, 695) (11, 20) (12, 192) (13, -166) (14, -133) (15, 197) (16, -72) (17, -216) (18, -1093) (19, 570) (20, 552) (21, 212) (22, -511) (23, 215) (24, -1084) (25, 674) (26, -579) (27, -360) (28, 418) (29, 700) (30, -633) (31, -934) (32, -504) (33, 203) (34, -225) (35, -1046) (36, 201) (37, 449) (38, -845) (39, -372) (40, 62) (41, -413) (42, -414) (43, 431) (44, 266) (45, -1139) (46, 505) (47, -640) (48, -277) (49, -814) (50, 145) (51, -226) (52, 181) (53, -1016) (54, 1000) (55, -117) (56, -594) (57, -289) (58, -905) (59, -251) (60, -317) (61, -67) (62, -115) (63, 46) (64, -192) (65, -439) (66, -177) (67, 339) (68, -897) (69, -237) (70, -1313) (71, 849) (72, 1049) (73, -818) (74, -970) (75, 671) (76, -56) (77, -139) (78, -695) (79, 365) (80, -699) (81, -489) (82, -268) (83, -235) (84, -624) (85, 483) (86, 107) (87, -914) (88, -175) (89, 572) (90, -789) (91, -529) (92, -11) (93, 237) (94, 166) (95, -34) (96, 584) (97, -152) (98, 0) (99, 1089) (100, 917) (0, -261) (1, -1230) (2, 389) (3, -335) (4, -171) (5, 464) (6, -52) (7, -487) (8, 297) (9, 33) (10, 611) (11, 211) (12, -718) (13, -40) (14, -662) (15, 523) (16, 175) (17, -567) (18, -1477) (19, 307) (20, -185) (21, -1610) (22, 151) (23, -436) (24, -922) (25, -227) (26, -1529) (27, 97) (28, -2065) (29, 211) (30, 772) (31, 277) (32, -228) (33, 153) (34, -48) (35, -1099) (36, -98) (37, -414) (38, -150) (39, 158) (40, -641) (41, -41) (42, 129) (43, -400) (44, -571) (45, -1645) (46, -649) (47, -153) (48, -137) (49, -544) (50, -1734) (51, 171) (52, 131) (53, 724) (54, -248) (55, -178) (56, 655) (57, -227) (58, -206) (59, -1225) (60, 169) (61, -20) (62, -560) (63, 271) (64, -244) (65, 75) (66, -904) (67, -523) (68, -336) (69, 351) (70, -174) (71, -354) (72, 25) (73, 89) (74, -357) (75, -452) (76, -161) (77, -1253) (78, -79) (79, -380) (80, -914) (81, 385) (82, 45) (83, -496) (84, -398) (85, -296) (86, -240) (87, 208) (88, 334) (89, -1066) (90, 494) (91, 196) (92, 712) (93, -424) (94, -846) (95, 35) (96, 386) (97, -173) (98, -464) (99, 511) (100, 232) (0, -184) (1, 53) (2, -390) (3, -339) (4, 33) (5, 253) (6, -359) (7, -71) (8, -183) (9, -190) (10, -543) (11, 183) (12, -108) (13, 14) (14, -2) (15, -194) (16, -582) (17, -420) (18, -254) (19, -561) (20, -112) (21, -145) (22, 368) (23, -298) (24, 464) (25, -615) (26, -572) (27, -350) (28, -305) (29, -223) (30, 634) (31, 33) (32, 262) (33, -747) (34, -697) (35, 278) (36, 114) (37, -218) (38, -510) (39, -256) (40, -293) (41, -54) (42, 418) (43, -522) (44, -557) (45, 255) (46, -424) (47, -406) (48, 359) (49, -219) (50, 9) (51, -431) (52, -373) (53, -133) (54, -264) (55, -382) (56, -295) (57, -302) (58, 257) (59, -619) (60, -120) (61, 83) (62, -162) (63, -563) (64, -294) (65, -304) (66, -751) (67, -812) (68, 249) (69, 58) (70, -147) (71, -181) (72, 9) (73, -577) (74, -572) (75, -414) (76, -217) (77, 201) (78, -32) (79, -345) (80, -38) (81, 45) (82, -287) (83, -179) (84, -242) (85, -358) (86, 170) (87, 55) (88, 85) (89, -281) (90, -39) (91, -111) (92, -239) (93, -304) (94, -261) (95, 156) (96, -466) (97, 287) (98, -701) (99, 311) (100, -14) (0, 140) (1, -278) (2, -1102) (3, 891) (4, 479) (5, 332) (6, -760) (7, 889) (8, 754) (9, 104) (10, -1025) (11, -337) (12, 442) (13, 412) (14, 596) (15, -244) (16, -306) (17, 492) (18, 852) (19, -1131) (20, -1346) (21, 450) (22, 896) (23, -115) (24, 483) (25, 381) (26, 573) (27, -912) (28, -32) (29, 225) (30, -904) (31, -1602) (32, 653) (33, -1077) (34, -3) (35, 262) (36, -555) (37, -537) (38, 565) (39, -59) (40, 1012) (41, 583) (42, 105) (43, 485) (44, 656) (45, 130) (46, 746) (47, -190) (48, 188) (49, 303) (50, 320) (51, -447) (52, 178) (53, -645) (54, -57) (55, 673) (56, -1873) (57, 318) (58, -816) (59, 394) (60, 5) (61, -295) (62, -953) (63, -84) (64, 514) (65, -1428) (66, -337) (67, 139) (68, -230) (69, 874) (70, 362) (71, -1713) (72, -158) (73, -1018) (74, -110) (75, 621) (76, 179) (77, 794) (78, 12) (79, -892) (80, -124) (81, 171) (82, 105) (83, -136) (84, -300) (85, -117) (86, -924) (87, 43) (88, 927) (89, 690) (90, -1550) (91, 306) (92, 221) (93, -290) (94, 707) (95, 115) (96, -362) (97, -69) (98, 652) (99, -241) (100, -756) (0, 31) (1, -187) (2, -270) (3, 54) (4, -500) (5, 19) (6, 66) (7, -440) (8, -493) (9, 343) (10, 73) (11, -839) (12, -758) (13, -266) (14, 221) (15, -425) (16, -570) (17, 134) (18, -481) (19, -435) (20, 68) (21, -71) (22, -46) (23, -426) (24, -333) (25, -358) (26, 18) (27, 20) (28, -426) (29, -79) (30, -597) (31, -654) (32, 242) (33, -556) (34, -437) (35, -589) (36, 299) (37, -105) (38, -520) (39, -545) (40, 476) (41, -858) (42, -813) (43, -374) (44, -367) (45, -579) (46, 111) (47, 147) (48, -812) (49, -313) (50, 595) (51, -698) (52, -797) (53, -101) (54, -486) (55, -148) (56, -850) (57, 137) (58, -105) (59, 17) (60, -288) (61, -838) (62, 209) (63, -564) (64, -255) (65, -844) (66, -859) (67, -864) (68, -270) (69, -687) (70, -777) (71, -486) (72, -401) (73, -121) (74, -622) (75, -445) (76, -662) (77, 223) (78, -436) (79, 52) (80, -20) (81, -289) (82, 230) (83, -451) (84, -989) (85, -7) (86, -419) (87, 51) (88, -190) (89, -466) (90, -467) (91, -3) (92, -630) (93, -333) (94, -269) (95, -658) (96, -518) (97, -981) (98, 235) (99, -382) (100, 250) (0, -362) (1, -82) (2, -646) (3, -486) (4, -466) (5, 172) (6, -321) (7, 75) (8, -273) (9, 450) (10, -479) (11, 504) (12, -419) (13, -256) (14, -360) (15, 76) (16, -255) (17, 355) (18, -15) (19, -576) (20, -412) (21, -87) (22, -290) (23, -631) (24, 714) (25, 115) (26, 68) (27, 51) (28, 43) (29, 167) (30, 239) (31, 108) (32, -240) (33, -496) (34, -137) (35, 65) (36, -874) (37, 309) (38, 546) (39, -324) (40, -462) (41, 103) (42, 268) (43, -239) (44, 391) (45, 67) (46, -841) (47, -172) (48, -121) (49, 445) (50, -394) (51, 756) (52, 91) (53, -558) (54, -313) (55, 122) (56, 90) (57, 211) (58, 592) (59, 107) (60, 357) (61, -180) (62, -1163) (63, -69) (64, -138) (65, -83) (66, -596) (67, 124) (68, -108) (69, -165) (70, 606) (71, -171) (72, -208) (73, -555) (74, 499) (75, 134) (76, 375) (77, 451) (78, 426) (79, 275) (80, 131) (81, 22) (82, 267) (83, -328) (84, 385) (85, -453) (86, 11) (87, -248) (88, 127) (89, 433) (90, 113) (91, -311) (92, 190) (93, 185) (94, 58) (95, -449) (96, -613) (97, -294) (98, -278) (99, -337) (100, -1041) (0, 79) (1, 259) (2, 336) (3, 275) (4, -220) (5, -270) (6, -666) (7, -496) (8, 136) (9, 181) (10, -686) (11, 365) (12, -20) (13, 172) (14, -203) (15, 330) (16, -208) (17, 488) (18, -150) (19, -298) (20, -454) (21, -369) (22, 179) (23, 208) (24, 548) (25, 603) (26, 44) (27, -198) (28, -463) (29, -130) (30, 818) (31, 21) (32, 280) (33, -507) (34, -564) (35, 394) (36, 363) (37, -522) (38, 437) (39, 34) (40, 64) (41, 447) (42, 577) (43, -250) (44, 476) (45, -293) (46, -420) (47, 247) (48, -104) (49, 350) (50, -229) (51, 672) (52, -390) (53, 86) (54, 133) (55, 330) (56, 391) (57, 237) (58, 5451) (59, -247) (60, 884) (61, 187) (62, 43) (63, 51) (64, 202) (65, -564) (66, 158) (67, 26) (68, -348) (69, -227) (70, -78) (71, 12) (72, -201) (73, -294) (74, 545) (75, -193) (76, 791) (77, -52) (78, -468) (79, -382) (80, 507) (81, 476) (82, -238) (83, 41) (84, 397) (85, -102) (86, 161) (87, 16) (88, 40) (89, 215) (90, -501) (91, 437) (92, -144) (93, -46) (94, 309) (95, -1) (96, -296) (97, -239) (98, 18) (99, 434) (100, 525) (0, 418) (1, -508) (2, 448) (3, -446) (4, 3) (5, 52) (6, -280) (7, -313) (8, -536) (9, 121) (10, -66) (11, -219) (12, 122) (13, -509) (14, -356) (15, -607) (16, -565) (17, -7) (18, -258) (19, -582) (20, 165) (21, -472) (22, -143) (23, -781) (24, -109) (25, -837) (26, -663) (27, -520) (28, -211) (29, 212) (30, -292) (31, -673) (32, -656) (33, -364) (34, -166) (35, -252) (36, -73) (37, -459) (38, -729) (39, 31) (40, -563) (41, -259) (42, -502) (43, -125) (44, -571) (45, -353) (46, 184) (47, 338) (48, -318) (49, 88) (50, -742) (51, -471) (52, 49) (53, -244) (54, 282) (55, -268) (56, 102) (57, -108) (58, -227) (59, -221) (60, -364) (61, -687) (62, -375) (63, 4) (64, -695) (65, 29) (66, -781) (67, -362) (68, 6) (69, -59) (70, -918) (71, -389) (72, 85) (73, -408) (74, -123) (75, -127) (76, -46) (77, 89) (78, -224) (79, -616) (80, -739) (81, 206) (82, 45) (83, 92) (84, -346) (85, -671) (86, -359) (87, -457) (88, -212) (89, -207) (90, -242) (91, -689) (92, 310) (93, 230) (94, -387) (95, -27) (96, 153) (97, 113) (98, -831) (99, -64) (100, -410) (0, 140) (1, 387) (2, -1072) (3, 228) (4, 51) (5, 270) (6, 541) (7, -662) (8, 109) (9, -315) (10, 110) (11, -708) (12, 347) (13, 117) (14, 380) (15, -700) (16, -179) (17, 215) (18, -15) (19, -469) (20, 17) (21, 31) (22, -53) (23, -119) (24, 53) (25, 337) (26, -19) (27, 262) (28, 238) (29, 395) (30, -505) (31, -492) (32, -480) (33, -385) (34, -348) (35, 231) (36, 778) (37, -202) (38, -17) (39, 452) (40, -437) (41, -553) (42, -302) (43, -381) (44, -76) (45, -454) (46, 204) (47, 303) (48, 56) (49, 720) (50, 277) (51, -376) (52, 33) (53, 345) (54, 429) (55, 12) (56, -29) (57, -198) (58, -507) (59, -293) (60, -459) (61, -308) (62, -428) (63, -255) (64, 418) (65, -239) (66, -40) (67, 651) (68, -141) (69, 235) (70, -220) (71, 226) (72, 345) (73, 176) (74, -302) (75, 187) (76, -161) (77, 309) (78, -417) (79, -502) (80, -535) (81, 242) (82, 435) (83, -358) (84, 167) (85, -80) (86, -10) (87, -483) (88, -335) (89, -26) (90, -177) (91, 211) (92, 144) (93, -277) (94, 82) (95, 240) (96, -349) (97, 422) (98, 143) (99, 342) (100, 753) (0, -646) (1, -101) (2, 141) (3, 287) (4, 135) (5, 282) (6, -683) (7, -643) (8, -169) (9, -603) (10, 103) (11, 12) (12, 421) (13, -165) (14, -113) (15, -14) (16, -267) (17, 10) (18, 469) (19, 203) (20, -494) (21, 604) (22, 131) (23, 535) (24, -261) (25, 219) (26, 85) (27, -719) (28, 458) (29, 259) (30, -154) (31, -699) (32, -383) (33, 115) (34, -437) (35, 109) (36, -129) (37, 76) (38, -396) (39, -172) (40, -493) (41, 205) (42, 121) (43, -89) (44, -511) (45, -346) (46, 489) (47, -668) (48, -539) (49, 473) (50, -36) (51, -399) (52, -646) (53, -60) (54, 64) (55, 289) (56, -123) (57, 48) (58, -314) (59, -271) (60, -149) (61, 436) (62, -701) (63, -93) (64, -441) (65, -159) (66, -187) (67, -177) (68, -535) (69, -485) (70, 225) (71, 108) (72, 253) (73, -494) (74, 322) (75, -104) (76, 247) (77, -180) (78, -192) (79, 290) (80, -574) (81, 94) (82, 7) (83, -110) (84, -130) (85, 19) (86, 98) (87, -786) (88, 129) (89, -173) (90, -764) (91, -142) (92, 241) (93, -150) (94, -328) (95, -432) (96, -147) (97, -719) (98, 392) (99, 396) (100, 922) (0, 48) (1, -887) (2, 374) (3, 515) (4, -232) (5, -332) (6, -782) (7, -594) (8, -669) (9, -555) (10, 198) (11, -422) (12, -118) (13, -693) (14, -41) (15, -537) (16, -342) (17, -17) (18, 265) (19, -126) (20, -676) (21, -475) (22, -451) (23, -671) (24, -320) (25, 258) (26, 120) (27, -181) (28, 583) (29, -420) (30, -197) (31, -27) (32, 459) (33, -617) (34, -514) (35, -134) (36, 245) (37, -844) (38, -467) (39, -82) (40, -260) (41, 190) (42, 225) (43, -753) (44, -223) (45, -400) (46, -459) (47, 345) (48, -501) (49, 195) (50, -170) (51, 52) (52, 109) (53, -176) (54, -88) (55, -40) (56, -102) (57, -487) (58, 98) (59, -20) (60, -332) (61, -745) (62, -53) (63, -431) (64, -712) (65, -377) (66, -236) (67, -276) (68, -170) (69, -498) (70, -270) (71, -897) (72, -752) (73, -690) (74, 317) (75, -523) (76, -527) (77, -330) (78, 90) (79, -790) (80, -243) (81, -452) (82, -819) (83, -454) (84, -559) (85, -508) (86, -104) (87, 390) (88, -179) (89, -349) (90, 412) (91, -37) (92, -314) (93, 155) (94, -733) (95, -249) (96, -455) (97, 227) (98, -407) (99, 93) (100, 156) (0, 228) (1, -230) (2, -546) (3, 374) (4, 101) (5, -1086) (6, -342) (7, 94) (8, -721) (9, -501) (10, -489) (11, -297) (12, -858) (13, -39) (14, -78) (15, -1086) (16, -616) (17, -247) (18, -697) (19, -765) (20, -631) (21, -393) (22, -868) (23, -30) (24, 393) (25, -482) (26, -274) (27, -1027) (28, 114) (29, -433) (30, -250) (31, -425) (32, -737) (33, -1020) (34, -655) (35, -209) (36, 319) (37, -814) (38, -803) (39, -83) (40, 240) (41, -779) (42, -1111) (43, -1003) (44, -711) (45, 296) (46, -319) (47, -669) (48, -666) (49, -346) (50, 419) (51, -22) (52, -938) (53, -347) (54, -1199) (55, -290) (56, -828) (57, -760) (58, 114) (59, -184) (60, -1296) (61, -632) (62, -467) (63, -571) (64, -209) (65, -553) (66, -130) (67, -865) (68, -272) (69, 106) (70, -940) (71, -1074) (72, 619) (73, -1240) (74, 16) (75, 339) (76, -305) (77, -514) (78, 81) (79, -578) (80, -1171) (81, 25) (82, -955) (83, -557) (84, -928) (85, -235) (86, -1051) (87, -293) (88, -179) (89, 242) (90, 69) (91, 243) (92, -529) (93, -809) (94, -43) (95, -417) (96, -638) (97, -928) (98, 0) (99, -1039) (100, 832) (0, 378) (1, -793) (2, 814) (3, 574) (4, -435) (5, -224) (6, 615) (7, -80) (8, -24) (9, 439) (10, 249) (11, 273) (12, 40) (13, -1081) (14, 125) (15, 241) (16, 429) (17, -258) (18, -1308) (19, 1024) (20, 1278) (21, -732) (22, 320) (23, -260) (24, -884) (25, -36) (26, -990) (27, 144) (28, -421) (29, -204) (30, -144) (31, -98) (32, -673) (33, 455) (34, 500) (35, -781) (36, 738) (37, 121) (38, -1115) (39, -141) (40, -1127) (41, 354) (42, -79) (43, 530) (44, -73) (45, -1104) (46, -33) (47, 355) (48, 168) (49, -642) (50, -186) (51, -151) (52, -494) (53, 180) (54, 993) (55, -77) (56, 258) (57, -556) (58, 875) (59, -5) (60, -160) (61, 513) (62, 516) (63, 377) (64, -940) (65, 232) (66, 78) (67, -204) (68, -203) (69, 231) (70, -1331) (71, 310) (72, 545) (73, 165) (74, -414) (75, -1078) (76, -448) (77, -210) (78, -114) (79, 400) (80, -1164) (81, -21) (82, -251) (83, 72) (84, -210) (85, -683) (86, 156) (87, -123) (88, -654) (89, -412) (90, -394) (91, -117) (92, 133) (93, 53) (94, 227) (95, 255) (96, -65) (97, 1051) (98, -1050) (99, 797) (100, -623) (0, -237) (1, -856) (2, -737) (3, -107) (4, -728) (5, 100) (6, -317) (7, -173) (8, -108) (9, -406) (10, -142) (11, -632) (12, -266) (13, -825) (14, -377) (15, -416) (16, -508) (17, -348) (18, -965) (19, -489) (20, -377) (21, -638) (22, 23) (23, -306) (24, -482) (25, 51) (26, -234) (27, 34) (28, -275) (29, -709) (30, -348) (31, -637) (32, -365) (33, -547) (34, -624) (35, -507) (36, -367) (37, -158) (38, -292) (39, -526) (40, -309) (41, -361) (42, 10) (43, -133) (44, -122) (45, -894) (46, -235) (47, -358) (48, -1068) (49, 38) (50, -100) (51, -380) (52, -792) (53, -432) (54, -304) (55, -283) (56, -782) (57, -506) (58, 15) (59, -828) (60, -746) (61, -516) (62, -669) (63, -280) (64, -617) (65, -269) (66, -355) (67, 31) (68, -603) (69, -238) (70, -821) (71, -302) (72, -718) (73, -836) (74, -479) (75, 85) (76, -219) (77, -174) (78, -489) (79, -243) (80, -109) (81, -629) (82, -672) (83, -689) (84, -485) (85, -522) (86, 22) (87, -251) (88, -197) (89, -371) (90, -686) (91, -690) (92, -424) (93, 72) (94, -90) (95, 136) (96, -140) (97, -16) (98, -503) (99, -579) (100, 603) (0, -572) (1, 277) (2, -510) (3, 208) (4, -200) (5, -351) (6, -42) (7, -436) (8, -534) (9, -22) (10, -466) (11, -378) (12, -102) (13, 406) (14, 228) (15, -283) (16, -428) (17, -220) (18, 394) (19, 94) (20, -175) (21, -627) (22, -162) (23, -656) (24, 184) (25, -479) (26, -4) (27, -614) (28, 164) (29, -426) (30, 376) (31, -156) (32, 445) (33, -209) (34, -432) (35, 506) (36, 153) (37, -43) (38, 405) (39, 225) (40, -196) (41, -435) (42, -358) (43, -18) (44, 123) (45, 262) (46, -75) (47, 181) (48, 144) (49, 191) (50, -313) (51, 122) (52, 171) (53, -878) (54, -640) (55, -552) (56, 16) (57, -454) (58, -141) (59, 190) (60, -694) (61, -492) (62, -599) (63, -57) (64, -627) (65, -501) (66, -270) (67, -238) (68, -71) (69, -136) (70, -92) (71, 108) (72, -415) (73, 80) (74, 65) (75, -293) (76, 406) (77, 434) (78, -107) (79, -684) (80, -1) (81, -656) (82, 295) (83, -589) (84, -433) (85, -230) (86, 249) (87, -66) (88, -479) (89, -194) (90, -876) (91, -629) (92, -238) (93, 242) (94, -547) (95, 72) (96, -394) (97, -206) (98, 33) (99, -571) (100, 816) (0, 136) (1, -1234) (2, 544) (3, -103) (4, -342) (5, 714) (6, 363) (7, 552) (8, -644) (9, -454) (10, 140) (11, 419) (12, -36) (13, -467) (14, 1) (15, 372) (16, -599) (17, -635) (18, -874) (19, 702) (20, 454) (21, -845) (22, 504) (23, 15) (24, 124) (25, -352) (26, 42) (27, 21) (28, -254) (29, 418) (30, -254) (31, 114) (32, -372) (33, -486) (34, -248) (35, -557) (36, -73) (37, -55) (38, -423) (39, 110) (40, -672) (41, 302) (42, 82) (43, 574) (44, 269) (45, -741) (46, 211) (47, -144) (48, -676) (49, 81) (50, 113) (51, -665) (52, 236) (53, -389) (54, 468) (55, -201) (56, 591) (57, -651) (58, 25) (59, 105) (60, -188) (61, -450) (62, -40) (63, -7) (64, -70) (65, 171) (66, -708) (67, -59) (68, 272) (69, -558) (70, -913) (71, -170) (72, 423) (73, 564) (74, -39) (75, -323) (76, -318) (77, -750) (78, 527) (79, 821) (80, -382) (81, 573) (82, -81) (83, 122) (84, -314) (85, -105) (86, -217) (87, 347) (88, 321) (89, -420) (90, 289) (91, 481) (92, 254) (93, 608) (94, -146) (95, 228) (96, -192) (97, 998) (98, -1528) (99, 1127) (100, 910) (0, 190) (1, -361) (2, 29) (3, -596) (4, -387) (5, -508) (6, 150) (7, -869) (8, -51) (9, -160) (10, -7) (11, 343) (12, 165) (13, -365) (14, -732) (15, 298) (16, 74) (17, -853) (18, -351) (19, -408) (20, 104) (21, -390) (22, -581) (23, -477) (24, -634) (25, 285) (26, -450) (27, -250) (28, -368) (29, -890) (30, -127) (31, -1105) (32, 197) (33, -413) (34, -475) (35, 554) (36, -404) (37, 371) (38, -576) (39, -678) (40, -136) (41, 92) (42, -343) (43, -357) (44, -897) (45, 178) (46, -206) (47, -267) (48, -450) (49, 182) (50, 53) (51, -1015) (52, 44) (53, -1159) (54, -921) (55, -883) (56, -662) (57, 317) (58, -967) (59, -624) (60, -639) (61, 78) (62, -871) (63, -477) (64, -92) (65, -563) (66, -280) (67, -39) (68, 386) (69, 32) (70, -610) (71, -163) (72, 111) (73, -126) (74, -418) (75, -346) (76, -570) (77, 111) (78, 86) (79, -568) (80, -98) (81, 69) (82, 204) (83, -589) (84, -25) (85, -688) (86, -71) (87, -629) (88, -726) (89, -762) (90, -27) (91, -541) (92, -476) (93, -618) (94, 155) (95, 195) (96, -652) (97, 115) (98, -698) (99, -526) (100, -235) (0, -619) (1, -70) (2, -111) (3, 329) (4, 12) (5, -134) (6, -117) (7, 409) (8, -456) (9, -474) (10, 345) (11, 255) (12, 341) (13, -490) (14, -588) (15, 638) (16, 289) (17, -459) (18, -840) (19, 818) (20, 698) (21, -594) (22, 519) (23, -349) (24, -1200) (25, 600) (26, 154) (27, -214) (28, -1465) (29, -222) (30, 216) (31, -817) (32, 42) (33, 328) (34, -915) (35, -70) (36, 248) (37, -319) (38, -663) (39, -281) (40, 592) (41, 328) (42, 388) (43, 631) (44, 83) (45, -318) (46, -224) (47, 476) (48, -558) (49, 376) (50, -103) (51, -1091) (52, -689) (53, 315) (54, 564) (55, -767) (56, 424) (57, 485) (58, 479) (59, -207) (60, -332) (61, 317) (62, -543) (63, -127) (64, -30) (65, 268) (66, 0) (67, 294) (68, 4) (69, 41) (70, 72) (71, -429) (72, 463) (73, -15) (74, -596) (75, 337) (76, -403) (77, 117) (78, -39) (79, 76) (80, -610) (81, 176) (82, 69) (83, 364) (84, -173) (85, 123) (86, -186) (87, -101) (88, -328) (89, -395) (90, 235) (91, -50) (92, 117) (93, -417) (94, 18) (95, -243) (96, 514) (97, -664) (98, -13) (99, -68) (100, 1099) (0, -279) (1, -1035) (2, 317) (3, -612) (4, -521) (5, -78) (6, -842) (7, -160) (8, 168) (9, 243) (10, -116) (11, 133) (12, -151) (13, -744) (14, 59) (15, -502) (16, -693) (17, -798) (18, -665) (19, -100) (20, -853) (21, -692) (22, 71) (23, -536) (24, -631) (25, -234) (26, -265) (27, -146) (28, 72) (29, -630) (30, 121) (31, 207) (32, -650) (33, -637) (34, -708) (35, 123) (36, -927) (37, -911) (38, -751) (39, -158) (40, -816) (41, -287) (42, -177) (43, -129) (44, -719) (45, -42) (46, 28) (47, -224) (48, -188) (49, 223) (50, -117) (51, 168) (52, -310) (53, 130) (54, -59) (55, -875) (56, -13) (57, -759) (58, -410) (59, -67) (60, -79) (61, -694) (62, -178) (63, -437) (64, -303) (65, -308) (66, -811) (67, -101) (68, -829) (69, -298) (70, -45) (71, -140) (72, -428) (73, -824) (74, -363) (75, -725) (76, -120) (77, -243) (78, 316) (79, -148) (80, 90) (81, -439) (82, -383) (83, 150) (84, -106) (85, -504) (86, -83) (87, 68) (88, -664) (89, -434) (90, -471) (91, -321) (92, 144) (93, -174) (94, -744) (95, 200) (96, -1761) (97, 43) (98, -1341) (99, -46) (100, -1513) (0, -386) (1, 425) (2, -725) (3, 220) (4, 321) (5, -609) (6, -567) (7, 376) (8, -366) (9, 219) (10, -575) (11, -55) (12, -55) (13, 514) (14, -554) (15, -244) (16, -185) (17, 66) (18, 416) (19, -784) (20, -231) (21, 137) (22, 148) (23, 98) (24, 263) (25, 508) (26, 654) (27, -786) (28, 340) (29, -624) (30, -533) (31, -476) (32, -481) (33, -456) (34, -445) (35, 520) (36, -311) (37, 83) (38, 174) (39, -777) (40, 109) (41, -299) (42, -341) (43, 215) (44, -202) (45, 730) (46, 68) (47, -519) (48, -428) (49, 581) (50, -44) (51, -849) (52, 275) (53, -1102) (54, -189) (55, -513) (56, -945) (57, 400) (58, -171) (59, -166) (60, -218) (61, -651) (62, -580) (63, 2) (64, -44) (65, -996) (66, -816) (67, 255) (68, -713) (69, -666) (70, 259) (71, -881) (72, -135) (73, -800) (74, -347) (75, 841) (76, -288) (77, -527) (78, -670) (79, -331) (80, -614) (81, -432) (82, -384) (83, 169) (84, -145) (85, 573) (86, -37) (87, -732) (88, -56) (89, 131) (90, -555) (91, -457) (92, -426) (93, 40) (94, -101) (95, 354) (96, 402) (97, -512) (98, 138) (99, -575) (100, -365) (0, 552) (1, -575) (2, 254) (3, 258) (4, 163) (5, -124) (6, -428) (7, 657) (8, -99) (9, 287) (10, 440) (11, -245) (12, -806) (13, -460) (14, -508) (15, -109) (16, -404) (17, 225) (18, -208) (19, 64) (20, 503) (21, 282) (22, -36) (23, -527) (24, -238) (25, 379) (26, -114) (27, 383) (28, -439) (29, 671) (30, -352) (31, 379) (32, -780) (33, 147) (34, -537) (35, 285) (36, -30) (37, -675) (38, -335) (39, 357) (40, -773) (41, -330) (42, 505) (43, 457) (44, -1070) (45, -31) (46, 295) (47, 163) (48, -116) (49, 38) (50, 340) (51, 208) (52, -44) (53, 453) (54, 1216) (55, -112) (56, 340) (57, -140) (58, 175) (59, -352) (60, -303) (61, -96) (62, -50) (63, -133) (64, -554) (65, 234) (66, -714) (67, 389) (68, 212) (69, 433) (70, -656) (71, -692) (72, 537) (73, 591) (74, -428) (75, -407) (76, -296) (77, -728) (78, -687) (79, -340) (80, -132) (81, 107) (82, -89) (83, -274) (84, -640) (85, -524) (86, 309) (87, -97) (88, 206) (89, -451) (90, 437) (91, -17) (92, 61) (93, -714) (94, -347) (95, 361) (96, -334) (97, 524) (98, 277) (99, -405) (100, 209) (0, 482) (1, -1344) (2, -219) (3, -358) (4, 188) (5, -98) (6, 26) (7, -284) (8, -13) (9, 120) (10, -799) (11, -237) (12, -249) (13, -537) (14, -358) (15, 114) (16, -152) (17, 385) (18, -321) (19, 195) (20, -53) (21, -313) (22, 210) (23, -382) (24, 483) (25, -98) (26, -525) (27, -486) (28, -140) (29, -793) (30, -178) (31, -24) (32, -595) (33, -174) (34, -383) (35, -453) (36, -958) (37, 191) (38, -315) (39, 312) (40, -335) (41, -96) (42, 516) (43, 262) (44, 106) (45, -766) (46, -5496) (47, 419) (48, 480) (49, -363) (50, -943) (51, -431) (52, -531) (53, -671) (54, -311) (55, -686) (56, 150) (57, -431) (58, 102) (59, -433) (60, -603) (61, -641) (62, -177) (63, -672) (64, -206) (65, -327) (66, -403) (67, 185) (68, -250) (69, 453) (70, 94) (71, 42) (72, 229) (73, -582) (74, 15) (75, -673) (76, 45) (77, 216) (78, -319) (79, -234) (80, 257) (81, -157) (82, 187) (83, -64) (84, -723) (85, -766) (86, -341) (87, -184) (88, -471) (89, 57) (90, 214) (91, -208) (92, -311) (93, -437) (94, -257) (95, -566) (96, -1074) (97, -9) (98, -1402) (99, 192) (100, -208) (0, 239) (1, -1151) (2, 134) (3, -1008) (4, -52) (5, -149) (6, -839) (7, -329) (8, 122) (9, 97) (10, -793) (11, -270) (12, -550) (13, -1015) (14, -519) (15, 353) (16, -487) (17, -273) (18, 127) (19, -1022) (20, -336) (21, -2233) (22, -760) (23, -1079) (24, -361) (25, -1316) (26, -184) (27, -866) (28, -2051) (29, -615) (30, 67) (31, -309) (32, 129) (33, -904) (34, 24) (35, -650) (36, -1278) (37, -854) (38, -242) (39, -473) (40, -1338) (41, 269) (42, -493) (43, -6) (44, -528) (45, -558) (46, -1392) (47, 348) (48, -528) (49, -520) (50, -1308) (51, -113) (52, -132) (53, -686) (54, -954) (55, -371) (56, 250) 