FANN_FLO_2.1
num_layers=3
learning_rate=0.700000
connection_rate=1.000000
network_type=0
learning_momentum=0.000000
training_algorithm=3
train_error_function=1
train_stop_function=1
cascade_output_change_fraction=0.010000
quickprop_decay=-0.000100
quickprop_mu=1.750000
rprop_increase_factor=1.200000
rprop_decrease_factor=0.500000
rprop_delta_min=0.000000
rprop_delta_max=50.000000
rprop_delta_zero=0.100000
cascade_output_stagnation_epochs=12
cascade_candidate_change_fraction=0.010000
cascade_candidate_stagnation_epochs=12
cascade_max_out_epochs=150
cascade_min_out_epochs=50
cascade_max_cand_epochs=150
cascade_min_cand_epochs=50
cascade_num_candidate_groups=2
bit_fail_limit=9.99999977648258209229e-03
cascade_candidate_limit=1.00000000000000000000e+03
cascade_weight_multiplier=4.00000005960464477539e-01
cascade_activation_functions_count=10
cascade_activation_functions=3 5 7 8 10 11 14 15 16 17 
cascade_activation_steepnesses_count=4
cascade_activation_steepnesses=2.50000000000000000000e-01 5.00000000000000000000e-01 7.50000000000000000000e-01 1.00000000000000000000e+00 
layer_sizes=101 151 5 
scale_included=0
neurons (num_inputs, activation_function, activation_steepness)=(0, 0, 0.00000000000000000000e+00) (0, 0, 0.00000000000000000000e+00) (0, 0, 0.00000000000000000000e+00) (0, 0, 0.00000000000000000000e+00) (0, 0, 0.00000000000000000000e+00) (0, 0, 0.00000000000000000000e+00) (0, 0, 0.00000000000000000000e+00) (0, 0, 0.00000000000000000000e+00) (0, 0, 0.00000000000000000000e+00) (0, 0, 0.00000000000000000000e+00) (0, 0, 0.00000000000000000000e+00) (0, 0, 0.00000000000000000000e+00) (0, 0, 0.00000000000000000000e+00) (0, 0, 0.00000000000000000000e+00) (0, 0, 0.00000000000000000000e+00) (0, 0, 0.00000000000000000000e+00) (0, 0, 0.00000000000000000000e+00) (0, 0, 0.00000000000000000000e+00) (0, 0, 0.00000000000000000000e+00) (0, 0, 0.00000000000000000000e+00) (0, 0, 0.00000000000000000000e+00) (0, 0, 0.00000000000000000000e+00) (0, 0, 0.00000000000000000000e+00) (0, 0, 0.00000000000000000000e+00) (0, 0, 0.00000000000000000000e+00) (0, 0, 0.00000000000000000000e+00) (0, 0, 0.00000000000000000000e+00) (0, 0, 0.00000000000000000000e+00) (0, 0, 0.00000000000000000000e+00) (0, 0, 0.00000000000000000000e+00) (0, 0, 0.00000000000000000000e+00) (0, 0, 0.00000000000000000000e+00) (0, 0, 0.00000000000000000000e+00) (0, 0, 0.00000000000000000000e+00) (0, 0, 0.00000000000000000000e+00) (0, 0, 0.00000000000000000000e+00) (0, 0, 0.00000000000000000000e+00) (0, 0, 0.00000000000000000000e+00) (0, 0, 0.00000000000000000000e+00) (0, 0, 0.00000000000000000000e+00) (0, 0, 0.00000000000000000000e+00) (0, 0, 0.00000000000000000000e+00) (0, 0, 0.00000000000000000000e+00) (0, 0, 0.00000000000000000000e+00) (0, 0, 0.00000000000000000000e+00) (0, 0, 0.00000000000000000000e+00) (0, 0, 0.00000000000000000000e+00) (0, 0, 0.00000000000000000000e+00) (0, 0, 0.00000000000000000000e+00) (0, 0, 0.00000000000000000000e+00) (0, 0, 0.00000000000000000000e+00) (0, 0, 0.00000000000000000000e+00) (0, 0, 0.00000000000000000000e+00) (0, 0, 0.00000000000000000000e+00) (0, 0, 0.00000000000000000000e+00) (0, 0, 0.00000000000000000000e+00) (0, 0, 0.00000000000000000000e+00) (0, 0, 0.00000000000000000000e+00) (0, 0, 0.00000000000000000000e+00) (0, 0, 0.00000000000000000000e+00) (0, 0, 0.00000000000000000000e+00) (0, 0, 0.00000000000000000000e+00) (0, 0, 0.00000000000000000000e+00) (0, 0, 0.00000000000000000000e+00) (0, 0, 0.00000000000000000000e+00) (0, 0, 0.00000000000000000000e+00) (0, 0, 0.00000000000000000000e+00) (0, 0, 0.00000000000000000000e+00) (0, 0, 0.00000000000000000000e+00) (0, 0, 0.00000000000000000000e+00) (0, 0, 0.00000000000000000000e+00) (0, 0, 0.00000000000000000000e+00) (0, 0, 0.00000000000000000000e+00) (0, 0, 0.00000000000000000000e+00) (0, 0, 0.00000000000000000000e+00) (0, 0, 0.00000000000000000000e+00) (0, 0, 0.00000000000000000000e+00) (0, 0, 0.00000000000000000000e+00) (0, 0, 0.00000000000000000000e+00) (0, 0, 0.00000000000000000000e+00) (0, 0, 0.00000000000000000000e+00) (0, 0, 0.00000000000000000000e+00) (0, 0, 0.00000000000000000000e+00) (0, 0, 0.00000000000000000000e+00) (0, 0, 0.00000000000000000000e+00) (0, 0, 0.00000000000000000000e+00) (0, 0, 0.00000000000000000000e+00) (0, 0, 0.00000000000000000000e+00) (0, 0, 0.00000000000000000000e+00) (0, 0, 0.00000000000000000000e+00) (0, 0, 0.00000000000000000000e+00) (0, 0, 0.00000000000000000000e+00) (0, 0, 0.00000000000000000000e+00) (0, 0, 0.00000000000000000000e+00) (0, 0, 0.00000000000000000000e+00) (0, 0, 0.00000000000000000000e+00) (0, 0, 0.00000000000000000000e+00) (0, 0, 0.00000000000000000000e+00) (0, 0, 0.00000000000000000000e+00) (0, 0, 0.00000000000000000000e+00) (0, 0, 0.00000000000000000000e+00) (101, 3, 1.00000000000000000000e+00) (101, 3, 1.00000000000000000000e+00) (101, 3, 1.00000000000000000000e+00) (101, 3, 1.00000000000000000000e+00) (101, 3, 1.00000000000000000000e+00) (101, 3, 1.00000000000000000000e+00) (101, 3, 1.00000000000000000000e+00) (101, 3, 1.00000000000000000000e+00) (101, 3, 1.00000000000000000000e+00) (101, 3, 1.00000000000000000000e+00) (101, 3, 1.00000000000000000000e+00) (101, 3, 1.00000000000000000000e+00) (101, 3, 1.00000000000000000000e+00) (101, 3, 1.00000000000000000000e+00) (101, 3, 1.00000000000000000000e+00) (101, 3, 1.00000000000000000000e+00) (101, 3, 1.00000000000000000000e+00) (101, 3, 1.00000000000000000000e+00) (101, 3, 1.00000000000000000000e+00) (101, 3, 1.00000000000000000000e+00) (101, 3, 1.00000000000000000000e+00) (101, 3, 1.00000000000000000000e+00) (101, 3, 1.00000000000000000000e+00) (101, 3, 1.00000000000000000000e+00) (101, 3, 1.00000000000000000000e+00) (101, 3, 1.00000000000000000000e+00) (101, 3, 1.00000000000000000000e+00) (101, 3, 1.00000000000000000000e+00) (101, 3, 1.00000000000000000000e+00) (101, 3, 1.00000000000000000000e+00) (101, 3, 1.00000000000000000000e+00) (101, 3, 1.00000000000000000000e+00) (101, 3, 1.00000000000000000000e+00) (101, 3, 1.00000000000000000000e+00) (101, 3, 1.00000000000000000000e+00) (101, 3, 1.00000000000000000000e+00) (101, 3, 1.00000000000000000000e+00) (101, 3, 1.00000000000000000000e+00) (101, 3, 1.00000000000000000000e+00) (101, 3, 1.00000000000000000000e+00) (101, 3, 1.00000000000000000000e+00) (101, 3, 1.00000000000000000000e+00) (101, 3, 1.00000000000000000000e+00) (101, 3, 1.00000000000000000000e+00) (101, 3, 1.00000000000000000000e+00) (101, 3, 1.00000000000000000000e+00) (101, 3, 1.00000000000000000000e+00) (101, 3, 1.00000000000000000000e+00) (101, 3, 1.00000000000000000000e+00) (101, 3, 1.00000000000000000000e+00) (101, 3, 1.00000000000000000000e+00) (101, 3, 1.00000000000000000000e+00) (101, 3, 1.00000000000000000000e+00) (101, 3, 1.00000000000000000000e+00) (101, 3, 1.00000000000000000000e+00) (101, 3, 1.00000000000000000000e+00) (101, 3, 1.00000000000000000000e+00) (101, 3, 1.00000000000000000000e+00) (101, 3, 1.00000000000000000000e+00) (101, 3, 1.00000000000000000000e+00) (101, 3, 1.00000000000000000000e+00) (101, 3, 1.00000000000000000000e+00) (101, 3, 1.00000000000000000000e+00) (101, 3, 1.00000000000000000000e+00) (101, 3, 1.00000000000000000000e+00) (101, 3, 1.00000000000000000000e+00) (101, 3, 1.00000000000000000000e+00) (101, 3, 1.00000000000000000000e+00) (101, 3, 1.00000000000000000000e+00) (101, 3, 1.00000000000000000000e+00) (101, 3, 1.00000000000000000000e+00) (101, 3, 1.00000000000000000000e+00) (101, 3, 1.00000000000000000000e+00) (101, 3, 1.00000000000000000000e+00) (101, 3, 1.00000000000000000000e+00) (101, 3, 1.00000000000000000000e+00) (101, 3, 1.00000000000000000000e+00) (101, 3, 1.00000000000000000000e+00) (101, 3, 1.00000000000000000000e+00) (101, 3, 1.00000000000000000000e+00) (101, 3, 1.00000000000000000000e+00) (101, 3, 1.00000000000000000000e+00) (101, 3, 1.00000000000000000000e+00) (101, 3, 1.00000000000000000000e+00) (101, 3, 1.00000000000000000000e+00) (101, 3, 1.00000000000000000000e+00) (101, 3, 1.00000000000000000000e+00) (101, 3, 1.00000000000000000000e+00) (101, 3, 1.00000000000000000000e+00) (101, 3, 1.00000000000000000000e+00) (101, 3, 1.00000000000000000000e+00) (101, 3, 1.00000000000000000000e+00) (101, 3, 1.00000000000000000000e+00) (101, 3, 1.00000000000000000000e+00) (101, 3, 1.00000000000000000000e+00) (101, 3, 1.00000000000000000000e+00) (101, 3, 1.00000000000000000000e+00) (101, 3, 1.00000000000000000000e+00) (101, 3, 1.00000000000000000000e+00) (101, 3, 1.00000000000000000000e+00) (101, 3, 1.00000000000000000000e+00) (101, 3, 1.00000000000000000000e+00) (101, 3, 1.00000000000000000000e+00) (101, 3, 1.00000000000000000000e+00) (101, 3, 1.00000000000000000000e+00) (101, 3, 1.00000000000000000000e+00) (101, 3, 1.00000000000000000000e+00) (101, 3, 1.00000000000000000000e+00) (101, 3, 1.00000000000000000000e+00) (101, 3, 1.00000000000000000000e+00) (101, 3, 1.00000000000000000000e+00) (101, 3, 1.00000000000000000000e+00) (101, 3, 1.00000000000000000000e+00) (101, 3, 1.00000000000000000000e+00) (101, 3, 1.00000000000000000000e+00) (101, 3, 1.00000000000000000000e+00) (101, 3, 1.00000000000000000000e+00) (101, 3, 1.00000000000000000000e+00) (101, 3, 1.00000000000000000000e+00) (101, 3, 1.00000000000000000000e+00) (101, 3, 1.00000000000000000000e+00) (101, 3, 1.00000000000000000000e+00) (101, 3, 1.00000000000000000000e+00) (101, 3, 1.00000000000000000000e+00) (101, 3, 1.00000000000000000000e+00) (101, 3, 1.00000000000000000000e+00) (101, 3, 1.00000000000000000000e+00) (101, 3, 1.00000000000000000000e+00) (101, 3, 1.00000000000000000000e+00) (101, 3, 1.00000000000000000000e+00) (101, 3, 1.00000000000000000000e+00) (101, 3, 1.00000000000000000000e+00) (101, 3, 1.00000000000000000000e+00) (101, 3, 1.00000000000000000000e+00) (101, 3, 1.00000000000000000000e+00) (101, 3, 1.00000000000000000000e+00) (101, 3, 1.00000000000000000000e+00) (101, 3, 1.00000000000000000000e+00) (101, 3, 1.00000000000000000000e+00) (101, 3, 1.00000000000000000000e+00) (101, 3, 1.00000000000000000000e+00) (101, 3, 1.00000000000000000000e+00) (101, 3, 1.00000000000000000000e+00) (101, 3, 1.00000000000000000000e+00) (101, 3, 1.00000000000000000000e+00) (101, 3, 1.00000000000000000000e+00) (101, 3, 1.00000000000000000000e+00) (101, 3, 1.00000000000000000000e+00) (101, 3, 1.00000000000000000000e+00) (101, 3, 1.00000000000000000000e+00) (0, 3, 1.00000000000000000000e+00) (151, 3, 1.00000000000000000000e+00) (151, 3, 1.00000000000000000000e+00) (151, 3, 1.00000000000000000000e+00) (151, 3, 1.00000000000000000000e+00) (0, 3, 1.00000000000000000000e+00) 
connections (connected_to_neuron, weight)=(0, -8.39205622673034667969e-01) (1, -4.86318945884704589844e-01) (2, -1.13987505435943603516e+00) (3, -3.26045066118240356445e-01) (4, -6.49112403392791748047e-01) (5, -5.66578686237335205078e-01) (6, -1.02838730812072753906e+00) (7, -5.88628828525543212891e-01) (8, -9.42846179008483886719e-01) (9, -5.82213044166564941406e-01) (10, -5.78526973724365234375e-01) (11, -7.46815562248229980469e-01) (12, -6.67080461978912353516e-01) (13, -5.21700501441955566406e-01) (14, -6.29415988922119140625e-01) (15, -1.43028593063354492188e+00) (16, -8.24894726276397705078e-01) (17, -5.36961495876312255859e-01) (18, -7.84804105758666992188e-01) (19, -8.61460208892822265625e-01) (20, -5.89239180088043212891e-01) (21, -2.18222007155418395996e-01) (22, -6.06497526168823242188e-01) (23, -3.47662657499313354492e-01) (24, -8.63217413425445556641e-01) (25, -4.10479426383972167969e-01) (26, -4.11072343587875366211e-01) (27, -7.07945168018341064453e-01) (28, -2.45792344212532043457e-01) (29, -5.32180845737457275391e-01) (30, -2.26395511627197265625e+00) (31, -1.40046536922454833984e+00) (32, -5.54468929767608642578e-01) (33, -7.79295384883880615234e-01) (34, -5.92511594295501708984e-01) (35, -4.32041168212890625000e-01) (36, -5.67280292510986328125e-01) (37, -6.32610619068145751953e-01) (38, -1.65020453929901123047e+00) (39, -6.12398743629455566406e-01) (40, -5.12103497982025146484e-01) (41, -1.39326894283294677734e+00) (42, -1.06537461280822753906e+00) (43, -6.29780650138854980469e-01) (44, -5.45789241790771484375e-01) (45, -6.41138255596160888672e-01) (46, -3.52907299995422363281e-01) (47, -1.50228953361511230469e+00) (48, -1.28750860691070556641e+00) (49, -3.58584046363830566406e-01) (50, -7.16864466667175292969e-02) (51, -1.37477064132690429688e+00) (52, -7.16319441795349121094e-01) (53, -1.20092093944549560547e+00) (54, -7.37124562263488769531e-01) (55, -4.24182921648025512695e-01) (56, -1.44667279720306396484e+00) (57, -6.02768421173095703125e-01) (58, -1.36203587055206298828e+00) (59, -5.29031276702880859375e-01) (60, -1.43291151523590087891e+00) (61, -7.41315126419067382812e-01) (62, -8.59044373035430908203e-01) (63, -6.63218617439270019531e-01) (64, -4.79679584503173828125e-01) (65, -1.03290784358978271484e+00) (66, -9.93030786514282226562e-01) (67, -7.06687867641448974609e-01) (68, -9.84458565711975097656e-01) (69, -8.34586203098297119141e-01) (70, -7.75848746299743652344e-01) (71, -7.99161732196807861328e-01) (72, -4.78738099336624145508e-01) (73, -5.25964498519897460938e-01) (74, -9.96322154998779296875e-01) (75, -4.02849078178405761719e-01) (76, -9.96505141258239746094e-01) (77, -6.51427447795867919922e-01) (78, -1.14696335792541503906e+00) (79, -5.21574795246124267578e-01) (80, -1.10507166385650634766e+00) (81, -1.10443222522735595703e+00) (82, -7.79776513576507568359e-01) (83, -8.57803344726562500000e-01) (84, -8.42737913131713867188e-01) (85, -6.33371472358703613281e-01) (86, -7.55839943885803222656e-01) (87, -1.52646553516387939453e+00) (88, -7.15494334697723388672e-01) (89, -4.13297623395919799805e-01) (90, -1.11981642246246337891e+00) (91, -8.23928713798522949219e-01) (92, -6.03936910629272460938e-01) (93, -7.14605510234832763672e-01) (94, -4.77129638195037841797e-01) (95, -3.93843501806259155273e-01) (96, -5.73044657707214355469e-01) (97, -8.30321013927459716797e-01) (98, -5.88266193866729736328e-01) (99, -7.21413016319274902344e-01) (100, 2.32310160994529724121e-01) (0, -1.05460986495018005371e-01) (1, -1.33584633469581604004e-01) (2, -1.04140611365437507629e-02) (3, 1.14443935453891754150e-02) (4, -1.29203990101814270020e-01) (5, -1.55717447400093078613e-01) (6, -1.84364706277847290039e-01) (7, -1.73805609345436096191e-01) (8, 3.57790365815162658691e-02) (9, -1.35284066200256347656e-01) (10, -8.14954489469528198242e-02) (11, 5.87911419570446014404e-02) (12, 9.27789974957704544067e-03) (13, -1.06144556775689125061e-02) (14, 5.57815842330455780029e-03) (15, -9.35879796743392944336e-02) (16, -9.71808657050132751465e-02) (17, 6.70347139239311218262e-02) (18, -8.58918204903602600098e-02) (19, 3.58011089265346527100e-02) (20, -8.17980766296386718750e-02) (21, 9.69087928533554077148e-02) (22, -1.27227967604994773865e-02) (23, -1.13310404121875762939e-01) (24, -1.35200694203376770020e-01) (25, -1.14992156624794006348e-01) (26, -5.54998070001602172852e-02) (27, -1.85932517051696777344e-01) (28, -1.20422020554542541504e-02) (29, -3.79801467061042785645e-02) (30, -1.14988885819911956787e-01) (31, -8.68311524391174316406e-02) (32, 1.09493620693683624268e-01) (33, -9.20228660106658935547e-02) (34, -3.20755355060100555420e-02) (35, -5.78478947281837463379e-02) (36, -7.30536207556724548340e-02) (37, 8.37517380714416503906e-02) (38, -2.30367258191108703613e-02) (39, 1.21396798640489578247e-02) (40, 8.96660014986991882324e-02) (41, -5.53886704146862030029e-02) (42, 6.91001340746879577637e-02) (43, -5.10854693129658699036e-03) (44, 7.40512013435363769531e-02) (45, -7.42232501506805419922e-02) (46, -8.94786044955253601074e-02) (47, -1.60931169986724853516e-01) (48, -1.43720163032412528992e-02) (49, -7.62843191623687744141e-02) (50, 6.32644742727279663086e-02) (51, -9.84515696763992309570e-02) (52, -3.86779643595218658447e-02) (53, -9.97239127755165100098e-02) (54, -6.89849480986595153809e-02) (55, -1.56080037355422973633e-01) (56, -1.57637745141983032227e-01) (57, 1.81061383336782455444e-02) (58, -1.85624822974205017090e-01) (59, 1.24696735292673110962e-02) (60, -8.20626839995384216309e-02) (61, -1.72541156411170959473e-01) (62, 1.20628299191594123840e-02) (63, -1.47956952452659606934e-01) (64, 4.24949079751968383789e-02) (65, -1.36824995279312133789e-01) (66, -1.12458363175392150879e-01) (67, -1.47415310144424438477e-01) (68, -1.75978362560272216797e-01) (69, -1.85774993151426315308e-02) (70, -4.77207861840724945068e-02) (71, -2.37493906170129776001e-02) (72, -1.73920109868049621582e-01) (73, -1.91032141447067260742e-01) (74, -5.05468845367431640625e-02) (75, -3.43086733482778072357e-03) (76, -6.51786699891090393066e-02) (77, -3.63909043371677398682e-02) (78, -2.10873521864414215088e-02) (79, -5.35810627043247222900e-02) (80, -1.75935074687004089355e-01) (81, 4.66852709650993347168e-02) (82, -3.41068115085363388062e-03) (83, -3.00341472029685974121e-02) (84, 2.19755806028842926025e-02) (85, 1.28431459888815879822e-02) (86, -9.80847328901290893555e-02) (87, -1.80852472782135009766e-01) (88, -3.51854935288429260254e-02) (89, -8.78939703106880187988e-02) (90, -9.07793417572975158691e-02) (91, 3.33951376378536224365e-02) (92, -1.80054515600204467773e-01) (93, 4.22369539737701416016e-02) (94, -3.34229767322540283203e-02) (95, -7.93434306979179382324e-02) (96, -4.38200123608112335205e-02) (97, -2.77451463043689727783e-02) (98, -6.45750537514686584473e-02) (99, -1.40090480446815490723e-01) (100, -1.83321699500083923340e-01) (0, 4.78045493364334106445e-01) (1, -5.48327386379241943359e-01) (2, 6.46162033081054687500e-01) (3, -5.49269258975982666016e-01) (4, 2.02692106366157531738e-01) (5, 3.68879199028015136719e-01) (6, 1.28093928098678588867e-01) (7, -4.84282851219177246094e-01) (8, 2.71164983510971069336e-01) (9, 1.94263979792594909668e-01) (10, -3.81010115146636962891e-01) (11, 8.49200725555419921875e-01) (12, -2.90859848260879516602e-01) (13, -2.74251550436019897461e-01) (14, -3.16664539277553558350e-02) (15, 5.39565503597259521484e-01) (16, 2.17107579112052917480e-01) (17, -2.90423515252768993378e-03) (18, 2.89178788661956787109e-01) (19, -1.26686781644821166992e-01) (20, -3.59390527009963989258e-02) (21, -7.20300734043121337891e-01) (22, -4.26202744245529174805e-01) (23, -5.53205609321594238281e-01) (24, 9.42343622446060180664e-02) (25, -8.17518770694732666016e-01) (26, -1.75904497504234313965e-01) (27, 2.07664430141448974609e-01) (28, -1.14628958702087402344e+00) (29, -1.36252179741859436035e-01) (30, 1.04223132133483886719e+00) (31, 5.71736216545104980469e-01) (32, -1.54362350702285766602e-01) (33, -2.95785039663314819336e-01) (34, -1.31453961133956909180e-01) (35, -3.92698645591735839844e-01) (36, -5.93464195728302001953e-01) (37, 4.18128184974193572998e-02) (38, 6.63177728652954101562e-01) (39, 2.17500925064086914062e-02) (40, -7.34324574470520019531e-01) (41, 7.77787625789642333984e-01) (42, 7.22126126289367675781e-01) (43, 9.70667377114295959473e-02) (44, -5.02316415309906005859e-01) (45, -2.02638462185859680176e-01) (46, -7.75023877620697021484e-01) (47, 8.22430372238159179688e-01) (48, 3.46965581178665161133e-01) (49, -5.85050523281097412109e-01) (50, -1.06167638301849365234e+00) (51, 8.51121008396148681641e-01) (52, 1.80487170815467834473e-01) (53, 4.93796288967132568359e-01) (54, 5.09690493345260620117e-02) (55, 1.18492610752582550049e-01) (56, 7.44638323783874511719e-01) (57, -9.52203124761581420898e-02) (58, 8.52157294750213623047e-01) (59, -9.17078182101249694824e-03) (60, 8.13645839691162109375e-01) (61, 3.00442963838577270508e-01) (62, -3.64642113447189331055e-01) (63, 9.18452069163322448730e-02) (64, -7.21089482307434082031e-01) (65, 3.34032833576202392578e-01) (66, 1.73355787992477416992e-01) (67, -4.55881983041763305664e-01) (68, 1.47409543395042419434e-01) (69, 2.80609726905822753906e-01) (70, 3.34012091159820556641e-01) (71, 5.83796441555023193359e-01) (72, -1.75031535327434539795e-02) (73, -3.38191777467727661133e-01) (74, 7.03551173210144042969e-02) (75, -9.15441751480102539062e-01) (76, 3.83357465267181396484e-01) (77, 5.24918213486671447754e-02) (78, 1.31520897150039672852e-01) (79, -2.78096050024032592773e-01) (80, 6.70898199081420898438e-01) (81, -1.42483174800872802734e-01) (82, 1.24828100204467773438e-01) (83, 1.72572553157806396484e-01) (84, -3.04563581943511962891e-01) (85, 1.09047852456569671631e-02) (86, 4.11080211400985717773e-01) (87, 8.94425570964813232422e-01) (88, -1.70333668589591979980e-01) (89, -3.25726449489593505859e-01) (90, -1.24976627528667449951e-01) (91, 1.57722264528274536133e-01) (92, 4.94869612157344818115e-02) (93, 4.22851257026195526123e-02) (94, -7.30251520872116088867e-02) (95, -2.79277056455612182617e-01) (96, -2.70722150802612304688e-01) (97, 4.54350262880325317383e-01) (98, -6.19132041931152343750e-01) (99, -3.45371589064598083496e-02) (100, -1.59958088397979736328e+00) (0, -4.60986375808715820312e-01) (1, -2.94899374246597290039e-01) (2, -5.02874493598937988281e-01) (3, -5.35579659044742584229e-02) (4, -4.69042360782623291016e-01) (5, -3.09769064188003540039e-01) (6, -3.82226258516311645508e-01) (7, -2.66433238983154296875e-01) (8, -4.31102573871612548828e-01) (9, -2.00948908925056457520e-01) (10, -3.55248868465423583984e-01) (11, -4.93524044752120971680e-01) (12, -2.49094590544700622559e-01) (13, -1.01636804640293121338e-01) (14, -4.79783058166503906250e-01) (15, -5.51365256309509277344e-01) (16, -4.15748506784439086914e-01) (17, -3.82666826248168945312e-01) (18, -3.84863376617431640625e-01) (19, -3.85276108980178833008e-01) (20, -3.55044782161712646484e-01) (21, -6.96117877960205078125e-02) (22, -3.59138011932373046875e-01) (23, -3.49660277366638183594e-01) (24, -5.92644989490509033203e-01) (25, -1.20188444852828979492e-01) (26, -2.19382047653198242188e-01) (27, -5.04341006278991699219e-01) (28, -9.67658832669258117676e-02) (29, -4.09201502799987792969e-01) (30, -9.46116983890533447266e-01) (31, -5.46615362167358398438e-01) (32, -3.82868468761444091797e-01) (33, -4.43921774625778198242e-01) (34, -2.98973500728607177734e-01) (35, -1.76928251981735229492e-01) (36, -3.04236531257629394531e-01) (37, -3.38967859745025634766e-01) (38, -8.99969220161437988281e-01) (39, -2.67896056175231933594e-01) (40, -2.65926599502563476562e-01) (41, -7.84942746162414550781e-01) (42, -5.38146257400512695312e-01) (43, -2.21692547202110290527e-01) (44, -2.97387599945068359375e-01) (45, -3.18806320428848266602e-01) (46, -1.57889708876609802246e-01) (47, -5.97034156322479248047e-01) (48, -5.26372969150543212891e-01) (49, -2.02023297548294067383e-01) (50, 2.22789198160171508789e-02) (51, -7.01870203018188476562e-01) (52, -3.57813864946365356445e-01) (53, -5.51959097385406494141e-01) (54, -4.59553867578506469727e-01) (55, -3.86526107788085937500e-01) (56, -5.98821282386779785156e-01) (57, -4.87052917480468750000e-01) (58, -7.39600598812103271484e-01) (59, -2.28845417499542236328e-01) (60, -7.09206044673919677734e-01) (61, -4.95892792940139770508e-01) (62, -4.40230727195739746094e-01) (63, -1.93883091211318969727e-01) (64, -4.15810674428939819336e-01) (65, -5.57720422744750976562e-01) (66, -4.82507556676864624023e-01) (67, -3.87784510850906372070e-01) (68, -5.66758930683135986328e-01) (69, -3.58548432588577270508e-01) (70, -3.05134773254394531250e-01) (71, -5.36311805248260498047e-01) (72, -2.37220376729965209961e-01) (73, -2.30248630046844482422e-01) (74, -2.97263205051422119141e-01) (75, -1.67225196957588195801e-01) (76, -3.71515780687332153320e-01) (77, -2.55490720272064208984e-01) (78, -3.61095994710922241211e-01) (79, -4.24404025077819824219e-01) (80, -5.48703491687774658203e-01) (81, -3.98471474647521972656e-01) (82, -4.87857848405838012695e-01) (83, -2.68920361995697021484e-01) (84, -4.89546537399291992188e-01) (85, -3.27105283737182617188e-01) (86, -5.03675997257232666016e-01) (87, -7.39005088806152343750e-01) (88, -2.53243416547775268555e-01) (89, -3.52505415678024291992e-01) (90, -5.68241477012634277344e-01) (91, -3.61689537763595581055e-01) (92, -1.96484357118606567383e-01) (93, -2.90901422500610351562e-01) (94, -3.25532346963882446289e-01) (95, -1.79969146847724914551e-01) (96, -2.73018091917037963867e-01) (97, -2.95048743486404418945e-01) (98, -2.95796513557434082031e-01) (99, -3.32435250282287597656e-01) (100, 1.96662917733192443848e-02) (0, -4.64145004749298095703e-01) (1, -4.51337665319442749023e-01) (2, -9.09240067005157470703e-01) (3, -3.36172789335250854492e-01) (4, -4.88783657550811767578e-01) (5, -4.01498049497604370117e-01) (6, -6.74516916275024414062e-01) (7, -3.91001164913177490234e-01) (8, -5.92844903469085693359e-01) (9, -4.76773977279663085938e-01) (10, -3.37860107421875000000e-01) (11, -5.47421872615814208984e-01) (12, -4.02781575918197631836e-01) (13, -3.69377195835113525391e-01) (14, -4.51509624719619750977e-01) (15, -1.09186601638793945312e+00) (16, -7.23276257514953613281e-01) (17, -5.42082548141479492188e-01) (18, -4.83776479959487915039e-01) (19, -5.60151755809783935547e-01) (20, -3.59820961952209472656e-01) (21, -3.20645153522491455078e-01) (22, -3.66820305585861206055e-01) (23, -2.32858568429946899414e-01) (24, -5.76724052429199218750e-01) (25, -3.08699637651443481445e-01) (26, -4.06927198171615600586e-01) (27, -5.25683224201202392578e-01) (28, -1.37484744191169738770e-01) (29, -3.76779437065124511719e-01) (30, -1.55815470218658447266e+00) (31, -8.82465660572052001953e-01) (32, -3.89575988054275512695e-01) (33, -5.41982471942901611328e-01) (34, -4.11902189254760742188e-01) (35, -3.19753706455230712891e-01) (36, -2.18451857566833496094e-01) (37, -4.60721075534820556641e-01) (38, -1.00751686096191406250e+00) (39, -5.11764109134674072266e-01) (40, -4.06211882829666137695e-01) (41, -1.10123181343078613281e+00) (42, -6.38258278369903564453e-01) (43, -5.22469818592071533203e-01) (44, -4.15983051061630249023e-01) (45, -4.49722915887832641602e-01) (46, 3.82876172661781311035e-02) (47, -1.00260484218597412109e+00) (48, -8.44247817993164062500e-01) (49, -3.42031925916671752930e-01) (50, -6.47579133510589599609e-02) (51, -8.56268227100372314453e-01) (52, -5.92284262180328369141e-01) (53, -8.54848027229309082031e-01) (54, -4.39652979373931884766e-01) (55, -3.57743054628372192383e-01) (56, -8.82977724075317382812e-01) (57, -5.32515823841094970703e-01) (58, -9.09486711025238037109e-01) (59, -4.50615525245666503906e-01) (60, -1.11671817302703857422e+00) (61, -5.46395897865295410156e-01) (62, -4.20832365751266479492e-01) (63, -4.66680318117141723633e-01) (64, -2.17738941311836242676e-01) (65, -6.42439186573028564453e-01) (66, -9.33386266231536865234e-01) (67, -3.89289081096649169922e-01) (68, -4.86584067344665527344e-01) (69, -4.61715430021286010742e-01) (70, -5.54556429386138916016e-01) (71, -5.07914066314697265625e-01) (72, -4.23905551433563232422e-01) (73, -5.16977906227111816406e-01) (74, -7.05228269100189208984e-01) (75, -3.53383362293243408203e-01) (76, -7.60370612144470214844e-01) (77, -5.49392163753509521484e-01) (78, -6.94175183773040771484e-01) (79, -4.44341450929641723633e-01) (80, -7.34561383724212646484e-01) (81, -7.03846454620361328125e-01) (82, -6.31696283817291259766e-01) (83, -6.17398440837860107422e-01) (84, -6.22176468372344970703e-01) (85, -3.53843152523040771484e-01) (86, -4.60278093814849853516e-01) (87, -1.00392413139343261719e+00) (88, -3.34059208631515502930e-01) (89, -4.38222616910934448242e-01) (90, -7.83083379268646240234e-01) (91, -4.72382128238677978516e-01) (92, -5.65120577812194824219e-01) (93, -4.99436557292938232422e-01) (94, -4.58330333232879638672e-01) (95, -2.72175341844558715820e-01) (96, -4.64310467243194580078e-01) (97, -6.63276314735412597656e-01) (98, -4.15013492107391357422e-01) (99, -5.52230477333068847656e-01) (100, 1.64066016674041748047e-01) (0, -3.68449062108993530273e-01) (1, -2.31988579034805297852e-01) (2, -3.56290668249130249023e-01) (3, -2.05178037285804748535e-01) (4, -2.39087849855422973633e-01) (5, -1.81210860610008239746e-01) (6, -3.85704457759857177734e-01) (7, -1.50009438395500183105e-01) (8, -4.27829653024673461914e-01) (9, -3.47722530364990234375e-01) (10, -3.84515970945358276367e-01) (11, -2.64345645904541015625e-01) (12, -1.34564995765686035156e-01) (13, -2.27636754512786865234e-01) (14, -4.03651028871536254883e-01) (15, -7.63803124427795410156e-01) (16, -2.77214825153350830078e-01) (17, -1.89045786857604980469e-01) (18, -5.27374744415283203125e-01) (19, -2.58074015378952026367e-01) (20, -3.13693016767501831055e-01) (21, -1.79445847868919372559e-01) (22, -6.11303783953189849854e-02) (23, -1.93078354001045227051e-01) (24, -4.01370108127593994141e-01) (25, -1.13809585571289062500e-01) (26, -2.63589620590209960938e-01) (27, -1.80031538009643554688e-01) (28, -8.56052413582801818848e-02) (29, -4.11346644163131713867e-01) (30, -1.00519526004791259766e+00) (31, -3.73242378234863281250e-01) (32, -2.07666859030723571777e-01) (33, -2.75609135627746582031e-01) (34, -1.87111631035804748535e-01) (35, -2.63475090265274047852e-01) (36, -2.69459784030914306641e-01) (37, -1.57620206475257873535e-01) (38, -1.20273518562316894531e+00) (39, -3.11816900968551635742e-01) (40, -1.30284622311592102051e-01) (41, -7.43150949478149414062e-01) (42, -3.57092291116714477539e-01) (43, -1.76178887486457824707e-01) (44, -1.78378358483314514160e-01) (45, -2.97934830188751220703e-01) (46, -2.19027474522590637207e-01) (47, -4.58213567733764648438e-01) (48, -5.20719408988952636719e-01) (49, -2.01037079095840454102e-01) (50, -1.94493517279624938965e-01) (51, -8.65405917167663574219e-01) (52, -3.29658985137939453125e-01) (53, -4.16548758745193481445e-01) (54, -2.99756407737731933594e-01) (55, -2.04358994960784912109e-01) (56, -6.02124691009521484375e-01) (57, -2.03148528933525085449e-01) (58, -4.96024698019027709961e-01) (59, -1.21896192431449890137e-01) (60, -7.08430469036102294922e-01) (61, -2.25144386291503906250e-01) (62, -2.93868809938430786133e-01) (63, -2.87950277328491210938e-01) (64, -1.85036450624465942383e-01) (65, -4.09368962049484252930e-01) (66, -3.73758256435394287109e-01) (67, -2.24331215023994445801e-01) (68, -3.66457819938659667969e-01) (69, -2.35428526997566223145e-01) (70, -4.05653357505798339844e-01) (71, -2.98266410827636718750e-01) (72, -2.08459958434104919434e-01) (73, -1.44718945026397705078e-01) (74, -3.20980548858642578125e-01) (75, -2.29605063796043395996e-01) (76, -4.48363572359085083008e-01) (77, -2.85997599363327026367e-01) (78, -3.34104359149932861328e-01) (79, -6.52408078312873840332e-02) (80, -4.91022646427154541016e-01) (81, -2.39266574382781982422e-01) (82, -2.98606693744659423828e-01) (83, -3.07653427124023437500e-01) (84, -1.99051275849342346191e-01) (85, -4.09937977790832519531e-01) (86, -2.14208602905273437500e-01) (87, -4.95395451784133911133e-01) (88, -2.88411498069763183594e-01) (89, -1.97906389832496643066e-01) (90, -3.82881909608840942383e-01) (91, -3.36158335208892822266e-01) (92, -2.16509535908699035645e-01) (93, -2.46040359139442443848e-01) (94, -2.10115388035774230957e-01) (95, -1.73129305243492126465e-01) (96, -4.12111848592758178711e-01) (97, -3.01130980253219604492e-01) (98, -1.43562123179435729980e-01) (99, -1.22610941529273986816e-01) (100, -1.02507799863815307617e-01) (0, -1.64653718471527099609e+00) (1, -9.70636248588562011719e-01) (2, -1.89584407806396484375e+01) (3, -5.10643959045410156250e-01) (4, -1.04496896266937255859e+00) (5, -1.01963686943054199219e+00) (6, -1.62254774570465087891e+00) (7, -1.02501678466796875000e+00) (8, -1.49396169185638427734e+00) (9, -1.13074612617492675781e+00) (10, -9.94683682918548583984e-01) (11, -1.46591198444366455078e+00) (12, -9.44213330745697021484e-01) (13, -7.67833948135375976562e-01) (14, -1.06017589569091796875e+00) (15, -2.91303849220275878906e+00) (16, -1.40101981163024902344e+00) (17, -1.07268464565277099609e+00) (18, -1.54496920108795166016e+00) (19, -1.27143537998199462891e+00) (20, -8.74108850955963134766e-01) (21, -4.52588021755218505859e-01) (22, -7.82786309719085693359e-01) (23, -8.07532727718353271484e-01) (24, -1.65892708301544189453e+00) (25, -7.57515549659729003906e-01) (26, -9.07676219940185546875e-01) (27, -1.24543416500091552734e+00) (28, -4.10752683877944946289e-01) (29, -9.04757320880889892578e-01) (30, -3.78462553024291992188e+00) (31, -2.16615247726440429688e+00) (32, -9.21022415161132812500e-01) (33, -1.33490359783172607422e+00) (34, -1.21889889240264892578e+00) (35, -1.03324306011199951172e+00) (36, -8.29665780067443847656e-01) (37, -9.42579865455627441406e-01) (38, -3.00665950775146484375e+00) (39, -1.29462659358978271484e+00) (40, -7.99971997737884521484e-01) (41, -2.95899701118469238281e+00) (42, -2.06120085716247558594e+00) (43, -9.39220726490020751953e-01) (44, -9.68659102916717529297e-01) (45, -9.83603179454803466797e-01) (46, -4.49197083711624145508e-01) (47, -2.72766900062561035156e+00) (48, -2.32892489433288574219e+00) (49, -8.52156341075897216797e-01) (50, -1.93528279662132263184e-01) (51, -2.63153171539306640625e+00) (52, -1.26304733753204345703e+00) (53, -2.29822921752929687500e+00) (54, -1.10774672031402587891e+00) (55, -9.52333867549896240234e-01) (56, -2.63566350936889648438e+00) (57, -1.01881611347198486328e+00) (58, -2.59872150421142578125e+00) (59, -8.77373456954956054688e-01) (60, -2.92429041862487792969e+00) (61, -1.30339455604553222656e+00) (62, -1.26248633861541748047e+00) (63, -8.24071347713470458984e-01) (64, -6.59804999828338623047e-01) (65, -1.72366905212402343750e+00) (66, -1.88624322414398193359e+00) (67, -1.17139041423797607422e+00) (68, -1.43484365940093994141e+00) (69, -1.67253208160400390625e+00) (70, -1.27889573574066162109e+00) (71, -1.29861307144165039062e+00) (72, -9.74878489971160888672e-01) (73, -1.00761508941650390625e+00) (74, -1.72060692310333251953e+00) (75, -5.83360612392425537109e-01) (76, -1.83336889743804931641e+00) (77, -9.97836649417877197266e-01) (78, -2.21075510978698730469e+00) (79, -8.58821868896484375000e-01) (80, -2.00914049148559570312e+00) (81, -2.22120523452758789062e+00) (82, -1.23442399501800537109e+00) (83, -1.78601920604705810547e+00) (84, -1.15854048728942871094e+00) (85, -9.25655484199523925781e-01) (86, -1.32187533378601074219e+00) (87, -2.75968265533447265625e+00) (88, -1.01548755168914794922e+00) (89, -9.27828311920166015625e-01) (90, -2.29267859458923339844e+00) (91, -1.54346001148223876953e+00) (92, -1.11726903915405273438e+00) (93, -1.22452557086944580078e+00) (94, -9.09572780132293701172e-01) (95, -8.58921229839324951172e-01) (96, -1.16842484474182128906e+00) (97, -1.43023347854614257812e+00) (98, -1.04800891876220703125e+00) (99, -1.10494327545166015625e+00) (100, -1.04929052293300628662e-01) (0, 1.49473771452903747559e-02) (1, -3.89030903577804565430e-01) (2, 1.25565886497497558594e-01) (3, -1.79192721843719482422e-01) (4, -4.57686670124530792236e-02) (5, 4.70146276056766510010e-02) (6, -7.06453472375869750977e-02) (7, 8.55528935790061950684e-02) (8, 1.22733682394027709961e-01) (9, 1.47342503070831298828e-01) (10, -8.95624328404664993286e-03) (11, -9.32174827903509140015e-03) (12, 2.13303826749324798584e-02) (13, -2.96213120222091674805e-01) (14, -7.18182474374771118164e-02) (15, -1.34067181497812271118e-02) (16, -1.60371482372283935547e-01) (17, 2.81658712774515151978e-02) (18, -2.64747321605682373047e-01) (19, -9.12583246827125549316e-02) (20, 4.38688248395919799805e-02) (21, -3.21437180042266845703e-01) (22, 2.47416049242019653320e-02) (23, -2.25236475467681884766e-01) (24, -2.01247688382863998413e-02) (25, -1.59852743148803710938e-01) (26, -1.74979254603385925293e-01) (27, 6.94722086191177368164e-02) (28, -6.70875310897827148438e-01) (29, -2.51181889325380325317e-02) (30, 6.57903254032135009766e-02) (31, -2.91190166026353836060e-02) (32, -1.99033915996551513672e-01) (33, -1.11126415431499481201e-01) (34, -1.95571541786193847656e-01) (35, 3.07789687067270278931e-02) (36, -7.39759132266044616699e-02) (37, -1.48321777582168579102e-01) (38, -4.33896303176879882812e-01) (39, -3.54656092822551727295e-02) (40, -3.84708881378173828125e-01) (41, 6.37605879455804824829e-03) (42, -1.71109531074762344360e-02) (43, -8.34816694259643554688e-02) (44, -1.07677958905696868896e-01) (45, -1.22147716581821441650e-01) (46, -3.14755558967590332031e-01) (47, -9.60163325071334838867e-02) (48, 1.33152335882186889648e-01) (49, -6.10162951052188873291e-02) (50, -5.15310704708099365234e-01) (51, -8.04904997348785400391e-02) (52, -1.85739263892173767090e-01) (53, 3.03309801965951919556e-02) (54, 6.04666657745838165283e-02) (55, -6.44478872418403625488e-02) (56, 1.08324863016605377197e-01) (57, -1.45645901560783386230e-01) (58, -6.44882619380950927734e-02) (59, -2.27670118212699890137e-01) (60, -1.68942406773567199707e-01) (61, -1.71424537897109985352e-01) (62, 3.23386862874031066895e-02) (63, 6.98378458619117736816e-02) (64, -2.46181100606918334961e-01) (65, -9.59577411413192749023e-02) (66, -9.36182439327239990234e-02) (67, -6.39738738536834716797e-02) (68, -1.58164188265800476074e-01) (69, -3.35017926990985870361e-02) (70, -3.36216539144515991211e-01) (71, 4.06000986695289611816e-02) (72, -9.78630706667900085449e-02) (73, -8.69758352637290954590e-02) (74, -5.56014329195022583008e-02) (75, -2.44145095348358154297e-01) (76, 5.02814259380102157593e-03) (77, -1.72311499714851379395e-01) (78, 1.21043652296066284180e-01) (79, 5.04199638962745666504e-02) (80, -8.60168263316154479980e-02) (81, 9.28713881876319646835e-04) (82, -1.63661345839500427246e-01) (83, 1.05760488659143447876e-02) (84, -1.45802557468414306641e-01) (85, -2.72586613893508911133e-01) (86, -6.99656456708908081055e-02) (87, -7.40433335304260253906e-02) (88, -2.04292848706245422363e-01) (89, -1.36127814650535583496e-01) (90, 3.17551637999713420868e-03) (91, -1.31225645542144775391e-01) (92, -1.20314456522464752197e-01) (93, 9.84421595931053161621e-02) (94, -4.51306812465190887451e-02) (95, -1.35474845767021179199e-01) (96, -1.49305343627929687500e-01) (97, 1.53481096029281616211e-01) (98, -7.01889336109161376953e-01) (99, 1.60882696509361267090e-01) (100, -1.18977278470993041992e-01) (0, -8.02373945713043212891e-01) (1, -6.77402436733245849609e-01) (2, -3.15813708305358886719e+00) (3, -1.59056246280670166016e-01) (4, -8.33313763141632080078e-01) (5, -6.27672970294952392578e-01) (6, -9.05830740928649902344e-01) (7, -5.02750396728515625000e-01) (8, -8.38977992534637451172e-01) (9, -5.80848634243011474609e-01) (10, -4.64504778385162353516e-01) (11, -9.68214869499206542969e-01) (12, -6.81056439876556396484e-01) (13, -3.63902032375335693359e-01) (14, -8.47583055496215820312e-01) (15, -9.97178196907043457031e-01) (16, -8.83453905582427978516e-01) (17, -6.25594794750213623047e-01) (18, -9.37787055969238281250e-01) (19, -6.73496246337890625000e-01) (20, -4.24861520528793334961e-01) (21, -3.39219868183135986328e-01) (22, -5.01980900764465332031e-01) (23, -3.84668827056884765625e-01) (24, -8.14259290695190429688e-01) (25, -1.32083013653755187988e-01) (26, -4.27148759365081787109e-01) (27, -7.95290946960449218750e-01) (28, 8.83801802992820739746e-02) (29, -8.21737647056579589844e-01) (30, -1.71992230415344238281e+00) (31, -1.13191354274749755859e+00) (32, -5.67744314670562744141e-01) (33, -6.16361916065216064453e-01) (34, -6.91635787487030029297e-01) (35, -3.95498782396316528320e-01) (36, -4.20060664415359497070e-01) (37, -7.18946397304534912109e-01) (38, -1.18778336048126220703e+00) (39, -7.29999721050262451172e-01) (40, -3.15204173326492309570e-01) (41, -1.13425981998443603516e+00) (42, -9.19461250305175781250e-01) (43, -5.02448499202728271484e-01) (44, -5.37345588207244873047e-01) (45, -7.12200999259948730469e-01) (46, -4.79421764612197875977e-02) (47, -1.34228622913360595703e+00) (48, -1.06765496730804443359e+00) (49, -4.00425016880035400391e-01) (50, 8.60837921500205993652e-02) (51, -1.24377453327178955078e+00) (52, -8.17420542240142822266e-01) (53, -1.14541757106781005859e+00) (54, -7.09436953067779541016e-01) (55, -5.31597852706909179688e-01) (56, -1.22835803031921386719e+00) (57, -8.48672986030578613281e-01) (58, -1.53741121292114257812e+00) (59, -4.67990845441818237305e-01) (60, -1.24447906017303466797e+00) (61, -7.36014544963836669922e-01) (62, -5.39044678211212158203e-01) (63, -6.17319345474243164062e-01) (64, -5.90659916400909423828e-01) (65, -1.05980324745178222656e+00) (66, -1.04338479042053222656e+00) (67, -6.88433706760406494141e-01) (68, -7.97924816608428955078e-01) (69, -1.08607959747314453125e+00) (70, -9.11311089992523193359e-01) (71, -9.38758373260498046875e-01) (72, -8.36244821548461914062e-01) (73, -6.47926628589630126953e-01) (74, -9.30932760238647460938e-01) (75, -1.98588103055953979492e-01) (76, -1.02920258045196533203e+00) (77, -5.24989485740661621094e-01) (78, -9.13057029247283935547e-01) (79, -5.30908405780792236328e-01) (80, -9.70122814178466796875e-01) (81, -9.99236762523651123047e-01) (82, -8.12432110309600830078e-01) (83, -7.53355324268341064453e-01) (84, -6.33885204792022705078e-01) (85, -5.98118185997009277344e-01) (86, -9.33256149291992187500e-01) (87, -1.43343758583068847656e+00) (88, -6.38047099113464355469e-01) (89, -4.40532505512237548828e-01) (90, -9.03659105300903320312e-01) (91, -9.48892235755920410156e-01) (92, -7.56474673748016357422e-01) (93, -8.33586871623992919922e-01) (94, -6.75550043582916259766e-01) (95, -4.35911834239959716797e-01) (96, -5.15997350215911865234e-01) (97, -1.06906223297119140625e+00) (98, -5.23931741714477539062e-01) (99, -7.66112744808197021484e-01) (100, 3.95774215459823608398e-01) (0, -7.36768901348114013672e-01) (1, -4.85323607921600341797e-01) (2, -1.60433483123779296875e+00) (3, -3.81203919649124145508e-01) (4, -6.14543139934539794922e-01) (5, -6.79867982864379882812e-01) (6, -7.23181724548339843750e-01) (7, -6.36357247829437255859e-01) (8, -8.57910156250000000000e-01) (9, -7.45783269405364990234e-01) (10, -3.38271528482437133789e-01) (11, -8.46593976020812988281e-01) (12, -7.28935420513153076172e-01) (13, -2.51901119947433471680e-01) (14, -5.56236028671264648438e-01) (15, -1.07319390773773193359e+00) (16, -7.48363018035888671875e-01) (17, -5.12592673301696777344e-01) (18, -8.85884702205657958984e-01) (19, -7.04172968864440917969e-01) (20, -4.95971828699111938477e-01) (21, -1.77662909030914306641e-01) (22, -5.46343684196472167969e-01) (23, -5.15596687793731689453e-01) (24, -8.63518536090850830078e-01) (25, -3.71402144432067871094e-01) (26, -4.22294706106185913086e-01) (27, -6.25655710697174072266e-01) (28, -6.06729313731193542480e-02) (29, -4.43458080291748046875e-01) (30, -1.44705021381378173828e+00) (31, -8.26787769794464111328e-01) (32, -5.47210276126861572266e-01) (33, -6.34325742721557617188e-01) (34, -5.37689626216888427734e-01) (35, -6.43348813056945800781e-01) (36, -2.37526521086692810059e-01) (37, -5.98001539707183837891e-01) (38, -1.45748949050903320312e+00) (39, -6.07630252838134765625e-01) (40, -4.57329988479614257812e-01) (41, -1.34650373458862304688e+00) (42, -9.27871584892272949219e-01) (43, -5.66333651542663574219e-01) (44, -6.66052222251892089844e-01) (45, -6.23288869857788085938e-01) (46, 2.96013634651899337769e-02) (47, -1.10258388519287109375e+00) (48, -1.20270001888275146484e+00) (49, -4.75289940834045410156e-01) (50, -9.46274921298027038574e-02) (51, -1.18958461284637451172e+00) (52, -7.42690801620483398438e-01) (53, -1.09901928901672363281e+00) (54, -4.72238957881927490234e-01) (55, -4.21721071004867553711e-01) (56, -1.07974457740783691406e+00) (57, -5.79472362995147705078e-01) (58, -1.00115609169006347656e+00) (59, -6.00586891174316406250e-01) (60, -1.09865510463714599609e+00) (61, -6.73140645027160644531e-01) (62, -6.18165552616119384766e-01) (63, -5.17360508441925048828e-01) (64, -4.53674852848052978516e-01) (65, -8.96336972713470458984e-01) (66, -1.10419690608978271484e+00) (67, -5.51230430603027343750e-01) (68, -7.26589679718017578125e-01) (69, -8.97211015224456787109e-01) (70, -8.63533794879913330078e-01) (71, -7.94341862201690673828e-01) (72, -3.71700078248977661133e-01) (73, -5.85831463336944580078e-01) (74, -8.27499449253082275391e-01) (75, -3.54506939649581909180e-01) (76, -1.01598048210144042969e+00) (77, -6.82462036609649658203e-01) (78, -9.60850596427917480469e-01) (79, -4.12549167871475219727e-01) (80, -1.01991260051727294922e+00) (81, -7.17583298683166503906e-01) (82, -6.14583909511566162109e-01) (83, -8.65026772022247314453e-01) (84, -7.32581675052642822266e-01) (85, -4.97213453054428100586e-01) (86, -7.81981945037841796875e-01) (87, -1.20701146125793457031e+00) (88, -5.32128274440765380859e-01) (89, -5.40661692619323730469e-01) (90, -8.61272513866424560547e-01) (91, -7.25147426128387451172e-01) (92, -5.56471884250640869141e-01) (93, -6.32194399833679199219e-01) (94, -5.92268764972686767578e-01) (95, -4.18438583612442016602e-01) (96, -6.59048080444335937500e-01) (97, -8.30173850059509277344e-01) (98, -5.58930933475494384766e-01) (99, -6.44114494323730468750e-01) (100, 1.61783456802368164062e-01) (0, 1.63869589567184448242e-01) (1, -1.97401210665702819824e-01) (2, 4.05665546655654907227e-01) (3, 8.31085145473480224609e-02) (4, -5.37222027778625488281e-02) (5, 1.65076963603496551514e-02) (6, 4.24217879772186279297e-02) (7, -2.86905795335769653320e-01) (8, -5.57782240211963653564e-02) (9, -1.97437517344951629639e-02) (10, 2.99910217523574829102e-01) (11, 2.83558577299118041992e-01) (12, -1.73192232847213745117e-01) (13, 4.49166931211948394775e-02) (14, -2.77105942368507385254e-02) (15, -1.51418969035148620605e-01) (16, 1.47132441401481628418e-01) (17, 1.55603187158703804016e-02) (18, -2.83030956983566284180e-01) (19, 5.21549349650740623474e-03) (20, 1.84343710541725158691e-01) (21, -1.06543175876140594482e-01) (22, 1.42938494682312011719e-01) (23, -1.88332737889140844345e-03) (24, -5.10544180870056152344e-01) (25, 3.05667728185653686523e-01) (26, -2.56121426820755004883e-01) (27, 4.55586723983287811279e-02) (28, 1.62418745458126068115e-02) (29, 1.29415780305862426758e-01) (30, -3.65321546792984008789e-01) (31, 1.46922111511230468750e-01) (32, -2.55032002925872802734e-01) (33, -3.25251519680023193359e-02) (34, -6.16108365356922149658e-02) (35, -5.03770649433135986328e-01) (36, 5.29798567295074462891e-01) (37, 1.15985915064811706543e-01) (38, -9.01787638664245605469e-01) (39, -7.69702345132827758789e-03) (40, -1.09324276447296142578e-01) (41, -2.34800949692726135254e-01) (42, -1.23493298888206481934e-01) (43, 2.37187594175338745117e-01) (44, 4.08256463706493377686e-02) (45, -2.61483758687973022461e-01) (46, 1.76569178700447082520e-01) (47, -1.08000248670578002930e-01) (48, -2.78039902448654174805e-01) (49, -6.88292235136032104492e-02) (50, -1.91219046711921691895e-01) (51, 5.46099171042442321777e-02) (52, -2.94442236423492431641e-01) (53, -4.90100216120481491089e-03) (54, 7.27174654603004455566e-02) (55, -9.32862460613250732422e-02) (56, 1.77319109439849853516e-01) (57, -3.35476279258728027344e-01) (58, -8.12608450651168823242e-02) (59, -1.17930002510547637939e-01) (60, -8.30989107489585876465e-02) (61, 1.18029147386550903320e-01) (62, 3.02647441625595092773e-01) (63, 7.43067115545272827148e-02) (64, -5.90899661183357238770e-02) (65, 2.32354879379272460938e-01) (66, -1.41933694481849670410e-01) (67, -3.25529277324676513672e-02) (68, -1.74262989312410354614e-02) (69, 1.91180959343910217285e-01) (70, -4.71948146820068359375e-01) (71, -1.87681801617145538330e-02) (72, 4.27884995937347412109e-01) (73, 4.09581959247589111328e-01) (74, 5.51117211580276489258e-02) (75, -8.48327577114105224609e-02) (76, -1.77005201578140258789e-01) (77, -1.89993157982826232910e-01) (78, -2.87001848220825195312e-01) (79, -1.46515011787414550781e-01) (80, -3.27970236539840698242e-01) (81, 7.11188325658440589905e-03) (82, -1.41688019037246704102e-01) (83, -1.89528688788414001465e-01) (84, 1.01479247212409973145e-01) (85, -1.06538884341716766357e-01) (86, 2.19314634799957275391e-01) (87, -1.23535148799419403076e-01) (88, -2.70662866532802581787e-02) (89, 2.99645476043224334717e-02) (90, -1.14795759320259094238e-01) (91, -4.00989651679992675781e-02) (92, 1.26866489648818969727e-01) (93, -5.04133880138397216797e-01) (94, -1.67499601840972900391e-01) (95, -1.04892484843730926514e-01) (96, -1.03677138686180114746e-01) (97, 5.35617657005786895752e-02) (98, -2.95315295457839965820e-01) (99, 1.37517899274826049805e-01) (100, 4.16821390390396118164e-02) (0, -3.07397425174713134766e-01) (1, -3.14221739768981933594e-01) (2, -6.08601987361907958984e-01) (3, -1.68020144104957580566e-01) (4, -3.19421768188476562500e-01) (5, -2.45127797126770019531e-01) (6, -2.97778367996215820312e-01) (7, -1.11873477697372436523e-01) (8, -3.63091379404067993164e-01) (9, -4.17660892009735107422e-01) (10, -3.52006793022155761719e-01) (11, -3.19117099046707153320e-01) (12, -3.77835661172866821289e-01) (13, -1.17479175329208374023e-01) (14, -3.83086472749710083008e-01) (15, -4.14458066225051879883e-01) (16, -3.93267363309860229492e-01) (17, -1.79247617721557617188e-01) (18, -4.11023199558258056641e-01) (19, -4.17547643184661865234e-01) (20, -3.80274593830108642578e-01) (21, -6.77477940917015075684e-02) (22, -1.55541911721229553223e-01) (23, -1.75653368234634399414e-01) (24, -2.95571058988571166992e-01) (25, -8.33170264959335327148e-02) (26, -2.79834121465682983398e-01) (27, -4.20036166906356811523e-01) (28, -6.38105869293212890625e-02) (29, -4.08488303422927856445e-01) (30, -5.51021099090576171875e-01) (31, -4.17765974998474121094e-01) (32, -1.41335234045982360840e-01) (33, -4.71529990434646606445e-01) (34, -3.88174265623092651367e-01) (35, -1.55134677886962890625e-01) (36, -1.44937753677368164062e-01) (37, -2.61176824569702148438e-01) (38, -2.35151708126068115234e-01) (39, -1.39305904507637023926e-01) (40, -1.66195034980773925781e-01) (41, -3.46109092235565185547e-01) (42, -1.98500931262969970703e-01) (43, -1.31074175238609313965e-01) (44, -1.90087556838989257812e-01) (45, -1.78342819213867187500e-01) (46, -4.48562763631343841553e-02) (47, -5.00983774662017822266e-01) (48, -3.96214067935943603516e-01) (49, -1.28891661763191223145e-01) (50, 9.62169244885444641113e-02) (51, -3.32536488771438598633e-01) (52, -3.54862809181213378906e-01) (53, -5.50307571887969970703e-01) (54, -3.31443518400192260742e-01) (55, -3.66848111152648925781e-01) (56, -5.09281337261199951172e-01) (57, -3.52659702301025390625e-01) (58, -3.98002266883850097656e-01) (59, -3.35466921329498291016e-01) (60, -5.89425861835479736328e-01) (61, -2.17254802584648132324e-01) (62, -2.36575543880462646484e-01) (63, -1.53167217969894409180e-01) (64, -2.05089733004570007324e-01) (65, -3.15106987953186035156e-01) (66, -4.83798474073410034180e-01) (67, -3.63837659358978271484e-01) (68, -3.81641060113906860352e-01) (69, -3.14873844385147094727e-01) (70, -3.70004087686538696289e-01) (71, -3.50864052772521972656e-01) (72, -2.98742860555648803711e-01) (73, -3.06560844182968139648e-01) (74, -2.83638268709182739258e-01) (75, -8.52936506271362304688e-02) (76, -3.29740226268768310547e-01) (77, -1.86397105455398559570e-01) (78, -4.55656439065933227539e-01) (79, -2.48340621590614318848e-01) (80, -3.75255763530731201172e-01) (81, -3.91188174486160278320e-01) (82, -4.22107100486755371094e-01) (83, -3.28687667846679687500e-01) (84, -3.51448744535446166992e-01) (85, -4.20209795236587524414e-01) (86, -4.36068892478942871094e-01) (87, -4.28180336952209472656e-01) (88, -3.15188229084014892578e-01) (89, -3.10378074645996093750e-01) (90, -4.70645934343338012695e-01) (91, -3.69513392448425292969e-01) (92, -3.85884255170822143555e-01) (93, -4.09889906644821166992e-01) (94, -2.20817506313323974609e-01) (95, -3.42710167169570922852e-01) (96, -2.71559298038482666016e-01) (97, -3.86127322912216186523e-01) (98, -2.86225885152816772461e-01) (99, -3.52703869342803955078e-01) (100, -9.08061265945434570312e-02) (0, -1.04187190532684326172e+00) (1, -4.81981247663497924805e-01) (2, -1.49236392974853515625e+00) (3, -2.81233727931976318359e-01) (4, -6.70400917530059814453e-01) (5, -6.73171699047088623047e-01) (6, -1.20667636394500732422e+00) (7, -6.80207610130310058594e-01) (8, -1.17416226863861083984e+00) (9, -8.32751154899597167969e-01) (10, -7.26220130920410156250e-01) (11, -8.67915630340576171875e-01) (12, -6.88977062702178955078e-01) (13, -3.93611073493957519531e-01) (14, -6.08490347862243652344e-01) (15, -2.05886459350585937500e+00) (16, -7.49612271785736083984e-01) (17, -7.70502090454101562500e-01) (18, -1.14720189571380615234e+00) (19, -9.76336538791656494141e-01) (20, -5.65012335777282714844e-01) (21, -3.30279409885406494141e-01) (22, -5.18373787403106689453e-01) (23, -4.71570044755935668945e-01) (24, -1.11325573921203613281e+00) (25, -4.41581666469573974609e-01) (26, -6.80200636386871337891e-01) (27, -8.87472808361053466797e-01) (28, -3.11957508325576782227e-01) (29, -5.98303377628326416016e-01) (30, -2.49168705940246582031e+00) (31, -1.66637253761291503906e+00) (32, -4.10685718059539794922e-01) (33, -7.81099259853363037109e-01) (34, -8.61580491065979003906e-01) (35, -6.89816117286682128906e-01) (36, -5.33241093158721923828e-01) (37, -6.49088621139526367188e-01) (38, -1.88607537746429443359e+00) (39, -8.67779791355133056641e-01) (40, -5.04435300827026367188e-01) (41, -1.99802446365356445312e+00) (42, -1.33692395687103271484e+00) (43, -6.40761435031890869141e-01) (44, -7.92586505413055419922e-01) (45, -6.19589149951934814453e-01) (46, -2.28277087211608886719e-01) (47, -1.83314251899719238281e+00) (48, -1.53441393375396728516e+00) (49, -3.62446129322052001953e-01) (50, -3.19304823875427246094e-01) (51, -1.67464721202850341797e+00) (52, -8.36641669273376464844e-01) (53, -1.51741600036621093750e+00) (54, -6.61956191062927246094e-01) (55, -5.50296843051910400391e-01) (56, -1.89274871349334716797e+00) (57, -7.55209505558013916016e-01) (58, -1.81837189197540283203e+00) (59, -6.40388309955596923828e-01) (60, -1.92001974582672119141e+00) (61, -9.46223616600036621094e-01) (62, -9.60928022861480712891e-01) (63, -7.58353531360626220703e-01) (64, -4.25025403499603271484e-01) (65, -1.29720330238342285156e+00) (66, -1.15185880661010742188e+00) (67, -6.16893529891967773438e-01) (68, -1.15935492515563964844e+00) (69, -1.13962185382843017578e+00) (70, -9.59092319011688232422e-01) (71, -1.00419068336486816406e+00) (72, -6.53272926807403564453e-01) (73, -7.88424968719482421875e-01) (74, -1.27748656272888183594e+00) (75, -4.92719024419784545898e-01) (76, -1.23761558532714843750e+00) (77, -7.97496855258941650391e-01) (78, -1.26603448390960693359e+00) (79, -5.10468959808349609375e-01) (80, -1.40428793430328369141e+00) (81, -1.40829408168792724609e+00) (82, -8.56287956237792968750e-01) (83, -8.90292763710021972656e-01) (84, -7.26226627826690673828e-01) (85, -7.70037472248077392578e-01) (86, -8.70817661285400390625e-01) (87, -2.03263258934020996094e+00) (88, -7.81200408935546875000e-01) (89, -5.89243948459625244141e-01) (90, -1.60553538799285888672e+00) (91, -9.41934585571289062500e-01) (92, -6.93300485610961914062e-01) (93, -8.78237485885620117188e-01) (94, -5.60556590557098388672e-01) (95, -4.19077873229980468750e-01) (96, -7.66026616096496582031e-01) (97, -1.14587008953094482422e+00) (98, -7.02246367931365966797e-01) (99, -8.66576552391052246094e-01) (100, 7.58002996444702148438e-02) (0, -9.78696763515472412109e-01) (1, -6.78522050380706787109e-01) (2, -1.57035565376281738281e+00) (3, -5.66711068153381347656e-01) (4, -8.21413695812225341797e-01) (5, -7.81895339488983154297e-01) (6, -1.20216655731201171875e+00) (7, -7.54118800163269042969e-01) (8, -1.15963315963745117188e+00) (9, -8.08629393577575683594e-01) (10, -7.55567133426666259766e-01) (11, -1.13380467891693115234e+00) (12, -8.10849189758300781250e-01) (13, -4.54984217882156372070e-01) (14, -7.67640948295593261719e-01) (15, -2.12281441688537597656e+00) (16, -1.13124072551727294922e+00) (17, -8.95921111106872558594e-01) (18, -1.26529717445373535156e+00) (19, -1.09357237815856933594e+00) (20, -7.65096843242645263672e-01) (21, -3.72904181480407714844e-01) (22, -7.50986039638519287109e-01) (23, -6.04207396507263183594e-01) (24, -1.34072470664978027344e+00) (25, -4.22344267368316650391e-01) (26, -6.87994718551635742188e-01) (27, -9.81935143470764160156e-01) (28, -3.42388898134231567383e-01) (29, -7.47797667980194091797e-01) (30, -3.51098251342773437500e+00) (31, -1.69010913372039794922e+00) (32, -6.87283456325531005859e-01) (33, -8.30549120903015136719e-01) (34, -7.93382644653320312500e-01) (35, -8.07326376438140869141e-01) (36, -6.21767640113830566406e-01) (37, -8.62075448036193847656e-01) (38, -2.35945725440979003906e+00) (39, -8.67651343345642089844e-01) (40, -5.81364214420318603516e-01) (41, -2.36524629592895507812e+00) (42, -1.76398611068725585938e+00) (43, -7.29246079921722412109e-01) (44, -8.37024867534637451172e-01) (45, -9.23243880271911621094e-01) (46, -3.38255226612091064453e-01) (47, -2.14434313774108886719e+00) (48, -1.86436593532562255859e+00) (49, -5.27295410633087158203e-01) (50, -2.03793391585350036621e-01) (51, -1.98943531513214111328e+00) (52, -1.05608904361724853516e+00) (53, -1.70432353019714355469e+00) (54, -7.98037230968475341797e-01) (55, -5.85410535335540771484e-01) (56, -2.11161804199218750000e+00) (57, -7.31351792812347412109e-01) (58, -1.98923921585083007812e+00) (59, -6.61208271980285644531e-01) (60, -2.09118747711181640625e+00) (61, -1.16666293144226074219e+00) (62, -8.69679152965545654297e-01) (63, -6.95740878582000732422e-01) (64, -5.73684275150299072266e-01) (65, -1.38437306880950927734e+00) (66, -1.58984839916229248047e+00) (67, -6.82431817054748535156e-01) (68, -1.19844007492065429688e+00) (69, -1.30758082866668701172e+00) (70, -1.01573026180267333984e+00) (71, -9.85677242279052734375e-01) (72, -6.57887697219848632812e-01) (73, -6.96682631969451904297e-01) (74, -1.41001987457275390625e+00) (75, -4.31858927011489868164e-01) (76, -1.28785312175750732422e+00) (77, -8.23483467102050781250e-01) (78, -1.55198979377746582031e+00) (79, -8.03648293018341064453e-01) (80, -1.46473038196563720703e+00) (81, -1.50030350685119628906e+00) (82, -1.00763618946075439453e+00) (83, -1.23918640613555908203e+00) (84, -9.63551580905914306641e-01) (85, -6.98848009109497070312e-01) (86, -1.03237640857696533203e+00) (87, -2.01692938804626464844e+00) (88, -8.53672921657562255859e-01) (89, -7.12432384490966796875e-01) (90, -1.70031666755676269531e+00) (91, -1.18731260299682617188e+00) (92, -7.66878187656402587891e-01) (93, -8.31281661987304687500e-01) (94, -8.61090481281280517578e-01) (95, -6.54090940952301025391e-01) (96, -8.45916450023651123047e-01) (97, -1.15984010696411132812e+00) (98, -6.14138543605804443359e-01) (99, -8.07489454746246337891e-01) (100, -8.00731331110000610352e-02) (0, -1.09779644012451171875e+00) (1, -5.26035785675048828125e-01) (2, -1.24062156677246093750e+01) (3, -4.21962946653366088867e-01) (4, -8.69571447372436523438e-01) (5, -7.22180545330047607422e-01) (6, -1.17272794246673583984e+00) (7, -5.93437492847442626953e-01) (8, -1.07921636104583740234e+00) (9, -9.22598123550415039062e-01) (10, -6.89547419548034667969e-01) (11, -1.12172138690948486328e+00) (12, -9.06548976898193359375e-01) (13, -4.91752326488494873047e-01) (14, -9.06088173389434814453e-01) (15, -2.05414891242980957031e+00) (16, -9.62704658508300781250e-01) (17, -8.95306289196014404297e-01) (18, -1.09854197502136230469e+00) (19, -9.10731375217437744141e-01) (20, -6.96388483047485351562e-01) (21, -4.30981546640396118164e-01) (22, -5.18581748008728027344e-01) (23, -4.83765244483947753906e-01) (24, -1.10585391521453857422e+00) (25, -4.28829282522201538086e-01) (26, -6.60743415355682373047e-01) (27, -9.51586604118347167969e-01) (28, -3.25146049261093139648e-01) (29, -6.66234672069549560547e-01) (30, -2.92952752113342285156e+00) (31, -1.47953367233276367188e+00) (32, -5.79371631145477294922e-01) (33, -8.45364868640899658203e-01) (34, -8.14600944519042968750e-01) (35, -6.41144275665283203125e-01) (36, -4.14245337247848510742e-01) (37, -6.52378916740417480469e-01) (38, -1.98572611808776855469e+00) (39, -8.15267860889434814453e-01) (40, -5.75178503990173339844e-01) (41, -1.97574424743652343750e+00) (42, -1.59348833560943603516e+00) (43, -6.03012084960937500000e-01) (44, -6.69701397418975830078e-01) (45, -8.02386403083801269531e-01) (46, -3.71438086032867431641e-01) (47, -2.10770797729492187500e+00) (48, -1.75101292133331298828e+00) (49, -4.75918561220169067383e-01) (50, -2.95440971851348876953e-01) (51, -1.81972539424896240234e+00) (52, -9.65912103652954101562e-01) (53, -1.53998661041259765625e+00) (54, -7.87841796875000000000e-01) (55, -6.49261415004730224609e-01) (56, -1.92052555084228515625e+00) (57, -9.76829648017883300781e-01) (58, -1.84243834018707275391e+00) (59, -6.72570109367370605469e-01) (60, -1.93499207496643066406e+00) (61, -1.07903611660003662109e+00) (62, -8.18594992160797119141e-01) (63, -6.24777972698211669922e-01) (64, -6.05086386203765869141e-01) (65, -1.25143134593963623047e+00) (66, -1.45119249820709228516e+00) (67, -8.47871840000152587891e-01) (68, -1.09678006172180175781e+00) (69, -1.37467443943023681641e+00) (70, -1.00135493278503417969e+00) (71, -1.04274618625640869141e+00) (72, -6.63107275962829589844e-01) (73, -6.44747376441955566406e-01) (74, -1.18808186054229736328e+00) (75, -5.36855340003967285156e-01) (76, -1.27721488475799560547e+00) (77, -8.88851404190063476562e-01) (78, -1.40113246440887451172e+00) (79, -6.51634454727172851562e-01) (80, -1.32425713539123535156e+00) (81, -1.43978178501129150391e+00) (82, -8.44250321388244628906e-01) (83, -1.30414116382598876953e+00) (84, -1.01481974124908447266e+00) (85, -7.26595282554626464844e-01) (86, -1.05329704284667968750e+00) (87, -2.01508426666259765625e+00) (88, -7.60807394981384277344e-01) (89, -6.91074848175048828125e-01) (90, -1.51284623146057128906e+00) (91, -1.01741027832031250000e+00) (92, -7.76720464229583740234e-01) (93, -7.74531841278076171875e-01) (94, -7.95864999294281005859e-01) (95, -5.48183560371398925781e-01) (96, -6.90573871135711669922e-01) (97, -1.17339110374450683594e+00) (98, -7.24727690219879150391e-01) (99, -7.05342948436737060547e-01) (100, 3.33317555487155914307e-02) (0, -4.90734986960887908936e-02) (1, 3.67297674529254436493e-03) (2, -8.85702297091484069824e-02) (3, -9.84792336821556091309e-02) (4, 4.88778129220008850098e-02) (5, 4.37048710882663726807e-02) (6, -6.16919621825218200684e-02) (7, 2.03766189515590667725e-02) (8, -1.44608942791819572449e-02) (9, -1.46690458059310913086e-01) (10, -1.81894436478614807129e-01) (11, -8.01854059100151062012e-02) (12, -9.94569510221481323242e-02) (13, -1.43632009625434875488e-01) (14, -4.93027232587337493896e-02) (15, -3.98465655744075775146e-02) (16, -6.59866631031036376953e-02) (17, -7.89480209350585937500e-02) (18, 1.35978823527693748474e-02) (19, 8.72383043169975280762e-02) (20, 6.45567551255226135254e-02) (21, -1.39456972479820251465e-01) (22, -7.99876078963279724121e-02) (23, -1.38265430927276611328e-01) (24, -5.87167516350746154785e-02) (25, -1.96806285530328750610e-02) (26, 5.28679899871349334717e-02) (27, -4.44330386817455291748e-02) (28, -1.89469516277313232422e-01) (29, 2.96971146017313003540e-02) (30, -1.08362026512622833252e-01) (31, -1.03340387344360351562e-01) (32, -1.01030804216861724854e-01) (33, -1.41213566064834594727e-01) (34, -6.11226586624979972839e-03) (35, 2.72334590554237365723e-02) (36, 5.27282841503620147705e-02) (37, -1.58414170145988464355e-01) (38, -4.90007549524307250977e-03) (39, -5.07723800837993621826e-02) (40, -6.30713114514946937561e-03) (41, 7.20918625593185424805e-02) (42, 5.02737648785114288330e-02) (43, -1.15209378302097320557e-01) (44, -4.64696623384952545166e-02) (45, 5.27393911033868789673e-03) (46, -3.55807989835739135742e-02) (47, -3.13355550169944763184e-02) (48, -1.27234816551208496094e-01) (49, 5.93508034944534301758e-02) (50, -8.04805532097816467285e-02) (51, -1.40139937400817871094e-01) (52, -4.27313819527626037598e-02) (53, -1.40880271792411804199e-01) (54, 2.26101279258728027344e-03) (55, -1.01232625544071197510e-01) (56, 7.88371637463569641113e-02) (57, -2.89254933595657348633e-02) (58, 1.13267056643962860107e-01) (59, -1.39298930764198303223e-01) (60, -1.12861156463623046875e-01) (61, 8.94807055592536926270e-02) (62, 2.06021293997764587402e-02) (63, -1.67787790298461914062e-01) (64, -1.48365795612335205078e-01) (65, -1.38416379690170288086e-01) (66, -7.60830789804458618164e-02) (67, -1.95072576403617858887e-01) (68, -7.31416642665863037109e-02) (69, -4.54739667475223541260e-02) (70, 8.65680277347564697266e-02) (71, 8.77984613180160522461e-02) (72, -1.65047600865364074707e-01) (73, 2.58972551673650741577e-02) (74, -8.61565619707107543945e-02) (75, 2.52941884100437164307e-02) (76, -6.43705353140830993652e-02) (77, -1.35603964328765869141e-01) (78, 2.43943464010953903198e-02) (79, -2.66551170498132705688e-02) (80, -6.30080997943878173828e-02) (81, -1.30340754985809326172e-01) (82, -1.38328194618225097656e-01) (83, -9.81457233428955078125e-02) (84, -1.01047195494174957275e-01) (85, 2.13336292654275894165e-02) (86, -1.34950324892997741699e-01) (87, -1.76982898265123367310e-02) (88, -1.54097184538841247559e-01) (89, -6.93853050470352172852e-02) (90, 6.24723471701145172119e-02) (91, 1.49449910968542098999e-02) (92, 1.03586968034505844116e-02) (93, -7.27780610322952270508e-02) (94, -1.84113487601280212402e-01) (95, -5.25543540716171264648e-02) (96, -1.45748138427734375000e-01) (97, -1.18697114288806915283e-01) (98, -9.07422676682472229004e-02) (99, -1.31727710366249084473e-01) (100, -3.58538448810577392578e-01) (0, -1.07483887672424316406e+00) (1, -7.41846799850463867188e-01) (2, -1.33416357040405273438e+01) (3, -4.71160262823104858398e-01) (4, -8.47574114799499511719e-01) (5, -8.77687692642211914062e-01) (6, -1.12327802181243896484e+00) (7, -5.83500862121582031250e-01) (8, -9.19471204280853271484e-01) (9, -8.23414385318756103516e-01) (10, -6.98246002197265625000e-01) (11, -9.62404191493988037109e-01) (12, -7.32165277004241943359e-01) (13, -4.23011958599090576172e-01) (14, -6.42989397048950195312e-01) (15, -1.95766377449035644531e+00) (16, -1.09621226787567138672e+00) (17, -6.33323371410369873047e-01) (18, -1.08336699008941650391e+00) (19, -8.70294392108917236328e-01) (20, -5.49215614795684814453e-01) (21, -4.89766597747802734375e-01) (22, -6.82454347610473632812e-01) (23, -6.28329634666442871094e-01) (24, -9.49873983860015869141e-01) (25, -3.46507012844085693359e-01) (26, -6.69351816177368164062e-01) (27, -8.84761214256286621094e-01) (28, -1.56211152672767639160e-01) (29, -7.03720629215240478516e-01) (30, -2.67319893836975097656e+00) (31, -1.58759641647338867188e+00) (32, -5.45636117458343505859e-01) (33, -8.98799300193786621094e-01) (34, -6.85270607471466064453e-01) (35, -5.36496102809906005859e-01) (36, -4.45162922143936157227e-01) (37, -6.86406552791595458984e-01) (38, -1.85645115375518798828e+00) (39, -6.64690136909484863281e-01) (40, -3.61164450645446777344e-01) (41, -1.76455295085906982422e+00) (42, -1.31896770000457763672e+00) (43, -5.68953335285186767578e-01) (44, -8.53153645992279052734e-01) (45, -8.56370627880096435547e-01) (46, -1.95023193955421447754e-01) (47, -1.94469952583312988281e+00) (48, -1.46080887317657470703e+00) (49, -5.87607860565185546875e-01) (50, -3.71307760477066040039e-01) (51, -1.85457849502563476562e+00) (52, -8.23311507701873779297e-01) (53, -1.44701182842254638672e+00) (54, -7.36735701560974121094e-01) (55, -5.09139001369476318359e-01) (56, -1.75102615356445312500e+00) (57, -7.72436857223510742188e-01) (58, -1.66428852081298828125e+00) (59, -6.63994193077087402344e-01) (60, -1.79997992515563964844e+00) (61, -8.85950267314910888672e-01) (62, -7.22105085849761962891e-01) (63, -7.01986074447631835938e-01) (64, -4.93964582681655883789e-01) (65, -1.29303205013275146484e+00) (66, -1.46412277221679687500e+00) (67, -6.99850440025329589844e-01) (68, -9.24218237400054931641e-01) (69, -1.16795194149017333984e+00) (70, -8.41472148895263671875e-01) (71, -1.03860998153686523438e+00) (72, -5.21609902381896972656e-01) (73, -6.51155471801757812500e-01) (74, -1.06454908847808837891e+00) (75, -3.61059784889221191406e-01) (76, -1.26612925529479980469e+00) (77, -6.37887597084045410156e-01) (78, -1.30619120597839355469e+00) (79, -7.08741307258605957031e-01) (80, -1.39383935928344726562e+00) (81, -1.36479127407073974609e+00) (82, -8.91786932945251464844e-01) (83, -9.80676293373107910156e-01) (84, -9.22676146030426025391e-01) (85, -7.38300502300262451172e-01) (86, -9.00398015975952148438e-01) (87, -1.70919287204742431641e+00) (88, -6.47433042526245117188e-01) (89, -6.70512974262237548828e-01) (90, -1.45520436763763427734e+00) (91, -8.73695611953735351562e-01) (92, -7.56507635116577148438e-01) (93, -8.35323989391326904297e-01) (94, -7.94056415557861328125e-01) (95, -6.23311519622802734375e-01) (96, -7.63722479343414306641e-01) (97, -9.59041237831115722656e-01) (98, -6.16231977939605712891e-01) (99, -8.41479003429412841797e-01) (100, -2.19690352678298950195e-01) (0, -1.64309352636337280273e-01) (1, -2.60002911090850830078e-01) (2, 1.40528589487075805664e-01) (3, -2.82492246478796005249e-02) (4, -2.96175658702850341797e-01) (5, 4.87414300441741943359e-02) (6, 1.63437932729721069336e-01) (7, -1.79206894244998693466e-03) (8, -6.37033134698867797852e-02) (9, -1.62932887673377990723e-01) (10, 2.57780905812978744507e-02) (11, -7.81175866723060607910e-02) (12, -9.70235690474510192871e-02) (13, -2.74492591619491577148e-01) (14, -2.49231755733489990234e-01) (15, -1.00196793675422668457e-01) (16, -1.52471885085105895996e-01) (17, -2.21491038799285888672e-01) (18, -4.40109282732009887695e-01) (19, 7.03416243195533752441e-02) (20, -8.29837247729301452637e-02) (21, -3.98448348045349121094e-01) (22, -1.50133529677987098694e-02) (23, -2.18858674168586730957e-01) (24, -3.74970108270645141602e-01) (25, -2.38465815782546997070e-02) (26, -2.62478888034820556641e-01) (27, 1.48112245369702577591e-03) (28, -2.50989854335784912109e-01) (29, -1.59030422568321228027e-01) (30, -2.90575087070465087891e-01) (31, -3.68132367730140686035e-02) (32, -2.87788540124893188477e-01) (33, 5.90114481747150421143e-03) (34, -3.42191547155380249023e-01) (35, -1.85077786445617675781e-01) (36, -1.16642937064170837402e-01) (37, -6.34080171585083007812e-02) (38, -4.66120183467864990234e-01) (39, -8.96655768156051635742e-02) (40, -3.98960381746292114258e-01) (41, -7.37523213028907775879e-02) (42, 7.72175118327140808105e-02) (43, -1.50047183036804199219e-01) (44, -2.87449777126312255859e-01) (45, -4.29227054119110107422e-01) (46, -2.12799370288848876953e-01) (47, -1.62223167717456817627e-02) (48, -2.74688392877578735352e-01) (49, -1.93602681159973144531e-01) (50, -1.83838292956352233887e-01) (51, -2.09307417273521423340e-01) (52, -3.56947302818298339844e-01) (53, -2.44816411286592483521e-02) (54, 5.79948024824261665344e-03) (55, -1.08491055667400360107e-01) (56, 4.84809614717960357666e-02) (57, -2.82857626676559448242e-01) (58, 2.62374095618724822998e-02) (59, -2.52917349338531494141e-01) (60, -1.34257301688194274902e-01) (61, -8.76348167657852172852e-02) (62, 1.20173729956150054932e-01) (63, -2.34070882201194763184e-01) (64, -2.29354679584503173828e-01) (65, 8.45473259687423706055e-02) (66, -3.13921600580215454102e-01) (67, -3.44645008444786071777e-02) (68, -5.42728453874588012695e-02) (69, -1.91515713930130004883e-01) (70, -4.40609365701675415039e-01) (71, 6.46338090300559997559e-02) (72, -9.73054096102714538574e-02) (73, 2.00416687875986099243e-02) (74, -1.65981337428092956543e-01) (75, -2.89673000574111938477e-01) (76, -2.17569872736930847168e-01) (77, -3.97364020347595214844e-01) (78, -3.44944447278976440430e-02) (79, 1.78648922592401504517e-02) (80, -1.62394270300865173340e-01) (81, -7.59742930531501770020e-02) (82, -1.48243308067321777344e-01) (83, -2.46645823121070861816e-01) (84, -1.02543443441390991211e-01) (85, -2.86450386047363281250e-01) (86, -8.47798660397529602051e-02) (87, 9.61027387529611587524e-03) (88, 2.58196145296096801758e-02) (89, -2.70915448665618896484e-01) (90, -3.62322740256786346436e-02) (91, -3.33405323326587677002e-02) (92, -7.12066963315010070801e-02) (93, 1.28310173749923706055e-02) (94, -1.84192553162574768066e-01) (95, -2.04481214284896850586e-01) (96, -1.16882309317588806152e-01) (97, 1.51142179965972900391e-01) (98, -5.08540093898773193359e-01) (99, 8.15933570265769958496e-02) (100, -8.23456514626741409302e-03) (0, -6.89547598361968994141e-01) (1, -6.40213847160339355469e-01) (2, -8.87229919433593750000e-01) (3, -3.37943345308303833008e-01) (4, -8.65864038467407226562e-01) (5, -7.64136493206024169922e-01) (6, -9.62686121463775634766e-01) (7, -4.50618445873260498047e-01) (8, -9.03549849987030029297e-01) (9, -7.02845454216003417969e-01) (10, -6.86410665512084960938e-01) (11, -8.77877891063690185547e-01) (12, -6.12030267715454101562e-01) (13, -3.84592056274414062500e-01) (14, -8.49268913269042968750e-01) (15, -1.54068493843078613281e+00) (16, -8.84502470493316650391e-01) (17, -5.96098661422729492188e-01) (18, -9.70715463161468505859e-01) (19, -5.54413557052612304688e-01) (20, -6.73375189304351806641e-01) (21, -4.60134685039520263672e-01) (22, -6.84597492218017578125e-01) (23, -3.73102754354476928711e-01) (24, -9.00181591510772705078e-01) (25, -2.97305941581726074219e-01) (26, -4.24264192581176757812e-01) (27, -7.56976902484893798828e-01) (28, -2.20576092600822448730e-01) (29, -6.13048732280731201172e-01) (30, -2.29322171211242675781e+00) (31, -1.17823541164398193359e+00) (32, -4.13192421197891235352e-01) (33, -8.21223855018615722656e-01) (34, -8.76782357692718505859e-01) (35, -6.03170931339263916016e-01) (36, -4.15387451648712158203e-01) (37, -5.36053001880645751953e-01) (38, -2.53351092338562011719e+00) (39, -7.79608249664306640625e-01) (40, -3.50294351577758789062e-01) (41, -1.74078071117401123047e+00) (42, -9.55817878246307373047e-01) (43, -6.05543017387390136719e-01) (44, -6.61001861095428466797e-01) (45, -7.31804311275482177734e-01) (46, -2.53289133310317993164e-01) (47, -1.54503536224365234375e+00) (48, -1.46218109130859375000e+00) (49, -4.97675567865371704102e-01) (50, -3.09510409832000732422e-01) (51, -1.67776381969451904297e+00) (52, -7.18193173408508300781e-01) (53, -1.20840132236480712891e+00) (54, -5.99984884262084960938e-01) (55, -4.55975234508514404297e-01) (56, -1.22253108024597167969e+00) (57, -6.94813311100006103516e-01) (58, -1.15049171447753906250e+00) (59, -5.55159866809844970703e-01) (60, -1.68393158912658691406e+00) (61, -7.72890269756317138672e-01) (62, -7.80094861984252929688e-01) (63, -5.66689133644104003906e-01) (64, -4.42632377147674560547e-01) (65, -9.71573948860168457031e-01) (66, -1.03173911571502685547e+00) (67, -7.28602528572082519531e-01) (68, -8.82821023464202880859e-01) (69, -7.61002659797668457031e-01) (70, -8.02967488765716552734e-01) (71, -8.97526919841766357422e-01) (72, -5.49064636230468750000e-01) (73, -4.65933889150619506836e-01) (74, -9.50630426406860351562e-01) (75, -4.08627480268478393555e-01) (76, -1.09002077579498291016e+00) (77, -6.06880486011505126953e-01) (78, -1.06061422824859619141e+00) (79, -5.29934644699096679688e-01) (80, -1.10791039466857910156e+00) (81, -1.09652173519134521484e+00) (82, -8.60336184501647949219e-01) (83, -9.39166069030761718750e-01) (84, -6.51650607585906982422e-01) (85, -7.32935965061187744141e-01) (86, -6.76169037818908691406e-01) (87, -1.52793908119201660156e+00) (88, -4.69611823558807373047e-01) (89, -5.55698573589324951172e-01) (90, -1.15188789367675781250e+00) (91, -8.28578889369964599609e-01) (92, -6.78461492061614990234e-01) (93, -8.52820515632629394531e-01) (94, -5.92368900775909423828e-01) (95, -6.13920092582702636719e-01) (96, -8.16949546337127685547e-01) (97, -6.85319185256958007812e-01) (98, -7.19355106353759765625e-01) (99, -6.50063753128051757812e-01) (100, -1.59959986805915832520e-01) (0, 2.36346483230590820312e-01) (1, -6.31756857037544250488e-02) (2, 3.13146598637104034424e-02) (3, -1.12163357436656951904e-01) (4, -8.22586789727210998535e-02) (5, 1.23599320650100708008e-01) (6, -5.10743446648120880127e-03) (7, 4.96055372059345245361e-02) (8, 1.10956341028213500977e-01) (9, 6.04804791510105133057e-02) (10, 3.39794009923934936523e-02) (11, 1.62662371993064880371e-01) (12, -5.34899113699793815613e-03) (13, 4.06079068779945373535e-02) (14, 5.20154386758804321289e-02) (15, 5.14653883874416351318e-02) (16, -6.93475157022476196289e-02) (17, 2.22796306014060974121e-01) (18, -1.52385041117668151855e-01) (19, -4.98120076954364776611e-02) (20, 4.43912558257579803467e-02) (21, -4.87263500690460205078e-02) (22, -1.14045599475502967834e-02) (23, -7.23073408007621765137e-02) (24, -1.24333284795284271240e-01) (25, -4.49758917093276977539e-02) (26, 6.80433362722396850586e-02) (27, 1.61459818482398986816e-01) (28, -1.73054575920104980469e-01) (29, -2.35650613903999328613e-01) (30, 8.79136994481086730957e-02) (31, 2.47622326016426086426e-01) (32, -7.45849609375000000000e-02) (33, -7.98710659146308898926e-02) (34, -1.29390120506286621094e-01) (35, -6.44008517265319824219e-02) (36, -6.93650171160697937012e-02) (37, -1.13061651587486267090e-01) (38, -2.23070919513702392578e-01) (39, -1.15692215040326118469e-02) (40, -5.28150461614131927490e-02) (41, 8.85455086827278137207e-02) (42, -4.85904291272163391113e-02) (43, -1.21098719537258148193e-02) (44, -1.39080341905355453491e-02) (45, -1.22440695762634277344e-01) (46, 1.38081803917884826660e-01) (47, 6.26006498932838439941e-02) (48, 1.59090444445610046387e-01) (49, -5.50650730729103088379e-02) (50, 2.58961077779531478882e-02) (51, 1.32788062095642089844e-01) (52, -7.97246545553207397461e-02) (53, 1.44335150718688964844e-01) (54, 5.23596182465553283691e-02) (55, -4.87511232495307922363e-02) (56, -1.03341273963451385498e-01) (57, -2.09714218974113464355e-01) (58, -1.52721017599105834961e-01) (59, -4.20639477670192718506e-02) (60, 1.09132528305053710938e-01) (61, 8.32705050706863403320e-02) (62, 1.75107702612876892090e-01) (63, 6.31960760802030563354e-03) (64, -2.79603123664855957031e-01) (65, 1.74398958683013916016e-01) (66, 1.30019918084144592285e-01) (67, 2.05358535051345825195e-01) (68, -5.90181984007358551025e-02) (69, -1.34306699037551879883e-01) (70, -4.05370257794857025146e-02) (71, 5.20616769790649414062e-02) (72, -1.62998750805854797363e-01) (73, 4.52164225280284881592e-02) (74, 1.64579689502716064453e-01) (75, 5.05359955132007598877e-02) (76, 8.81537497043609619141e-02) (77, -2.82437782734632492065e-02) (78, -1.54693452641367912292e-02) (79, 6.65435045957565307617e-02) (80, 9.12135317921638488770e-02) (81, -8.34798887372016906738e-02) (82, 9.85405817627906799316e-02) (83, -4.08791489899158477783e-02) (84, 5.29289245605468750000e-02) (85, -1.44329562783241271973e-01) (86, -1.86565950512886047363e-01) (87, -1.26117974519729614258e-01) (88, 1.19862027466297149658e-01) (89, 1.37574840337038040161e-02) (90, 3.00433784723281860352e-01) (91, -8.87740328907966613770e-02) (92, 1.39864251017570495605e-01) (93, 2.97423154115676879883e-01) (94, 1.39661014080047607422e-01) (95, 1.50159865617752075195e-01) (96, -3.26924249529838562012e-02) (97, 1.96722820401191711426e-01) (98, -5.44311217963695526123e-02) (99, 1.24776236712932586670e-01) (100, 2.06987932324409484863e-01) (0, -2.31414977461099624634e-02) (1, -2.66709744930267333984e-01) (2, 2.93961316347122192383e-01) (3, -1.55691623687744140625e-01) (4, -1.05373755097389221191e-01) (5, -6.78030997514724731445e-02) (6, 4.53854016959667205811e-02) (7, -1.82060077786445617676e-02) (8, -3.19703482091426849365e-02) (9, 4.29628938436508178711e-02) (10, -2.14782953262329101562e-02) (11, -1.14146303385496139526e-02) (12, -2.07448661327362060547e-01) (13, -2.25731894373893737793e-01) (14, -4.86014969646930694580e-02) (15, 8.38893577456474304199e-02) (16, -6.79561719298362731934e-02) (17, -9.80579107999801635742e-02) (18, -2.71692425012588500977e-01) (19, 3.38301695883274078369e-02) (20, 1.93582400679588317871e-01) (21, -1.52670592069625854492e-01) (22, 4.80570539366453886032e-04) (23, -2.96611357480287551880e-02) (24, -4.51118573546409606934e-02) (25, 1.28003489226102828979e-02) (26, -1.78460955619812011719e-01) (27, -4.70071062445640563965e-02) (28, -2.43658602237701416016e-01) (29, -1.04715399444103240967e-01) (30, -4.92759719491004943848e-02) (31, 2.00091257691383361816e-01) (32, -2.10183039307594299316e-01) (33, 5.27415126562118530273e-02) (34, -2.82311022281646728516e-01) (35, -3.03216785192489624023e-01) (36, -6.09212890267372131348e-02) (37, -6.82945596054196357727e-03) (38, -4.23239201307296752930e-01) (39, 3.31531353294849395752e-02) (40, -3.58648687601089477539e-01) (41, -1.16971172392368316650e-01) (42, -1.19713051244616508484e-02) (43, -1.81364104151725769043e-01) (44, -2.16204658150672912598e-01) (45, -2.46702447533607482910e-01) (46, -4.08518947660923004150e-02) (47, -5.39190769195556640625e-02) (48, -6.05111159384250640869e-02) (49, -2.04581514000892639160e-01) (50, -2.54678666591644287109e-01) (51, -7.09270760416984558105e-02) (52, -1.51482969522476196289e-01) (53, 2.32803046703338623047e-01) (54, 1.94582268595695495605e-01) (55, 2.45738085359334945679e-02) (56, 1.91531881690025329590e-01) (57, -1.04894310235977172852e-01) (58, 2.03956753015518188477e-01) (59, -9.16562825441360473633e-02) (60, 3.69151532649993896484e-02) (61, -1.30565121769905090332e-01) (62, 8.13809931278228759766e-02) (63, -1.66571334004402160645e-01) (64, -1.26295432448387145996e-01) (65, 4.11418974399566650391e-02) (66, 1.98892932385206222534e-02) (67, -4.33302633464336395264e-02) (68, -4.64781783521175384521e-02) (69, -6.00124746561050415039e-02) (70, -2.51232832670211791992e-01) (71, -1.20284920558333396912e-02) (72, -3.30101884901523590088e-02) (73, -4.82697449624538421631e-02) (74, -1.55188575387001037598e-01) (75, -1.77584186196327209473e-01) (76, -1.76575873047113418579e-03) (77, -4.33494329452514648438e-01) (78, 3.63185331225395202637e-02) (79, -5.15479184687137603760e-02) (80, -1.98386266827583312988e-01) (81, -8.74117165803909301758e-02) (82, -1.07520192861557006836e-01) (83, -6.36728256940841674805e-02) (84, 1.22036281973123550415e-02) (85, -2.31137260794639587402e-01) (86, -1.77804920822381973267e-02) (87, 1.68767552822828292847e-02) (88, -1.16107620298862457275e-01) (89, -1.51247143745422363281e-01) (90, 1.11534714698791503906e-01) (91, 1.55387818813323974609e-02) (92, 3.19718196988105773926e-02) (93, -1.72316469252109527588e-02) (94, -9.70080792903900146484e-02) (95, 4.49604690074920654297e-02) (96, -6.62275776267051696777e-02) (97, 1.53016477823257446289e-01) (98, -3.58406126499176025391e-01) (99, 1.03818744421005249023e-01) (100, 1.07366822659969329834e-01) (0, -4.60355589166283607483e-03) (1, -5.83136975765228271484e-01) (2, 7.49826356768608093262e-02) (3, -1.68585464358329772949e-01) (4, -1.34670123457908630371e-01) (5, -3.63534167408943176270e-02) (6, 7.64958634972572326660e-02) (7, 1.18767671287059783936e-01) (8, 6.86041191220283508301e-02) (9, -3.56046706438064575195e-02) (10, -1.17985844612121582031e-01) (11, 4.33410741388797760010e-02) (12, 1.03429600596427917480e-01) (13, -1.96101590991020202637e-01) (14, -1.89357936382293701172e-01) (15, 1.42102047801017761230e-01) (16, -7.42732807993888854980e-02) (17, -3.41480523347854614258e-02) (18, -8.11297595500946044922e-02) (19, -1.22066913172602653503e-02) (20, -2.76538543403148651123e-02) (21, -6.26838445663452148438e-01) (22, 8.54071602225303649902e-02) (23, -4.02758494019508361816e-02) (24, 4.71309013664722442627e-02) (25, -1.48079425096511840820e-01) (26, -2.75642331689596176147e-02) (27, 1.72393888235092163086e-01) (28, 8.97311232984066009521e-03) (29, -3.04536260664463043213e-02) (30, -1.62278383970260620117e-01) (31, 8.57912227511405944824e-02) (32, -9.62630212306976318359e-02) (33, -6.46351724863052368164e-02) (34, 1.92707311362028121948e-02) (35, -2.98257097601890563965e-02) (36, -2.03616973012685775757e-02) (37, -4.22201640903949737549e-02) (38, 1.00298626348376274109e-02) (39, -1.06873244047164916992e-01) (40, 2.39363368600606918335e-02) (41, 1.03580027818679809570e-01) (42, 4.78325970470905303955e-02) (43, 4.26286846399307250977e-01) (44, -6.87063708901405334473e-02) (45, -1.72036871314048767090e-01) (46, -5.24747818708419799805e-02) (47, -2.13407166302204132080e-02) (48, -3.23422253131866455078e-02) (49, -5.69416768848896026611e-02) (50, -3.45228910446166992188e-01) (51, 1.01746939122676849365e-01) (52, -1.89630627632141113281e-01) (53, 1.04939512908458709717e-01) (54, -1.18370361626148223877e-01) (55, -2.89018809795379638672e-01) (56, 1.67783603072166442871e-01) (57, -1.36412009596824645996e-01) (58, 4.67501990497112274170e-02) (59, -2.50086128711700439453e-01) (60, -1.86203822493553161621e-01) (61, -6.39826729893684387207e-02) (62, 7.08913151174783706665e-03) (63, 6.35710433125495910645e-02) (64, 2.37362477928400039673e-02) (65, 2.08616539835929870605e-01) (66, -1.69800519943237304688e-01) (67, 6.01015575230121612549e-02) (68, -1.67852118611335754395e-01) (69, -2.81345807015895843506e-02) (70, -1.84955611824989318848e-01) (71, -2.92304344475269317627e-02) (72, 4.73797649145126342773e-01) (73, 1.08220569789409637451e-01) (74, -7.99322649836540222168e-02) (75, 1.82999949902296066284e-02) (76, -2.28527903556823730469e-01) (77, -1.22964464128017425537e-01) (78, -4.80343885719776153564e-02) (79, 1.30835250020027160645e-02) (80, -1.84722229838371276855e-01) (81, 1.50551810860633850098e-01) (82, -1.38080254197120666504e-01) (83, 3.49043086171150207520e-02) (84, 9.95724871754646301270e-02) (85, -1.47820234298706054688e-01) (86, 1.67453855276107788086e-01) (87, 9.42956134676933288574e-02) (88, -1.70106813311576843262e-02) (89, -2.27159157395362854004e-01) (90, 2.05883547663688659668e-01) (91, -1.73123598098754882812e-01) (92, 1.89251452684402465820e-01) (93, -1.50514051318168640137e-01) (94, -1.05960704386234283447e-01) (95, 2.57282517850399017334e-02) (96, 1.47139597684144973755e-02) (97, 6.45592808723449707031e-02) (98, -5.00798523426055908203e-01) (99, 3.85513831861317157745e-03) (100, -1.31475478410720825195e-01) (0, -1.70162245631217956543e-01) (1, -3.20404201745986938477e-01) (2, -4.62065130472183227539e-01) (3, -2.50581502914428710938e-01) (4, -2.65997111797332763672e-01) (5, -1.78789004683494567871e-01) (6, -2.91693300008773803711e-01) (7, -1.92342042922973632812e-01) (8, -2.73865073919296264648e-01) (9, -2.43778198957443237305e-01) (10, -1.60681053996086120605e-01) (11, -3.54448407888412475586e-01) (12, -3.60580503940582275391e-01) (13, -5.44594585895538330078e-01) (14, -1.72992527484893798828e-01) (15, -3.36163341999053955078e-01) (16, -3.50066781044006347656e-01) (17, -4.02657479047775268555e-01) (18, -5.25512218475341796875e-01) (19, -1.62766158580780029297e-01) (20, -2.05637887120246887207e-01) (21, -4.79654252529144287109e-01) (22, -2.66216427087783813477e-01) (23, -4.28961932659149169922e-01) (24, -2.49146610498428344727e-01) (25, -1.17968425154685974121e-01) (26, -2.79979199171066284180e-01) (27, -1.31594762206077575684e-01) (28, -4.67050999402999877930e-01) (29, -3.68770450353622436523e-01) (30, -3.42444479465484619141e-01) (31, -3.93521577119827270508e-01) (32, -4.08173441886901855469e-01) (33, -2.81105488538742065430e-01) (34, -4.41716343164443969727e-01) (35, -1.47847846150398254395e-01) (36, -3.42522561550140380859e-01) (37, -4.22234594821929931641e-01) (38, -2.38818481564521789551e-01) (39, -2.77101308107376098633e-01) (40, -2.13944539427757263184e-01) (41, -1.68841123580932617188e-01) (42, -1.59299597144126892090e-01) (43, -2.14243724942207336426e-01) (44, -2.25005969405174255371e-01) (45, -2.05859512090682983398e-01) (46, -4.47722613811492919922e-01) (47, -1.73413470387458801270e-01) (48, -1.62982881069183349609e-01) (49, -1.33745312690734863281e-01) (50, -2.54871249198913574219e-01) (51, -1.99936687946319580078e-01) (52, -3.54880422353744506836e-01) (53, -4.49834167957305908203e-01) (54, -2.81117171049118041992e-01) (55, -4.41623866558074951172e-01) (56, -3.23595225811004638672e-01) (57, -4.98887479305267333984e-01) (58, -1.94069445133209228516e-01) (59, -2.04874783754348754883e-01) (60, -2.18987807631492614746e-01) (61, -3.39218556880950927734e-01) (62, -1.20834320783615112305e-01) (63, -2.61545330286026000977e-01) (64, -4.03640896081924438477e-01) (65, -4.38377171754837036133e-01) (66, -3.89277845621109008789e-01) (67, -3.44947874546051025391e-01) (68, -3.09057831764221191406e-01) (69, -9.59941595792770385742e-02) (70, -5.08201777935028076172e-01) (71, -2.41458103060722351074e-01) (72, -2.23807021975517272949e-01) (73, -1.38390108942985534668e-01) (74, -3.59609335660934448242e-01) (75, -8.37795734405517578125e-02) (76, -1.52572244405746459961e-01) (77, -3.41283351182937622070e-01) (78, -2.19019174575805664062e-01) (79, -1.74038991332054138184e-01) (80, -5.13744473457336425781e-01) (81, -7.28941261768341064453e-02) (82, -3.12992781400680541992e-01) (83, -2.83217132091522216797e-01) (84, -3.33141207695007324219e-01) (85, -3.44388842582702636719e-01) (86, -1.56524822115898132324e-01) (87, -2.76210457086563110352e-01) (88, -3.93452316522598266602e-01) (89, -1.57911717891693115234e-01) (90, -2.65935957431793212891e-01) (91, -1.89207866787910461426e-01) (92, -9.18895229697227478027e-02) (93, -2.53141522407531738281e-01) (94, -3.61200451850891113281e-01) (95, -1.94615706801414489746e-01) (96, -3.85170459747314453125e-01) (97, -1.15327358245849609375e-01) (98, -2.62210458517074584961e-01) (99, -1.69769659638404846191e-01) (100, -2.67570465803146362305e-01) (0, -1.86750680208206176758e-01) (1, -1.64439946413040161133e-01) (2, -2.14173361659049987793e-01) (3, -1.39427911490201950073e-02) (4, -3.45063328742980957031e-01) (5, -1.88782855868339538574e-01) (6, -2.69985139369964599609e-01) (7, -9.81552302837371826172e-02) (8, -3.19906890392303466797e-01) (9, -3.45064342021942138672e-01) (10, -4.44705300033092498779e-02) (11, -3.39341938495635986328e-01) (12, -2.15946391224861145020e-01) (13, -1.41459777951240539551e-01) (14, -3.42963397502899169922e-01) (15, -4.28816735744476318359e-01) (16, -3.06757599115371704102e-01) (17, -2.92134642601013183594e-01) (18, -7.41874217987060546875e-01) (19, -1.95787534117698669434e-01) (20, -9.55541953444480895996e-02) (21, -1.16794057190418243408e-01) (22, -6.96227028965950012207e-02) (23, -1.77843589335680007935e-02) (24, -8.75428259372711181641e-01) (25, -1.37229664251208305359e-02) (26, -2.79933661222457885742e-01) (27, -2.01417610049247741699e-01) (28, 2.08179615437984466553e-02) (29, -1.18025921285152435303e-01) (30, -1.01852834224700927734e+00) (31, -1.17625616490840911865e-01) (32, -1.17485672235488891602e-01) (33, -1.42521604895591735840e-01) (34, -1.56368196010589599609e-01) (35, -2.77227759361267089844e-01) (36, -8.47351737320423126221e-03) (37, -2.37372249364852905273e-01) (38, -4.98652982711791992188e+00) (39, -3.22625428438186645508e-01) (40, -6.94032236933708190918e-02) (41, -7.62013792991638183594e-01) (42, -1.47516757249832153320e-01) (43, -5.25790899991989135742e-02) (44, -8.15950036048889160156e-01) (45, -1.57109811902046203613e-01) (46, 6.54856115579605102539e-02) (47, -4.70835089683532714844e-01) (48, -5.60665845870971679688e-01) (49, -1.63910090923309326172e-01) (50, 1.16944713518023490906e-02) (51, -1.05860650539398193359e+00) (52, -3.23142230510711669922e-01) (53, -2.94303745031356811523e-01) (54, 3.25819626450538635254e-02) (55, -1.77582040429115295410e-01) (56, -2.85747408866882324219e-01) (57, -3.23646962642669677734e-01) (58, -3.71156662702560424805e-01) (59, -1.71047449111938476562e-01) (60, -5.99442064762115478516e-01) (61, -2.02454566955566406250e-01) (62, -1.14390417933464050293e-01) (63, -7.20978081226348876953e-02) (64, 4.66932132840156555176e-02) (65, -1.21295303106307983398e-01) (66, -4.32512402534484863281e-01) (67, -1.60959973931312561035e-01) (68, -3.42840790748596191406e-01) (69, -2.79623746871948242188e-01) (70, -4.08973604440689086914e-01) (71, -8.12522470951080322266e-02) (72, -1.37158542871475219727e-01) (73, -2.76201039552688598633e-01) (74, -3.06429833173751831055e-01) (75, -2.04516127705574035645e-01) (76, -4.95980292558670043945e-01) (77, -5.44178068637847900391e-01) (78, -2.91616290807723999023e-01) (79, -1.39041304588317871094e-01) (80, -9.45185422897338867188e-01) (81, -3.40309232473373413086e-01) (82, -1.67171701788902282715e-01) (83, -2.57615238428115844727e-01) (84, -2.75178581476211547852e-01) (85, -2.31161862611770629883e-01) (86, -2.58455872535705566406e-01) (87, -5.24281680583953857422e-01) (88, -2.04543903470039367676e-01) (89, -2.83874332904815673828e-01) (90, -3.16800504922866821289e-01) (91, -2.99827337265014648438e-01) (92, -1.98595121502876281738e-01) (93, -2.64002680778503417969e-01) (94, -1.88385322690010070801e-01) (95, -6.76524126902222633362e-03) (96, -2.52260804176330566406e-01) (97, -2.09141477942466735840e-01) (98, -2.13111683726310729980e-01) (99, -1.64439961314201354980e-01) (100, 1.09959719702601432800e-02) (0, -6.16757851094007492065e-03) (1, -8.86634066700935363770e-02) (2, -2.46050417423248291016e-01) (3, -5.03498539328575134277e-02) (4, -2.86622017621994018555e-01) (5, -6.05180561542510986328e-02) (6, -2.92853295803070068359e-01) (7, -8.65251943469047546387e-02) (8, -2.01557382941246032715e-01) (9, -2.39403456449508666992e-01) (10, -6.49474039673805236816e-02) (11, -2.49437719583511352539e-01) (12, -1.46984398365020751953e-01) (13, -1.40106558799743652344e-01) (14, -1.30312636494636535645e-01) (15, -2.86477565765380859375e-01) (16, -2.42077305912971496582e-01) (17, -3.01239430904388427734e-01) (18, -1.94941580295562744141e+00) (19, -5.85468150675296783447e-02) (20, -2.36217543482780456543e-01) (21, -8.95363762974739074707e-02) (22, -1.01985499262809753418e-01) (23, -1.95664167404174804688e-01) (24, -1.23230409622192382812e+00) (25, -7.99916461110115051270e-02) (26, -8.16021800041198730469e-01) (27, -2.34937608242034912109e-01) (28, 1.92097667604684829712e-02) (29, -3.09899866580963134766e-01) (30, -7.34550654888153076172e-01) (31, -1.09600432217121124268e-01) (32, -5.52158415317535400391e-01) (33, -1.67434334754943847656e-01) (34, -1.32546126842498779297e-01) (35, -6.25457048416137695312e-01) (36, -5.69687820971012115479e-02) (37, -2.56640255451202392578e-01) (38, -4.07154893875122070312e+00) (39, -1.49895340204238891602e-01) (40, -3.15095573663711547852e-01) (41, -5.48953175544738769531e-01) (42, -2.02654913067817687988e-01) (43, -9.48473960161209106445e-02) (44, -1.05851566791534423828e+00) (45, -5.66874623298645019531e-01) (46, -9.05461758375167846680e-02) (47, -3.68960350751876831055e-01) (48, -6.83111786842346191406e-01) (49, -4.27849262952804565430e-01) (50, -2.27829799056053161621e-01) (51, -1.14411461353302001953e+00) (52, -6.75633370876312255859e-01) (53, -9.03537422418594360352e-02) (54, -1.29964396357536315918e-01) (55, -3.00653219223022460938e-01) (56, -3.16776216030120849609e-01) (57, -1.52652129530906677246e-01) (58, -2.94274002313613891602e-01) (59, -1.60459771752357482910e-01) (60, -5.13626456260681152344e-01) (61, -1.41180917620658874512e-01) (62, -1.35535880923271179199e-01) (63, -1.14907421171665191650e-01) (64, -4.33701947331428527832e-02) (65, -2.01721161603927612305e-01) (66, -4.35275912284851074219e-01) (67, -2.29353517293930053711e-01) (68, -3.91058593988418579102e-01) (69, -2.91849404573440551758e-01) (70, -8.11040937900543212891e-01) (71, -1.25268250703811645508e-01) (72, -2.14193642139434814453e-01) (73, -2.49081850051879882812e-01) (74, -6.66692733764648437500e-01) (75, -9.19789373874664306641e-02) (76, -6.86491906642913818359e-01) (77, -9.37789678573608398438e-01) (78, -4.94978189468383789062e-01) (79, -5.94706349074840545654e-02) (80, -1.38709795475006103516e+00) (81, -1.91104590892791748047e-01) (82, -2.77310281991958618164e-01) (83, -3.20629775524139404297e-01) (84, -2.18355417251586914062e-01) (85, -2.14033231139183044434e-01) (86, -9.17054116725921630859e-02) (87, -3.42736184597015380859e-01) (88, -2.42145344614982604980e-01) (89, -2.55428016185760498047e-01) (90, -3.09308499097824096680e-01) (91, -2.66614407300949096680e-01) (92, -1.34670108556747436523e-01) (93, -3.21698427200317382812e-01) (94, -3.40369969606399536133e-01) (95, -2.79478114098310470581e-02) (96, -1.33535906672477722168e-01) (97, -5.01850917935371398926e-02) (98, -2.86725133657455444336e-01) (99, -2.29293420910835266113e-01) (100, -2.31953799724578857422e-01) (0, -3.37108880281448364258e-01) (1, -3.03361803293228149414e-01) (2, -6.41883075237274169922e-01) (3, -7.87458717823028564453e-02) (4, -2.76310980319976806641e-01) (5, -3.35475325584411621094e-01) (6, -4.93797093629837036133e-01) (7, -3.68202984333038330078e-01) (8, -5.56524515151977539062e-01) (9, -4.01547878980636596680e-01) (10, -3.31183344125747680664e-01) (11, -4.00618672370910644531e-01) (12, -3.71431320905685424805e-01) (13, -3.43089163303375244141e-01) (14, -3.12638133764266967773e-01) (15, -4.82732713222503662109e-01) (16, -4.93124008178710937500e-01) (17, -2.10706204175949096680e-01) (18, -4.21611905097961425781e-01) (19, -3.77675384283065795898e-01) (20, -4.54014033079147338867e-01) (21, -9.84113290905952453613e-02) (22, -2.39585176110267639160e-01) (23, -2.37789869308471679688e-01) (24, -2.74663716554641723633e-01) (25, -1.55375987291336059570e-01) (26, -1.75325572490692138672e-01) (27, -4.17007923126220703125e-01) (28, 7.12977573275566101074e-02) (29, -3.36341500282287597656e-01) (30, -7.05537736415863037109e-01) (31, -7.13493406772613525391e-01) (32, -1.39290258288383483887e-01) (33, -2.97897130250930786133e-01) (34, -4.36763942241668701172e-01) (35, -1.17716230452060699463e-01) (36, -2.96437919139862060547e-01) (37, -3.85585725307464599609e-01) (38, -3.63899707794189453125e-01) (39, -4.56601589918136596680e-01) (40, -1.98609352111816406250e-01) (41, -6.86246991157531738281e-01) (42, -5.61808109283447265625e-01) (43, -1.69210985302925109863e-01) (44, -2.40436375141143798828e-01) (45, -2.41227805614471435547e-01) (46, -8.00359696149826049805e-02) (47, -6.86188101768493652344e-01) (48, -4.33891713619232177734e-01) (49, -1.12196624279022216797e-01) (50, -1.10501416027545928955e-01) (51, -7.13070988655090332031e-01) (52, -4.17689561843872070312e-01) (53, -8.09931516647338867188e-01) (54, -4.14742380380630493164e-01) (55, -2.58754521608352661133e-01) (56, -5.41888475418090820312e-01) (57, -2.87779539823532104492e-01) (58, -5.34919500350952148438e-01) (59, -2.71699428558349609375e-01) (60, -6.09621405601501464844e-01) (61, -2.92196065187454223633e-01) (62, -5.92063307762145996094e-01) (63, -3.25122743844985961914e-01) (64, -2.07349821925163269043e-01) (65, -6.99583768844604492188e-01) (66, -5.79019486904144287109e-01) (67, -3.57007980346679687500e-01) (68, -3.95354658365249633789e-01) (69, -5.60724973678588867188e-01) (70, -2.28705495595932006836e-01) (71, -5.44973373413085937500e-01) (72, -2.90300667285919189453e-01) (73, -4.43022429943084716797e-01) (74, -3.15269976854324340820e-01) (75, -2.80270278453826904297e-01) (76, -5.04334211349487304688e-01) (77, -2.74669408798217773438e-01) (78, -4.43754315376281738281e-01) (79, -4.02093738317489624023e-01) (80, -3.58276039361953735352e-01) (81, -4.52608644962310791016e-01) (82, -2.30350866913795471191e-01) (83, -2.73245602846145629883e-01) (84, -3.82378578186035156250e-01) (85, -2.25845471024513244629e-01) (86, -4.71048295497894287109e-01) (87, -6.95609509944915771484e-01) (88, -3.56628686189651489258e-01) (89, -1.74302399158477783203e-01) (90, -6.27780318260192871094e-01) (91, -3.48232120275497436523e-01) (92, -3.50582003593444824219e-01) (93, -5.14902651309967041016e-01) (94, -2.83493638038635253906e-01) (95, -1.68030112981796264648e-01) (96, -4.15345758199691772461e-01) (97, -6.71330928802490234375e-01) (98, -3.84439289569854736328e-01) (99, -3.72707605361938476562e-01) (100, 2.28094860911369323730e-01) (0, 1.17825366556644439697e-01) (1, -3.26478838920593261719e-01) (2, 9.88042056560516357422e-02) (3, -1.83459877967834472656e-01) (4, -7.18337595462799072266e-02) (5, 3.22307497262954711914e-02) (6, -3.85817885398864746094e-01) (7, 4.40392829477787017822e-02) (8, -2.11541280150413513184e-02) (9, 3.77389565110206604004e-02) (10, -2.32424184679985046387e-01) (11, -1.16792313754558563232e-01) (12, -2.58076548576354980469e-01) (13, -1.05123415589332580566e-01) (14, -3.82214277982711791992e-01) (15, -3.17024253308773040771e-02) (16, -2.87359744310379028320e-01) (17, -1.48156499490141868591e-02) (18, 3.27613018453121185303e-02) (19, -1.55663669109344482422e-01) (20, 1.01959683001041412354e-01) (21, -3.90716910362243652344e-01) (22, 