FANN_FIX_2.0
decimal_point=10
num_layers=3
learning_rate=0.700000
connection_rate=1.000000
network_type=0
learning_momentum=0.000000
training_algorithm=3
train_error_function=1
train_stop_function=1
cascade_output_change_fraction=0.010000
quickprop_decay=-0.000100
quickprop_mu=1.750000
rprop_increase_factor=1.200000
rprop_decrease_factor=0.500000
rprop_delta_min=0.000000
rprop_delta_max=50.000000
rprop_delta_zero=0.100000
cascade_output_stagnation_epochs=12
cascade_candidate_change_fraction=0.010000
cascade_candidate_stagnation_epochs=12
cascade_max_out_epochs=150
cascade_min_out_epochs=50
cascade_max_cand_epochs=150
cascade_min_cand_epochs=50
cascade_num_candidate_groups=2
bit_fail_limit=10
cascade_candidate_limit=1024000
cascade_weight_multiplier=410
cascade_activation_functions_count=10
cascade_activation_functions=3 5 7 8 10 11 14 15 16 17 
cascade_activation_steepnesses_count=4
cascade_activation_steepnesses=256 512 768 1024 
layer_sizes=101 151 5 
neurons (num_inputs, activation_function, activation_steepness)=(0, 0, 0) (0, 0, 0) (0, 0, 0) (0, 0, 0) (0, 0, 0) (0, 0, 0) (0, 0, 0) (0, 0, 0) (0, 0, 0) (0, 0, 0) (0, 0, 0) (0, 0, 0) (0, 0, 0) (0, 0, 0) (0, 0, 0) (0, 0, 0) (0, 0, 0) (0, 0, 0) (0, 0, 0) (0, 0, 0) (0, 0, 0) (0, 0, 0) (0, 0, 0) (0, 0, 0) (0, 0, 0) (0, 0, 0) (0, 0, 0) (0, 0, 0) (0, 0, 0) (0, 0, 0) (0, 0, 0) (0, 0, 0) (0, 0, 0) (0, 0, 0) (0, 0, 0) (0, 0, 0) (0, 0, 0) (0, 0, 0) (0, 0, 0) (0, 0, 0) (0, 0, 0) (0, 0, 0) (0, 0, 0) (0, 0, 0) (0, 0, 0) (0, 0, 0) (0, 0, 0) (0, 0, 0) (0, 0, 0) (0, 0, 0) (0, 0, 0) (0, 0, 0) (0, 0, 0) (0, 0, 0) (0, 0, 0) (0, 0, 0) (0, 0, 0) (0, 0, 0) (0, 0, 0) (0, 0, 0) (0, 0, 0) (0, 0, 0) (0, 0, 0) (0, 0, 0) (0, 0, 0) (0, 0, 0) (0, 0, 0) (0, 0, 0) (0, 0, 0) (0, 0, 0) (0, 0, 0) (0, 0, 0) (0, 0, 0) (0, 0, 0) (0, 0, 0) (0, 0, 0) (0, 0, 0) (0, 0, 0) (0, 0, 0) (0, 0, 0) (0, 0, 0) (0, 0, 0) (0, 0, 0) (0, 0, 0) (0, 0, 0) (0, 0, 0) (0, 0, 0) (0, 0, 0) (0, 0, 0) (0, 0, 0) (0, 0, 0) (0, 0, 0) (0, 0, 0) (0, 0, 0) (0, 0, 0) (0, 0, 0) (0, 0, 0) (0, 0, 0) (0, 0, 0) (0, 0, 0) (0, 0, 0) (101, 3, 1024) (101, 3, 1024) (101, 3, 1024) (101, 3, 1024) (101, 3, 1024) (101, 3, 1024) (101, 3, 1024) (101, 3, 1024) (101, 3, 1024) (101, 3, 1024) (101, 3, 1024) (101, 3, 1024) (101, 3, 1024) (101, 3, 1024) (101, 3, 1024) (101, 3, 1024) (101, 3, 1024) (101, 3, 1024) (101, 3, 1024) (101, 3, 1024) (101, 3, 1024) (101, 3, 1024) (101, 3, 1024) (101, 3, 1024) (101, 3, 1024) (101, 3, 1024) (101, 3, 1024) (101, 3, 1024) (101, 3, 1024) (101, 3, 1024) (101, 3, 1024) (101, 3, 1024) (101, 3, 1024) (101, 3, 1024) (101, 3, 1024) (101, 3, 1024) (101, 3, 1024) (101, 3, 1024) (101, 3, 1024) (101, 3, 1024) (101, 3, 1024) (101, 3, 1024) (101, 3, 1024) (101, 3, 1024) (101, 3, 1024) (101, 3, 1024) (101, 3, 1024) (101, 3, 1024) (101, 3, 1024) (101, 3, 1024) (101, 3, 1024) (101, 3, 1024) (101, 3, 1024) (101, 3, 1024) (101, 3, 1024) (101, 3, 1024) (101, 3, 1024) (101, 3, 1024) (101, 3, 1024) (101, 3, 1024) (101, 3, 1024) (101, 3, 1024) (101, 3, 1024) (101, 3, 1024) (101, 3, 1024) (101, 3, 1024) (101, 3, 1024) (101, 3, 1024) (101, 3, 1024) (101, 3, 1024) (101, 3, 1024) (101, 3, 1024) (101, 3, 1024) (101, 3, 1024) (101, 3, 1024) (101, 3, 1024) (101, 3, 1024) (101, 3, 1024) (101, 3, 1024) (101, 3, 1024) (101, 3, 1024) (101, 3, 1024) (101, 3, 1024) (101, 3, 1024) (101, 3, 1024) (101, 3, 1024) (101, 3, 1024) (101, 3, 1024) (101, 3, 1024) (101, 3, 1024) (101, 3, 1024) (101, 3, 1024) (101, 3, 1024) (101, 3, 1024) (101, 3, 1024) (101, 3, 1024) (101, 3, 1024) (101, 3, 1024) (101, 3, 1024) (101, 3, 1024) (101, 3, 1024) (101, 3, 1024) (101, 3, 1024) (101, 3, 1024) (101, 3, 1024) (101, 3, 1024) (101, 3, 1024) (101, 3, 1024) (101, 3, 1024) (101, 3, 1024) (101, 3, 1024) (101, 3, 1024) (101, 3, 1024) (101, 3, 1024) (101, 3, 1024) (101, 3, 1024) (101, 3, 1024) (101, 3, 1024) (101, 3, 1024) (101, 3, 1024) (101, 3, 1024) (101, 3, 1024) (101, 3, 1024) (101, 3, 1024) (101, 3, 1024) (101, 3, 1024) (101, 3, 1024) (101, 3, 1024) (101, 3, 1024) (101, 3, 1024) (101, 3, 1024) (101, 3, 1024) (101, 3, 1024) (101, 3, 1024) (101, 3, 1024) (101, 3, 1024) (101, 3, 1024) (101, 3, 1024) (101, 3, 1024) (101, 3, 1024) (101, 3, 1024) (101, 3, 1024) (101, 3, 1024) (101, 3, 1024) (101, 3, 1024) (101, 3, 1024) (101, 3, 1024) (101, 3, 1024) (101, 3, 1024) (101, 3, 1024) (0, 3, 1024) (151, 3, 1024) (151, 3, 1024) (151, 3, 1024) (151, 3, 1024) (0, 3, 1024) 
connections (connected_to_neuron, weight)=(0, -859) (1, -498) (2, -1167) (3, -334) (4, -665) (5, -580) (6, -1053) (7, -603) (8, -965) (9, -596) (10, -592) (11, -765) (12, -683) (13, -534) (14, -645) (15, -1465) (16, -845) (17, -550) (18, -804) (19, -882) (20, -603) (21, -223) (22, -621) (23, -356) (24, -884) (25, -420) (26, -421) (27, -725) (28, -252) (29, -545) (30, -2318) (31, -1434) (32, -568) (33, -798) (34, -607) (35, -442) (36, -581) (37, -648) (38, -1690) (39, -627) (40, -524) (41, -1427) (42, -1091) (43, -645) (44, -559) (45, -657) (46, -361) (47, -1538) (48, -1318) (49, -367) (50, -73) (51, -1408) (52, -734) (53, -1230) (54, -755) (55, -434) (56, -1481) (57, -617) (58, -1395) (59, -542) (60, -1467) (61, -759) (62, -880) (63, -679) (64, -491) (65, -1058) (66, -1017) (67, -724) (68, -1008) (69, -855) (70, -794) (71, -818) (72, -490) (73, -539) (74, -1020) (75, -413) (76, -1020) (77, -667) (78, -1174) (79, -534) (80, -1132) (81, -1131) (82, -798) (83, -878) (84, -863) (85, -649) (86, -774) (87, -1563) (88, -733) (89, -423) (90, -1147) (91, -844) (92, -618) (93, -732) (94, -489) (95, -403) (96, -587) (97, -850) (98, -602) (99, -739) (100, 238) (0, -108) (1, -137) (2, -11) (3, 12) (4, -132) (5, -159) (6, -189) (7, -178) (8, 37) (9, -139) (10, -83) (11, 60) (12, 10) (13, -11) (14, 6) (15, -96) (16, -100) (17, 69) (18, -88) (19, 37) (20, -84) (21, 99) (22, -13) (23, -116) (24, -138) (25, -118) (26, -57) (27, -190) (28, -12) (29, -39) (30, -118) (31, -89) (32, 112) (33, -94) (34, -33) (35, -59) (36, -75) (37, 86) (38, -24) (39, 12) (40, 92) (41, -57) (42, 71) (43, -5) (44, 76) (45, -76) (46, -92) (47, -165) (48, -15) (49, -78) (50, 65) (51, -101) (52, -40) (53, -102) (54, -71) (55, -160) (56, -161) (57, 19) (58, -190) (59, 13) (60, -84) (61, -177) (62, 12) (63, -152) (64, 44) (65, -140) (66, -115) (67, -151) (68, -180) (69, -19) (70, -49) (71, -24) (72, -178) (73, -196) (74, -52) (75, -4) (76, -67) (77, -37) (78, -22) (79, -55) (80, -180) (81, 48) (82, -3) (83, -31) (84, 23) (85, 13) (86, -100) (87, -185) (88, -36) (89, -90) (90, -93) (91, 34) (92, -184) (93, 43) (94, -34) (95, -81) (96, -45) (97, -28) (98, -66) (99, -143) (100, -188) (0, 490) (1, -561) (2, 662) (3, -562) (4, 208) (5, 378) (6, 131) (7, -496) (8, 278) (9, 199) (10, -390) (11, 870) (12, -298) (13, -281) (14, -32) (15, 553) (16, 222) (17, -3) (18, 296) (19, -130) (20, -37) (21, -738) (22, -436) (23, -566) (24, 96) (25, -837) (26, -180) (27, 213) (28, -1174) (29, -140) (30, 1067) (31, 585) (32, -158) (33, -303) (34, -135) (35, -402) (36, -608) (37, 43) (38, 679) (39, 22) (40, -752) (41, 796) (42, 739) (43, 99) (44, -514) (45, -208) (46, -794) (47, 842) (48, 355) (49, -599) (50, -1087) (51, 872) (52, 185) (53, 506) (54, 52) (55, 121) (56, 763) (57, -98) (58, 873) (59, -9) (60, 833) (61, 308) (62, -373) (63, 94) (64, -738) (65, 342) (66, 178) (67, -467) (68, 151) (69, 287) (70, 342) (71, 598) (72, -18) (73, -346) (74, 72) (75, -937) (76, 393) (77, 54) (78, 135) (79, -285) (80, 687) (81, -146) (82, 128) (83, 177) (84, -312) (85, 11) (86, 421) (87, 916) (88, -174) (89, -334) (90, -128) (91, 162) (92, 51) (93, 43) (94, -75) (95, -286) (96, -277) (97, 465) (98, -634) (99, -35) (100, -1638) (0, -472) (1, -302) (2, -515) (3, -55) (4, -480) (5, -317) (6, -391) (7, -273) (8, -441) (9, -206) (10, -364) (11, -505) (12, -255) (13, -104) (14, -491) (15, -565) (16, -426) (17, -392) (18, -394) (19, -395) (20, -364) (21, -71) (22, -368) (23, -358) (24, -607) (25, -123) (26, -225) (27, -516) (28, -99) (29, -419) (30, -969) (31, -560) (32, -392) (33, -455) (34, -306) (35, -181) (36, -312) (37, -347) (38, -922) (39, -274) (40, -272) (41, -804) (42, -551) (43, -227) (44, -305) (45, -326) (46, -162) (47, -611) (48, -539) (49, -207) (50, 23) (51, -719) (52, -366) (53, -565) (54, -471) (55, -396) (56, -613) (57, -499) (58, -757) (59, -234) (60, -726) (61, -508) (62, -451) (63, -199) (64, -426) (65, -571) (66, -494) (67, -397) (68, -580) (69, -367) (70, -312) (71, -549) (72, -243) (73, -236) (74, -304) (75, -171) (76, -380) (77, -262) (78, -370) (79, -435) (80, -562) (81, -408) (82, -500) (83, -275) (84, -501) (85, -335) (86, -516) (87, -757) (88, -259) (89, -361) (90, -582) (91, -370) (92, -201) (93, -298) (94, -333) (95, -184) (96, -280) (97, -302) (98, -303) (99, -340) (100, 20) (0, -475) (1, -462) (2, -931) (3, -344) (4, -501) (5, -411) (6, -691) (7, -400) (8, -607) (9, -488) (10, -346) (11, -561) (12, -412) (13, -378) (14, -462) (15, -1118) (16, -741) (17, -555) (18, -495) (19, -574) (20, -368) (21, -328) (22, -376) (23, -238) (24, -591) (25, -316) (26, -417) (27, -538) (28, -141) (29, -386) (30, -1596) (31, -904) (32, -399) (33, -555) (34, -422) (35, -327) (36, -224) (37, -472) (38, -1032) (39, -524) (40, -416) (41, -1128) (42, -654) (43, -535) (44, -426) (45, -461) (46, 39) (47, -1027) (48, -865) (49, -350) (50, -66) (51, -877) (52, -606) (53, -875) (54, -450) (55, -366) (56, -904) (57, -545) (58, -931) (59, -461) (60, -1144) (61, -560) (62, -431) (63, -478) (64, -223) (65, -658) (66, -956) (67, -399) (68, -498) (69, -473) (70, -568) (71, -520) (72, -434) (73, -529) (74, -722) (75, -362) (76, -779) (77, -563) (78, -711) (79, -455) (80, -752) (81, -721) (82, -647) (83, -632) (84, -637) (85, -362) (86, -471) (87, -1028) (88, -342) (89, -449) (90, -802) (91, -484) (92, -579) (93, -511) (94, -469) (95, -279) (96, -475) (97, -679) (98, -425) (99, -565) (100, 168) (0, -377) (1, -238) (2, -365) (3, -210) (4, -245) (5, -186) (6, -395) (7, -154) (8, -438) (9, -356) (10, -394) (11, -271) (12, -138) (13, -233) (14, -413) (15, -782) (16, -284) (17, -194) (18, -540) (19, -264) (20, -321) (21, -184) (22, -63) (23, -198) (24, -411) (25, -117) (26, -270) (27, -184) (28, -88) (29, -421) (30, -1029) (31, -382) (32, -213) (33, -282) (34, -192) (35, -270) (36, -276) (37, -161) (38, -1232) (39, -319) (40, -133) (41, -761) (42, -366) (43, -180) (44, -183) (45, -305) (46, -224) (47, -469) (48, -533) (49, -206) (50, -199) (51, -886) (52, -338) (53, -427) (54, -307) (55, -209) (56, -617) (57, -208) (58, -508) (59, -125) (60, -725) (61, -231) (62, -301) (63, -295) (64, -189) (65, -419) (66, -383) (67, -230) (68, -375) (69, -241) (70, -415) (71, -305) (72, -213) (73, -148) (74, -329) (75, -235) (76, -459) (77, -293) (78, -342) (79, -67) (80, -503) (81, -245) (82, -306) (83, -315) (84, -204) (85, -420) (86, -219) (87, -507) (88, -295) (89, -203) (90, -392) (91, -344) (92, -222) (93, -252) (94, -215) (95, -177) (96, -422) (97, -308) (98, -147) (99, -126) (100, -105) (0, -1686) (1, -994) (2, -19413) (3, -523) (4, -1070) (5, -1044) (6, -1661) (7, -1050) (8, -1530) (9, -1158) (10, -1019) (11, -1501) (12, -967) (13, -786) (14, -1086) (15, -2983) (16, -1435) (17, -1098) (18, -1582) (19, -1302) (20, -895) (21, -463) (22, -802) (23, -827) (24, -1699) (25, -776) (26, -929) (27, -1275) (28, -421) (29, -926) (30, -3875) (31, -2218) (32, -943) (33, -1367) (34, -1248) (35, -1058) (36, -850) (37, -965) (38, -3079) (39, -1326) (40, -819) (41, -3030) (42, -2111) (43, -962) (44, -992) (45, -1007) (46, -460) (47, -2793) (48, -2385) (49, -873) (50, -198) (51, -2695) (52, -1293) (53, -2353) (54, -1134) (55, -975) (56, -2699) (57, -1043) (58, -2661) (59, -898) (60, -2994) (61, -1335) (62, -1293) (63, -844) (64, -676) (65, -1765) (66, -1932) (67, -1200) (68, -1469) (69, -1713) (70, -1310) (71, -1330) (72, -998) (73, -1032) (74, -1762) (75, -597) (76, -1877) (77, -1022) (78, -2264) (79, -879) (80, -2057) (81, -2275) (82, -1264) (83, -1829) (84, -1186) (85, -948) (86, -1354) (87, -2826) (88, -1040) (89, -950) (90, -2348) (91, -1581) (92, -1144) (93, -1254) (94, -931) (95, -880) (96, -1196) (97, -1465) (98, -1073) (99, -1131) (100, -107) (0, 15) (1, -398) (2, 129) (3, -183) (4, -47) (5, 48) (6, -72) (7, 88) (8, 126) (9, 151) (10, -9) (11, -10) (12, 22) (13, -303) (14, -74) (15, -14) (16, -164) (17, 29) (18, -271) (19, -93) (20, 45) (21, -329) (22, 25) (23, -231) (24, -21) (25, -164) (26, -179) (27, 71) (28, -687) (29, -26) (30, 67) (31, -30) (32, -204) (33, -114) (34, -200) (35, 32) (36, -76) (37, -152) (38, -444) (39, -36) (40, -394) (41, 7) (42, -18) (43, -85) (44, -110) (45, -125) (46, -322) (47, -98) (48, 136) (49, -62) (50, -528) (51, -82) (52, -190) (53, 31) (54, 62) (55, -66) (56, 111) (57, -149) (58, -66) (59, -233) (60, -173) (61, -176) (62, 33) (63, 72) (64, -252) (65, -98) (66, -96) (67, -66) (68, -162) (69, -34) (70, -344) (71, 42) (72, -100) (73, -89) (74, -57) (75, -250) (76, 5) (77, -176) (78, 124) (79, 52) (80, -88) (81, 1) (82, -168) (83, 11) (84, -149) (85, -279) (86, -72) (87, -76) (88, -209) (89, -139) (90, 3) (91, -134) (92, -123) (93, 101) (94, -46) (95, -139) (96, -153) (97, 157) (98, -719) (99, 165) (100, -122) (0, -822) (1, -694) (2, -3234) (3, -163) (4, -853) (5, -643) (6, -928) (7, -515) (8, -859) (9, -595) (10, -476) (11, -991) (12, -697) (13, -373) (14, -868) (15, -1021) (16, -905) (17, -641) (18, -960) (19, -690) (20, -435) (21, -347) (22, -514) (23, -394) (24, -834) (25, -135) (26, -437) (27, -814) (28, 91) (29, -841) (30, -1761) (31, -1159) (32, -581) (33, -631) (34, -708) (35, -405) (36, -430) (37, -736) (38, -1216) (39, -748) (40, -323) (41, -1161) (42, -942) (43, -515) (44, -550) (45, -729) (46, -49) (47, -1375) (48, -1093) (49, -410) (50, 88) (51, -1274) (52, -837) (53, -1173) (54, -726) (55, -544) (56, -1258) (57, -869) (58, -1574) (59, -479) (60, -1274) (61, -754) (62, -552) (63, -632) (64, -605) (65, -1085) (66, -1068) (67, -705) (68, -817) (69, -1112) (70, -933) (71, -961) (72, -856) (73, -663) (74, -953) (75, -203) (76, -1054) (77, -538) (78, -935) (79, -544) (80, -993) (81, -1023) (82, -832) (83, -771) (84, -649) (85, -612) (86, -956) (87, -1468) (88, -653) (89, -451) (90, -925) (91, -972) (92, -775) (93, -854) (94, -692) (95, -446) (96, -528) (97, -1095) (98, -537) (99, -784) (100, 405) (0, -754) (1, -497) (2, -1643) (3, -390) (4, -629) (5, -696) (6, -741) (7, -652) (8, -878) (9, -764) (10, -346) (11, -867) (12, -746) (13, -258) (14, -570) (15, -1099) (16, -766) (17, -525) (18, -907) (19, -721) (20, -508) (21, -182) (22, -559) (23, -528) (24, -884) (25, -380) (26, -432) (27, -641) (28, -62) (29, -454) (30, -1482) (31, -847) (32, -560) (33, -650) (34, -551) (35, -659) (36, -243) (37, -612) (38, -1492) (39, -622) (40, -468) (41, -1379) (42, -950) (43, -580) (44, -682) (45, -638) (46, 30) (47, -1129) (48, -1232) (49, -487) (50, -97) (51, -1218) (52, -761) (53, -1125) (54, -484) (55, -432) (56, -1106) (57, -593) (58, -1025) (59, -615) (60, -1125) (61, -689) (62, -633) (63, -530) (64, -465) (65, -918) (66, -1131) (67, -564) (68, -744) (69, -919) (70, -884) (71, -813) (72, -381) (73, -600) (74, -847) (75, -363) (76, -1040) (77, -699) (78, -984) (79, -422) (80, -1044) (81, -735) (82, -629) (83, -886) (84, -750) (85, -509) (86, -801) (87, -1236) (88, -545) (89, -554) (90, -882) (91, -743) (92, -570) (93, -647) (94, -606) (95, -428) (96, -675) (97, -850) (98, -572) (99, -660) (100, 166) (0, 168) (1, -202) (2, 415) (3, 85) (4, -55) (5, 17) (6, 43) (7, -294) (8, -57) (9, -20) (10, 307) (11, 290) (12, -177) (13, 46) (14, -28) (15, -155) (16, 151) (17, 16) (18, -290) (19, 5) (20, 189) (21, -109) (22, 146) (23, -2) (24, -523) (25, 313) (26, -262) (27, 47) (28, 17) (29, 133) (30, -374) (31, 150) (32, -261) (33, -33) (34, -63) (35, -516) (36, 543) (37, 119) (38, -923) (39, -8) (40, -112) (41, -240) (42, -126) (43, 243) (44, 42) (45, -268) (46, 181) (47, -111) (48, -285) (49, -70) (50, -196) (51, 56) (52, -302) (53, -5) (54, 74) (55, -96) (56, 182) (57, -344) (58, -83) (59, -121) (60, -85) (61, 121) (62, 310) (63, 76) (64, -61) (65, 238) (66, -145) (67, -33) (68, -18) (69, 196) (70, -483) (71, -19) (72, 438) (73, 419) (74, 56) (75, -87) (76, -181) (77, -195) (78, -294) (79, -150) (80, -336) (81, 7) (82, -145) (83, -194) (84, 104) (85, -109) (86, 225) (87, -126) (88, -28) (89, 31) (90, -118) (91, -41) (92, 130) (93, -516) (94, -172) (95, -107) (96, -106) (97, 55) (98, -302) (99, 141) (100, 43) (0, -315) (1, -322) (2, -623) (3, -172) (4, -327) (5, -251) (6, -305) (7, -115) (8, -372) (9, -428) (10, -360) (11, -327) (12, -387) (13, -120) (14, -392) (15, -424) (16, -403) (17, -184) (18, -421) (19, -428) (20, -389) (21, -69) (22, -159) (23, -180) (24, -303) (25, -85) (26, -287) (27, -430) (28, -65) (29, -418) (30, -564) (31, -428) (32, -145) (33, -483) (34, -397) (35, -159) (36, -148) (37, -267) (38, -241) (39, -143) (40, -170) (41, -354) (42, -203) (43, -134) (44, -195) (45, -183) (46, -46) (47, -513) (48, -406) (49, -132) (50, 99) (51, -341) (52, -363) (53, -564) (54, -339) (55, -376) (56, -522) (57, -361) (58, -408) (59, -344) (60, -604) (61, -222) (62, -242) (63, -157) (64, -210) (65, -323) (66, -495) (67, -373) (68, -391) (69, -322) (70, -379) (71, -359) (72, -306) (73, -314) (74, -290) (75, -87) (76, -338) (77, -191) (78, -467) (79, -254) (80, -384) (81, -401) (82, -432) (83, -337) (84, -360) (85, -430) (86, -447) (87, -438) (88, -323) (89, -318) (90, -482) (91, -378) (92, -395) (93, -420) (94, -226) (95, -351) (96, -278) (97, -395) (98, -293) (99, -361) (100, -93) (0, -1067) (1, -494) (2, -1528) (3, -288) (4, -686) (5, -689) (6, -1236) (7, -697) (8, -1202) (9, -853) (10, -744) (11, -889) (12, -706) (13, -403) (14, -623) (15, -2108) (16, -768) (17, -789) (18, -1175) (19, -1000) (20, -579) (21, -338) (22, -531) (23, -483) (24, -1140) (25, -452) (26, -697) (27, -909) (28, -319) (29, -613) (30, -2551) (31, -1706) (32, -421) (33, -800) (34, -882) (35, -706) (36, -546) (37, -665) (38, -1931) (39, -889) (40, -517) (41, -2046) (42, -1369) (43, -656) (44, -812) (45, -634) (46, -234) (47, -1877) (48, -1571) (49, -371) (50, -327) (51, -1715) (52, -857) (53, -1554) (54, -678) (55, -564) (56, -1938) (57, -773) (58, -1862) (59, -656) (60, -1966) (61, -969) (62, -984) (63, -777) (64, -435) (65, -1328) (66, -1180) (67, -632) (68, -1187) (69, -1167) (70, -982) (71, -1028) (72, -669) (73, -807) (74, -1308) (75, -505) (76, -1267) (77, -817) (78, -1296) (79, -523) (80, -1438) (81, -1442) (82, -877) (83, -912) (84, -744) (85, -789) (86, -892) (87, -2081) (88, -800) (89, -603) (90, -1644) (91, -965) (92, -710) (93, -899) (94, -574) (95, -429) (96, -784) (97, -1173) (98, -719) (99, -887) (100, 78) (0, -1002) (1, -695) (2, -1608) (3, -580) (4, -841) (5, -801) (6, -1231) (7, -772) (8, -1187) (9, -828) (10, -774) (11, -1161) (12, -830) (13, -466) (14, -786) (15, -2174) (16, -1158) (17, -917) (18, -1296) (19, -1120) (20, -783) (21, -382) (22, -769) (23, -619) (24, -1373) (25, -432) (26, -705) (27, -1006) (28, -351) (29, -766) (30, -3595) (31, -1731) (32, -704) (33, -850) (34, -812) (35, -827) (36, -637) (37, -883) (38, -2416) (39, -888) (40, -595) (41, -2422) (42, -1806) (43, -747) (44, -857) (45, -945) (46, -346) (47, -2196) (48, -1909) (49, -540) (50, -209) (51, -2037) (52, -1081) (53, -1745) (54, -817) (55, -599) (56, -2162) (57, -749) (58, -2037) (59, -677) (60, -2141) (61, -1195) (62, -891) (63, -712) (64, -587) (65, -1418) (66, -1628) (67, -699) (68, -1227) (69, -1339) (70, -1040) (71, -1009) (72, -674) (73, -713) (74, -1444) (75, -442) (76, -1319) (77, -843) (78, -1589) (79, -823) (80, -1500) (81, -1536) (82, -1032) (83, -1269) (84, -987) (85, -716) (86, -1057) (87, -2065) (88, -874) (89, -730) (90, -1741) (91, -1216) (92, -785) (93, -851) (94, -882) (95, -670) (96, -866) (97, -1188) (98, -629) (99, -827) (100, -82) (0, -1124) (1, -539) (2, -12704) (3, -432) (4, -890) (5, -740) (6, -1201) (7, -608) (8, -1105) (9, -945) (10, -706) (11, -1149) (12, -928) (13, -504) (14, -928) (15, -2103) (16, -986) (17, -917) (18, -1125) (19, -933) (20, -713) (21, -441) (22, -531) (23, -495) (24, -1132) (25, -439) (26, -677) (27, -974) (28, -333) (29, -682) (30, -3000) (31, -1515) (32, -593) (33, -866) (34, -834) (35, -657) (36, -424) (37, -668) (38, -2033) (39, -835) (40, -589) (41, -2023) (42, -1632) (43, -617) (44, -686) (45, -822) (46, -380) (47, -2158) (48, -1793) (49, -487) (50, -303) (51, -1863) (52, -989) (53, -1577) (54, -807) (55, -665) (56, -1967) (57, -1000) (58, -1887) (59, -689) (60, -1981) (61, -1105) (62, -838) (63, -640) (64, -620) (65, -1281) (66, -1486) (67, -868) (68, -1123) (69, -1408) (70, -1025) (71, -1068) (72, -679) (73, -660) (74, -1217) (75, -550) (76, -1308) (77, -910) (78, -1435) (79, -667) (80, -1356) (81, -1474) (82, -865) (83, -1335) (84, -1039) (85, -744) (86, -1079) (87, -2063) (88, -779) (89, -708) (90, -1549) (91, -1042) (92, -795) (93, -793) (94, -815) (95, -561) (96, -707) (97, -1202) (98, -742) (99, -722) (100, 34) (0, -50) (1, 4) (2, -91) (3, -101) (4, 50) (5, 45) (6, -63) (7, 21) (8, -15) (9, -150) (10, -186) (11, -82) (12, -102) (13, -147) (14, -50) (15, -41) (16, -68) (17, -81) (18, 14) (19, 89) (20, 66) (21, -143) (22, -82) (23, -142) (24, -60) (25, -20) (26, 54) (27, -45) (28, -194) (29, 30) (30, -111) (31, -106) (32, -103) (33, -145) (34, -6) (35, 28) (36, 54) (37, -162) (38, -5) (39, -52) (40, -6) (41, 74) (42, 51) (43, -118) (44, -48) (45, 5) (46, -36) (47, -32) (48, -130) (49, 61) (50, -82) (51, -144) (52, -44) (53, -144) (54, 2) (55, -104) (56, 81) (57, -30) (58, 116) (59, -143) (60, -116) (61, 92) (62, 21) (63, -172) (64, -152) (65, -142) (66, -78) (67, -200) (68, -75) (69, -47) (70, 89) (71, 90) (72, -169) (73, 27) (74, -88) (75, 26) (76, -66) (77, -139) (78, 25) (79, -27) (80, -65) (81, -133) (82, -142) (83, -101) (84, -103) (85, 22) (86, -138) (87, -18) (88, -158) (89, -71) (90, 64) (91, 15) (92, 11) (93, -75) (94, -189) (95, -54) (96, -149) (97, -122) (98, -93) (99, -135) (100, -367) (0, -1101) (1, -760) (2, -13662) (3, -482) (4, -868) (5, -899) (6, -1150) (7, -598) (8, -942) (9, -843) (10, -715) (11, -986) (12, -750) (13, -433) (14, -658) (15, -2005) (16, -1123) (17, -649) (18, -1109) (19, -891) (20, -562) (21, -502) (22, -699) (23, -643) (24, -973) (25, -355) (26, -685) (27, -906) (28, -160) (29, -721) (30, -2737) (31, -1626) (32, -559) (33, -920) (34, -702) (35, -549) (36, -456) (37, -703) (38, -1901) (39, -681) (40, -370) (41, -1807) (42, -1351) (43, -583) (44, -874) (45, -877) (46, -200) (47, -1991) (48, -1496) (49, -602) (50, -380) (51, -1899) (52, -843) (53, -1482) (54, -754) (55, -521) (56, -1793) (57, -791) (58, -1704) (59, -680) (60, -1843) (61, -907) (62, -739) (63, -719) (64, -506) (65, -1324) (66, -1499) (67, -717) (68, -946) (69, -1196) (70, -862) (71, -1064) (72, -534) (73, -667) (74, -1090) (75, -370) (76, -1297) (77, -653) (78, -1338) (79, -726) (80, -1427) (81, -1398) (82, -913) (83, -1004) (84, -945) (85, -756) (86, -922) (87, -1750) (88, -663) (89, -687) (90, -1490) (91, -895) (92, -775) (93, -855) (94, -813) (95, -638) (96, -782) (97, -982) (98, -631) (99, -862) (100, -225) (0, -168) (1, -266) (2, 144) (3, -29) (4, -303) (5, 50) (6, 167) (7, -2) (8, -65) (9, -167) (10, 26) (11, -80) (12, -99) (13, -281) (14, -255) (15, -103) (16, -156) (17, -227) (18, -451) (19, 72) (20, -85) (21, -408) (22, -15) (23, -224) (24, -384) (25, -24) (26, -269) (27, 2) (28, -257) (29, -163) (30, -298) (31, -38) (32, -295) (33, 6) (34, -350) (35, -190) (36, -119) (37, -65) (38, -477) (39, -92) (40, -409) (41, -76) (42, 79) (43, -154) (44, -294) (45, -440) (46, -218) (47, -17) (48, -281) (49, -198) (50, -188) (51, -214) (52, -366) (53, -25) (54, 6) (55, -111) (56, 50) (57, -290) (58, 27) (59, -259) (60, -137) (61, -90) (62, 123) (63, -240) (64, -235) (65, 87) (66, -321) (67, -35) (68, -56) (69, -196) (70, -451) (71, 66) (72, -100) (73, 21) (74, -170) (75, -297) (76, -223) (77, -407) (78, -35) (79, 18) (80, -166) (81, -78) (82, -152) (83, -253) (84, -105) (85, -293) (86, -87) (87, 10) (88, 26) (89, -277) (90, -37) (91, -34) (92, -73) (93, 13) (94, -189) (95, -209) (96, -120) (97, 155) (98, -521) (99, 84) (100, -8) (0, -706) (1, -656) (2, -909) (3, -346) (4, -887) (5, -782) (6, -986) (7, -461) (8, -925) (9, -720) (10, -703) (11, -899) (12, -627) (13, -394) (14, -870) (15, -1578) (16, -906) (17, -610) (18, -994) (19, -568) (20, -690) (21, -471) (22, -701) (23, -382) (24, -922) (25, -304) (26, -434) (27, -775) (28, -226) (29, -628) (30, -2348) (31, -1207) (32, -423) (33, -841) (34, -898) (35, -618) (36, -425) (37, -549) (38, -2594) (39, -798) (40, -359) (41, -1783) (42, -979) (43, -620) (44, -677) (45, -749) (46, -259) (47, -1582) (48, -1497) (49, -510) (50, -317) (51, -1718) (52, -735) (53, -1237) (54, -614) (55, -467) (56, -1252) (57, -711) (58, -1178) (59, -568) (60, -1724) (61, -791) (62, -799) (63, -580) (64, -453) (65, -995) (66, -1057) (67, -746) (68, -904) (69, -779) (70, -822) (71, -919) (72, -562) (73, -477) (74, -973) (75, -418) (76, -1116) (77, -621) (78, -1086) (79, -543) (80, -1135) (81, -1123) (82, -881) (83, -962) (84, -667) (85, -751) (86, -692) (87, -1565) (88, -481) (89, -569) (90, -1180) (91, -848) (92, -695) (93, -873) (94, -607) (95, -629) (96, -837) (97, -702) (98, -737) (99, -666) (100, -164) (0, 242) (1, -65) (2, 32) (3, -115) (4, -84) (5, 127) (6, -5) (7, 51) (8, 114) (9, 62) (10, 35) (11, 167) (12, -5) (13, 42) (14, 53) (15, 53) (16, -71) (17, 228) (18, -156) (19, -51) (20, 45) (21, -50) (22, -12) (23, -74) (24, -127) (25, -46) (26, 70) (27, 165) (28, -177) (29, -241) (30, 90) (31, 254) (32, -76) (33, -82) (34, -132) (35, -66) (36, -71) (37, -116) (38, -228) (39, -12) (40, -54) (41, 91) (42, -50) (43, -12) (44, -14) (45, -125) (46, 141) (47, 64) (48, 163) (49, -56) (50, 27) (51, 136) (52, -82) (53, 148) (54, 54) (55, -50) (56, -106) (57, -215) (58, -156) (59, -43) (60, 112) (61, 85) (62, 179) (63, 6) (64, -286) (65, 179) (66, 133) (67, 210) (68, -60) (69, -138) (70, -42) (71, 53) (72, -167) (73, 46) (74, 169) (75, 52) (76, 90) (77, -29) (78, -16) (79, 68) (80, 93) (81, -85) (82, 101) (83, -42) (84, 54) (85, -148) (86, -191) (87, -129) (88, 123) (89, 14) (90, 308) (91, -91) (92, 143) (93, 305) (94, 143) (95, 154) (96, -33) (97, 201) (98, -56) (99, 128) (100, 212) (0, -24) (1, -273) (2, 301) (3, -159) (4, -108) (5, -69) (6, 46) (7, -19) (8, -33) (9, 44) (10, -22) (11, -12) (12, -212) (13, -231) (14, -50) (15, 86) (16, -70) (17, -100) (18, -278) (19, 35) (20, 198) (21, -156) (22, 0) (23, -30) (24, -46) (25, 13) (26, -183) (27, -48) (28, -250) (29, -107) (30, -50) (31, 205) (32, -215) (33, 54) (34, -289) (35, -310) (36, -62) (37, -7) (38, -433) (39, 34) (40, -367) (41, -120) (42, -12) (43, -186) (44, -221) (45, -253) (46, -42) (47, -55) (48, -62) (49, -209) (50, -261) (51, -73) (52, -155) (53, 238) (54, 199) (55, 25) (56, 196) (57, -107) (58, 209) (59, -94) (60, 38) (61, -134) (62, 83) (63, -171) (64, -129) (65, 42) (66, 20) (67, -44) (68, -48) (69, -61) (70, -257) (71, -12) (72, -34) (73, -49) (74, -159) (75, -182) (76, -2) (77, -444) (78, 37) (79, -53) (80, -203) (81, -90) (82, -110) (83, -65) (84, 12) (85, -237) (86, -18) (87, 17) (88, -119) (89, -155) (90, 114) (91, 16) (92, 33) (93, -18) (94, -99) (95, 46) (96, -68) (97, 157) (98, -367) (99, 106) (100, 110) (0, -5) (1, -597) (2, 77) (3, -173) (4, -138) (5, -37) (6, 78) (7, 122) (8, 70) (9, -36) (10, -121) (11, 44) (12, 106) (13, -201) (14, -194) (15, 146) (16, -76) (17, -35) (18, -83) (19, -12) (20, -28) (21, -642) (22, 87) (23, -41) (24, 48) (25, -152) (26, -28) (27, 177) (28, 9) (29, -31) (30, -166) (31, 88) (32, -99) (33, -66) (34, 20) (35, -31) (36, -21) (37, -43) (38, 10) (39, -109) (40, 25) (41, 106) (42, 49) (43, 437) (44, -70) (45, -176) (46, -54) (47, -22) (48, -33) (49, -58) (50, -354) (51, 104) (52, -194) (53, 107) (54, -121) (55, -296) (56, 172) (57, -140) (58, 48) (59, -256) (60, -191) (61, -66) (62, 7) (63, 65) (64, 24) (65, 214) (66, -174) (67, 62) (68, -172) (69, -29) (70, -189) (71, -30) (72, 485) (73, 111) (74, -82) (75, 19) (76, -234) (77, -126) (78, -49) (79, 13) (80, -189) (81, 154) (82, -141) (83, 36) (84, 102) (85, -151) (86, 171) (87, 97) (88, -17) (89, -233) (90, 211) (91, -177) (92, 194) (93, -154) (94, -109) (95, 26) (96, 15) (97, 66) (98, -513) (99, 4) (100, -135) (0, -174) (1, -328) (2, -473) (3, -257) (4, -272) (5, -183) (6, -299) (7, -197) (8, -280) (9, -250) (10, -165) (11, -363) (12, -369) (13, -558) (14, -177) (15, -344) (16, -358) (17, -412) (18, -538) (19, -167) (20, -211) (21, -491) (22, -273) (23, -439) (24, -255) (25, -121) (26, -287) (27, -135) (28, -478) (29, -378) (30, -351) (31, -403) (32, -418) (33, -288) (34, -452) (35, -151) (36, -351) (37, -432) (38, -245) (39, -284) (40, -219) (41, -173) (42, -163) (43, -219) (44, -230) (45, -211) (46, -458) (47, -178) (48, -167) (49, -137) (50, -261) (51, -205) (52, -363) (53, -461) (54, -288) (55, -452) (56, -331) (57, -511) (58, -199) (59, -210) (60, -224) (61, -347) (62, -124) (63, -268) (64, -413) (65, -449) (66, -399) (67, -353) (68, -316) (69, -98) (70, -520) (71, -247) (72, -229) (73, -142) (74, -368) (75, -86) (76, -156) (77, -349) (78, -224) (79, -178) (80, -526) (81, -75) (82, -321) (83, -290) (84, -341) (85, -353) (86, -160) (87, -283) (88, -403) (89, -162) (90, -272) (91, -194) (92, -94) (93, -259) (94, -370) (95, -199) (96, -394) (97, -118) (98, -269) (99, -174) (100, -274) (0, -191) (1, -168) (2, -219) (3, -14) (4, -353) (5, -193) (6, -276) (7, -101) (8, -328) (9, -353) (10, -46) (11, -347) (12, -221) (13, -145) (14, -351) (15, -439) (16, -314) (17, -299) (18, -760) (19, -200) (20, -98) (21, -120) (22, -71) (23, -18) (24, -896) (25, -14) (26, -287) (27, -206) (28, 21) (29, -121) (30, -1043) (31, -120) (32, -120) (33, -146) (34, -160) (35, -284) (36, -9) (37, -243) (38, -5106) (39, -330) (40, -71) (41, -780) (42, -151) (43, -54) (44, -836) (45, -161) (46, 67) (47, -482) (48, -574) (49, -168) (50, 12) (51, -1084) (52, -331) (53, -301) (54, 33) (55, -182) (56, -293) (57, -331) (58, -380) (59, -175) (60, -614) (61, -207) (62, -117) (63, -74) (64, 48) (65, -124) (66, -443) (67, -165) (68, -351) (69, -286) (70, -419) (71, -83) (72, -140) (73, -283) (74, -314) (75, -209) (76, -508) (77, -557) (78, -299) (79, -142) (80, -968) (81, -348) (82, -171) (83, -264) (84, -282) (85, -237) (86, -265) (87, -537) (88, -209) (89, -291) (90, -324) (91, -307) (92, -203) (93, -270) (94, -193) (95, -7) (96, -258) (97, -214) (98, -218) (99, -168) (100, 11) (0, -6) (1, -91) (2, -252) (3, -52) (4, -294) (5, -62) (6, -300) (7, -89) (8, -206) (9, -245) (10, -67) (11, -255) (12, -151) (13, -143) (14, -133) (15, -293) (16, -248) (17, -308) (18, -1996) (19, -60) (20, -242) (21, -92) (22, -104) (23, -200) (24, -1262) (25, -82) (26, -836) (27, -241) (28, 20) (29, -317) (30, -752) (31, -112) (32, -565) (33, -171) (34, -136) (35, -640) (36, -58) (37, -263) (38, -4169) (39, -153) (40, -323) (41, -562) (42, -208) (43, -97) (44, -1084) (45, -580) (46, -93) (47, -378) (48, -700) (49, -438) (50, -233) (51, -1172) (52, -692) (53, -93) (54, -133) (55, -308) (56, -324) (57, -156) (58, -301) (59, -164) (60, -526) (61, -145) (62, -139) (63, -118) (64, -44) (65, -207) (66, -446) (67, -235) (68, -400) (69, -299) (70, -831) (71, -128) (72, -219) (73, -255) (74, -683) (75, -94) (76, -703) (77, -960) (78, -507) (79, -61) (80, -1420) (81, -196) (82, -284) (83, -328) (84, -224) (85, -219) (86, -94) (87, -351) (88, -248) (89, -262) (90, -317) (91, -273) (92, -138) (93, -329) (94, -349) (95, -29) (96, -137) (97, -51) (98, -294) (99, -235) (100, -238) (0, -345) (1, -311) (2, -657) (3, -81) (4, -283) (5, -344) (6, -506) (7, -377) (8, -570) (9, -411) (10, -339) (11, -410) (12, -380) (13, -351) (14, -320) (15, -494) (16, -505) (17, -216) (18, -432) (19, -387) (20, -465) (21, -101) (22, -245) (23, -243) (24, -281) (25, -159) (26, -180) (27, -427) (28, 73) (29, -344) (30, -722) (31, -731) (32, -143) (33, -305) (34, -447) (35, -121) (36, -304) (37, -395) (38, -373) (39, -468) (40, -203) (41, -703) (42, -575) (43, -173) (44, -246) (45, -247) (46, -82) (47, -703) (48, -444) (49, -115) (50, -113) (51, -730) (52, -428) (53, -829) (54, -425) (55, -265) (56, -555) (57, -295) (58, -548) (59, -278) (60, -624) (61, -299) (62, -606) (63, -333) (64, -212) (65, -716) (66, -593) (67, -366) (68, -405) (69, -574) (70, -234) (71, -558) (72, -297) (73, -454) (74, -323) (75, -287) (76, -516) (77, -281) (78, -454) (79, -412) (80, -367) (81, -463) (82, -236) (83, -280) (84, -392) (85, -231) (86, -482) (87, -712) (88, -365) (89, -178) (90, -643) (91, -357) (92, -359) (93, -527) (94, -290) (95, -172) (96, -425) (97, -687) (98, -394) (99, -382) (100, 234) (0, 121) (1, -334) (2, 101) (3, -188) (4, -74) (5, 33) (6, -395) (7, 45) (8, -22) (9, 39) (10, -238) (11, -120) (12, -264) (13, -108) (14, -391) (15, -32) (16, -294) (17, -15) (18, 34) (19, -159) (20, 104) (21, -400) (22, 54) (23, 16) (24, 127) (25, -415) (26, -315) (27, 76) (28, 45) (29, -116) (30, 14) (31, -103) (32, -69) (33, -631) (34, -183) (35, 162) (36, -513) (37, -122) (38, -88) (39, -29) (40, -176) (41, -60) (42, 155) (43, -102) (44, -92) (45, -239) (46, -309) (47, 88) (48, 99) (49, 41) (50, -20) (51, -37) (52, -80) (53, -161) (54, 29) (55, -88) (56, -176) (57, -169) (58, 70) (59, -419) (60, -295) (61, -122) (62, -65) (63, -169) (64, -215) (65, 79) (66, -220) (67, -42) (68, -144) (69, 154) (70, -106) (71, -342) (72, -94) (73, -468) (74, 19) (75, -86) (76, -21) (77, 99) (78, -6) (79, -2) (80, -435) (81, 93) (82, -60) (83, -47) (84, -353) (85, -73) (86, 63) (87, -138) (88, -158) (89, -9) (90, 144) (91, -165) (92, 142) (93, -218) (94, 17) (95, -22) (96, -118) (97, 139) (98, -293) (99, -18) (100, 125) (0, -369) (1, -307) (2, -505) (3, -194) (4, -535) (5, -498) (6, -625) (7, -415) (8, -464) (9, -355) (10, -348) (11, -424) (12, -294) (13, -142) (14, -498) (15, -1132) (16, -527) (17, -384) (18, -827) (19, -323) (20, -233) (21, -124) (22, -258) (23, -388) (24, -801) (25, -211) (26, -447) (27, -549) (28, -239) (29, -379) (30, -1241) (31, -552) (32, -422) (33, -517) (34, -421) (35, -337) (36, -201) (37, -303) (38, -2596) (39, -377) (40, -217) (41, -1027) (42, -410) (43, -216) (44, -564) (45, -485) (46, -120) (47, -888) (48, -889) (49, -358) (50, -7) (51, -1184) (52, -407) (53, -498) (54, -288) (55, -376) (56, -697) (57, -327) (58, -499) (59, -413) (60, -951) (61, -487) (62, -377) (63, -313) (64, -398) (65, -410) (66, -848) (67, -308) (68, -611) (69, -459) (70, -644) (71, -458) (72, -420) (73, -222) (74, -607) (75, -206) (76, -807) (77, -608) (78, -694) (79, -197) (80, -896) (81, -654) (82, -352) (83, -465) (84, -552) (85, -337) (86, -513) (87, -996) (88, -211) (89, -366) (90, -731) (91, -522) (92, -466) (93, -547) (94, -506) (95, -367) (96, -536) (97, -284) (98, -429) (99, -312) (100, -229) (0, -691) (1, -440) (2, -1270) (3, -230) (4, -521) (5, -415) (6, -1005) (7, -528) (8, -915) (9, -569) (10, -451) (11, -637) (12, -585) (13, -278) (14, -513) (15, -1319) (16, -790) (17, -578) (18, -1048) (19, -748) (20, -402) (21, -437) (22, -314) (23, -521) (24, -829) (25, -296) (26, -573) (27, -611) (28, -111) (29, -588) (30, -2047) (31, -947) (32, -395) (33, -554) (34, -620) (35, -460) (36, -266) (37, -568) (38, -1795) (39, -698) (40, -311) (41, -1708) (42, -1027) (43, -532) (44, -640) (45, -844) (46, -226) (47, -1540) (48, -1454) (49, -272) (50, -96) (51, -1577) (52, -949) (53, -1236) (54, -405) (55, -593) (56, -1495) (57, -486) (58, -1275) (59, -608) (60, -1581) (61, -819) (62, -635) (63, -490) (64, -423) (65, -880) (66, -1102) (67, -619) (68, -625) (69, -692) (70, -922) (71, -738) (72, -411) (73, -446) (74, -929) (75, -224) (76, -1132) (77, -587) (78, -1056) (79, -568) (80, -1072) (81, -1077) (82, -754) (83, -900) (84, -578) (85, -589) (86, -542) (87, -1525) (88, -492) (89, -387) (90, -1009) (91, -720) (92, -687) (93, -727) (94, -518) (95, -376) (96, -605) (97, -741) (98, -407) (99, -622) (100, 115) (0, -243) (1, -249) (2, -314) (3, 92) (4, -25) (5, -217) (6, -258) (7, -8) (8, -9) (9, 28) (10, -55) (11, -80) (12, -179) (13, -92) (14, -169) (15, -607) (16, -291) (17, 15) (18, -221) (19, -13) (20, 42) (21, -82) (22, -144) (23, -215) (24, -93) (25, -106) (26, -212) (27, -151) (28, -1) (29, -2) (30, -1286) (31, -359) (32, 74) (33, -65) (34, -101) (35, -174) (36, -184) (37, -130) (38, -1911) (39, -168) (40, -2) (41, -410) (42, -298) (43, -137) (44, -207) (45, -180) (46, -15) (47, -563) (48, -589) (49, -69) (50, 66) (51, -904) (52, -350) (53, -341) (54, -120) (55, -13) (56, -68) (57, -27) (58, -25) (59, -11) (60, -910) (61, -241) (62, -93) (63, -55) (64, -55) (65, -277) (66, -82) (67, -80) (68, -232) (69, -345) (70, -281) (71, -105) (72, -164) (73, -143) (74, -214) (75, -24) (76, -392) (77, -308) (78, -501) (79, 73) (80, -140) (81, -56) (82, -32) (83, -284) (84, -119) (85, -188) (86, -274) (87, -269) (88, -165) (89, -239) (90, -444) (91, -193) (92, -195) (93, 48) (94, -137) (95, -27) (96, -239) (97, -110) (98, -84) (99, -13) (100, 44) (0, -108) (1, -244) (2, -253) (3, -186) (4, -256) (5, -255) (6, -23) (7, -101) (8, -195) (9, -233) (10, -46) (11, -276) (12, -269) (13, -274) (14, -293) (15, -206) (16, -204) (17, -340) (18, -273) (19, -242) (20, -17) (21, -289) (22, -169) (23, -181) (24, -354) (25, -150) (26, -437) (27, -244) (28, -183) (29, -232) (30, -318) (31, 10) (32, -309) (33, -47) (34, -251) (35, -310) (36, -179) (37, -280) (38, -505) (39, -220) (40, -368) (41, -222) (42, -56) (43, -96) (44, -271) (45, -376) (46, -22) (47, -283) (48, -111) (49, -406) (50, -272) (51, -371) (52, -324) (53, -174) (54, -91) (55, -343) (56, -178) (57, -170) (58, -236) (59, -243) (60, -151) (61, -311) (62, -29) (63, -323) (64, -188) (65, -45) (66, -413) (67, -62) (68, -289) (69, -320) (70, -478) (71, -344) (72, -235) (73, -176) (74, -401) (75, -319) (76, -329) (77, -284) (78, -296) (79, -276) (80, -320) (81, -49) (82, -362) (83, -168) (84, -174) (85, -264) (86, -106) (87, -217) (88, -234) (89, -163) (90, -154) (91, -182) (92, -155) (93, -174) (94, -373) (95, -248) (96, -89) (97, -67) (98, -492) (99, -115) (100, -307) (0, -555) (1, -158) (2, -561) (3, -59) (4, -652) (5, -333) (6, -612) (7, -348) (8, -680) (9, -586) (10, -348) (11, -417) (12, -406) (13, -39) (14, -544) (15, -985) (16, -583) (17, -468) (18, -666) (19, -391) (20, -320) (21, -211) (22, -446) (23, -195) (24, -626) (25, -75) (26, -234) (27, -397) (28, 53) (29, -445) (30, -1471) (31, -738) (32, -216) (33, -398) (34, -413) (35, -423) (36, -346) (37, -321) (38, -2663) (39, -299) (40, -154) (41, -933) (42, -635) (43, -408) (44, -287) (45, -517) (46, -89) (47, -838) (48, -778) (49, -139) (50, -4) (51, -936) (52, -451) (53, -703) (54, -563) (55, -138) (56, -828) (57, -326) (58, -548) (59, -193) (60, -863) (61, -404) (62, -391) (63, -252) (64, -207) (65, -550) (66, -887) (67, -501) (68, -395) (69, -573) (70, -568) (71, -526) (72, -209) (73, -244) (74, -708) (75, -107) (76, -835) (77, -538) (78, -623) (79, -474) (80, -811) (81, -487) (82, -445) (83, -506) (84, -553) (85, -304) (86, -497) (87, -760) (88, -372) (89, -316) (90, -772) (91, -564) (92, -435) (93, -478) (94, -267) (95, -196) (96, -535) (97, -562) (98, -389) (99, -458) (100, 79) (0, -62) (1, -74) (2, 52) (3, -81) (4, -158) (5, -54) (6, 92) (7, 53) (8, -137) (9, 99) (10, -175) (11, 31) (12, -111) (13, -98) (14, 57) (15, 122) (16, 47) (17, -133) (18, -161) (19, -129) (20, -27) (21, 69) (22, -151) (23, -35) (24, -77) (25, -110) (26, 80) (27, -162) (28, 30) (29, 49) (30, -14) (31, 27) (32, -10) (33, -184) (34, -45) (35, 8) (36, 95) (37, -67) (38, -85) (39, 24) (40, -96) (41, -41) (42, 24) (43, 9) (44, -173) (45, -193) (46, -14) (47, -30) (48, 75) (49, 55) (50, -2) (51, 47) (52, 88) (53, -108) (54, 108) (55, -106) (56, -109) (57, -11) (58, 60) (59, -170) (60, 2) (61, 1) (62, -44) (63, -29) (64, -26) (65, -77) (66, -40) (67, 8) (68, -85) (69, -33) (70, 25) (71, 41) (72, -23) (73, -83) (74, 14) (75, -134) (76, 57) (77, -92) (78, -24) (79, -160) (80, 5) (81, -130) (82, -88) (83, -129) (84, -103) (85, -14) (86, 91) (87, -111) (88, -62) (89, -120) (90, -138) (91, 67) (92, -98) (93, 82) (94, 17) (95, -38) (96, 75) (97, 74) (98, -247) (99, -94) (100, 180) (0, -927) (1, -604) (2, -1131) (3, -382) (4, -724) (5, -727) (6, -1262) (7, -701) (8, -1117) (9, -702) (10, -594) (11, -961) (12, -658) (13, -590) (14, -762) (15, -1952) (16, -984) (17, -670) (18, -1093) (19, -909) (20, -558) (21, -477) (22, -521) (23, -661) (24, -895) (25, -527) (26, -607) (27, -962) (28, -239) (29, -785) (30, -2793) (31, -1509) (32, -642) (33, -779) (34, -799) (35, -662) (36, -593) (37, -633) (38, -2672) (39, -846) (40, -383) (41, -1847) (42, -1376) (43, -797) (44, -844) (45, -787) (46, -195) (47, -1944) (48, -1589) (49, -468) (50, -269) (51, -2071) (52, -930) (53, -1291) (54, -867) (55, -562) (56, -1712) (57, -819) (58, -1565) (59, -675) (60, -1975) (61, -827) (62, -941) (63, -549) (64, -569) (65, -1140) (66, -1295) (67, -834) (68, -1073) (69, -1025) (70, -1155) (71, -1013) (72, -664) (73, -690) (74, -1139) (75, -529) (76, -1126) (77, -718) (78, -1299) (79, -742) (80, -1350) (81, -1262) (82, -947) (83, -1303) (84, -952) (85, -828) (86, -977) (87, -1662) (88, -841) (89, -693) (90, -1522) (91, -950) (92, -771) (93, -978) (94, -905) (95, -674) (96, -858) (97, -949) (98, -758) (99, -740) (100, 91) (0, 146) (1, -246) (2, 28) (3, -11) (4, -219) (5, -94) (6, 49) (7, -178) (8, -25) (9, -147) (10, 35) (11, -78) (12, -143) (13, -230) (14, -105) (15, -83) (16, -206) (17, -170) (18, -205) (19, -30) (20, -177) (21, -324) (22, -14) (23, -194) (24, -179) (25, -206) (26, -184) (27, 64) (28, -63) (29, -135) (30, 10) (31, -44) (32, 31) (33, -162) (34, -174) (35, 33) (36, -207) (37, -67) (38, -247) (39, -5) (40, -216) (41, -93) (42, 109) (43, -175) (44, -149) (45, -291) (46, -130) (47, -168) (48, -77) (49, -184) (50, -124) (51, 14) (52, -109) (53, 7) (54, -123) (55, -191) (56, -139) (57, -47) (58, -99) (59, -128) (60, -27) (61, 24) (62, -39) (63, -4) (64, -242) (65, 23) (66, -115) (67, 12) (68, -133) (69, -142) (70, -101) (71, -109) (72, -139) (73, -19) (74, -7) (75, -11) (76, -93) (77, -167) (78, 20) (79, -21) (80, -147) (81, -95) (82, -6) (83, -81) (84, -70) (85, -159) (86, 75) (87, 74) (88, -79) (89, -43) (90, -34) (91, -155) (92, -145) (93, -90) (94, -176) (95, -117) (96, 20) (97, 46) (98, -211) (99, -11) (100, 168) (0, 48) (1, -170) (2, -139) (3, -100) (4, 54) (5, -52) (6, 1) (7, 103) (8, -16) (9, -142) (10, 26) (11, -120) (12, -129) (13, -34) (14, -49) (15, 50) (16, -89) (17, -152) (18, 90) (19, -13) (20, -40) (21, -157) (22, 67) (23, 46) (24, 106) (25, -119) (26, 81) (27, 2) (28, 67) (29, 25) (30, 60) (31, 83) (32, -114) (33, -39) (34, -77) (35, -4) (36, -65) (37, -12) (38, -3) (39, 51) (40, -108) (41, 93) (42, 140) (43, 76) (44, -65) (45, 12) (46, 31) (47, 123) (48, -133) (49, -93) (50, -28) (51, -21) (52, -70) (53, 69) (54, -116) (55, -44) (56, -66) (57, -44) (58, -32) (59, 42) (60, 5) (61, -110) (62, -52) (63, -90) (64, -88) (65, 19) (66, 86) (67, -1) (68, -76) (69, -50) (70, 75) (71, 89) (72, 29) (73, -87) (74, 12) (75, -118) (76, -118) (77, -36) (78, -136) (79, 35) (80, -29) (81, 36) (82, -138) (83, 98) (84, 104) (85, 26) (86, -81) (87, 112) (88, -126) (89, -65) (90, 63) (91, 84) (92, -130) (93, 114) (94, -115) (95, -111) (96, -143) (97, 71) (98, -124) (99, -111) (100, -358) (0, -1058) (1, -657) (2, -18296) (3, -460) (4, -752) (5, -960) (6, -1104) (7, -519) (8, -908) (9, -861) (10, -746) (11, -1056) (12, -892) (13, -537) (14, -893) (15, -2279) (16, -1097) (17, -723) (18, -1042) (19, -1150) (20, -727) (21, -323) (22, -656) (23, -675) (24, -990) (25, -415) (26, -573) (27, -1138) (28, -328) (29, -835) (30, -2801) (31, -1750) (32, -668) (33, -956) (34, -910) (35, -494) (36, -592) (37, -631) (38, -1826) (39, -757) (40, -485) (41, -1708) (42, -1349) (43, -782) (44, -811) (45, -907) (46, -268) (47, -2046) (48, -1424) (49, -596) (50, -346) (51, -1729) (52, -886) (53, -1439) (54, -784) (55, -633) (56, -2014) (57, -1009) (58, -9802) (59, -683) (60, -2078) (61, -1119) (62, -749) (63, -826) (64, -508) (65, -1383) (66, -1461) (67, -806) (68, -1119) (69, -1157) (70, -1032) (71, -1285) (72, -868) (73, -599) (74, -1145) (75, -296) (76, -1106) (77, -686) (78, -1141) (79, -758) (80, -1116) (81, -1193) (82, -926) (83, -784) (84, -940) (85, -955) (86, -1190) (87, -1939) (88, -901) (89, -721) (90, -1521) (91, -793) (92, -819) (93, -871) (94, -595) (95, -485) (96, -788) (97, -1008) (98, -652) (99, -864) (100, -43) (0, -172) (1, -311) (2, -209) (3, -101) (4, -436) (5, -189) (6, -284) (7, -313) (8, -420) (9, -382) (10, -28) (11, -139) (12, -364) (13, -207) (14, -243) (15, -196) (16, -342) (17, -322) (18, -1423) (19, -205) (20, -166) (21, -231) (22, -251) (23, -107) (24, -1022) (25, -183) (26, -535) (27, -130) (28, -220) (29, -234) (30, -414) (31, -347) (32, -368) (33, -187) (34, -356) (35, -404) (36, -224) (37, -35) (38, -2289) (39, -390) (40, -160) (41, -329) (42, -249) (43, -184) (44, -301) (45, -339) (46, -141) (47, -263) (48, -416) (49, -194) (50, -245) (51, -671) (52, -352) (53, -284) (54, -170) (55, -168) (56, -377) (57, -181) (58, -207) (59, -192) (60, -384) (61, -329) (62, -300) (63, -198) (64, -54) (65, -125) (66, -351) (67, -208) (68, -386) (69, -483) (70, -462) (71, -426) (72, -184) (73, -206) (74, -406) (75, -232) (76, -391) (77, -949) (78, -550) (79, -162) (80, -725) (81, -344) (82, -344) (83, -270) (84, -426) (85, -312) (86, -267) (87, -344) (88, -268) (89, -252) (90, -412) (91, -370) (92, -188) (93, -221) (94, -380) (95, -34) (96, -260) (97, -194) (98, -348) (99, -107) (100, 36) (0, -124) (1, -63) (2, 336) (3, -33) (4, -208) (5, 3) (6, 209) (7, -116) (8, 23) (9, -76) (10, -8) (11, 97) (12, -65) (13, -174) (14, -78) (15, -10) (16, -43) (17, 85) (18, -24) (19, -65) (20, -76) (21, -129) (22, -70) (23, -211) (24, 28) (25, -112) (26, -18) (27, -50) (28, -130) (29, -120) (30, 92) (31, 66) (32, -112) (33, -85) (34, -24) (35, 21) (36, -45) (37, -70) (38, 104) (39, 59) (40, -182) (41, 51) (42, 101) (43, -68) (44, -143) (45, -255) (46, 78) (47, 138) (48, 176) (49, -176) (50, -91) (51, 80) (52, 129) (53, 159) (54, -218) (55, -186) (56, -51) (57, -215) (58, -202) (59, -3) (60, -23) (61, 24) (62, 76) (63, 82) (64, -62) (65, 88) (66, -55) (67, 3) (68, 12) (69, 1) (70, -37) (71, 164) (72, 66) (73, -107) (74, 36) (75, 10) (76, -17) (77, -75) (78, -41) (79, -113) (80, 96) (81, 75) (82, -51) (83, 149) (84, 108) (85, -145) (86, -80) (87, -7) (88, 72) (89, 21) (90, 55) (91, -89) (92, -54) (93, 265) (94, 98) (95, 8) (96, 1) (97, 91) (98, -196) (99, -17) (100, -132) (0, 41) (1, -151) (2, 105) (3, -148) (4, -29) (5, -89) (6, -34) (7, -58) (8, -77) (9, -112) (10, -85) (11, -120) (12, -218) (13, 2) (14, -125) (15, -93) (16, -148) (17, -152) (18, -184) (19, 25) (20, 35) (21, -211) (22, 61) (23, 43) (24, -25) (25, 90) (26, -270) (27, -84) (28, -202) (29, -25) (30, 47) (31, 162) (32, -143) (33, -71) (34, -28) (35, -175) (36, -121) (37, -20) (38, -261) (39, 63) (40, -250) (41, 2) (42, 9) (43, 71) (44, -51) (45, -155) (46, 76) (47, -26) (48, -23) (49, -92) (50, -250) (51, -129) (52, -202) (53, -125) (54, -8) (55, -11) (56, 3) (57, -17) (58, 43) (59, -72) (60, -143) (61, 46) (62, -29) (63, 54) (64, -51) (65, -32) (66, -142) (67, -45) (68, -65) (69, 22) (70, -169) (71, 112) (72, 58) (73, -95) (74, -121) (75, -20) (76, 32) (77, -270) (78, 0) (79, 86) (80, -125) (81, -150) (82, -175) (83, -12) (84, -73) (85, -138) (86, -122) (87, -36) (88, -101) (89, -75) (90, -96) (91, -135) (92, -93) (93, 12) (94, -193) (95, -47) (96, 74) (97, -17) (98, -145) (99, -72) (100, -338) (0, -178) (1, 12) (2, -176) (3, 37) (4, -126) (5, -76) (6, -150) (7, 55) (8, -131) (9, -143) (10, -39) (11, -113) (12, -3) (13, -15) (14, -97) (15, -108) (16, -131) (17, 74) (18, -26) (19, -92) (20, 20) (21, 121) (22, -49) (23, -130) (24, -6) (25, 72) (26, 120) (27, -92) (28, -82) (29, -106) (30, -169) (31, -29) (32, -50) (33, -119) (34, -86) (35, -107) (36, -10) (37, -81) (38, 674) (39, -104) (40, -38) (41, -5) (42, -77) (43, -134) (44, -9) (45, -148) (46, -109) (47, -98) (48, 43) (49, -78) (50, -44) (51, -21) (52, 8) (53, -210) (54, -60) (55, -121) (56, -97) (57, 50) (58, -190) (59, -134) (60, -179) (61, -113) (62, -19) (63, -31) (64, 126) (65, -66) (66, -36) (67, 41) (68, -162) (69, 62) (70, -88) (71, -185) (72, 44) (73, -141) (74, -120) (75, -103) (76, -167) (77, 106) (78, -82) (79, -38) (80, -125) (81, -127) (82, -104) (83, 56) (84, 47) (85, -3) (86, -136) (87, 41) (88, -173) (89, 106) (90, -1) (91, -71) (92, -17) (93, -19) (94, 27) (95, -49) (96, -164) (97, 22) (98, 56) (99, -79) (100, -102) (0, 76) (1, -99) (2, 185) (3, -231) (4, 44) (5, -29) (6, -5) (7, -205) (8, 114) (9, -94) (10, -316) (11, 522) (12, -170) (13, -310) (14, -119) (15, 73) (16, 24) (17, 55) (18, 136) (19, -143) (20, -31) (21, -209) (22, -20) (23, -103) (24, 173) (25, -309) (26, -197) (27, 184) (28, -477) (29, -306) (30, 525) (31, 118) (32, 167) (33, -216) (34, 17) (35, -3) (36, -238) (37, -100) (38, 143) (39, -178) (40, -373) (41, 490) (42, 166) (43, -176) (44, -142) (45, -146) (46, -283) (47, 422) (48, 207) (49, -59) (50, -528) (51, 448) (52, 73) (53, 146) (54, -67) (55, -45) (56, 340) (57, -333) (58, 220) (59, 21) (60, 185) (61, 32) (62, -130) (63, -99) (64, -326) (65, 134) (66, 74) (67, -190) (68, -114) (69, 112) (70, 24) (71, 208) (72, -8) (73, -309) (74, 149) (75, -377) (76, 95) (77, -46) (78, 176) (79, -216) (80, 357) (81, 117) (82, 13) (83, 175) (84, -156) (85, -113) (86, 192) (87, 418) (88, -8) (89, -152) (90, -107) (91, 75) (92, -45) (93, -52) (94, -30) (95, -137) (96, -141) (97, 151) (98, -252) (99, 6) (100, -849) (0, -851) (1, -615) (2, -1923) (3, -311) (4, -673) (5, -504) (6, -757) (7, -602) (8, -855) (9, -686) (10, -505) (11, -847) (12, -621) (13, -554) (14, -786) (15, -1106) (16, -732) (17, -472) (18, -949) (19, -613) (20, -355) (21, -170) (22, -397) (23, -484) (24, -814) (25, -401) (26, -540) (27, -619) (28, -12) (29, -652) (30, -1468) (31, -818) (32, -432) (33, -671) (34, -578) (35, -458) (36, -262) (37, -637) (38, -1442) (39, -603) (40, -414) (41, -1271) (42, -955) (43, -387) (44, -562) (45, -565) (46, -128) (47, -1255) (48, -1030) (49, -502) (50, -128) (51, -1154) (52, -807) (53, -915) (54, -412) (55, -415) (56, -1210) (57, -648) (58, -996) (59, -461) (60, -1334) (61, -608) (62, -667) (63, -519) (64, -501) (65, -709) (66, -929) (67, -611) (68, -781) (69, -890) (70, -760) (71, -762) (72, -428) (73, -593) (74, -748) (75, -179) (76, -971) (77, -742) (78, -1102) (79, -432) (80, -1078) (81, -996) (82, -669) (83, -722) (84, -635) (85, -626) (86, -589) (87, -1290) (88, -698) (89, -461) (90, -861) (91, -870) (92, -553) (93, -773) (94, -693) (95, -426) (96, -670) (97, -784) (98, -543) (99, -579) (100, -37) (0, 214) (1, -365) (2, 199) (3, -312) (4, -145) (5, -209) (6, 202) (7, -505) (8, 154) (9, 336) (10, -379) (11, 517) (12, -168) (13, -186) (14, -259) (15, 512) (16, 164) (17, -219) (18, 165) (19, 4) (20, -79) (21, -318) (22, -20) (23, -368) (24, 257) (25, -444) (26, -139) (27, 20) (28, -798) (29, -59) (30, 352) (31, 333) (32, -19) (33, -58) (34, 16) (35, -566) (36, -473) (37, -305) (38, 321) (39, 166) (40, -476) (41, 511) (42, 291) (43, 100) (44, -120) (45, -118) (46, -593) (47, 425) (48, 430) (49, -98) (50, -786) (51, 405) (52, 0) (53, 275) (54, 22) (55, -72) (56, 469) (57, -10) (58, 681) (59, -130) (60, 370) (61, -76) (62, -43) (63, -389) (64, -487) (65, 166) (66, 51) (67, -121) (68, -146) (69, 234) (70, 226) (71, 518) (72, 48) (73, 105) (74, -76) (75, -472) (76, 345) (77, 40) (78, 408) (79, -183) (80, 449) (81, 73) (82, -114) (83, 223) (84, -353) (85, -498) (86, 349) (87, 560) (88, -151) (89, -219) (90, 70) (91, 143) (92, -176) (93, -273) (94, -236) (95, -22) (96, -320) (97, 246) (98, -545) (99, 103) (100, -1248) (0, -1141) (1, -897) (2, -1429) (3, -622) (4, -1002) (5, -975) (6, -1318) (7, -976) (8, -1431) (9, -1120) (10, -781) (11, -1251) (12, -1097) (13, -606) (14, -1021) (15, -2340) (16, -1128) (17, -854) (18, -1347) (19, -1033) (20, -731) (21, -481) (22, -804) (23, -656) (24, -1338) (25, -515) (26, -724) (27, -1117) (28, -253) (29, -867) (30, -3248) (31, -1631) (32, -668) (33, -900) (34, -942) (35, -952) (36, -595) (37, -842) (38, -3683) (39, -1064) (40, -473) (41, -2507) (42, -1684) (43, -846) (44, -962) (45, -1132) (46, -235) (47, -2056) (48, -1960) (49, -606) (50, -230) (51, -2474) (52, -1420) (53, -1834) (54, -864) (55, -813) (56, -2176) (57, -967) (58, -1775) (59, -751) (60, -2112) (61, -1130) (62, -1009) (63, -845) (64, -702) (65, -1277) (66, -1564) (67, -920) (68, -1319) (69, -1306) (70, -1456) (71, -1302) (72, -828) (73, -815) (74, -1565) (75, -628) (76, -1508) (77, -1169) (78, -1692) (79, -746) (80, -1759) (81, -1345) (82, -1194) (83, -1367) (84, -1191) (85, -800) (86, -1166) (87, -1849) (88, -823) (89, -841) (90, -1637) (91, -1184) (92, -858) (93, -1045) (94, -980) (95, -555) (96, -1105) (97, -1211) (98, -865) (99, -1005) (100, 222) (0, 114) (1, -283) (2, 179) (3, -138) (4, 60) (5, 4) (6, -84) (7, -97) (8, 83) (9, 53) (10, -121) (11, 150) (12, -50) (13, -84) (14, -160) (15, -11) (16, -149) (17, 69) (18, -14) (19, -63) (20, -85) (21, -196) (22, 61) (23, -137) (24, 103) (25, -169) (26, -210) (27, -140) (28, -301) (29, -146) (30, 31) (31, -41) (32, -15) (33, -56) (34, -62) (35, -114) (36, 17) (37, -10) (38, 57) (39, 23) (40, -163) (41, 99) (42, 29) (43, 76) (44, 6) (45, -90) (46, -158) (47, -11) (48, 46) (49, 53) (50, -156) (51, 54) (52, -103) (53, 81) (54, 4) (55, -131) (56, 27) (57, -99) (58, 9) (59, -182) (60, 119) (61, -30) (62, 47) (63, -123) (64, -29) (65, -53) (66, -34) (67, -98) (68, 30) (69, -70) (70, -93) (71, -151) (72, -47) (73, 5) (74, 103) (75, -118) (76, -87) (77, 14) (78, 197) (79, 20) (80, -82) (81, 144) (82, -96) (83, 72) (84, 24) (85, -195) (86, -50) (87, 63) (88, -82) (89, 34) (90, 63) (91, 85) (92, 101) (93, -67) (94, -145) (95, -168) (96, 34) (97, 32) (98, -116) (99, 79) (100, -184) (0, -324) (1, -874) (2, -629) (3, -630) (4, -383) (5, -475) (6, -614) (7, -344) (8, -397) (9, -354) (10, -711) (11, -568) (12, -598) (13, -902) (14, -867) (15, -266) (16, -962) (17, -279) (18, -275) (19, -321) (20, -841) (21, -1025) (22, -200) (23, -908) (24, -289) (25, -796) (26, -662) (27, -493) (28, -778) (29, -766) (30, -294) (31, -484) (32, -411) (33, -856) (34, -608) (35, -212) (36, -866) (37, -908) (38, -363) (39, -212) (40, -598) (41, -440) (42, -203) (43, -438) (44, -844) (45, -795) (46, -897) (47, -485) (48, -503) (49, -259) (50, -788) (51, -527) (52, -274) (53, -606) (54, -467) (55, -729) (56, -576) (57, -759) (58, -561) (59, -686) (60, -465) (61, -513) (62, -284) (63, -438) (64, -752) (65, -433) (66, -890) (67, -852) (68, -389) (69, -355) (70, -299) (71, -837) (72, -798) (73, -303) (74, -362) (75, -733) (76, -537) (77, -442) (78, -320) (79, -823) (80, -595) (81, -240) (82, -360) (83, -86) (84, -594) (85, -800) (86, -437) (87, -466) (88, -254) (89, -725) (90, -423) (91, -292) (92, -529) (93, -542) (94, -746) (95, -494) (96, -934) (97, -377) (98, -988) (99, -258) (100, -268) (0, -216) (1, -155) (2, -167) (3, -172) (4, -95) (5, -147) (6, -219) (7, 16) (8, -100) (9, -71) (10, -239) (11, -21) (12, -60) (13, -62) (14, -186) (15, -102) (16, -138) (17, -190) (18, -189) (19, -172) (20, -227) (21, -132) (22, 16) (23, -76) (24, -92) (25, 0) (26, -60) (27, -254) (28, -111) (29, 0) (30, -168) (31, -206) (32, -70) (33, -161) (34, -43) (35, -107) (36, -48) (37, -209) (38, -79) (39, -19) (40, -59) (41, -37) (42, -160) (43, -159) (44, -28) (45, -96) (46, -105) (47, -137) (48, -27) (49, -3) (50, -57) (51, -25) (52, -80) (53, -67) (54, -79) (55, -86) (56, -70) (57, -153) (58, -33) (59, -203) (60, -163) (61, -25) (62, -218) (63, -1) (64, -37) (65, -204) (66, -64) (67, -94) (68, -125) (69, -100) (70, -208) (71, -88) (72, 20) (73, -73) (74, -16) (75, -86) (76, -186) (77, -221) (78, -6) (79, -87) (80, -95) (81, -109) (82, -232) (83, -71) (84, -143) (85, -116) (86, -54) (87, -91) (88, -85) (89, -172) (90, -101) (91, -3) (92, 12) (93, -4) (94, -166) (95, -146) (96, -234) (97, -124) (98, -133) (99, -97) (100, -293) (0, -140) (1, -297) (2, -66) (3, -131) (4, -109) (5, 9) (6, -159) (7, -97) (8, -129) (9, -32) (10, 6) (11, -26) (12, -185) (13, -59) (14, -69) (15, -191) (16, -147) (17, -241) (18, -375) (19, -83) (20, -30) (21, -45) (22, -213) (23, -194) (24, -186) (25, -198) (26, -314) (27, 0) (28, -96) (29, -82) (30, -12) (31, -71) (32, -281) (33, -38) (34, -152) (35, -186) (36, -183) (37, -99) (38, -462) (39, -5) (40, -368) (41, -123) (42, 52) (43, 39) (44, -154) (45, -249) (46, -119) (47, -40) (48, -82) (49, -150) (50, -178) (51, -241) (52, -219) (53, -154) (54, 57) (55, -110) (56, -134) (57, -215) (58, -183) (59, -43) (60, -108) (61, -71) (62, 76) (63, -219) (64, -135) (65, -35) (66, -130) (67, -105) (68, -102) (69, -145) (70, -144) (71, 8) (72, -155) (73, -129) (74, -218) (75, -120) (76, -153) (77, -264) (78, -98) (79, -142) (80, -161) (81, -24) (82, -228) (83, -98) (84, -69) (85, -236) (86, -31) (87, -228) (88, -157) (89, -127) (90, -56) (91, -16) (92, -46) (93, -185) (94, -242) (95, 50) (96, -102) (97, 57) (98, -217) (99, 79) (100, -231) (0, -133) (1, -102) (2, -180) (3, -95) (4, -99) (5, -109) (6, -128) (7, 31) (8, -105) (9, -22) (10, 43) (11, -76) (12, 32) (13, -140) (14, -79) (15, -144) (16, -195) (17, -70) (18, -165) (19, -3) (20, -95) (21, -31) (22, -109) (23, -134) (24, 74) (25, -90) (26, 4) (27, -153) (28, 67) (29, 66) (30, -176) (31, -244) (32, -136) (33, -20) (34, -75) (35, -62) (36, 98) (37, -126) (38, -222) (39, 75) (40, -74) (41, -214) (42, -124) (43, -125) (44, -106) (45, -2) (46, 53) (47, -239) (48, -195) (49, -110) (50, 9) (51, -70) (52, -80) (53, -82) (54, -105) (55, 57) (56, -164) (57, -146) (58, -213) (59, 13) (60, -168) (61, -146) (62, -196) (63, 25) (64, -126) (65, -122) (66, -176) (67, -169) (68, -88) (69, -89) (70, -79) (71, -116) (72, 5) (73, -32) (74, -72) (75, -139) (76, -84) (77, -89) (78, -47) (79, 66) (80, 34) (81, -9) (82, -150) (83, -67) (84, -110) (85, -108) (86, -154) (87, -243) (88, -45) (89, -56) (90, -100) (91, -149) (92, -158) (93, -107) (94, -156) (95, 40) (96, -62) (97, -234) (98, 81) (99, -142) (100, -83) (0, 36) (1, -187) (2, 86) (3, 68) (4, 34) (5, 42) (6, 96) (7, -63) (8, 29) (9, 9) (10, -85) (11, 97) (12, 217) (13, -136) (14, -108) (15, 332) (16, 19) (17, 23) (18, 31) (19, 144) (20, -3) (21, -122) (22, 71) (23, -79) (24, 3) (25, -243) (26, 15) (27, 46) (28, -105) (29, -107) (30, 336) (31, 321) (32, -81) (33, 69) (34, 34) (35, -29) (36, -262) (37, -148) (38, 139) (39, 21) (40, -43) (41, 246) (42, 149) (43, 50) (44, -29) (45, -129) (46, 8) (47, 392) (48, 369) (49, -10) (50, -21) (51, 395) (52, 36) (53, 299) (54, -150) (55, -55) (56, 331) (57, -134) (58, 67) (59, -113) (60, 309) (61, 85) (62, -74) (63, -15) (64, -101) (65, 295) (66, 110) (67, 25) (68, -75) (69, -158) (70, 7) (71, 94) (72, -143) (73, -91) (74, 66) (75, -76) (76, 97) (77, 31) (78, 152) (79, -39) (80, -21) (81, 166) (82, 66) (83, 273) (84, -75) (85, 20) (86, -9) (87, 318) (88, 26) (89, -209) (90, 86) (91, 90) (92, -12) (93, 22) (94, -98) (95, 102) (96, -76) (97, 152) (98, -177) (99, 26) (100, -341) (0, -1427) (1, -734) (2, -1538) (3, -571) (4, -879) (5, -835) (6, -1272) (7, -662) (8, -1244) (9, -1108) (10, -685) (11, -1319) (12, -751) (13, -594) (14, -986) (15, -2187) (16, -1037) (17, -858) (18, -1103) (19, -939) (20, -620) (21, -345) (22, -559) (23, -635) (24, -1215) (25, -617) (26, -767) (27, -1005) (28, -193) (29, -865) (30, -2999) (31, -1709) (32, -738) (33, -844) (34, -839) (35, -777) (36, -612) (37, -716) (38, -2785) (39, -927) (40, -513) (41, -2708) (42, -1667) (43, -808) (44, -1207) (45, -943) (46, -429) (47, -2062) (48, -1957) (49, -409) (50, -272) (51, -2461) (52, -1329) (53, -1692) (54, -806) (55, -589) (56, -2287) (57, -807) (58, -2288) (59, -835) (60, -1957) (61, -1072) (62, -935) (63, -640) (64, -503) (65, -1427) (66, -1480) (67, -887) (68, -1216) (69, -1301) (70, -1193) (71, -1158) (72, -654) (73, -734) (74, -1383) (75, -410) (76, -1353) (77, -903) (78, -1566) (79, -763) (80, -1946) (81, -1885) (82, -951) (83, -1568) (84, -1081) (85, -748) (86, -973) (87, -2152) (88, -751) (89, -580) (90, -1836) (91, -1161) (92, -819) (93, -1002) (94, -856) (95, -661) (96, -772) (97, -1256) (98, -731) (99, -863) (100, 179) (0, -281) (1, -436) (2, -191) (3, -25) (4, -386) (5, -275) (6, 181) (7, -220) (8, -46) (9, -348) (10, -115) (11, -122) (12, 178) (13, 12) (14, 12) (15, -410) (16, -289) (17, 6) (18, -830) (19, 48) (20, 107) (21, -434) (22, -318) (23, -137) (24, -911) (25, -107) (26, 88) (27, 69) (28, -299) (29, -160) (30, -221) (31, 248) (32, -501) (33, -257) (34, -372) (35, -306) (36, -132) (37, 145) (38, -1281) (39, -162) (40, -740) (41, -360) (42, -94) (43, -93) (44, 10) (45, -549) (46, -60) (47, -345) (48, -488) (49, -667) (50, -642) (51, -403) (52, -101) (53, -149) (54, -76) (55, -43) (56, -477) (57, -65) (58, -171) (59, -241) (60, -387) (61, -292) (62, -106) (63, -152) (64, -241) (65, -213) (66, -291) (67, -319) (68, -205) (69, -183) (70, -631) (71, 123) (72, 43) (73, -96) (74, -270) (75, -116) (76, -476) (77, -854) (78, 107) (79, -11) (80, -380) (81, -427) (82, -273) (83, -199) (84, -363) (85, -346) (86, -108) (87, -410) (88, -203) (89, -319) (90, -473) (91, -203) (92, 0) (93, -14) (94, 118) (95, -66) (96, 128) (97, -29) (98, -995) (99, 191) (100, -173) (0, 338) (1, -209) (2, 1049) (3, -408) (4, -148) (5, 154) (6, 487) (7, -357) (8, 77) (9, 123) (10, -170) (11, 409) (12, -448) (13, -340) (14, -22) (15, 192) (16, 280) (17, -119) (18, 492) (19, 279) (20, -301) (21, -634) (22, -113) (23, -353) (24, -51) (25, -991) (26, -433) (27, 192) (28, -1097) (29, -191) (30, 685) (31, 478) (32, -254) (33, -192) (34, -32) (35, -336) (36, -749) (37, -61) (38, 431) (39, -69) (40, -1138) (41, 824) (42, 432) (43, 32) (44, -218) (45, -286) (46, -625) (47, 572) (48, 393) (49, -466) (50, -1346) (51, 915) (52, 261) (53, 411) (54, -194) (55, -125) (56, 526) (57, -307) (58, 832) (59, -284) (60, 757) (61, 183) (62, 23) (63, -357) (64, -507) (65, 353) (66, 33) (67, -242) (68, -178) (69, 243) (70, 202) (71, 529) (72, 300) (73, 33) (74, 129) (75, -859) (76, 168) (77, -44) (78, 99) (79, -406) (80, 281) (81, 40) (82, -139) (83, 229) (84, -377) (85, -312) (86, 383) (87, 1153) (88, -183) (89, -544) (90, -208) (91, 119) (92, -38) (93, -194) (94, -292) (95, -115) (96, -336) (97, 418) (98, -809) (99, 139) (100, -1519) (0, -64) (1, 60) (2, -236) (3, 120) (4, -77) (5, -95) (6, -111) (7, -132) (8, -1) (9, -28) (10, -88) (11, -19) (12, -9) (13, -44) (14, 27) (15, -16) (16, -41) (17, 30) (18, -41) (19, -106) (20, -160) (21, -54) (22, 0) (23, -106) (24, 73) (25, -118) (26, 88) (27, -202) (28, -82) (29, -100) (30, -145) (31, -248) (32, -72) (33, 17) (34, -43) (35, 75) (36, -127) (37, -65) (38, 23) (39, -11) (40, 147) (41, -56) (42, 2) (43, 68) (44, -61) (45, -115) (46, -54) (47, -3) (48, -57) (49, 20) (50, 200) (51, -251) (52, -125) (53, -182) (54, -210) (55, -18) (56, -232) (57, -136) (58, -76) (59, -6) (60, -124) (61, -103) (62, -114) (63, -11) (64, -54) (65, -267) (66, -164) (67, -18) (68, -216) (69, -60) (70, -51) (71, -74) (72, -6) (73, -81) (74, -35) (75, 138) (76, -17) (77, -47) (78, -27) (79, -189) (80, -100) (81, -24) (82, -80) (83, -49) (84, -110) (85, -130) (86, -30) (87, -196) (88, -93) (89, 108) (90, -162) (91, -86) (92, -218) (93, -58) (94, 1) (95, -123) (96, -79) (97, -218) (98, -66) (99, 62) (100, -77) (0, -22) (1, -95) (2, -168) (3, -122) (4, 17) (5, 31) (6, -265) (7, -126) (8, 8) (9, 35) (10, -158) (11, -94) (12, 33) (13, -78) (14, -125) (15, -117) (16, -173) (17, 110) (18, 6) (19, 83) (20, 33) (21, -6) (22, 15) (23, 20) (24, -125) (25, -72) (26, -92) (27, -68) (28, -4) (29, -147) (30, -217) (31, 15) (32, 111) (33, -155) (34, 13) (35, -66) (36, -71) (37, 11) (38, -101) (39, 103) (40, -66) (41, -87) (42, -106) (43, -119) (44, -123) (45, -93) (46, -24) (47, -165) (48, -8) (49, 7) (50, 5) (51, -18) (52, -25) (53, -14) (54, -103) (55, 37) (56, -154) (57, -46) (58, -27) (59, -85) (60, -7) (61, 28) (62, 10) (63, 83) (64, -145) (65, -73) (66, -190) (67, -178) (68, 31) (69, 75) (70, 50) (71, 8) (72, -111) (73, -101) (74, -95) (75, 31) (76, -134) (77, 36) (78, -95) (79, -95) (80, 24) (81, -49) (82, 13) (83, 12) (84, 26) (85, -114) (86, -91) (87, -181) (88, 46) (89, -61) (90, -177) (91, -127) (92, -131) (93, -152) (94, -126) (95, -138) (96, -108) (97, 34) (98, -113) (99, -168) (100, -104) (0, -424) (1, -448) (2, -732) (3, -209) (4, -487) (5, -475) (6, -846) (7, -257) (8, -630) (9, -446) (10, -665) (11, -789) (12, -520) (13, -503) (14, -686) (15, -1108) (16, -820) (17, -479) (18, -470) (19, -784) (20, -581) (21, -225) (22, -384) (23, -490) (24, -642) (25, -476) (26, -220) (27, -572) (28, -7) (29, -494) (30, -1085) (31, -1030) (32, -493) (33, -617) (34, -710) (35, -489) (36, -477) (37, -639) (38, -944) (39, -572) (40, -248) (41, -1014) (42, -894) (43, -456) (44, -528) (45, -596) (46, -277) (47, -847) (48, -914) (49, -330) (50, -145) (51, -909) (52, -751) (53, -1154) (54, -434) (55, -640) (56, -824) (57, -645) (58, -697) (59, -504) (60, -1142) (61, -540) (62, -631) (63, -466) (64, -536) (65, -671) (66, -807) (67, -502) (68, -485) (69, -679) (70, -664) (71, -921) (72, -701) (73, -729) (74, -768) (75, -230) (76, -651) (77, -600) (78, -605) (79, -493) (80, -635) (81, -592) (82, -666) (83, -670) (84, -393) (85, -562) (86, -801) (87, -803) (88, -554) (89, -301) (90, -903) (91, -625) (92, -744) (93, -703) (94, -462) (95, -228) (96, -445) (97, -741) (98, -518) (99, -602) (100, -200) (0, -731) (1, -443) (2, -632) (3, -207) (4, -702) (5, -570) (6, -734) (7, -461) (8, -565) (9, -558) (10, -651) (11, -772) (12, -456) (13, -490) (14, -731) (15, -1261) (16, -735) (17, -502) (18, -817) (19, -590) (20, -422) (21, -529) (22, -457) (23, -374) (24, -772) (25, -280) (26, -603) (27, -707) (28, -112) (29, -467) (30, -1735) (31, -933) (32, -374) (33, -633) (34, -462) (35, -574) (36, -384) (37, -522) (38, -2304) (39, -609) (40, -307) (41, -1243) (42, -851) (43, -602) (44, -674) (45, -673) (46, -381) (47, -1107) (48, -1036) (49, -486) (50, -130) (51, -1344) (52, -480) (53, -722) (54, -698) (55, -372) (56, -1078) (57, -545) (58, -1031) (59, -324) (60, -1488) (61, -481) (62, -585) (63, -518) (64, -459) (65, -612) (66, -975) (67, -561) (68, -641) (69, -655) (70, -794) (71, -722) (72, -572) (73, -519) (74, -727) (75, -407) (76, -935) (77, -684) (78, -868) (79, -366) (80, -903) (81, -799) (82, -516) (83, -661) (84, -590) (85, -414) (86, -656) (87, -1111) (88, -586) (89, -412) (90, -794) (91, -674) (92, -532) (93, -518) (94, -502) (95, -403) (96, -508) (97, -648) (98, -541) (99, -522) (100, -54) (0, -507) (1, -380) (2, -556) (3, -338) (4, -527) (5, -370) (6, -772) (7, -434) (8, -595) (9, -438) (10, -368) (11, -470) (12, -494) (13, -341) (14, -421) (15, -1192) (16, -657) (17, -413) (18, -876) (19, -627) (20, -497) (21, -344) (22, -451) (23, -298) (24, -887) (25, -250) (26, -295) (27, -712) (28, -126) (29, -577) (30, -2288) (31, -751) (32, -335) (33, -483) (34, -403) (35, -457) (36, -249) (37, -520) (38, -2710) (39, -504) (40, -253) (41, -1557) (42, -734) (43, -433) (44, -506) (45, -569) (46, -270) (47, -1122) (48, -1172) (49, -350) (50, -18) (51, -1627) (52, -681) (53, -805) (54, -341) (55, -429) (56, -880) (57, -559) (58, -815) (59, -342) (60, -1400) (61, -475) (62, -495) (63, -386) (64, -202) (65, -823) (66, -956) (67, -600) (68, -677) (69, -734) (70, -545) (71, -596) (72, -243) (73, -440) (74, -544) (75, -344) (76, -779) (77, -485) (78, -807) (79, -374) (80, -1053) (81, -888) (82, -424) (83, -900) (84, -763) (85, -551) (86, -645) (87, -1107) (88, -293) (89, -460) (90, -916) (91, -686) (92, -573) (93, -670) (94, -505) (95, -469) (96, -438) (97, -645) (98, -271) (99, -423) (100, -2) (0, -303) (1, -423) (2, -471) (3, -223) (4, -534) (5, -508) (6, -380) (7, -254) (8, -451) (9, -361) (10, -281) (11, -429) (12, -381) (13, -147) (14, -525) (15, -773) (16, -373) (17, -256) (18, -578) (19, -431) (20, -413) (21, -131) (22, -257) (23, -363) (24, -524) (25, -60) (26, -356) (27, -481) (28, -110) (29, -451) (30, -887) (31, -531) (32, -363) (33, -370) (34, -363) (35, -391) (36, -346) (37, -433) (38, -1386) (39, -462) (40, -226) (41, -873) (42, -482) (43, -288) (44, -448) (45, -540) (46, -155) (47, -832) (48, -859) (49, -359) (50, -141) (51, -951) (52, -343) (53, -624) (54, -506) (55, -233) (56, -592) (57, -362) (58, -544) (59, -291) (60, -930) (61, -377) (62, -487) (63, -434) (64, -132) (65, -648) (66, -706) (67, -466) (68, -360) (69, -559) (70, -401) (71, -400) (72, -203) (73, -437) (74, -398) (75, -182) (76, -575) (77, -396) (78, -659) (79, -297) (80, -641) (81, -449) (82, -473) (83, -357) (84, -385) (85, -414) (86, -347) (87, -730) (88, -265) (89, -398) (90, -692) (91, -322) (92, -416) (93, -373) (94, -332) (95, -303) (96, -321) (97, -471) (98, -275) (99, -460) (100, 80) (0, 89) (1, -141) (2, 129) (3, -56) (4, -83) (5, 7) (6, 45) (7, 0) (8, 73) (9, 0) (10, 50) (11, -48) (12, -121) (13, -107) (14, -51) (15, -101) (16, 3) (17, -147) (18, -19) (19, 124) (20, -106) (21, -178) (22, 46) (23, -19) (24, -40) (25, -158) (26, -66) (27, -59) (28, -76) (29, -158) (30, 3) (31, 97) (32, 121) (33, -5) (34, -84) (35, -99) (36, -180) (37, -115) (38, 8) (39, -37) (40, -173) (41, 136) (42, -85) (43, -153) (44, 31) (45, -68) (46, -104) (47, 39) (48, 88) (49, 21) (50, -3) (51, -1) (52, -172) (53, -35) (54, -117) (55, -45) (56, -113) (57, -18) (58, 121) (59, -160) (60, 2) (61, 11) (62, 6) (63, -102) (64, -32) (65, -7) (66, -165) (67, -155) (68, -22) (69, 4) (70, -190) (71, -57) (72, 37) (73, -56) (74, -181) (75, -17) (76, -99) (77, 126) (78, -49) (79, -102) (80, -40) (81, 134) (82, 52) (83, 101) (84, 7) (85, -103) (86, -95) (87, 46) (88, -164) (89, -2) (90, -5) (91, 46) (92, -16) (93, -1) (94, -32) (95, 38) (96, -139) (97, -25) (98, -75) (99, -56) (100, -301) (0, -66) (1, -273) (2, 101) (3, -41) (4, -12) (5, -84) (6, 88) (7, 7) (8, -26) (9, 99) (10, -42) (11, 138) (12, 43) (13, -21) (14, -116) (15, 99) (16, 105) (17, -156) (18, 42) (19, -77) (20, 53) (21, -212) (22, 49) (23, -118) (24, -26) (25, -191) (26, -115) (27, 97) (28, -174) (29, -97) (30, 102) (31, 98) (32, -190) (33, -122) (34, -145) (35, -103) (36, -45) (37, -80) (38, -13) (39, 113) (40, -31) (41, 117) (42, 265) (43, 62) (44, -150) (45, -83) (46, -283) (47, 78) (48, -73) (49, 14) (50, -269) (51, 106) (52, -69) (53, 114) (54, -28) (55, 44) (56, 48) (57, -25) (58, -20) (59, -114) (60, -35) (61, -142) (62, 30) (63, -15) (64, -243) (65, 171) (66, 72) (67, -66) (68, 59) (69, 80) (70, 13) (71, 143) (72, -142) (73, -164) (74, -96) (75, -71) (76, 131) (77, -152) (78, -1) (79, -193) (80, -114) (81, 115) (82, -96) (83, -94) (84, -5) (85, -159) (86, -125) (87, -7) (88, -102) (89, -175) (90, 46) (91, 91) (92, -100) (93, -106) (94, 60) (95, -181) (96, -110) (97, 5) (98, -144) (99, -69) (100, -104) (0, -295) (1, -268) (2, -391) (3, -232) (4, -224) (5, -242) (6, -368) (7, -217) (8, -360) (9, -234) (10, -329) (11, -456) (12, -259) (13, -298) (14, -272) (15, -348) (16, -420) (17, -277) (18, -276) (19, -347) (20, -186) (21, -109) (22, -217) (23, -317) (24, -151) (25, -285) (26, -288) (27, -472) (28, -125) (29, -331) (30, -506) (31, -423) (32, -120) (33, -232) (34, -232) (35, -80) (36, -317) (37, -372) (38, -350) (39, -378) (40, -149) (41, -532) (42, -363) (43, -106) (44, -240) (45, -166) (46, -167) (47, -464) (48, -358) (49, -101) (50, 63) (51, -533) (52, -365) (53, -499) (54, -343) (55, -164) (56, -509) (57, -403) (58, -425) (59, -316) (60, -644) (61, -458) (62, -445) (63, -152) (64, -165) (65, -335) (66, -514) (67, -210) (68, -281) (69, -342) (70, -293) (71, -433) (72, -420) (73, -341) (74, -273) (75, -144) (76, -427) (77, -246) (78, -410) (79, -265) (80, -514) (81, -442) (82, -445) (83, -318) (84, -195) (85, -264) (86, -374) (87, -405) (88, -321) (89, -350) (90, -418) (91, -345) (92, -377) (93, -401) (94, -146) (95, -334) (96, -400) (97, -397) (98, -308) (99, -239) (100, 242) (0, -274) (1, -108) (2, 202) (3, -62) (4, -253) (5, 49) (6, -115) (7, -71) (8, -386) (9, -51) (10, -20) (11, -457) (12, -229) (13, -356) (14, -166) (15, -456) (16, -306) (17, 49) (18, -427) (19, 3) (20, 329) (21, -42) (22, 72) (23, -284) (24, -252) (25, -265) (26, -178) (27, -188) (28, -116) (29, -141) (30, -422) (31, 43) (32, -270) (33, -144) (34, -311) (35, -71) (36, -336) (37, -68) (38, -494) (39, -107) (40, -128) (41, -364) (42, -284) (43, -374) (44, -397) (45, -299) (46, -229) (47, -194) (48, -469) (49, -256) (50, -138) (51, -207) (52, -450) (53, 0) (54, -226) (55, 93) (56, 28) (57, -128) (58, 119) (59, -236) (60, -455) (61, -204) (62, 364) (63, -146) (64, -285) (65, -361) (66, -268) (67, -241) (68, -435) (69, -123) (70, -266) (71, -332) (72, -386) (73, -282) (74, -309) (75, 62) (76, -234) (77, -326) (78, -291) (79, 74) (80, -312) (81, 15) (82, -366) (83, -245) (84, -353) (85, -478) (86, -326) (87, -357) (88, -299) (89, -134) (90, -418) (91, -123) (92, 151) (93, -10) (94, 56) (95, -88) (96, 117) (97, 90) (98, -550) (99, -358) (100, 197) (0, -46) (1, -15) (2, -153) (3, -134) (4, -108) (5, -225) (6, -111) (7, -232) (8, -91) (9, -42) (10, -15) (11, -63) (12, -68) (13, -180) (14, -21) (15, -239) (16, -197) (17, -174) (18, -217) (19, 14) (20, -16) (21, 52) (22, 35) (23, -38) (24, -183) (25, 65) (26, -167) (27, -74) (28, 62) (29, -159) (30, -304) (31, -175) (32, 38) (33, -14) (34, -274) (35, -241) (36, 64) (37, -97) (38, -270) (39, -103) (40, -68) (41, -305) (42, -214) (43, -63) (44, -214) (45, -29) (46, -92) (47, -157) (48, -182) (49, -112) (50, -89) (51, -200) (52, -212) (53, -214) (54, -69) (55, -119) (56, -91) (57, -44) (58, -130) (59, 24) (60, -264) (61, -140) (62, -43) (63, -169) (64, 45) (65, -8) (66, -153) (67, -162) (68, -4) (69, -191) (70, -215) (71, -159) (72, -171) (73, 4) (74, -44) (75, 27) (76, -243) (77, -67) (78, -246) (79, -108) (80, -241) (81, -108) (82, -214) (83, -97) (84, -260) (85, -84) (86, -48) (87, -174) (88, -234) (89, 31) (90, -162) (91, -215) (92, -36) (93, -244) (94, -163) (95, -139) (96, -98) (97, -95) (98, 46) (99, 36) (100, 173) (0, 118) (1, -175) (2, -118) (3, -145) (4, -41) (5, 68) (6, -28) (7, -90) (8, -31) (9, -81) (10, -4) (11, -119) (12, -66) (13, -204) (14, -87) (15, 58) (16, -25) (17, -53) (18, 1) (19, -14) (20, 7) (21, -89) (22, 38) (23, -106) (24, -117) (25, -195) (26, 46) (27, 79) (28, -76) (29, -2) (30, 2) (31, -46) (32, -116) (33, 12) (34, -59) (35, -136) (36, -198) (37, 62) (38, -175) (39, -102) (40, -128) (41, 93) (42, 167) (43, -136) (44, -25) (45, -224) (46, -98) (47, -151) (48, -71) (49, -153) (50, -9) (51, 34) (52, -154) (53, 48) (54, -102) (55, -3) (56, -135) (57, -101) (58, -59) (59, -186) (60, -64) (61, 12) (62, -158) (63, -121) (64, -174) (65, -104) (66, -69) (67, -69) (68, -125) (69, -3) (70, -175) (71, -174) (72, 2) (73, 39) (74, -160) (75, -69) (76, 81) (77, -122) (78, -22) (79, -15) (80, -164) (81, -124) (82, -140) (83, -50) (84, 51) (85, -9) (86, -47) (87, -9) (88, 53) (89, -126) (90, -27) (91, -97) (92, -149) (93, -155) (94, 48) (95, 9) (96, -155) (97, -152) (98, -251) (99, -152) (100, 21) (0, -860) (1, -559) (2, -1866) (3, -387) (4, -669) (5, -596) (6, -893) (7, -624) (8, -733) (9, -642) (10, -479) (11, -858) (12, -624) (13, -348) (14, -724) (15, -1020) (16, -869) (17, -663) (18, -781) (19, -636) (20, -458) (21, -182) (22, -449) (23, -402) (24, -838) (25, -348) (26, -575) (27, -813) (28, -102) (29, -651) (30, -1527) (31, -1142) (32, -415) (33, -544) (34, -772) (35, -470) (36, -275) (37, -691) (38, -1237) (39, -560) (40, -288) (41, -1300) (42, -947) (43, -627) (44, -676) (45, -614) (46, -201) (47, -1369) (48, -1015) (49, -454) (50, -141) (51, -1217) (52, -678) (53, -1012) (54, -499) (55, -460) (56, -1172) (57, -730) (58, -1108) (59, -520) (60, -1239) (61, -759) (62, -530) (63, -434) (64, -323) (65, -788) (66, -977) (67, -459) (68, -787) (69, -778) (70, -839) (71, -805) (72, -601) (73, -446) (74, -954) (75, -320) (76, -941) (77, -540) (78, -968) (79, -610) (80, -966) (81, -945) (82, -768) (83, -677) (84, -751) (85, -637) (86, -788) (87, -1244) (88, -651) (89, -412) (90, -957) (91, -864) (92, -539) (93, -563) (94, -616) (95, -551) (96, -542) (97, -713) (98, -380) (99, -491) (100, 178) (0, -641) (1, -860) (2, -30175) (3, -297) (4, -940) (5, -833) (6, -1104) (7, -529) (8, -855) (9, -766) (10, -732) (11, -845) (12, -550) (13, -589) (14, -861) (15, -1442) (16, -1109) (17, -756) (18, -959) (19, -722) (20, -408) (21, -389) (22, -674) (23, -665) (24, -903) (25, -244) (26, -516) (27, -920) (28, -338) (29, -768) (30, -2144) (31, -1081) (32, -586) (33, -840) (34, -756) (35, -607) (36, -659) (37, -762) (38, -1593) (39, -633) (40, -428) (41, -1391) (42, -1056) (43, -521) (44, -726) (45, -873) (46, -395) (47, -1509) (48, -1280) (49, -439) (50, -310) (51, -1367) (52, -782) (53, -1119) (54, -517) (55, -602) (56, -1596) (57, -981) (58, -1449) (59, -677) (60, -1605) (61, -961) (62, -716) (63, -531) (64, -573) (65, -1182) (66, -1103) (67, -825) (68, -759) (69, -897) (70, -1145) (71, -1037) (72, -778) (73, -694) (74, -928) (75, -512) (76, -1028) (77, -719) (78, -1010) (79, -613) (80, -1107) (81, -1004) (82, -768) (83, -705) (84, -624) (85, -689) (86, -1185) (87, -1485) (88, -742) (89, -741) (90, -1155) (91, -756) (92, -704) (93, -877) (94, -623) (95, -644) (96, -842) (97, -807) (98, -714) (99, -489) (100, 252) (0, -158) (1, -83) (2, -31) (3, -145) (4, -33) (5, -54) (6, -207) (7, -123) (8, 4) (9, 21) (10, -200) (11, -53) (12, -263) (13, -181) (14, -179) (15, -166) (16, -185) (17, -35) (18, -154) (19, 23) (20, -5) (21, -238) (22, 16) (23, -120) (24, -173) (25, -215) (26, -53) (27, -142) (28, -203) (29, -5) (30, -199) (31, -155) (32, 15) (33, -14) (34, -333) (35, -65) (36, 4) (37, -120) (38, -383) (39, -59) (40, -98) (41, -319) (42, -77) (43, -43) (44, -178) (45, -215) (46, -56) (47, -313) (48, -168) (49, -216) (50, -65) (51, -248) (52, -101) (53, -297) (54, -219) (55, -234) (56, -115) (57, -194) (58, -41) (59, -84) (60, -239) (61, -4) (62, -16) (63, -150) (64, -160) (65, -257) (66, -171) (67, -83) (68, -105) (69, -94) (70, -162) (71, -11) (72, -158) (73, -213) (74, -169) (75, -26) (76, -174) (77, -144) (78, -89) (79, -197) (80, -313) (81, -98) (82, -125) (83, -305) (84, -253) (85, -41) (86, -103) (87, -333) (88, -222) (89, 6) (90, -210) (91, -139) (92, -198) (93, -214) (94, -243) (95, -36) (96, -158) (97, -4) (98, -114) (99, -23) (100, 171) (0, -848) (1, -702) (2, -1227) (3, -299) (4, -632) (5, -775) (6, -1457) (7, -782) (8, -836) (9, -746) (10, -730) (11, -939) (12, -713) (13, -530) (14, -931) (15, -1246) (16, -1160) (17, -485) (18, -790) (19, -959) (20, -708) (21, -410) (22, -604) (23, -587) (24, -714) (25, -437) (26, -369) (27, -873) (28, -141) (29, -582) (30, -1609) (31, -1611) (32, -473) (33, -816) (34, -705) (35, -593) (36, -501) (37, -592) (38, -1141) (39, -625) (40, -423) (41, -1532) (42, -1140) (43, -602) (44, -670) (45, -893) (46, -426) (47, -1382) (48, -1294) (49, -547) (50, -169) (51, -1311) (52, -914) (53, -1703) (54, -866) (55, -697) (56, -1466) (57, -800) (58, -1349) (59, -440) (60, -1529) (61, -824) (62, -1018) (63, -561) (64, -485) (65, -1303) (66, -990) (67, -752) (68, -887) (69, -822) (70, -737) (71, -1071) (72, -668) (73, -876) (74, -964) (75, -474) (76, -932) (77, -739) (78, -1202) (79, -703) (80, -1009) (81, -982) (82, -795) (83, -883) (84, -953) (85, -611) (86, -798) (87, -1445) (88, -793) (89, -543) (90, -1219) (91, -968) (92, -918) (93, -901) (94, -837) (95, -467) (96, -816) (97, -1425) (98, -589) (99, -851) (100, -144) (0, 92) (1, -90) (2, 220) (3, -250) (4, -18) (5, 44) (6, -64) (7, 57) (8, 47) (9, -95) (10, 16) (11, -49) (12, -91) (13, -135) (14, -105) (15, -60) (16, 69) (17, -86) (18, 102) (19, -77) (20, 88) (21, -104) (22, -170) (23, -199) (24, -15) (25, -22) (26, -200) (27, 116) (28, -336) (29, -5) (30, 134) (31, 192) (32, -48) (33, 16) (34, -18) (35, -13) (36, -182) (37, -190) (38, 77) (39, -92) (40, -202) (41, 169) (42, 160) (43, -56) (44, -73) (45, -101) (46, -280) (47, 216) (48, 22) (49, -163) (50, -204) (51, 88) (52, -106) (53, -26) (54, 113) (55, 2) (56, -3) (57, -17) (58, 38) (59, -222) (60, -65) (61, -162) (62, 110) (63, -28) (64, -51) (65, 69) (66, 34) (67, -151) (68, 80) (69, -46) (70, -69) (71, -96) (72, -143) (73, -35) (74, 67) (75, -78) (76, 143) (77, -21) (78, 186) (79, -80) (80, -114) (81, 79) (82, 103) (83, -79) (84, -178) (85, -229) (86, -99) (87, 141) (88, -187) (89, 10) (90, 101) (91, 68) (92, 98) (93, -16) (94, 20) (95, -169) (96, -120) (97, 192) (98, -350) (99, 111) (100, 140) (0, -660) (1, -440) (2, -1616) (3, -226) (4, -623) (5, -542) (6, -802) (7, -499) (8, -728) (9, -633) (10, -559) (11, -711) (12, -689) (13, -405) (14, -550) (15, -943) (16, -742) (17, -461) (18, -757) (19, -572) (20, -540) (21, -395) (22, -545) (23, -515) (24, -797) (25, -152) (26, -354) (27, -741) (28, -153) (29, -427) (30, -1417) (31, -856) (32, -597) (33, -618) (34, -653) (35, -702) (36, -366) (37, -567) (38, -1169) (39, -582) (40, -280) (41, -1113) (42, -846) (43, -578) (44, -496) (45, -643) (46, -94) (47, -1237) (48, -1140) (49, -316) (50, -233) (51, -1078) (52, -831) (53, -955) (54, -466) (55, -581) (56, -1251) (57, -560) (58, -1152) (59, -555) (60, -1321) (61, -709) (62, -602) (63, -522) (64, -522) (65, -727) (66, -1007) (67, -552) (68, -651) (69, -773) (70, -745) (71, -662) (72, -432) (73, -424) (74, -895) (75, -278) (76, -885) (77, -737) (78, -996) (79, -409) (80, -985) (81, -852) (82, -730) (83, -745) (84, -694) (85, -491) (86, -651) (87, -1167) (88, -565) (89, -343) (90, -1014) (91, -797) (92, -681) (93, -736) (94, -741) (95, -407) (96, -675) (97, -752) (98, -413) (99, -575) (100, 241) (0, -1054) (1, -608) (2, -6698) (3, 40) (4, -842) (5, -910) (6, -1156) (7, 159) (8, -880) (9, -947) (10, -314) (11, -1580) (12, -627) (13, -552) (14, -659) (15, -896) (16, -1142) (17, -558) (18, -1228) (19, -643) (20, -326) (21, 58) (22, -412) (23, -802) (24, -745) (25, 594) (26, -737) (27, -937) (28, 759) (29, -411) (30, -2248) (31, -1276) (32, -723) (33, -572) (34, -753) (35, -380) (36, 477) (37, -673) (38, -1741) (39, -634) (40, 496) (41, -1728) (42, -1209) (43, -574) (44, -565) (45, -1009) (46, 599) (47, -1544) (48, -1330) (49, -609) (50, 902) (51, -1856) (52, -1236) (53, -1147) (54, -338) (55, -802) (56, -1417) (57, -575) (58, -8779) (59, -548) (60, -1985) (61, -1269) (62, -701) (63, -418) (64, -148) (65, -1732) (66, -1224) (67, -694) (68, -705) (69, -1356) (70, -1192) (71, -1573) (72, -1568) (73, -754) (74, -1058) (75, 422) (76, -1432) (77, -580) (78, -994) (79, 113) (80, -1528) (81, -615) (82, -705) (83, -872) (84, -462) (85, -587) (86, -1584) (87, -2077) (88, -710) (89, -390) (90, -761) (91, -711) (92, -443) (93, -213) (94, -495) (95, -424) (96, -294) (97, -776) (98, -47) (99, -551) (100, 1762) (0, -822) (1, -685) (2, -1303) (3, -378) (4, -676) (5, -804) (6, -1161) (7, -586) (8, -972) (9, -839) (10, -683) (11, -986) (12, -694) (13, -408) (14, -799) (15, -1720) (16, -972) (17, -813) (18, -997) (19, -886) (20, -705) (21, -292) (22, -640) (23, -456) (24, -914) (25, -407) (26, -677) (27, -837) (28, -154) (29, -827) (30, -2417) (31, -1465) (32, -519) (33, -850) (34, -832) (35, -716) (36, -463) (37, -624) (38, -2242) (39, -691) (40, -417) (41, -1856) (42, -1206) (43, -730) (44, -728) (45, -737) (46, -398) (47, -1647) (48, -1474) (49, -614) (50, -271) (51, -1827) (52, -968) (53, -1306) (54, -755) (55, -633) (56, -1677) (57, -699) (58, -1627) (59, -471) (60, -1671) (61, -866) (62, -931) (63, -545) (64, -429) (65, -1161) (66, -1296) (67, -674) (68, -1076) (69, -949) (70, -864) (71, -1009) (72, -766) (73, -740) (74, -1121) (75, -570) (76, -1009) (77, -696) (78, -1260) (79, -726) (80, -1130) (81, -1193) (82, -852) (83, -1080) (84, -872) (85, -812) (86, -789) (87, -1751) (88, -768) (89, -510) (90, -1381) (91, -939) (92, -723) (93, -886) (94, -618) (95, -530) (96, -796) (97, -904) (98, -509) (99, -699) (100, 242) (0, 119) (1, -91) (2, -129) (3, 13) (4, -19) (5, -178) (6, -165) (7, 60) (8, -3) (9, -53) (10, 18) (11, -6) (12, -23) (13, -58) (14, -90) (15, 33) (16, -59) (17, 16) (18, -65) (19, 37) (20, 39) (21, -168) (22, 100) (23, -27) (24, -78) (25, 20) (26, 81) (27, 16) (28, -182) (29, -76) (30, 28) (31, -10) (32, 19) (33, -209) (34, -206) (35, 66) (36, 43) (37, -58) (38, 64) (39, 25) (40, 58) (41, -90) (42, -18) (43, 7) (44, 7) (45, -60) (46, 10) (47, -138) (48, -80) (49, 142) (50, -2) (51, -123) (52, -60) (53, -49) (54, -151) (55, -105) (56, 56) (57, -132) (58, 78) (59, 41) (60, -19) (61, -25) (62, 47) (63, 97) (64, -70) (65, 21) (66, -119) (67, -6) (68, -165) (69, -16) (70, 79) (71, -112) (72, -86) (73, -100) (74, 68) (75, -66) (76, -145) (77, -121) (78, 3) (79, -124) (80, -42) (81, -125) (82, 108) (83, -110) (84, -99) (85, -200) (86, -185) (87, -26) (88, 17) (89, 121) (90, -129) (91, -121) (92, -121) (93, 58) (94, -47) (95, -8) (96, -26) (97, 82) (98, -216) (99, -8) (100, -133) (0, -88) (1, -312) (2, -168) (3, -88) (4, -116) (5, -116) (6, -217) (7, -217) (8, -282) (9, -31) (10, -139) (11, -189) (12, -248) (13, -123) (14, -303) (15, -45) (16, -318) (17, -309) (18, -1152) (19, -83) (20, -70) (21, -193) (22, -265) (23, -153) (24, -950) (25, -90) (26, -524) (27, -125) (28, -270) (29, -56) (30, -923) (31, -42) (32, -283) (33, -37) (34, -415) (35, -325) (36, -22) (37, -231) (38, -6691) (39, -77) (40, -396) (41, -609) (42, -215) (43, -268) (44, -653) (45, -372) (46, 56) (47, -306) (48, -518) (49, -277) (50, -143) (51, -998) (52, -479) (53, -104) (54, -126) (55, -314) (56, -299) (57, -243) (58, -38) (59, -189) (60, -572) (61, -293) (62, -86) (63, -181) (64, -126) (65, -185) (66, -337) (67, -133) (68, -161) (69, -93) (70, -441) (71, -109) (72, 1) (73, -172) (74, -522) (75, -255) (76, -506) (77, -542) (78, -558) (79, -200) (80, -999) (81, -61) (82, -224) (83, -137) (84, -162) (85, -222) (86, -198) (87, -348) (88, -279) (89, -119) (90, -149) (91, -430) (92, -188) (93, -295) (94, -365) (95, -68) (96, -271) (97, -15) (98, -414) (99, -34) (100, -169) (0, -808) (1, -419) (2, -870) (3, -435) (4, -703) (5, -792) (6, -929) (7, -407) (8, -911) (9, -713) (10, -708) (11, -849) (12, -632) (13, -458) (14, -589) (15, -1194) (16, -667) (17, -465) (18, -836) (19, -727) (20, -466) (21, -264) (22, -635) (23, -428) (24, -776) (25, -451) (26, -507) (27, -710) (28, -167) (29, -733) (30, -1901) (31, -1154) (32, -533) (33, -852) (34, -702) (35, -620) (36, -385) (37, -491) (38, -1562) (39, -768) (40, -460) (41, -1362) (42, -827) (43, -548) (44, -546) (45, -507) (46, -354) (47, -1216) (48, -1131) (49, -553) (50, -293) (51, -1185) (52, -810) (53, -1164) (54, -741) (55, -573) (56, -1462) (57, -476) (58, -1372) (59, -438) (60, -1472) (61, -841) (62, -708) (63, -503) (64, -445) (65, -933) (66, -1056) (67, -552) (68, -879) (69, -778) (70, -651) (71, -744) (72, -464) (73, -696) (74, -953) (75, -303) (76, -1005) (77, -605) (78, -893) (79, -646) (80, -909) (81, -925) (82, -870) (83, -599) (84, -680) (85, -585) (86, -790) (87, -1349) (88, -589) (89, -610) (90, -992) (91, -825) (92, -688) (93, -818) (94, -556) (95, -471) (96, -666) (97, -683) (98, -478) (99, -711) (100, 109) (0, 115) (1, -269) (2, -8) (3, -242) (4, -63) (5, 8) (6, 54) (7, -5) (8, 139) (9, -52) (10, -122) (11, 144) (12, -124) (13, -124) (14, -145) (15, 48) (16, 2) (17, -159) (18, -56) (19, -168) (20, -142) (21, -162) (22, -68) (23, -107) (24, 17) (25, -101) (26, -56) (27, -28) (28, -190) (29, -229) (30, 11) (31, -3) (32, -6) (33, -182) (34, -2) (35, 42) (36, -172) (37, -96) (38, 133) (39, 174) (40, -237) (41, 161) (42, 130) (43, -134) (44, -102) (45, -43) (46, -231) (47, -56) (48, -16) (49, 18) (50, -206) (51, 138) (52, -29) (53, 84) (54, 94) (55, -162) (56, 0) (57, -7) (58, 189) (59, -233) (60, -51) (61, -124) (62, -126) (63, -51) (64, -220) (65, -63) (66, -148) (67, -131) (68, -179) (69, -30) (70, -132) (71, -20) (72, -158) (73, -119) (74, 120) (75, -111) (76, 3) (77, 16) (78, 141) (79, -93) (80, 63) (81, 11) (82, 41) (83, 155) (84, -28) (85, -226) (86, -15) (87, 63) (88, -158) (89, 19) (90, -34) (91, -37) (92, -149) (93, 20) (94, -120) (95, -76) (96, -94) (97, 5) (98, -78) (99, -31) (100, -188) (0, 3) (1, -317) (2, -99) (3, 0) (4, 47) (5, -134) (6, -26) (7, -58) (8, -61) (9, -1) (10, -172) (11, 114) (12, 24) (13, -264) (14, -53) (15, -61) (16, -11) (17, 21) (18, -83) (19, 8) (20, -11) (21, -510) (22, -133) (23, -51) (24, 27) (25, -128) (26, 53) (27, 106) (28, -466) (29, -42) (30, -47) (31, 121) (32, -24) (33, 23) (34, -103) (35, 3) (36, -36) (37, -258) (38, -121) (39, -4) (40, -168) (41, 26) (42, 110) (43, 50) (44, -274) (45, -130) (46, -248) (47, 132) (48, -96) (49, -87) (50, -92) (51, -134) (52, -51) (53, -92) (54, 139) (55, -32) (56, 51) (57, -264) (58, -98) (59, -248) (60, -67) (61, -176) (62, 89) (63, -117) (64, -255) (65, -9) (66, -107) (67, -16) (68, -63) (69, -120) (70, -77) (71, -91) (72, -156) (73, -124) (74, 106) (75, -20) (76, 132) (77, 26) (78, 130) (79, -3) (80, 26) (81, 138) (82, -62) (83, 129) (84, -179) (85, -256) (86, 104) (87, -1) (88, 82) (89, -48) (90, 33) (91, -112) (92, 90) (93, 40) (94, -73) (95, 47) (96, -131) (97, 51) (98, -439) (99, -28) (100, -148) (0, -548) (1, -304) (2, -519) (3, -342) (4, -607) (5, -344) (6, -659) (7, -324) (8, -502) (9, -600) (10, -363) (11, -576) (12, -266) (13, -126) (14, -540) (15, -874) (16, -532) (17, -426) (18, -923) (19, -572) (20, -347) (21, -160) (22, -397) (23, -311) (24, -660) (25, -181) (26, -416) (27, -594) (28, 0) (29, -380) (30, -1315) (31, -775) (32, -359) (33, -415) (34, -523) (35, -589) (36, -285) (37, -526) (38, -3126) (39, -394) (40, -207) (41, -1051) (42, -340) (43, -529) (44, -605) (45, -514) (46, -23) (47, -815) (48, -864) (49, -162) (50, 13) (51, -1266) (52, -651) (53, -585) (54, -409) (55, -412) (56, -687) (57, -568) (58, -592) (59, -158) (60, -1058) (61, -569) (62, -608) (63, -378) (64, -161) (65, -531) (66, -768) (67, -459) (68, -456) (69, -453) (70, -532) (71, -633) (72, -237) (73, -344) (74, -745) (75, -303) (76, -841) (77, -514) (78, -766) (79, -260) (80, -933) (81, -564) (82, -504) (83, -531) (84, -524) (85, -360) (86, -519) (87, -717) (88, -313) (89, -353) (90, -779) (91, -502) (92, -341) (93, -665) (94, -336) (95, -213) (96, -501) (97, -459) (98, -406) (99, -487) (100, 1) (0, 406) (1, -299) (2, 587) (3, -577) (4, 39) (5, 24) (6, 172) (7, -604) (8, 328) (9, 190) (10, -313) (11, 701) (12, -187) (13, -268) (14, -76) (15, 190) (16, 454) (17, 21) (18, 238) (19, 99) (20, -222) (21, -421) (22, -136) (23, -649) (24, 27) (25, -1018) (26, -90) (27, 208) (28, -1377) (29, -273) (30, 906) (31, 433) (32, -212) (33, -404) (34, -184) (35, -316) (36, -832) (37, -409) (38, 765) (39, -56) (40, -965) (41, 1022) (42, 508) (43, -29) (44, -356) (45, -148) (46, -577) (47, 786) (48, 304) (49, -187) (50, -1380) (51, 876) (52, 22) (53, 529) (54, -565) (55, 360) (56, 732) (57, -162) (58, 775) (59, -245) (60, 993) (61, 286) (62, 22) (63, -179) (64, -706) (65, 800) (66, 340) (67, -156) (68, -279) (69, 47) (70, 115) (71, 742) (72, 20) (73, -576) (74, -15) (75, -913) (76, 907) (77, -116) (78, 126) (79, -35) (80, 164) (81, -397) (82, 270) (83, 316) (84, -234) (85, -148) (86, 206) (87, 1200) (88, 113) (89, -491) (90, 186) (91, 230) (92, -71) (93, 240) (94, 28) (95, -119) (96, -342) (97, 543) (98, -868) (99, 122) (100, -1535) (0, 46) (1, 128) (2, 280) (3, 110) (4, -122) (5, 162) (6, 122) (7, -1) (8, -35) (9, -305) (10, 237) (11, -16) (12, -165) (13, 127) (14, -168) (15, -12) (16, 145) (17, 4) (18, -491) (19, 314) (20, 430) (21, -91) (22, -391) (23, -59) (24, -231) (25, 34) (26, -442) (27, -72) (28, 74) (29, 104) (30, -767) (31, 26) (32, -110) (33, -4) (34, -102) (35, -193) (36, 78) (37, -74) (38, -667) (39, -94) (40, -324) (41, -332) (42, 29) (43, -65) (44, -353) (45, -362) (46, 554) (47, 120) (48, -366) (49, -234) (50, 272) (51, -633) (52, -34) (53, 288) (54, 710) (55, 29) (56, 227) (57, -67) (58, 240) (59, -11) (60, -238) (61, -23) (62, 352) (63, -31) (64, -89) (65, 151) (66, -106) (67, -46) (68, -89) (69, -61) (70, -615) (71, -148) (72, 193) (73, -189) (74, -352) (75, -354) (76, -251) (77, -551) (78, -347) (79, 356) (80, -180) (81, 167) (82, -169) (83, -78) (84, -119) (85, -258) (86, -428) (87, -238) (88, 302) (89, -68) (90, -25) (91, 71) (92, 329) (93, -127) (94, -52) (95, 318) (96, 146) (97, 385) (98, -136) (99, 424) (100, 396) (0, -257) (1, -364) (2, -500) (3, -142) (4, -390) (5, -417) (6, -579) (7, -179) (8, -406) (9, -535) (10, -499) (11, -516) (12, -279) (13, -427) (14, -503) (15, -619) (16, -561) (17, -211) (18, -497) (19, -296) (20, -443) (21, -112) (22, -367) (23, -385) (24, -449) (25, -159) (26, -165) (27, -489) (28, -227) (29, -426) (30, -802) (31, -602) (32, -282) (33, -423) (34, -486) (35, -271) (36, -306) (37, -339) (38, -478) (39, -299) (40, -338) (41, -722) (42, -341) (43, -430) (44, -410) (45, -666) (46, 2) (47, -611) (48, -354) (49, -270) (50, -80) (51, -474) (52, -510) (53, -562) (54, -284) (55, -330) (56, -646) (57, -511) (58, -533) (59, -404) (60, -536) (61, -629) (62, -470) (63, -371) (64, -210) (65, -492) (66, -510) (67, -553) (68, -525) (69, -596) (70, -430) (71, -538) (72, -535) (73, -485) (74, -444) (75, -131) (76, -453) (77, -363) (78, -443) (79, -502) (80, -447) (81, -304) (82, -404) (83, -406) (84, -449) (85, -328) (86, -347) (87, -533) (88, -188) (89, -421) (90, -368) (91, -474) (92, -374) (93, -431) (94, -364) (95, -343) (96, -336) (97, -509) (98, -470) (99, -489) (100, 119) (0, -90) (1, -268) (2, -157) (3, -82) (4, -97) (5, -38) (6, -163) (7, 28) (8, -173) (9, 29) (10, -84) (11, 49) (12, 12) (13, -38) (14, -39) (15, -94) (16, -153) (17, -30) (18, -38) (19, -231) (20, -231) (21, -289) (22, -72) (23, -3) (24, -183) (25, -146) (26, -111) (27, -139) (28, -214) (29, -163) (30, 64) (31, -4) (32, 40) (33, -207) (34, 75) (35, 1) (36, -220) (37, -80) (38, -217) (39, 24) (40, -241) (41, -149) (42, -100) (43, 102) (44, -17) (45, -132) (46, -285) (47, -165) (48, 56) (49, -75) (50, -107) (51, -215) (52, -98) (53, -9) (54, -193) (55, 28) (56, -157) (57, 9) (58, 57) (59, -165) (60, -161) (61, -45) (62, -227) (63, -47) (64, -190) (65, 13) (66, -139) (67, -12) (68, -4) (69, -134) (70, -5) (71, -281) (72, -115) (73, -13) (74, -98) (75, -139) (76, -100) (77, 96) (78, -126) (79, -18) (80, -78) (81, 28) (82, -165) (83, -31) (84, -181) (85, -61) (86, 69) (87, -108) (88, -127) (89, -236) (90, -48) (91, 8) (92, 12) (93, -35) (94, -24) (95, -176) (96, -121) (97, -168) (98, -274) (99, -150) (100, 156) (0, 90) (1, -195) (2, -9) (3, -133) (4, 8) (5, 94) (6, 47) (7, -37) (8, -14) (9, 88) (10, 90) (11, -28) (12, -69) (13, -26) (14, 30) (15, -65) (16, -46) (17, -48) (18, 37) (19, 75) (20, 113) (21, -34) (22, -24) (23, -113) (24, -1) (25, -20) (26, -68) (27, 73) (28, -5) (29, -115) (30, -22) (31, 127) (32, -103) (33, -9) (34, 22) (35, 44) (36, -41) (37, -191) (38, -47) (39, -57) (40, -241) (41, 12) (42, -26) (43, -72) (44, -43) (45, -205) (46, -60) (47, 37) (48, -35) (49, -36) (50, -207) (51, 25) (52, 20) (53, -38) (54, -109) (55, 28) (56, 32) (57, -31) (58, 84) (59, 30) (60, -55) (61, -79) (62, -112) (63, -30) (64, -210) (65, 79) (66, 41) (67, -163) (68, 60) (69, 7) (70, -57) (71, 39) (72, -39) (73, -140) (74, -66) (75, -48) (76, -98) (77, 60) (78, 91) (79, 72) (80, -40) (81, 37) (82, -81) (83, 125) (84, -78) (85, -40) (86, 1) (87, 6) (88, -49) (89, -179) (90, 81) (91, -32) (92, -119) (93, -153) (94, -208) (95, 68) (96, -147) (97, 3) (98, -244) (99, -70) (100, -303) (0, -818) (1, -962) (2, -72223) (3, -550) (4, -781) (5, -719) (6, -725) (7, -334) (8, -994) (9, -635) (10, -529) (11, -800) (12, -1322) (13, -748) (14, -774) (15, -805) (16, -1102) (17, -619) (18, -863) (19, -791) (20, -742) (21, -459) (22, -488) (23, -2060) (24, -635) (25, -459) (26, -682) (27, -705) (28, -581) (29, -837) (30, -1125) (31, -809) (32, -612) (33, -882) (34, -664) (35, -638) (36, -606) (37, -822) (38, -898) (39, -927) (40, -772) (41, -1128) (42, -734) (43, -558) (44, -1216) (45, -894) (46, -296) (47, -647) (48, -766) (49, -828) (50, -470) (51, -1138) (52, -871) (53, -930) (54, -752) (55, -652) (56, -1055) (57, -902) (58, -23251) (59, -676) (60, -1053) (61, -887) (62, -663) (63, -888) (64, -697) (65, -823) (66, -1054) (67, -697) (68, -882) (69, -4595) (70, -796) (71, -1217) (72, -1630) (73, -632) (74, -763) (75, -455) (76, -1087) (77, -631) (78, -960) (79, -667) (80, -1049) (81, -911) (82, -660) (83, -501) (84, -297) (85, -1180) (86, -1364) (87, -1223) (88, -867) (89, -579) (90, -757) (91, -909) (92, -562) (93, 784) (94, -500) (95, -641) (96, -614) (97, -964) (98, -810) (99, -825) (100, 135) (0, 32) (1, 50) (2, -173) (3, 15) (4, -53) (5, -153) (6, -22) (7, -141) (8, -131) (9, -94) (10, 77) (11, -52) (12, -93) (13, -135) (14, -225) (15, -164) (16, 7) (17, -162) (18, -331) (19, -117) (20, -82) (21, -135) (22, -126) (23, 27) (24, -285) (25, -92) (26, -96) (27, 22) (28, -23) (29, 9) (30, -108) (31, -254) (32, 88) (33, -53) (34, -160) (35, -20) (36, -63) (37, -172) (38, -1489) (39, -76) (40, -79) (41, -193) (42, -199) (43, -67) (44, 19) (45, -12) (46, -40) (47, -297) (48, -198) (49, 88) (50, 25) (51, -65) (52, 2) (53, -35) (54, -115) (55, -200) (56, -235) (57, -234) (58, -93) (59, -58) (60, -178) (61, 15) (62, -45) (63, -121) (64, 33) (65, -120) (66, -57) (67, -173) (68, -183) (69, -201) (70, -241) (71, -9) (72, -138) (73, -26) (74, -105) (75, -77) (76, -128) (77, -217) (78, -152) (79, -125) (80, -454) (81, -131) (82, -100) (83, -197) (84, -159) (85, 82) (86, -119) (87, -226) (88, -92) (89, 1) (90, -257) (91, -147) (92, 28) (93, -71) (94, -157) (95, 112) (96, 4) (97, -29) (98, -155) (99, -175) (100, -119) (0, -79) (1, -300) (2, -95) (3, 25) (4, -13) (5, -39) (6, 32) (7, -94) (8, -159) (9, 26) (10, 66) (11, 141) (12, -105) (13, -130) (14, 68) (15, 137) (16, -161) (17, -86) (18, -13) (19, 22) (20, 109) (21, -45) (22, -60) (23, -98) (24, 196) (25, 109) (26, -12) (27, 43) (28, -111) (29, -56) (30, 198) (31, 47) (32, 151) (33, 111) (34, -102) (35, -39) (36, -19) (37, 65) (38, 189) (39, 38) (40, 139) (41, 5) (42, 260) (43, -68) (44, -111) (45, -180) (46, 10) (47, -74) (48, -110) (49, -111) (50, -15) (51, 15) (52, 19) (53, -52) (54, 105) (55, -282) (56, -63) (57, -144) (58, 105) (59, -35) (60, -100) (61, 35) (62, 135) (63, -49) (64, -141) (65, -109) (66, -37) (67, -159) (68, 113) (69, -42) (70, 108) (71, -75) (72, -163) (73, -5) (74, 42) (75, -18) (76, -2) (77, 87) (78, 127) (79, -169) (80, -12) (81, 36) (82, 79) (83, -32) (84, 60) (85, 114) (86, -156) (87, -119) (88, -130) (89, 32) (90, -39) (91, 130) (92, 146) (93, 106) (94, 42) (95, -119) (96, 27) (97, -130) (98, 32) (99, -24) (100, 203) (0, -622) (1, -601) (2, -1041) (3, -291) (4, -739) (5, -662) (6, -753) (7, -606) (8, -728) (9, -631) (10, -500) (11, -794) (12, -747) (13, -433) (14, -771) (15, -1236) (16, -713) (17, -638) (18, -712) (19, -794) (20, -425) (21, -250) (22, -593) (23, -576) (24, -801) (25, -385) (26, -499) (27, -741) (28, -321) (29, -725) (30, -1892) (31, -1128) (32, -527) (33, -652) (34, -677) (35, -717) (36, -589) (37, -614) (38, -1821) (39, -535) (40, -335) (41, -1319) (42, -836) (43, -513) (44, -609) (45, -650) (46, -335) (47, -1143) (48, -1046) (49, -419) (50, -266) (51, -1383) (52, -740) (53, -1055) (54, -767) (55, -520) (56, -1242) (57, -558) (58, -1170) (59, -471) (60, -1473) (61, -745) (62, -759) (63, -462) (64, -593) (65, -1050) (66, -953) (67, -666) (68, -678) (69, -829) (70, -741) (71, -938) (72, -492) (73, -603) (74, -793) (75, -273) (76, -879) (77, -530) (78, -1005) (79, -450) (80, -1130) (81, -988) (82, -746) (83, -745) (84, -770) (85, -541) (86, -624) (87, -1220) (88, -620) (89, -589) (90, -1107) (91, -820) (92, -530) (93, -787) (94, -553) (95, -394) (96, -581) (97, -887) (98, -530) (99, -613) (100, -116) (0, -616) (1, -639) (2, -1980) (3, -257) (4, -724) (5, -692) (6, -755) (7, -630) (8, -838) (9, -678) (10, -349) (11, -832) (12, -803) (13, -394) (14, -724) (15, -938) (16, -893) (17, -696) (18, -823) (19, -623) (20, -532) (21, -423) (22, -462) (23, -405) (24, -787) (25, -397) (26, -452) (27, -579) (28, -149) (29, -514) (30, -1522) (31, -960) (32, -543) (33, -677) (34, -615) (35, -586) (36, -450) (37, -595) (38, -1467) (39, -539) (40, -359) (41, -1413) (42, -866) (43, -511) (44, -687) (45, -788) (46, -13) (47, -1243) (48, -1109) (49, -407) (50, -185) (51, -1229) (52, -932) (53, -913) (54, -575) (55, -645) (56, -1273) (57, -789) (58, -1244) (59, -594) (60, -1290) (61, -724) (62, -626) (63, -605) (64, -305) (65, -802) (66, -930) (67, -441) (68, -716) 